solver_type L2R_LR_DUAL
nr_class 7
label 7 1 4 3 6 2 5
nr_feature 1841
bias 0.000000000000000
w
0 0 0 0 0 0 0 
0 0 0 0 0 0 0 
0 0 0 0 0 0 0 
-2.972696870144301 3.490902434330560 0.09701726660931227 -1.871194692981934 0.3381244569951357 -0.7283884422755648 -0.2069713697768884 
-0.9253946594519286 -0.03480593494123280 0.9394990585015517 -0.1026130611185147 0.06670163795171968 -0.05196411415388214 0.2104927972675775 
-2.325663570951302 2.876306374016739 0.3354211261082080 -1.275080609919690 -0.1118108344568226 -0.3937627021316588 0.1081832327739478 
-0.8203150884297427 0.2659437758198075 0.5361253955712061 -0.09437004416219072 -0.1030034699430863 -0.01657646077878891 -0.04931293698183197 
0.4365246202220647 -0.5905482332341783 0.8949596668717281 -0.7328338739647183 -1.368103647179277 -0.3962927779266230 -0.1514832452629388 
-0.7503822186128951 1.026843823753003 0.2123270537556278 -0.7871060492422738 -0.04363353937530230 -0.2783407110829858 -0.01285167718629729 
1.732176823777493 -0.6669341787140753 -0.5322255044399282 -0.6560470691674073 -0.8309491723451274 -0.04460970687297736 -0.01954070849996972 
0.1071004619465529 -0.04213301726574142 0.04023449715652387 -0.1209729373294217 -0.005948579067990702 -0.01081081762871595 -0.005672277022962488 
-1.422911079053605 1.225036800227190 0.1171676008915997 -0.06642164919009226 -0.004836324266786037 -0.03982265276134755 -0.01113086442407585 
-2.200070098407470 2.465198304475663 -0.05901978065450801 -0.3252988162813028 -0.05095344832533377 -0.1305015947253083 -0.03128388821972417 
-3.381694093178274 -1.035202974179371 -0.5725782526834127 3.773830538408866 -0.2234597232773848 -0.6336466629449353 -0.2185254549921274 
-0.8671794886000257 -0.6973079295276969 -0.03587914096298945 1.208172624515651 -0.05421625695162809 -0.04718465445913794 -0.01249658101485049 
-0.6098938415707431 -0.1992979154550833 -0.003592072639681997 0.5954123162069747 -0.007440964203022678 -0.03896362034364733 -0.004180001848263436 
-0.1397649490429914 -0.008851324375689794 -0.05004027164998090 -0.2692056424029605 0.2970578648961721 -0.009611731751825470 -0.03665910821128048 
-0.6488321899498877 -0.4977987713494791 -0.003008265894912628 1.037827925518925 -0.005820143660021167 -0.03741971631648927 -0.001169249979727631 
2.077239177645352 -1.297874189362702 -0.1902060322443529 -1.411859297250100 -0.1295224118597306 -0.6218548671116966 -0.1385188368727130 
-0.3610434635199065 -0.003335035433133513 -0.06598542659196663 -0.005271145082750500 0.2281885192845667 -0.004108591868669345 -0.01120404744553597 
-1.412853600848030 1.967510064890964 0.01953499836296517 -0.7363541807628012 -0.01785718470484602 -0.04916484263811528 -0.003951109309880558 
0.5746040732964780 -0.3945162609803122 -0.3731683365004219 0.1973185054637533 -0.1280517606643577 -0.01306399319132231 -0.001484944715588913 
-2.005746506395569 -0.2452690401276609 -0.02558143092644026 2.105528798756602 1.141048058414177 -0.05497312413157582 -0.06285944756950552 
-1.575032732118464 -0.05199444436569202 -0.001163724750072379 1.429491673328656 -0.001783451171102014 -0.001429727509758455 -0.001482820176588643 
-1.156809015723767 1.382823524127433 0.3035238202432678 -0.7764713552535446 0.2028914362588019 -0.1313171001092837 -0.02079782246988442 
-0.4398788810624972 -0.1578963120838351 0.6513675253438166 -0.03115761814855150 -0.03779356705851859 -0.01714596213336484 -0.03076817322770650 
-1.839046248980317 2.353680001959383 0.4007210281323955 -0.9266986358740332 0.1214251238612119 -0.1040360472022645 -0.04881682367779942 
0.5867615409611430 -0.8077214409659110 -0.3018005477745454 -0.04548991513021961 -0.09870020981543362 -0.06296814914393933 -0.1377756385373538 
0.2433082542858461 -0.3812107374084347 0.3306780133197597 -0.1927433869059978 -0.04596417640237749 -0.06147608618651839 0.2331883694435315 
-1.544314079156174 -0.3210129664559604 -0.02211858166164439 2.042735427885487 0.05251229382145727 -0.03627091082522727 -0.005985728103014640 
-0.2048923174272858 -0.1869271494075761 -0.02259629297274468 -0.2895503613679292 0.2489397158328207 -0.04406775424699480 0.06633068030747692 
-0.5286266230199947 -0.1545897345130691 -0.007476178889125839 0.7835450935920587 0.1698800994361476 -0.03454194327038317 -0.003551701443897594 
-0.2716004587395063 -0.006014731165155295 -0.1211416436484594 -0.1022284984032638 0.4220395123603392 -0.009588751950952374 -0.03183206833836823 
-1.267751282656775 -0.3407513054179681 -0.01640869189568454 1.578352881534150 -0.01221465942665389 -0.06531624028962661 -0.004872391012873439 
-0.06130853022783854 -0.01298848903605171 -0.1870204676194710 -0.3011350914348284 0.3703548153844633 -0.02189441929219061 -0.05003746077026330 
-0.9068308652195758 -0.7172469085482084 -0.009650604231748470 1.344077416100519 0.2199443326559820 -0.05067072205724605 -0.002961917657293880 
-0.7343210368570136 -0.4736845221386586 -0.01167594485521477 1.085328678386275 0.5061754358831974 -0.02556659892902650 -0.01095676655520552 
-0.1659987959649377 -0.02480710120349478 -0.06079234185013908 -0.01454876485127723 0.1929340860752064 -0.02456164830968769 -0.03280035411287643 
-3.547722323625192 -1.500238535139233 -0.01959168589604109 4.003563432689555 0.1881821398994910 -0.1969165964271659 -0.05852972175849944 
0.6950129485221791 -0.1935359984719610 -0.3319652423854650 -0.1799697138112068 0.3090340841283493 -0.04699374438585668 -0.01011065857970336 
0.03806625980902956 -0.2828987727281611 0.2245236515005681 -0.4211559658733479 0.4450184263180930 -0.02345095787394864 -0.006396426201632499 
0.3631179100948130 -0.5823451092373939 -0.2451576639451227 -0.2703825763825635 0.3323367195446190 -0.1042849548877482 0.01913869955808060 
1.691003636882463 -0.6742225501874787 -1.184498449855210 -0.4695435757510834 -0.6257932019262603 0.3428340566380062 -0.07591403105466675 
-0.6047329921047377 1.122083303547755 0.6818723350299900 -0.1694608003720328 -0.03094494858022309 -0.06063109724656720 -0.02806291691574046 
4.892723651355229 -2.107184808893781 -5.169471679505024 -1.605268057869982 -3.831660051035482 -1.476396982243310 -1.210586070405445 
-0.04674070923819901 -0.01607649842771123 0.03698304826061955 -0.001336281277077690 -0.006973370835305416 -0.002377129348160645 -0.002387682160826705 
-0.6110822708188144 0.5204972155346571 0.04857504171994138 -0.008328641719815450 -0.01071375680460190 -0.004340498419438383 -0.006638630707593064 
-0.06583905987150031 -0.02772471217550128 0.1486749175389331 -0.02484385821320674 -0.1562268090573510 -0.005869549138392944 -0.006628123670702990 
-1.349532633451583 1.409568642442329 0.06411665154361697 -0.04784587414983502 -0.004314990118590367 -0.02300948053411280 -0.003904146071176261 
-0.006179031963918382 -0.0006056846037936752 0.03108143170128771 -0.004780748019499383 -0.001070831408648465 -0.0003976348353710482 -0.0005030378673647731 
-0.1076328174227337 -0.06763031522699166 -0.02190337098921912 -0.1404105595966719 0.2760783693489920 -0.06278984996227410 -0.04760193134213935 
0.5269620186466407 -0.8195082396992224 -0.07400332552865149 -0.2722868160304238 -0.1169554595934808 -0.06515860547132266 -0.01852709631984698 
-0.1187601405799572 0.1355138592338596 0.1339291536588377 -0.05866821207214551 -0.02375965572703906 -0.01170113657714645 -0.01099011942913383 
0.01869366912058136 -0.02700347646431540 0.06821828593377016 -0.01321165170292928 -0.01013245861992759 -0.002790111109448349 -0.002937335839140607 
-0.0002952147439394279 -0.02193386058719219 0.001065767372634277 -0.006464143724780804 -0.003329226805130620 -0.0008624420995825992 -0.001106826557398628 
0.8218770243038479 -0.6997965891880890 0.3766909105101975 -0.5963057565266882 -0.1259412473010890 -0.1659625139315403 -0.1008142302630437 
-0.03345443267690551 -0.002525114518933341 0.01240569337358626 -0.005422035077868416 -0.005882521876101963 -0.0009482742501611087 -0.002030738443536937 
-0.8896332216000873 -0.6488465067583098 -0.01422579655154592 1.448933511563417 -0.01868912391378155 -0.06222115611120074 -0.006522352737293158 
-0.1371593476063719 -0.01480726262832092 0.2124334526852070 -0.1368996983972438 0.1067461110070332 -0.005662466972415161 -0.01748893014931937 
-1.714014652488612 1.254584995999852 -0.1474906954734762 1.332256552407851 -0.05584645831145054 -0.2549267704530506 -0.01674016411162474 
-1.201368673967624 0.1113623998286260 0.07917378606306690 -0.1411109767649170 -0.04557278384608601 1.109338652671401 0.2187589132003501 
-2.615360518778771 -0.8243109339328788 -0.3726879771346382 2.866535105272648 0.07070606935391341 -0.5274948674414771 -0.2964766552324418 
-0.8728839316500167 1.143422494855837 0.3927900025767925 -0.6343222269770556 0.02135104376296937 -0.1273447974160788 -0.03518937080610358 
-0.4755253057843111 0.4854263404713257 0.1077093319809356 -0.05163415464941105 -0.04745931336243360 -0.02514035786799655 -0.01408371369480932 
-0.3003707721792892 0.3104998874077701 0.01308393039250768 -0.1526200740379116 -0.01271185507380606 -0.01755994798223480 -0.001606881425030589 
-0.4573112162704511 0.4574653893813401 0.2222973883109204 -0.07745743831326513 -0.03581414287211114 -0.006567257492623666 -0.01318498324603823 
-0.02926397814226377 -0.009469440588176658 0.08275775864633779 -0.07349322123337015 -0.03142806259963108 -0.002048837135077218 -0.006024831375765065 
-0.2501371056061941 0.3019760382426523 0.04897277022813646 -0.02773321216590526 -0.01154562573239806 -0.01067838522342065 -0.004981369534304610 
-0.1921864401811083 -0.001452108375536871 0.08255552073199732 -0.005748487057598546 -0.01361902605749982 -0.005113017588018846 -0.004162187152569030 
1.804623638164292 -0.7655754116223631 -1.286765439311061 -0.5131955192297473 -0.03455013624573398 -0.09489447945264284 -0.02036236866836215 
-0.2782427783696786 -0.006777192145549874 0.1022005449947308 -0.004701027855348346 -0.003273869808293071 -0.003515737074655524 -0.004435456940441169 
-0.07297623226649873 -5.906790360345994e-05 0.02460156000257166 -0.0006357082661749921 -0.002873074976149477 -0.002402173218086812 -0.001228693326075208 
-1.821064275144321 -0.9154610144004018 0.1742700916105922 2.156217947634783 0.5846544066512295 -0.1894402445831409 -0.02551314603575872 
-0.1918236984283446 -0.1357227650553579 -0.002184438566691221 0.3580561680590559 0.08670221150117126 -0.005468216369015131 -0.0006355953492057162 
-0.09816463769467094 -0.1785620298732837 0.01836647847543416 -0.1233450676960786 0.03170264123694788 -0.09446380065002988 0.2309076537795395 
-1.062376600157296 0.4846091667773439 0.2466368007693866 -0.01315273656498951 -0.008487430170553001 -0.009857491396742666 -0.01336035770630521 
-0.02744792615581530 -0.005843680410565507 0.01667246021152176 -0.0005241536513449258 -0.002215008911419331 -0.0006209895807605598 -0.001916440405938737 
-0.1364670963650548 0.1267245440799764 -0.0001823402318272782 -0.01086709199556104 -0.0005891369561716369 -0.002286688178521474 -0.0003705548121045470 
-0.3347019677156660 -0.01976680163820175 0.1627618470985056 -0.02746157574860001 0.1050293614746545 -0.002332110884601920 -0.01467422677622886 
-0.2726447457751630 -0.04094532280657810 0.4775849345617210 -0.1183051268147130 -0.01771555217583440 -0.02795127845741427 -0.02138712803202789 
-0.9702178098547802 -0.05206229647729339 -0.002489896665573948 1.010349423157656 0.1579032714276876 -0.003715883863653647 -0.002001244352781283 
-0.1404706286394360 -0.1042277289732391 -0.004016170123040368 0.1426747923347938 0.03763112586386900 -0.002606691461751848 -0.001859876480878052 
-0.1490822439895997 -0.08156115239986887 -0.002935754028191497 0.1495316223686646 -0.001529428823215688 -0.003375519651030048 -0.001497552222281289 
-0.5383603978564029 -0.1655487751774028 -0.001681269876263465 0.6144495373444510 -0.005728008160648892 -0.004288517786194811 -0.001479787617632727 
-2.293854298999954 2.930833078947011 -0.05971381424618901 -0.6328258701605604 0.3262733546769851 -0.3159416367587513 -0.05128747877441118 
0.06851459735482746 -0.7890409641867528 -0.1241091851009894 0.3637618230527461 0.2924394106848287 -0.06259390703985475 -0.01277606847394526 
-2.384174389173086 2.914748529840633 0.02674595143758535 -1.369034377985811 0.007669709868008950 -0.3112259975450701 -0.07708494781436731 
-0.3246778450434547 -0.2881272819447406 -0.001046255640335587 0.5333977457187903 -0.001310693961247628 -0.009738976893642500 -0.0002963463272425482 
-0.1941124289260948 -0.3228486094083823 1.185921900844662 -0.1750972944394189 0.06361489297372905 -0.04257408372615403 -0.02407672789019881 
-2.092755094931492 2.555730876654854 0.1409940612521325 -0.6743852832557823 0.02615790430182604 -0.1211547505227916 -0.01575441386828682 
0.4035171058287119 -0.4536145341221901 0.3641733116541799 -0.2286527698478284 -0.4027503482263789 -0.04669964589233140 -0.06129515384704561 
-0.03727684129374256 -0.3208750133731041 0.4999912479314518 -0.04181408282975144 -0.02128551093781902 -0.007351975037321316 -0.002734378778307246 
0.07792078453705377 -0.2654538510398382 0.2289704306435232 -0.01577147061231399 -0.03076931093645142 -0.0009862239936178030 -0.006162780576821300 
-0.3649905310696848 -0.1639387702866197 0.5800184491007013 -0.09011404281939960 -0.05226841352333422 -0.06048042447419642 -0.05558348190883932 
-0.07157281527243657 -0.09226697474565893 0.09404352277932403 -0.004708449841761362 -0.0004078531849872964 -0.001008674274278177 -0.0008654178722269049 
-0.8708754844536291 0.9824314726758910 0.04034785705289488 -0.07479165997537800 -0.006239731713416841 -0.004354598991128229 -0.001231525423297031 
-0.004003496222701524 -0.003665546623028035 0.009186674534062942 -0.0008319154753076502 -0.003488497828332969 -7.790926537407017e-05 -0.0002520109248590805 
-0.5942662594526885 0.6193085090924050 -0.01257660578129127 -0.03213651812623559 -0.001650548986962959 -0.01399174842298815 -0.001212203087565897 
-0.6380928049381388 0.6144046875859801 0.6165380357901851 -0.1218766964575468 -0.08674602462080704 -0.01412261399465627 -0.01003787808054445 
-1.316305320499013 1.221604514899035 0.1786095587074760 -0.08598459332100793 -0.02573388431014939 -0.05823554230857930 -0.03067690903567944 
0.04370798523376647 0.08152748877368890 0.02539966745190425 -0.05402657961239217 -0.005631219828931122 -0.004980184807508592 -0.001188860781884430 
0.09539719151453879 -0.03940877417092154 0.06137887888866644 -0.002706930589607688 -0.01029694285729092 -0.001960703962631611 -0.005944463448490086 
0.3671859001107547 -1.262537234612229 -1.937418237646185 0.5571268705691802 -0.3200187185354425 0.5841043440957359 -0.1066112698237689 
-0.4128124188793968 -0.01106283859777748 -0.0003430996966266367 0.4803957069693126 -0.0002219644294738706 -0.0001266119066781145 -4.013574131687843e-05 
-0.2462745070783304 -0.1115552534209862 -9.442050272281935e-05 0.4670548197424020 -0.0001456922718415663 -0.0001701928659194644 -1.721796132540721e-05 
-0.2793058863569958 -0.002117605836529812 -0.0001030341323049131 0.1729291160016136 -0.0002597906880838555 -0.0008304330517330572 -0.0003397515727382505 
-0.4720467082313036 -0.1222197096740300 -0.003190724542978528 0.6569935682141969 -0.003614564002528480 -0.01539961027229139 -0.001009007357330196 
-1.567787622971112 0.1960105486778321 0.1718548987848986 1.365940438253435 0.7616480931896624 -0.06993944228733898 -0.03006676674768763 
-0.3371099987256491 -0.01131643741052882 -0.0003254670720181654 0.2638891340418305 -0.001209863026170095 -6.722868807115649e-05 -8.072091419796750e-05 
-0.1280880804179808 -0.09786852590775814 -0.001074503710083363 0.1534976766019174 -0.001610122683800752 -0.002451573640389317 -0.0006189425258036741 
-0.1226432466456443 -0.1404302453355475 -0.001895426302058727 0.2290748601714690 -0.002486339755443079 -0.007486681173929702 -0.001407011299450691 
-0.3807957593581052 -0.03375947673471763 -0.0003403129379788919 0.3690400317741978 -0.002118956729886151 -0.001075703999826869 -0.001175362483792203 
-0.2423539173994087 -0.03446634476827439 -0.0002062131545733870 0.2904913292991137 -0.0004627474289357773 -0.003459905104871534 -0.0001467081605868109 
-1.843166871541964 2.083528710289040 -0.2907691359989333 -0.1400637096337007 -0.04130477411991615 -0.1331757523996139 -0.03628889721333033 
-1.027855001867746 0.6653928348037198 0.7567292028809068 0.3029964814461983 -0.1378117400498020 -0.1692995064386438 -0.07679659907906242 
-0.04229007504391949 -0.006488865622020470 0.03785631693463245 -0.0009150137571616475 -0.003842799309228000 -0.0002987224096888801 -0.001958127450046370 
-0.09972348660620632 -0.01963427256734457 0.1616895134970913 -0.001526681116663372 -0.007418388537386418 -0.001611143122645437 -0.002870286789060550 
0.04432800683252430 -0.01482364726431482 0.02499207167143102 -0.07202040187058116 0.03860626405608902 -0.004905486143493891 -0.004209142802250246 
-0.003895587978315377 -0.001826787453592075 0.02813510907369230 -0.002415607462286336 -0.001643743249386930 -0.0007131437193848006 -0.0003851507615199781 
-0.4246651318924601 -0.08669174358744616 0.2077055628704387 -0.07820797754534690 0.1307980469966254 -0.06319317224544105 -0.05989838715686211 
-0.7353246395155206 0.6775229053369903 0.1717253613594634 -0.02796206516701012 -0.03220065865145435 -0.02613644487225455 -0.03132159252899338 
-0.08484444135740378 -0.06786614259951090 0.1116779130094584 -0.003319058986879460 -0.008989971839314426 -0.002897287625324335 -0.005037016047787142 
0.7520826450648280 -0.4621130494452067 -0.06613127998086935 -0.09561227689552584 -0.02408434485894918 -0.02059218375174458 -0.01540606913164465 
-0.3348745040413546 -0.01625293931978510 0.2522403568227670 -0.01164374424266716 -0.05980939829950784 -0.004867324255185642 -0.02153558238072044 
-0.7078719046485863 1.113592832468472 -0.004317296366186762 -0.4491759741800258 -0.01654975370574803 -0.07358538394178910 -0.01034323378076964 
0.1530052278526508 -0.08738808564825538 0.1475067362464462 -0.07683777004915646 -0.03066441391622814 -0.008578154841621125 -0.008391703337208897 
-0.04617707855784980 0.1522071027939211 0.06673634971311380 -0.1694341616513898 -0.01313282458170870 -0.04224422818487253 -0.004023445549396460 
-0.5116059939245600 -0.3254797425580818 0.4828013688511328 -0.01515651183232511 -0.09076930822539772 -0.01604132975513836 -0.07197335268016103 
0.2092561805037109 -0.5640619836852984 -0.6195542415110784 -0.6965254397535297 -0.2187750483455279 -0.4051919930177003 -0.4347856721203441 
0.6231247304104058 -0.3699856258879100 -0.005326085191236762 -0.2011465672939853 -0.02610088513441358 -0.01322073654614358 0.1859720934489927 
0.03904420991010173 -0.04982838918489487 0.2138860802679534 -0.005171557646545455 -0.003731398648416635 -0.003050916233879324 -0.001550305773990262 
-0.7509634983445862 -1.086575695321914 0.5845387083811956 -0.3883043757295092 -0.3210786412993344 -0.4087257746951005 0.01779322892630887 
-1.236126843858852 1.471564975520968 -0.05148047685105017 -0.1357054804620083 -0.005724393250020091 -0.01739811261937113 -0.005571091875173727 
-0.1616816911532683 -0.03181286592366176 0.1690555329965679 -0.01641800671717012 -0.002594861874293092 -0.01505775875630935 -0.03780607575876229 
-0.02283005576259601 -0.6908977586881564 0.9577205045380040 -0.01785161914234315 -0.02601678837608779 -0.003370133206229177 -0.01254805859542957 
0.2429053019122145 -0.04442619827525555 -0.01883017428571308 -0.04282307992739477 0.09982511095196606 -0.006978770420520915 -0.007913078112995000 
0.09555913689274154 -0.04365704006541542 -0.004084082223802416 -0.1124374001612185 0.04203802935568555 -0.005907907360314163 -0.004181310891895404 
-0.2137755097392287 0.2382706584126089 0.09373316510518456 -0.02041190637881980 0.1005179999707524 -0.003035236510824888 -0.001161530535784185 
-0.2768571838034575 0.3405920810621966 -0.007503259125020182 -0.01751536170144529 0.004187497227712325 -0.06037139350835716 -0.003880618309481494 
-0.04369884500485276 -0.002013439543401201 0.02133428312670824 -0.007223170568236979 -0.01693970912979272 -0.04920357999753455 -0.04579616535158811 
2.588185560042244 -2.514537507823293 0.1145889077332534 -0.4529766673707488 -0.6042045516692512 -0.08977319115911339 -0.01617206295968247 
-0.02927557806962624 -0.005032491556091864 -0.005012200479262171 -0.002443592146413455 0.03259346939952453 -0.001908202039399405 -0.005958254663711450 
-0.6039155948311254 1.009503386282163 0.1588777420849449 -0.5358143896675456 0.1856263012795409 0.2795744464797667 -0.01393065653263062 
0.08811877517420821 -0.008353080317370004 -0.08827621344331502 -0.01464132007191460 0.007459512237451478 -0.005539583468506877 -0.01526006378170278 
-0.005829996642636649 -0.02068202119954959 -0.005249805610468468 -0.002383160895474145 0.06508803176555937 -0.0002297080201812629 -0.001994977987017691 
-1.411664574544263 1.116373319653545 0.3807770534103803 -0.2032292119455380 -0.2625284078606102 -0.2364379079646649 0.4251399421082399 
-1.699251699969123 2.402488081372228 0.2584573368806783 -0.7259855531394521 -0.04563462273894402 -0.1174368719796816 0.2097406710534794 
1.289218342059784 -0.2196807071312842 -1.243883007837096 -0.005785971110317541 -0.007380336044190908 -0.009957400967467792 -0.009273501374399007 
0.4425839436432866 -0.4427999328187628 0.01984879993253911 -0.01389976898434398 -0.002023733919821367 -0.01362705331722835 -0.004081588909677693 
-0.6343705699437034 0.3975266565070084 0.6935131691079847 -0.04150635379211214 -0.01926982189455640 -0.01194067935925518 -0.006805954231748245 
-0.5315623464550477 0.2884778294373592 0.3024039286655476 -0.01985496710177191 -0.02795209436944426 -0.006302745973688897 -0.01743761801834676 
-0.7656734205780162 0.7909524558427508 -0.009774148638238350 -0.008944689631915907 -0.02506423263916746 -0.003688568737002627 -0.003768167084318141 
-0.2689907755954992 0.2255431221560965 0.05360730885751244 -0.005759972498125907 -0.01018404932212655 -0.007798591090275995 -0.009386469857985165 
0.04668906224829274 0.1932104824027267 -0.1387779457043105 -0.09497415145314818 0.01079589186876508 -0.01634302226746407 -0.01710208409214835 
-0.05557083328162616 -0.007745365940516513 0.05669689057889799 -0.001168761699631073 -0.003390155156368546 -0.001894863668406972 -0.004841103067860762 
-0.005142975819424336 -0.004120819882191554 0.009897493016254482 -0.0004223510974332425 -0.001625266559612177 -0.0007386873028621373 -0.001272263599239337 
-0.3692450189000558 -0.04187490670760628 0.1451594226776623 -0.05981877440986241 0.1423646229860143 -0.02350213932375410 0.01527203431151144 
-1.165325577249831 -0.4454222289024295 -0.0002165484514157996 1.859481856722616 -0.03381859524072771 -0.3430200863109162 -0.1681816158649696 
0.6267810624087164 -0.2946642623705933 -0.6298981869480940 -0.01441093591957414 -0.01496016153891326 -0.01009914189657357 0.3224601942594584 
-0.09493286632457684 -0.1461318926973216 0.3216983555539241 -0.02104102841800627 -0.03499567201578718 -0.008816881226671488 -0.01559680862427364 
-0.3027040756389635 0.1579241734930311 0.4565381919721692 -0.07669251419916125 -0.02172845834380862 -0.005047724719986061 -0.004455246738938130 
0.02276275193050786 -0.07745118617470984 0.02277645292898209 -0.0008378440271178844 -0.008707885266917317 -0.001539836922796188 -0.003320528864893821 
0.7841751063019956 -0.2003104914118333 -1.008595826303702 -0.1192718759399927 -0.1393368398936221 -0.2233901441338568 -0.08477955561943488 
-0.4023865495330060 -0.01521555405702664 -0.0003716655765188244 0.3734990466373970 -8.952139982173734e-05 -0.002815593057683663 -0.0002695298956754290 
-0.3670789584801509 -0.04388550749008856 -0.0006405454454364735 0.3614127421379337 -0.0007857549259258584 -0.002423698645438166 -0.0002566468924941349 
-0.4731267899337988 -0.004535397345050555 -0.0002958426967734415 0.4259318752537304 -7.471536200707956e-05 -0.003896788100755725 -0.0006296808934080972 
-1.347760426990702 0.8108678620858645 0.7527310123329881 -0.05881180225789597 -0.01506787686809662 -0.05175685809229925 -0.03298975061279546 
-0.005575300868924655 -0.01372386722422884 -0.01518031797998103 -0.02268288795979268 0.009871853750772853 -0.0007871631556286220 -0.006243700283484054 
-0.001113242775801027 -0.05354498842173707 -0.01074012300968204 -0.07131908861184022 0.004911266476939292 -0.003935696355945832 -0.006840208367491232 
-0.2098356640790854 -0.06755112602180424 -0.002417933172921017 0.1697028209803196 0.04287232517665317 -0.006073422562096272 -0.003245128851778098 
-0.4379062898046779 0.4387258463970684 -5.728638059910159e-05 -0.008426261668037996 -0.0001431672752181702 -0.0002669391111871905 -9.910966080614955e-05 
1.558095120523716 -1.682024795066055 -0.04315370400486933 -0.7133052632057650 -0.1640316174309804 -0.1863475442633849 -0.04630803053485950 
0.3687199580131415 -0.01648365669569677 -0.2106016749629776 -0.002881672732678147 -0.001016817513142965 -0.001351793509387835 -0.001813312625934827 
-0.3467831509165303 -0.06027066687460354 0.3790208577316850 -0.03472741357206077 -0.02295248469344302 -0.05145018946309541 0.03901307025138473 
0.04716986740638364 -0.03101139065017463 0.06936271151711484 -0.001814694017248928 -0.0007900798352776868 -0.003034323303343078 -0.001310135419589447 
-0.4130067135362826 0.3537365329666011 -0.001690881820059595 -0.01062806070123739 -0.0002331806861853162 -0.002873523028431884 -0.0001952724456818169 
-0.08045749590063844 -0.005031999598710761 0.08399628107829045 -0.006398872834235800 -0.005744909826535315 -0.001458319091505688 -0.002924618575280842 
-0.007568959029385546 -0.001536281286767024 0.007000441551933004 -0.0002012888333381308 -0.0002227644227266789 -3.385957941599172e-05 -0.0002180779178899483 
0.03013319919623658 -0.1937998938508311 0.6214621500397514 0.05421465081420508 -0.06080661971559947 -0.04983795211381947 -0.01608016642042254 
-0.1268507331378828 -0.2372223381713919 0.2050417819600454 -0.01683637057625258 -0.001922775622210889 -0.005894845271184786 -0.003768751610515013 
-0.009695474899623465 -0.001362366213739887 -0.003204294599657408 -0.02524660319675629 0.03065872486721257 -0.002053032961476665 -0.001200202956781178 
-0.01821080578893281 -0.002742458161945215 -0.01854611641619344 -0.008022436819209170 0.01584311176196257 -0.005696608461541247 -0.008744149722772442 
-1.541332502095698 1.829889706510736 -0.0009278742366968878 -0.3693490958984845 -0.002703440950539530 -0.02772430530672499 -0.001325896732117568 
-0.8746216589150580 1.019978954675041 -0.003055257763073978 -0.07365228217358308 -0.0009861267573064870 -0.007315457894668675 -0.002067075897570702 
1.165967396870819 -0.1612074504517347 -1.045143689962433 -0.2346362607124931 -0.4567700414760678 -0.04230721866882442 0.04986623744809553 
-0.4280816519027224 -0.001853080265123183 0.3131350076411415 -0.004131756846644355 -0.004172914022060736 -0.007903527937435640 -0.005340104968769573 
1.469141417805940 -0.6595324057557388 -0.4461072990185964 -0.2922998492638116 0.02865924608421284 -0.01726950768224620 -0.007468335015190944 
1.985876723098248 -1.465494437410043 -0.3213966383185040 -0.9540412006285007 -0.07852781197301034 -0.2965169462652215 -0.04099465658822263 
-0.02168461091337372 -0.0006037352500421443 0.005536204062941219 -0.0004503408975276658 -0.001569738746448659 -0.0002224485157712296 -0.001114001595358532 
-0.7424861199954766 1.026470941457223 -0.01193828261699353 -0.2231239687516726 -0.01433823269370728 -0.02678458661202405 -0.006282444607757074 
-1.428613449398888 1.338883404287739 0.1911916394390779 0.2291035672924102 0.05215860655089746 -0.04755487475899158 -0.01988473875576106 
0.1953606640944021 -0.4394353233203454 -0.4217436329723838 -0.4769221978928839 -0.5170195705641721 -0.1840655645235458 -0.1593483038938792 
0.2453194643064850 -0.07079720072741207 0.06537317117715132 -0.009709363007567183 -0.001066083143819618 -0.01013998564700817 -0.001528062076358206 
-0.2909574616235616 -0.05566466471518927 0.2184990864364415 -0.03563291386941446 -0.007830062285611063 -0.01053046419043332 0.05706666416950784 
-0.1437664220010399 -0.0001666781502751195 0.06624395607157016 -0.0001591663521284473 -0.001948053781246790 -0.0001924350041790311 -0.0004875312147939418 
-0.1998169235791211 -0.2004113100219557 0.1551777424613892 -0.1320159092613717 0.3807331510726708 -0.03287557862788208 0.4951860940048611 
-0.1536634172315934 -0.005546391399431354 0.1130525970066093 -0.0005087822519053339 -0.002107745597296221 -0.001027193555516386 -0.002259079418080281 
-0.06622392257381240 -0.02954083457245196 0.1021491655368925 -0.01172683302385122 -0.0007656567226834335 -0.007357148638070277 -0.002251872035072147 
-0.05636048300164052 -0.009878985301748376 0.1029311346584932 -0.001070949258540867 -0.003220157696431634 -0.0006825738415629595 -0.002573756424035103 
-0.005982840707739790 -0.0008377021000105984 0.01227649317684510 -0.0001804251602120419 -0.0005309742363709792 -5.756769337404460e-05 -0.0005008311495221725 
-0.2578519972125716 -0.06518056590138473 0.2517338827663814 -0.002666277109426133 -0.01868143834974694 -0.009055934564435854 -0.01308576877715323 
-0.1434021413883244 -0.003402679739618256 0.09747233452297985 -0.001725727856441556 -0.005618027710126254 -0.002271806102862066 -0.006167519192415706 
0.3693151433656675 -0.2895733598089382 0.4239130573007677 -0.1762143072811715 -0.03414268993468028 -0.3761953009937633 -0.04460566149208946 
-0.1358228131658640 -0.006705046414118976 0.06338969797764674 -0.01257910546707494 0.1298285406634925 -0.004547814195903668 -0.01308145194323124 
-0.2788271564772468 -0.002859597922946589 0.2871700014358760 -0.01212029420035427 -0.02338057069635369 -0.003978896035401328 -0.01126218811734129 
0.07278271558648569 -0.005234499769309496 -0.2527330642789741 -0.01034307348764240 -0.006178792841031342 -0.001993612906124014 -0.004801945727516859 
-0.4176383587839415 -0.008733459338458843 0.1902292788391640 -0.08204522133786009 -0.08401835948443169 -0.06737719885366908 -0.06891390344822086 
-0.01756923201207909 -0.0009943558496978092 0.07596032871419509 -0.004062519443778435 -0.002924613872371041 -0.001812157839652880 -0.002542402682598449 
1.316163273337079 -0.3414152237081447 -1.613031693763896 -0.1268062011739750 -0.8590347203618471 -0.1578950485973775 0.1251255710935156 
-0.3239132504945691 -0.004155474011905158 -0.0002906103255625518 -0.02752007350663714 -0.0001224023519397412 0.4886554705605351 -0.0006499452781768467 
-0.01154458430336668 -0.008142230365913628 -0.003630206072273053 -0.03617943890343797 -0.005769246093470553 -0.0008240340072867523 0.2937380562570827 
-0.4269548512337558 0.4530100135150178 0.3878878903130885 -0.09081947455576225 -0.01890010191399370 -0.009944316023366899 -0.004224433169609013 
0.1112884956725753 -0.05819882804911539 0.05805370036247594 -0.007909617930337294 -0.007616730516346912 -0.01620123775507206 -0.006386332540566513 
-0.05830523840992613 -0.01551390030002784 0.1220479424658350 -0.008505061232159605 -0.009305416189870146 -0.005094340397799691 -0.007017053622752143 
-0.09877334193495758 -0.04645784907932410 0.1914797113314193 -0.03808000819384335 -0.04529091387405330 -0.007753889763328192 -0.01168346607048468 
-2.101682325245966 2.164051550618224 -0.02996479947395845 -0.1081474483315418 -0.01662878764233581 -0.02952995521038943 -0.01213334581553541 
-0.1241963702439802 0.1584717026186207 -0.0001913165994205227 -0.007957248631551249 -0.0003205478412754008 -0.003684377399661132 -2.424646903597305e-05 
-0.3393992475602396 0.005370552537890341 -0.02914867752675143 -0.2596771294731390 0.4282824042625535 -0.05741860408861568 -0.03481017551464238 
-0.7285612377983532 -0.3694683439770909 -0.009750144927390323 -0.1177405140178620 -0.004365272654176148 1.621961952640751 -0.01981459866919824 
-0.02730150048220109 -0.01401732952413535 -0.01235908784598648 -0.01238953769413406 -0.004701768591920799 -0.02534848723625589 0.06422074857831392 
-0.07572493173008388 -0.0006911215700573188 -0.01689649080327589 -0.0008584810701925477 -0.001449384976945680 -0.005707969826124991 0.1690377174027152 
-0.5801922906763377 -0.02467261510390460 -0.05219140347155286 -0.01088033124757259 0.2446331563902043 -0.02651307233982045 0.1246820423230477 
-0.1462101225591559 0.3640282031695592 -0.0002619515400862607 -0.05449760816775714 -0.0001040566384754891 -0.0004392395208467791 -0.0001187985840666497 
-0.01525233206850373 -0.0003495065851172518 0.04529246027508501 -0.01990665193440843 -0.0009507101807477581 -8.041374964305434e-05 -0.0003212584331185639 
-0.02668447137256308 -8.175380458010756e-05 0.006614039308399430 -0.004755821858956726 -0.003662869712523170 -2.491982517103240e-05 -0.001014904469627047 
-2.726567497407066 -1.286734263615723 -0.09643597103967734 3.254858588916969 0.1883946052909724 -0.4349122398805740 -0.1206132599128136 
-0.4896547118206432 0.4985113974390776 -0.0001299572412748979 -0.01991855150727821 -0.0001870947073061790 -0.0002421213071267802 -0.0001567772172043435 
-0.2803170445776198 -0.006469624393561710 0.1384937905693450 -0.001426652507819424 -0.003931384444506877 -0.0009866623639831440 -0.01064463852088986 
-0.3094337013787095 -0.01970484808152875 0.1422551830715388 -0.007082003968199462 -0.003714161373337225 -0.002172375142147927 -0.004703699930450965 
-0.03043418607150481 -0.002596896059581858 0.1540004613942309 -0.003108747049827278 -0.002303242956534658 -0.0001752365651213521 -0.0002316349661567779 
3.638141348521562 -3.061839580357713 -1.596392238034283 -0.7871369905519480 -0.04247302552687087 -0.1869059491900301 -0.01302095611982618 
-0.4953670671353534 -0.1315178368151263 -0.003250884379575746 0.6640057891470036 -0.002449050724456814 -0.01682700740355940 -0.001667605909910695 
-0.5654407639092658 0.6424175489978774 -0.004243247093365082 -0.05060200214258926 -0.01776871556728633 -0.0003409048343397590 -0.0001602892976792440 
0.3796537410675443 -0.2056995100696055 0.07628147561412912 -0.07144947847250840 -0.008432746014434672 -0.02728374351748088 -0.0009979502755757541 
-0.07099703087647512 -0.03779875887561640 0.1157604645043824 -0.004698603873554481 -0.01169276620667828 -0.002967989352473145 -0.004592412507732954 
0.06649926197692217 -0.1401182184720163 0.07062065603022928 -0.008104820914568465 -0.007306977093248207 -0.001705017343082933 -0.002108615696871826 
0.4804435567637452 -0.4755084782104297 -0.01684625515661482 -0.005173761079192783 -0.006467726137746777 -0.04727336072844296 -0.007058325549353500 
-1.409532877305527 1.506008234445649 -0.005528817496245671 -0.005525952479431173 -0.006334004755056499 -0.002208281608407788 -0.002399529563874728 
-2.194754149510468 -0.6262333188918936 -0.02571547985694587 -0.2423172705329540 -0.009501046023904981 3.606686362696797 0.1639691040631341 
-0.7358153655361606 -0.01730385882964502 0.01655302461690825 0.3397401776118963 -0.04107873463387150 -0.01096721207568019 0.4826199300806873 
-0.5612277719324086 0.5686445005956544 -0.0006377107312582407 -0.009458630996302935 -0.0008535523514058737 -0.2748955504355539 -0.006230564069471679 
-0.3250817442692089 -0.003833623316841014 0.002825390282352085 -0.0007490319012704512 -0.01878006881655906 -0.05850739173033291 0.04142653245072860 
0.07449854549099266 -0.05673732093293800 0.08621561734239398 -0.01297405022012059 -0.007762300386546024 -0.004881655665154843 -0.003062140141677470 
-1.628766839241038 -0.1692428972403070 -0.004688273238823459 1.702094456001710 -0.01502029323862571 -0.01924306873994754 -0.005133027119056078 
-0.1002633398906867 -0.01339486944776512 -0.004901759638725565 -0.005136227399140505 0.05910587171799060 -0.007065327279981467 -0.007253859268029760 
-0.4128700678112262 -0.008613070591382914 -0.001787506416307787 -0.001431187157260103 0.2589989916455447 -0.002290173123648802 -0.002573977216389268 
-0.9578270966553892 -0.2924271368931226 0.06289567973292813 1.280142106780727 -0.008780908774465670 -0.02354200304370152 -0.003967685058345288 
-0.5436505572973910 0.3526690221472711 0.3834825635050880 -0.08943569745544139 -0.01025466969644907 -0.01032449607803571 -0.006956966145050657 
-0.1145045638883130 -0.01281394018541725 0.09189039311974949 -0.004650581260657968 -0.01748794782599123 -0.005827093910819898 -0.007814587154234097 
-0.08047504653695219 -0.01259902890617384 0.03271996858091466 -0.01394788469023429 -0.008450255914917484 -0.002012099355489679 -0.003540203802005843 
-0.7428492832106779 0.6866707009256556 -0.0001462394157186990 -0.003544768171022939 -7.875760839092842e-05 -0.001723844011668142 -0.0001121647603993988 
-0.02797258319583838 -0.001541861699215643 0.06549538395045798 -0.001936559122632063 -0.003518977912940976 -0.0003097242157366424 -0.0009784985128784471 
-0.5295663092958105 0.8168453523148830 -0.007146376263627924 -0.1716153632134713 -0.009700902164755260 -0.02624675641258814 -0.004187397034174532 
-0.3590875805344600 0.3784084374676460 0.02728290870909011 -0.07731926502622471 -0.05930934236798377 0.2106253984611594 0.03929265332998091 
-0.4475621586794589 0.4482344497891505 -0.001579474493959895 -0.03332810032738710 -0.0009442953771035378 -0.01160590691738673 -0.002716991394602632 
-0.06578249346572237 -0.02638541954901128 0.1875065781740272 -0.0004484148418363273 -0.002133779834867350 -0.0007434192172083439 -0.004721516662826809 
-1.377571833101764 1.820582922008587 0.003109053236550109 -0.09638474030721907 -0.006680652742287345 -0.03724629792562333 -0.003971650730231729 
-0.04884016232069657 -0.01059272345750772 0.1170171899337010 -0.02785164133415535 -0.04738716597059757 -0.02030839363542985 -0.007177685815936733 
-0.06584687289094948 -0.004997063649164893 0.06005648380282374 -0.003149922368220927 -0.01064265863097037 -0.009195555557643799 -0.01438205270275415 
-0.6523093563328343 0.3474101447755719 0.06355354764175934 -0.01350893761433634 -0.007138361383752167 0.6531877409696962 -0.003399842010720087 
-0.4975456236266006 -0.02133675272635915 0.4196259071163261 -0.02737372158686616 -0.04616560803254836 -0.004139179976670107 -0.01690713821431533 
1.611774430047631 -0.1207515662651001 -0.9753691672361715 -0.2040558987819480 -0.06332172599386957 -0.01314132425467666 -0.008010199157354965 
-1.996754853763570 1.914849587547516 0.1988080162272046 -0.4725222090062907 0.2634551690680709 0.6334508452747991 0.1022384900758983 
-0.6843020239284564 -0.008474471806676870 0.3685063609124912 -0.1652397941941106 0.05038763587883340 -0.1770553525274793 -0.2013796779008627 
-0.02054746580299811 -0.7726265575719592 0.4950145061219342 -0.4768591315384448 -0.02122662111385453 -0.5577738775240084 -0.1422131073823810 
0.3307987813944469 -0.6062418518442136 -0.1061682277877115 -0.01042852934484948 -0.002251598131039042 -0.02048038375529466 -0.003570697158847759 
-0.006137185252553142 -0.003208915036680195 0.01453713103987646 -0.001645879602279433 -0.003214836129685090 -0.0003218900246567984 -0.0009744116596548111 
-0.2187436823859638 0.1846450490622656 0.08988638743065112 -0.01420448280672809 -0.005888741744353034 -0.006415206325744983 -0.006861276377006344 
-0.8661776570410741 1.248220666891810 0.02703665595217204 -0.1739732339313442 -0.009403592576537934 -0.06365971580911661 -0.004860022850240959 
-0.1400821075775187 -0.06301578528525730 0.03660647412405307 -0.008715535962369483 -0.03587720326469782 -0.05502281537333095 0.1436290140125164 
-0.06303145336683989 -0.001920322464571320 -0.005719386463516761 -8.815947756578657e-05 0.2690096211426110 -0.1587574760806933 -0.03122531053869326 
-0.8859198547161327 0.8551951121104856 0.04699337481302206 -0.09758651218564046 0.1001253491937324 -0.3472608489381414 -0.02205881070500778 
-1.589456222940890 -0.1598029131738528 0.002628901789436537 2.358990543326163 -0.009699190088360362 -0.04278032707326382 -0.01356225478240253 
-0.1238284740961260 -0.09439781217072182 0.2124799059595635 -0.009377020861532304 -0.01239610630096378 -0.01228894000130432 -0.01527134977070506 
0.3267534257491622 -0.3224786067463332 -0.02918607309707291 -0.03163366844948033 0.02723574899986259 -0.02585401104597081 -0.02961505262982841 
-0.03048370403995660 -0.01502613587413516 0.03431450307939947 -0.0009467840559373596 -0.005912652419885548 -0.003570535883719587 -0.002501162285176644 
-0.02351262198854905 -0.004181038125681380 0.01925457189115000 -0.0009189859210050502 -0.006154716509066372 -0.006339373129192745 -0.007748647040163982 
0.06202070979283496 -0.05004383994772596 0.01572190274647864 -0.02333480437777594 -0.009895361114324095 -0.02693312539191773 0.2007878587770627 
0.3244561418987233 -0.2999639537946169 0.1676074148923777 -0.1249584545541306 -0.003244467379478541 -0.01115787909580655 -0.002004763486689204 
-0.5068039116289953 -0.02831162322337321 0.3309677930891125 -0.009304707087774821 -0.006066528529505621 -0.002040744158955695 -0.006693453215937404 
0.3286082763980500 -0.0004151861713706217 -0.4232422152998679 -0.0005182207909127589 -0.0009229900771478192 -0.0005124248616283536 -0.002974170409559218 
0.6111007230108318 -0.6661412453634221 -0.7402114581726443 -0.2122375645751226 -0.06402967392614288 -0.2877529798943742 -0.1376315554020532 
-1.061347258714580 -0.06911945739748551 -0.04958188616405408 -0.03721268339581382 -0.01822323005823992 1.234316803104038 0.1459165909114935 
-0.3948609250843772 -0.02418519107167226 0.1519003712669515 -0.02167516341337606 0.3186184189848509 -0.1692297288326684 0.03791277312448294 
0.2003367403006933 -0.2177848162413412 -0.2302488654459064 -0.03655535003195327 -0.006117110469164366 -0.02192910155436929 -0.01406504322313474 
-0.03602449065912800 -0.002011357537731044 0.02830924760402235 -0.001953571415006560 -0.009924733526661540 -0.001989567831749601 -0.003427383425969140 
-0.2687950310889626 -0.002305743322215438 0.2317752455585775 -0.0009159613116521399 -0.0004764915114911507 -0.002948690873348289 -0.001361889086285168 
-0.02078183797924504 -0.001774533247899645 0.01913918278425836 -0.002627029603867579 -0.004086441594224724 -0.003643494405316386 -0.003170550624145336 
-0.1707163439979687 -0.04381062082419258 0.05636343689917490 0.2487304134781181 -0.005256338670388844 -0.005538764470746560 -0.007247838502435385 
-0.03569682427178846 -0.02772048817026417 0.04041404897437510 -0.002677007359951721 -0.007527275654293603 -0.004212927243026666 -0.007807464336145367 
-0.4288038121436654 0.6060339318795714 -0.0008907011040859826 -0.09390563067382211 -0.001407852825403393 -0.01066446700184895 -0.0002768264105069257 
-0.007739045986498183 -0.0008250374360615437 0.04684724938763921 -0.003766576782633502 -0.003902231959075136 -6.640358114233084e-05 -0.0001411008249374618 
0.5604732888992240 -0.1362996728013826 -0.004809364582627499 -0.1515949228167160 -0.006675295549668938 -0.01111376088255309 -0.001454887067979362 
-0.01076185518496731 -0.0006411407617647477 0.02686855736351512 -0.002795029241474930 -0.002148298209981039 -0.001867237849936411 -0.001262480386396070 
-0.01036231979132248 -0.001032455857085820 0.01894871967185829 -0.002299148431757798 -0.003902427709758375 -0.005204018089920292 -0.002792206038086138 
-0.01411224215657732 -0.0007963544352404076 0.01940036869238485 -0.001651705387916352 -0.001958606088972081 -0.002099318806953218 -0.001509982269222815 
-0.03525814501901162 -0.0002023136590008291 0.01683723885693935 -0.001024625391432391 -0.001127856589537487 -0.0006082249079032127 -0.001966999476151255 
-0.2897545199719968 -0.03013991757640824 -0.008359674299595850 -0.008690177926378650 -0.001418269533548920 0.2881626899278846 -0.04461479298554131 
-1.021976811149207 -0.3723894075984331 -0.01143185961538513 1.188090184379547 -0.01801132883480996 -0.1032145206030014 -0.01623265867676543 
-0.1677364051700756 -0.005503421274982421 -0.06162399600642124 -0.007732153259675446 0.05102577739491808 -0.03330018906833318 -0.03794516593631558 
-0.3097898876333446 -0.1970112184255438 -0.003969096653188674 -0.04590388861141929 -0.001021387168509397 0.6476596413364579 -0.007660175179762223 
-0.2402430019252052 -0.05407444272281525 -0.001857301695113075 -0.01802208301331153 -0.0007384378557920616 0.3048679682342608 -0.007633351471888782 
-0.2884286571129077 -0.02654595760283248 -0.008519640834994619 -0.004086854885752280 -0.001065776406576068 0.3371726339578983 -0.02227768590299033 
-0.2981494441137827 -0.03291136289860745 -0.002557993086730459 -0.006639242849487336 -0.0005550451047926726 0.4218611930242279 -0.005037792714749915 
-0.1632512861359908 -0.1643400478679068 -0.0006941085751999760 -0.01775345927292304 -0.0002751153740296851 0.3357920379055461 -0.002257994495451905 
-1.059917530533949 0.9015736991216114 -0.009641423817706964 -0.005907215123614743 -0.0009461655298417195 -0.006230489941648325 -0.001166923573505158 
0.4355942790086570 -0.4895999168734230 0.1201281983771530 -0.06769205810501788 -0.008155477285088867 -0.007520243905450482 -0.003680874222803059 
0.3077651076515640 -0.2851821439283149 0.1193554130137976 -0.03216949466949667 -0.008066765447347763 -0.001561426087049465 -0.001595458994902735 
0.4881859252914361 -0.3812894162031299 0.2045495778322591 -0.2726777122445321 -0.04295341021226085 -0.1031297605826313 -0.04508323191012788 
-0.02224886501757867 -0.001391435648119255 0.06691391917455415 -0.02084470021496101 -0.009996477411458178 -0.0004903678008767052 -0.0009970197015616890 
-0.1654841572970473 -0.0001086104917322058 0.08101204278182883 -0.002484311790495835 -0.003812152763479924 -0.0004763139656151848 -0.001640968933269974 
-0.1004768024563228 -0.0001668073817080357 0.07402564690287230 -0.004034148517612385 -0.003179929798904089 -0.0006088156314823425 -0.001131044328763081 
-0.06627224251759213 -0.0002751046184546381 0.02242998060098957 -0.005488101608461835 -0.01283647517686106 -0.0006365984388592963 -0.002983143884326285 
-0.4183870953040035 -0.06086373458718259 -0.06761398170018215 -0.01370977527959033 0.1885854651190786 -0.04132925610173802 -0.02107072753887527 
-0.7382325567039254 0.3093106570776548 -0.2554810080184963 -0.09546272488780229 0.3039506833317427 -0.1249182172908155 -0.1381720539566738 
-0.03630778805510170 -0.02150978387237435 0.08234016802697487 -0.04722474376429284 0.001833211604169898 -0.009762716626648356 -0.01438151770827651 
1.125063839536203 -0.4613957896964318 -1.122705034122765 0.1126670244569847 -0.008093314389064108 -0.06792058547614280 -0.2580084373769926 
-0.8361581579045341 -0.01640784116426761 -0.01351020220620507 0.9625479804372220 0.05326272895568508 -0.005007494821699605 -0.005699604455210204 
-0.8653478500419641 -0.2586190929333022 -0.08294306865879118 1.189721864436803 0.2970462596486624 -0.04031715585382327 -0.01822515628574198 
-0.03345132911687536 -0.0002894895958254065 -0.01334508077714656 -0.004254266561227758 0.04758389869739110 -0.0007521058825235773 -0.001182961487157813 
0.05810205909897710 -0.01522823276825782 -0.02422542814606607 -0.05257857330689482 0.009135983787688491 -0.001935051353026438 -0.002502830218863521 
1.959899290727501 -0.3837326114103437 -1.844219385119075 -0.09207657554238528 -0.02820557879385636 -0.03750847378387903 -0.03798713617784232 
3.082831183306009 -1.442198851537345 -3.341708192899528 -1.550203209884449 -2.191118070075953 -0.6948471914958491 -0.4198215243297222 
0.5642511606453449 -1.887861654868708 0.1552200580593807 -1.594762483780389 -0.09880592325918837 -0.5068591747279990 -0.1721401048715016 
-0.1691960781315404 0.1522616825469003 0.07942918241102191 -0.008938174244066954 -0.002847340766681554 -0.001997541957343918 -0.0006132006498106839 
0.1050230717998542 -0.09828084629207600 0.08386864839714521 -0.01163997709028330 -0.02391128104525005 -0.003927713446310937 -0.01742297375323774 
-0.3183389592518888 -0.01157500534460645 -0.04714983510754604 -0.03354650340698478 0.2939584737303195 -0.03810272534762265 -0.04039511374912804 
-0.07580092053402446 -0.01356717155795601 0.05738219761862348 -0.0005619759451532858 -0.003173300109387879 -0.0007772336826640809 -0.002290897062081342 
-0.4248313751241729 -0.02723481807966170 0.3949639844279663 -0.01428932831746499 -0.07954047006226558 -0.002870177720548626 -0.01145050345924036 
0.8647360661799127 -0.5350531878700880 0.2087249074271589 -0.1287645725448411 -0.05696522987997915 -0.3267597786989662 0.003770038670103621 
-1.155387936677042 1.089267916620578 -0.01334149756551533 -0.02464147194077991 -0.001285862763202577 -0.01368091188649549 -0.001082695386966679 
-0.3802892632407461 -0.05217079107287988 -0.06098800973778704 -0.06643239623091982 0.1796442235052022 0.4832951588607534 -0.01438904714101845 
-0.9371348829155817 1.049851038584377 -0.007173748585546952 -0.1079504356737325 -0.009403929104389116 -0.02016135645818071 -0.002395320887637397 
-0.2326352341452862 -0.04065899829660952 0.2091390391646823 -0.04083399833071098 0.06269275189584510 -0.01243101432477715 -0.02593725097800789 
-0.01893465868959432 -0.0006310914829726971 0.02252371573257719 -0.001387871835261657 -0.001392600376567763 -0.0001559570895993740 -0.001365692684822190 
-0.3136914919551523 0.5206588250307105 -0.004935946657307483 0.2024712633741871 -0.005159689907226004 -0.01946829217198731 -0.001706559105154815 
-0.1502192732483574 -0.1284673067664389 -0.02358559249831550 0.3042486244865630 0.01465297548601770 -0.01803403311427071 -0.006217196470372294 
0.05092738860989001 -0.04304500345271956 -0.0003407350244226376 -0.02488211859128699 0.08105870909625526 -0.005227772760889676 -0.008975862647662933 
-0.07079516399765218 -0.01309985113735983 -0.004207274113864465 -0.009740696283816297 0.08086656095303194 -0.005014455723418129 -0.003514922521458497 
-0.01476779803611921 -0.007518561610107100 -0.02726553333465348 -0.006216491605855374 0.01023413855560094 -0.008973730402330219 -0.01903181678799013 
-0.1386563741130018 -0.01263499531716848 -0.03116569586721524 -0.003107798266377804 -0.003598132373824317 -0.01039022073117292 -0.007832174718887896 
-0.2931826076915388 -0.03570258014568683 -0.06826430949597269 -0.005894448185631503 -0.03485738103562669 -0.2095775994799523 0.1541414271003236 
-0.4024278263828367 0.4365335971647689 0.04696097145887732 -0.01572932071220275 -0.1071775127135601 -0.02404443988995183 -0.005998187159738192 
-0.002120079671175326 -0.0009690902451516999 0.01010754181328973 -0.003218928769449017 -0.001517533642379558 -0.1301077816722807 -0.02052484215185800 
-0.1874270324537394 -0.02628287834263166 0.04737053920320457 -0.008962913438155029 -0.006579244952112396 0.4107277302699177 -0.001639725009323354 
-0.05201657578541122 -0.01133805441831996 0.03237418391900055 -0.003303232085963432 -0.0007053959105040124 -0.0004445397115336610 -0.001876802665170683 
-0.06436693815193448 -0.0001863804398149973 0.03089007609821664 -0.003250947347500578 -0.001627210036846697 -0.0006977523323014949 -0.002405207750089427 
-0.04103295303275674 -0.0001153190076867630 0.03240634907744815 -0.0004271963737140177 -0.002162766446448159 -0.0009542008093834062 -0.0003617974043880990 
-0.3175317219688622 0.4118212726033121 -0.003326760602170307 -0.1252226740261858 -0.004946912360567344 0.4544772365348525 -0.004831599345895474 
-0.09459570376539266 0.2188617361878529 -0.0007513040079485829 -0.05094619875188453 -0.0005956966631813849 -0.01390167229019057 -0.0004484480785107673 
-0.2431534029033848 -0.4771131289442756 -0.002821099201095573 -0.1603814365467982 -0.001557231086089239 1.291970994161303 -0.01155486118312739 
-0.2569499013418053 -0.1030127358265007 -0.03253639270448655 -0.01263516115535786 -0.01169845277148738 0.1729825877510111 0.01867928491777924 
-0.07563215434722179 -0.02073754925468109 0.1197052224409596 -0.03153438470487895 0.07295349691653397 -0.03439578706874082 -0.01944227651606573 
-0.01248545529502004 -0.0008514040136262884 0.04326698529414411 -0.001680006094440492 -0.001276104687827108 -0.01200280134748866 -0.0007100797648639498 
-0.1866148923623414 -0.02194568944178794 -0.05112375767815004 -0.002036912960919423 0.1739795492629884 -0.001877067880532795 -0.008336265749715792 
0.05844010896873643 -0.005326751516389790 -0.2119531382442846 -0.01039960390502128 -0.002117195387329532 -0.001939888686588945 -0.001611107356891759 
-0.6029735437024264 -0.03296609323907916 -0.003265031059090405 -0.08138830466423340 -0.001014516218351184 0.8812879408467149 -0.004562468278204087 
-0.5117170486321666 -0.02217418692454642 -0.1546250288882197 -0.008030070229344217 -0.07721261245527786 -0.05264348479307864 0.3098101710293447 
-0.2275033893864913 -0.1427777897146029 -0.005508855876133330 -0.01101296231319811 -0.009110576969662042 0.4939143134252009 0.2216193874538885 
0.04912886701199891 -0.03483747618951612 0.03396446675082669 -0.01555450384314256 -0.02074924657415402 -0.01869526463575982 -0.01102408214107762 
-0.2523820230686583 -0.04240812446471095 -0.08617210818613653 -0.005600552668867748 -0.04441301852243647 -0.09604441600961396 0.1082669790016663 
0.05467766013407739 -0.06320718487344361 0.1532990168553468 -0.01526222872716723 -0.002606787293344179 -0.0008239500390114328 -0.0002484756531816768 
-0.3039559737856028 -0.02284829602254164 0.1265284977963752 -0.004021843113723773 -0.0004623680235141870 -0.002330237644988098 -0.0007677633920197477 
-1.027966634002735 1.695571625268564 -0.007905657667008133 -0.2926228767304630 -0.01752428338373970 -0.1007042009532884 -0.008233743732540516 
-0.6444825983119618 0.7858891412302402 0.1203463599071575 -0.08037662817322519 -0.002246245023672785 -0.007645242498775892 -0.0009230188138392417 
-0.08404796147978308 -0.0003499996406029622 0.02198506519161521 -0.0004994162708174606 -0.001038605578459058 -0.0001429993437277839 -0.0005900339854107377 
-0.2959328334074775 -0.01846200688798677 0.1712861187798100 -0.004324564492571273 0.06491926106609795 -0.02465576308918281 -0.01420332528444476 
-0.01602710132942733 -0.04212279136084630 0.04919564796129347 -0.006954629745797009 0.08748975210401588 -0.01532550539904586 -0.005497768031033808 
-0.1460309469396614 -0.2071759608982975 0.1089539971758957 -0.007171682052109663 0.02001593497198160 -0.01245338804569435 -0.03372300951289160 
0.05621849174854289 -0.02155061671944607 0.004786806611563608 -0.01545560376196772 0.1033050430654342 -0.08153893016215523 -0.03488439919048021 
-0.2106403894657483 0.4705941877367161 -0.01022844864427702 -0.05558755351383252 0.1298481630174946 -0.01048092531469888 -0.007025846400866252 
0.06332141335900957 -0.1063964845720775 0.01135086912966447 -0.002254328749787844 -0.001792776041350489 -0.002798675876102870 -0.001812149755750367 
0.5394334113856192 -0.3855236355199652 0.08287256989477013 -0.1002114056748819 -0.01626695859933329 -0.02008389262708333 -0.009614061004498110 
-0.005645795406355074 0.1212082943479134 0.1374434076854849 -0.05138172201979628 -0.003580945919859856 -0.01400654901684564 -0.0004197141428831371 
-0.1426917816818573 -0.06305430050775598 0.2335919636068060 -0.001809423818289350 -0.005900504526745111 -0.001257885597140348 -0.004787001268903217 
-0.1518308239032047 -0.04055918594504965 0.2123524686772667 -0.001637947941641653 -0.01552862614075632 -0.002784382825270685 -0.004939939695795850 
-0.03658526643025200 -0.0002194558860854586 0.01193456296348224 -0.002628970327021823 -0.01601811518928537 -6.657408661037752e-05 -0.0006198133684003899 
-0.1159418166901597 -0.02802077353524395 0.2592911966520705 -0.04175986088900783 -0.02279336454395174 -0.01061482120665911 -0.01725312957476487 
-0.3144996285364740 -0.01200132975703880 -0.004864311230475296 -0.04001581456817622 0.2711490250464498 -0.02922681689247270 -0.01690769991237252 
0.1155374254187084 -0.06127112053444010 0.06895610831358348 -0.02010004936474562 0.05119591486337306 -0.08396629498200792 -0.003836964810861972 
-0.1169282370689728 -0.05552628839716293 0.07842381780318027 -0.04965351830451936 0.05010241722506600 -0.02342280362342868 -0.008021827972973150 
-0.02222899482307151 -0.02460468178489199 0.01215977703654101 -0.006713221009621577 0.07827490175424288 -0.03398872376895411 -0.008450182049411155 
0.3281373927873693 0.5839755135943624 -0.5967952045213332 -0.1665528416189382 -0.004005049208316758 -0.01925268386392517 -0.005023263208337423 
1.165444354169389 -0.4838530552374146 -0.008934858117346870 -0.2959941562858905 -0.02122420135357377 -0.03660697220211409 -0.006282971576564666 
-0.1219036788793083 0.3127186411853033 0.06529586781499745 -0.06329265050440346 -0.001854973071953088 -0.004132031681928642 -0.0006536614254275439 
0.6763691500121507 -0.2809895763575758 0.08564364230259805 -0.4125629425907025 -0.03267002811486210 -0.08439079463096350 -0.06439847731366222 
-0.5134650269434903 -0.04703900357985124 0.1011356984120171 -0.05678031255069333 0.04008510978395034 -0.01164859225853874 -0.006414464895820888 
0.7769821290605835 -0.1446964450801765 0.01424401381530800 -0.1370759198993143 -0.07731732273841346 -0.007578133575823409 -0.001390544828239337 
4.505402696759653 -1.799367192510516 -5.268954236887465 -1.662197953412508 -3.411209326093966 -1.329279275396167 -1.636222939525107 
-0.04337802974851844 -0.02237318278669646 -0.05652897557719054 -0.01744409711399844 0.1207506194379007 -0.01443670112449494 0.1378081371472061 
3.349406146857858 -1.943096676102794 -0.4314695326192292 -1.926655759758255 -2.075771340829071 -1.098467923538581 -0.3404883811538302 
0.2679688930420702 -0.7397236116110348 -0.03940289150073272 0.8091109492711611 0.1437442064873413 -0.03466733805278194 -0.01352919959447313 
1.415015021555886 -1.320155992303775 0.2266753529808149 -0.6326662269911877 0.1045383384650480 -0.08747017279341691 -0.004171180214351079 
0.03511442620391047 -0.3728346728674433 -0.004518341976474713 -0.2842802713849297 0.08478884768703280 -0.04990595094691246 -0.01614459827925041 
2.022715458716226 -0.7755605924888742 -0.3728544666094611 -1.337988600312819 -0.8417310403345091 -0.4661651063732946 -0.1780744459134827 
2.043552080878702 -1.073761876777264 -0.08287305748912031 -1.698022363282087 -0.1582693520174807 -0.1742034988265787 -0.06946639114299533 
0.4530770957286019 -0.2411766966184067 -0.005890513418780773 -0.1948681186056368 0.006598881664264087 -0.005898221695640136 -0.0008395851871164072 
-0.7891719987843182 0.8702312475850842 -0.0002657048488039664 -0.02663616188078091 -0.0006909587522777511 -0.001833333814516996 -0.0002059484267513301 
-0.1661154240892961 0.2865603920251846 -0.02106460024341305 -0.01501676510318348 0.04486320707265973 -0.01868429953928057 -0.006172212187807761 
-0.2275514979748706 -0.2268514924979797 0.02356572618920329 0.3733723054581856 0.01953743995806549 -0.02203647484916630 -0.006567686576601828 
-0.08075660738824960 -0.03315335526193344 0.03203202421546083 -0.001271671957277344 0.03376254515289913 -0.01404459031129960 -0.01226937409758283 
0.3416794439813826 -0.1079683527112593 0.2352951258585733 -0.009493302728743986 -0.3109378290420278 -0.006050972123573561 -0.006073068291370322 
-0.2363400650651320 0.3314389190444617 0.09789613714198296 -0.008294154841935387 -0.01716378102911231 -0.004797978173937970 -0.01334024037637033 
-0.2811649929226222 0.5055444979128076 -0.0002855423648262933 -0.003661444815613363 -0.0001722138597357616 -0.02767549789641046 -0.0004265446599725014 
-0.1000623860702324 -0.07165144351515715 0.2634359039916763 -0.02804633541042439 -0.04581630514166520 -0.2433571280216405 0.3761881279856228 
-0.5885006388354374 0.1200953679890833 -0.01684391550031443 0.3516350645771149 0.2843111102887459 -0.04011364480312984 -0.01449671768886750 
-0.2476005161058330 -0.02371503965574269 0.05587574746253040 -0.01382561433722107 0.2520476480757161 -0.03642848102983531 -0.03188936741358463 
-0.1955548921176548 -0.02566372355460936 -0.003526099418553455 -0.03075764431307237 0.3542117841968810 -0.007661877989869460 -0.007606900419013601 
-0.3671970659549229 0.3134627552588776 0.01091743270361868 -0.006483418167831458 -0.007018990414066112 -0.0009509984893491948 -0.003875800493633466 
-0.3423503813229043 -0.003370248916727515 -0.03906514459912544 -0.006325973817042675 -0.01382956574410370 -0.04988161240569131 0.04034422602795335 
-0.1451181805332605 -0.007077172257899544 -0.01736269765857763 -0.007916022567119044 -0.008481008370615726 -0.06389560386753268 0.01776352190377436 
-1.837042949700991 1.312964647416705 0.4988667293953276 -0.1146927165113405 -0.01245622085314755 -0.04652741690913194 -0.01485655626056049 
-0.3401978955448352 0.2878126731822531 0.08695740301191972 -0.02501379179411876 -0.005584345628224780 -0.002185288807346222 -0.001906733145692816 
-0.1271186941832183 -0.04266689408079304 0.1921671713888388 -0.01930534990035565 -0.01276527209966991 -0.005080811499291536 -0.005262508404893820 
-0.04545258871810753 0.1909564164467957 0.08424411199980095 -0.08124902098029140 0.01929233472369966 -0.008784929392472470 -0.009353393454907728 
-0.08120762568366283 -0.002157910383294484 0.09592994635479200 -0.002232519610338359 -0.003419262923604776 -0.001583787983013815 -0.003991968011420551 
-0.09006076086956609 -0.001771720865312152 -0.001188588168818248 -0.0002831133994026576 0.2324415163830700 -0.003741167621961098 -0.002373097992539213 
-0.03569742526046565 -0.006636508426173990 0.06634711710864374 -0.003564190342495640 -0.007486462266372803 -0.0002630033140272427 -0.001728359683055134 
-0.2768912407639612 0.1814452395909961 0.02246052054782682 -0.008907265101524082 -0.004015174143003332 -0.004382473665455121 -0.001876654749117783 
-2.207276206286501 -0.9964661923296860 -0.05129473966521812 2.590209153989675 -0.07856832274082046 -0.3699541482378415 -0.07088373999951147 
-1.069766486155052 1.258761719970475 0.005122992935955217 -0.2547750263721530 -0.01191166198155418 -0.01541836184177923 -0.001899619573600183 
-2.017514697406686 2.070951202120375 -0.01086995639397973 -0.2380145335238128 -0.01415269470203734 -0.01166248154392246 -0.003890958235425561 
-0.3022286290941725 -0.2222124643181374 0.5751113830848131 -0.1102118224294527 0.3019748709347406 -0.01880714504991109 -0.008333738905340608 
0.09718521032324491 0.1297648903930679 -0.001924271708860958 -0.03677118938832843 -0.004799659212168973 -0.01676618177638847 -0.003157939557064610 
-0.02776068526382023 -0.0002760496119774834 0.01199453396194200 -0.004181484232438803 -0.005293519609110874 -0.0008206736775065221 -0.0008889990482883787 
-0.1412286330776772 0.1177445988254746 -0.0007075629150992494 -0.006596593477216623 -0.0003042633601109071 -0.002310583546762056 -0.0003922669130772290 
-0.2785488588194378 0.3166427958225712 0.01186772891016780 -0.03137253941710282 -0.004620818465309736 -0.01279075073016269 -0.005152367301373816 
1.166163950088130 -0.5394907270778703 0.001652234436442298 -0.2658860872831306 -0.3509304083411591 -0.04015187327737678 -0.02561220252785869 
-0.05245626064332600 0.08050419449496081 -0.0004305052932847943 -0.06080294849305848 -0.0004027574616895439 -0.002283976677754256 -6.062431130408500e-05 
-0.05673029834971175 -0.002944233625393565 0.06136014978624563 -0.02067515796336077 -0.04341595228783970 -0.004570964509385658 -0.01167155209544952 
-1.026699321510725 -0.2761808485726480 -0.009874050493392152 1.274037362223033 -0.02209213042952126 -0.02977630188641306 -0.004455809656216312 
-0.1394793701009709 -0.1113812125574769 -0.08442743034563407 -0.2155276289957923 0.2546492379873226 -0.06567763630102195 -0.03413327353566426 
-0.2289354604942288 -0.03202214360268002 -0.1531003095340903 -0.09112720959658932 0.2877123591617200 -0.04997567164195701 -0.08341933466961979 
0.1288546676326896 -0.07122057203733469 0.09178033020238412 -0.02635661882525814 -0.006111624524361646 -0.001095629364605459 -0.0003997946206692575 
-0.2086681113229613 -0.005055576162256475 0.0005542172870100483 -0.01287523418558154 -0.001132084070924191 -0.002763448113073862 -0.001537057228662261 
0.1747545770847398 -0.08448775396576019 -0.3018610597221684 -0.01453080486881221 -0.003677255911618509 -0.002300105624363070 -0.006206753342998978 
0.1425059404530442 -0.1072426413689208 -0.004973546952291068 -0.002321605921037716 -0.004166323513851688 -0.001722301563051589 -0.002226812580196647 
-1.509332138113172 1.459268959452595 0.003018636000236071 -0.09489444227266030 -0.01112839997076248 -0.01551429595473388 -0.004587936449996740 
-1.090290909071016 1.524593948052229 -0.009043853663745069 -0.3822065042004905 -0.006877480858120818 -0.03250021130213374 -0.005204728538033334 
-0.1255796468444505 -0.01071222528631209 0.1024369283225176 -0.02178430613227332 -0.01772644035224612 -0.002254887408980056 -0.004909850140575632 
-0.3192830431242951 0.2914546617471308 0.03777955538404931 -0.02416469041098711 -0.01041251532563108 -0.01216985529917133 -0.005695950666553617 
-0.1510969587055773 0.1270825627628326 0.001159303759408749 -0.002449493388442554 -0.002608371176191816 -0.005566262860329373 -0.0007237894065166324 
-0.2063762701592604 0.3174312282348806 -0.003277015483960278 -0.01349945696981300 -0.0007225688754983540 -0.004437947349997811 -0.001310704662873181 
-0.3444138333791872 0.3791910167775208 -0.0005202944556281098 -0.001865800952873400 -0.0001959832390344187 -0.001397489658026398 -0.0002168151566616711 
-0.3147660436935781 0.2734877751713528 -0.0003922735895677021 -0.01362381333750848 -0.0002434825484455301 -0.001627284011464135 -0.0002305688947284461 
-0.3412079596307274 -0.08741138260591508 -0.004873481209381557 0.3183555950693291 0.03615265072636116 -0.007067740372115976 -0.001130311931108618 
-0.3891957003666936 -0.006271144298986788 0.08648397804251123 -0.08925047778364830 0.2355398851160674 -0.01752745607102035 -0.04289820478674965 
-0.3649294793747989 -0.005349695583788514 -0.01363621200826427 0.4094022895151953 0.03310781142344780 -0.001070931217124874 -0.003356468405086001 
-0.3921886707618661 -0.01943502275831200 -0.0002580412231164733 0.4533855352799169 -0.0001586689598630872 -0.0004538015649213246 -6.219622690069890e-05 
-0.4015689171792479 -0.01354340685635817 -0.0001085653077431346 0.3971464552863628 -4.156803158394024e-05 -6.636053848417838e-05 -7.576492386282801e-06 
-0.6043739086095405 0.8047203022755978 0.04430093951760426 -0.1942337609420292 -0.01122319588547086 -0.02438667879915545 -0.001175531100908733 
-0.03824548082260072 -0.007325677295764482 0.09048636291694820 -0.004432046625354134 -0.01299066862672610 -0.0006165829565095622 -0.001511268186133335 
-1.396721097557297 1.053091017615698 -0.02576162397465382 -0.03471418933350002 -0.002925150041489797 -0.04070244167694561 -0.003354935350308426 
-0.1782154801912173 0.06490629596626803 -0.01415104012769910 -0.01847590948712898 -0.01228295162219356 -0.002589071235618733 0.3139247371201370 
-0.003962911811648366 -0.006778567192608324 0.02664305296890047 -7.468562255379047e-05 -0.0004773010519330595 -0.0006032192361720392 -0.0004816664928682984 
-0.01871185029690701 -0.0003755995562668608 0.01151356980818563 -0.0003054734392740862 -0.004402275970850875 -0.0002888380596170252 -0.001152700800697572 
-0.01908893347182460 -0.04379665564365158 0.2406628660071845 -0.03713489277868782 -0.004100652052317016 -0.004029989027072601 -0.003326266166411116 
0.09909198488160575 -0.01281161168767804 0.005417808475919800 -0.04514064668740091 -0.007152104423859408 -0.003618335647409053 -0.006061929429851939 
0.4650354658727789 -0.09036813216836820 0.04960548371420558 0.1266662221036083 -0.4075702496054034 -0.008878434872991921 -0.005008300946638709 
-0.08550482720109769 -0.001839803604685245 -0.001425382895841589 -0.003817758956423340 0.1387804521640073 -0.001505419648632964 -0.0003986251552799182 
-0.02279453952375321 -3.160310960584873e-05 0.006942768917470291 -0.004161053428603613 -0.001915475228597092 -3.640043631212170e-05 -0.0003476763673846299 
-0.09543798480772940 -0.07096606179139897 0.1561309888213555 -0.001358437165602599 -0.007479673930407322 -0.004251573998363607 -0.005834208663515267 
-0.04845054990264679 -0.0009675990000491616 0.02626997203826958 -0.001211578418090245 -0.0008093560267390251 -0.001922460199572469 -0.001210474240668873 
-0.01223981850870782 -0.0004101439091683503 0.006101448034785910 -0.002789334860046733 -0.01272775350494313 -0.0004051539353428708 -0.001136797301719844 
-0.008805412851723425 -0.001819822265051370 0.09794637199468392 -0.001597198492255237 -0.0009769105680849629 -0.0002247906877425109 -0.0001545984322564687 
-0.1213785731811884 0.1291022588437953 0.02076923384841570 -0.0008809087740687825 -0.001354949054190342 -0.0009318971427581908 -0.0005218308029075685 
-0.03828748554880211 -0.0009548356430172842 0.01768367806702725 -0.001099155023661787 -0.004061552464502775 -0.001695249312845103 -0.001924782258127319 
0.1136460283051008 -0.02929493912663506 0.01414001618247005 -0.06626201064883680 -0.003823268253107419 -0.001913868708156570 -0.001083123933957430 
-0.2858225053368521 -0.06789383692208620 -0.001389737222598209 0.3732178958940287 -0.001918567535037103 -0.009658331052020323 -0.0009650950644387780 
-0.1156380882088262 -0.01042159022318543 -0.05942032625707894 -0.02826606707543527 0.02678933246221477 -0.02899134891299839 -0.06177878169676946 
1.639952812285031 -1.488176223021243 -0.2640694152093028 -0.7942999868190421 -0.1024195902033862 -0.3537123605331768 0.1724196155190299 
-0.03370742860984127 -0.001236899330339190 0.03517562231080158 -0.0007272016493139963 -0.002847970357998657 -0.0006863347521682437 -0.001002002455767562 
-0.5744198159499384 0.5666509172246983 -0.003060362878412461 -0.02733580214412875 -0.01384493839773725 -0.008136496858643073 -0.002770303675151539 
0.6941988003473178 -0.4639326140714196 0.02240557035518157 -0.1166193976628284 -0.01286990103793518 -0.01259307667888350 -0.009182109538465766 
-0.7436828016128740 0.7735018136028540 0.01772681637576121 -0.01394589030404755 -0.005036390523144412 -0.002564278050598052 -0.001151552073239969 
0.04918546694846336 -0.02868537436456642 0.01085326392203574 -0.04649881299700298 0.03330167153580450 -0.005208488485442977 -0.01668608994267517 
-0.07252330418463604 -0.0002503515831481558 0.02531255984578369 -0.0006978083905119915 -0.004670397350444273 -0.0005350593552014987 -0.004153292557931814 
0.1395709721628555 -0.05526758361718426 -0.001880802597350238 -0.004161236693371342 -0.0005385031248822761 -0.001035567230723027 -0.001244250001359798 
-0.005294087196941463 -0.01086048302085294 0.01496088914871914 -0.0001861901983085217 -0.001493133432435975 -0.0005315624856511253 -0.0007422832968427386 
-0.2241609349452807 0.2143374509467997 -0.0005560952143935763 -0.004516950390403580 -0.0003818428599576289 -0.001900173771420594 -0.0003566407548701977 
-0.4044478186487430 0.3564402879866937 -0.0004742951048859906 -0.003048145017079118 -0.0003241457752434749 -0.002660548679343022 -0.0005617990649586509 
-0.01832215724501675 -0.001288915118825063 0.01873712698788427 -0.0008228401325345300 -0.003021761935029318 -0.0004456516079794906 -0.0007489889315070407 
-0.2734791477193235 0.4266812319564821 0.1989830753959802 -0.05145087608671176 -0.2582280492933439 -0.01207197937767712 -0.2697829651512199 
-0.4449404516574942 -0.2401914459321151 -0.005112290044837509 0.8736962911147176 -0.01378918107677611 -0.01347228124426092 -0.003843431488585100 
-0.1464120247749743 0.2616893714659090 -0.001073267582130346 -0.01832030903605690 -0.0001752619047890003 -0.001081993739859521 -0.0002581861839217755 
-0.03820678087513399 -0.0004833078774157244 0.1092430865342069 -0.001320688643976012 -0.0003398285230357948 -0.0006636786042683118 -0.0006332899108458689 
-0.4489639605627767 -0.0006244384100359997 0.3457090912345003 -0.002283467851979209 -0.001943026151122960 -0.002022943558012082 -0.007212208183649278 
-0.01017699175504860 -0.0009865045866000565 0.01343620923472636 -0.0006763905333869628 -0.004340014235085927 -0.0001511514426209529 -0.0008050139820200614 
-0.4229600704313923 0.5564987345199769 0.06263934635642693 -0.01839467536936111 -0.002155028347888307 -0.004463582187553189 -0.0002734066316701289 
0.01092559857397031 -0.01380479529851599 0.02192145605097044 -0.003369768733662454 -0.005033616527628046 -0.001795980313627252 -0.001281488123353854 
-0.01661294082888486 -0.0007192080394090554 0.008800862359633323 -0.0003263186488886300 -0.003952878286030727 -0.003066857665450326 -0.003897061350498749 
-0.003970474851563167 -0.001509511771307498 0.01046900641962948 -0.007584624050807899 -0.002499513264115811 -0.001141593224616250 -0.0008142190176805234 
-0.01133393689499421 -0.002640892525260100 0.1340828599303740 -0.001709329621910085 -0.0002492979355648470 -0.0002697561222284034 -0.0002995501129314942 
-0.01094779517017120 -0.002350088338125067 0.07818179647774740 -0.0009725194421597027 -0.001077516182529406 -7.891592300579100e-05 -0.0006273063758173900 
-0.6546753226251599 0.8176642452402900 -0.001364635589476773 -0.04371423458243270 -0.002122477522236073 -0.001899173790197498 -0.0006280545088606124 
-1.172300216490632 0.08521941640690281 -0.003289527896889064 0.9687491649630742 -0.003434468476898475 -0.01698250561380723 -0.001147828971936445 
-0.04754661380706695 0.03272567658304009 -0.001483629691263374 -0.003017571719986944 -0.0001335581933778258 -0.001982065466851591 -8.837078650279260e-05 
-0.4730650257452400 0.7150081412435028 -0.001994009350035916 -0.07267081926383484 -0.001575375740043575 -0.001724092861608503 -0.0004036712567259042 
-0.01666094922701828 -0.002415542460196944 0.04721691393922237 -0.02046856722721572 -0.009591119417592824 -0.0003686615381386488 -0.0008833576114482359 
-0.1146586654829424 -0.003142062466375259 0.09219959455240159 -0.01169304893679354 -0.0006190636297868873 -0.002212570905973434 -0.001510902703030869 
-0.2566398118381905 0.3284521686967620 0.05055568255413831 -0.04985905494206804 -0.009757024796312692 -0.005814507166585327 -0.001213833549236649 
0.4305170442523960 -0.04124948219559030 -0.3158346055339134 -0.02284016795920094 -0.02513443482040555 -0.01098929091401399 -0.004868646821890024 
-0.1804670485515333 -1.256399855168322e-05 0.1264803187506023 -0.0004837174387122730 -0.0004689736833729431 -0.0005937732927321217 -0.0003864023327148489 
0.1404042252940992 -0.07716470851317211 0.05339841595264546 -0.01495095439758138 -0.006333426137787169 -0.005168003666019559 -0.002320564212461355 
0.1914485367892438 -0.1025481814932700 0.02145432103444020 -0.04150043747727176 -0.002573261909395193 -0.004996937228510127 -0.002102692631980760 
0.6760393663313247 -0.02144531707611610 -0.5037901620069001 -0.01237390441241161 -0.001590001963677726 -0.002361479933093858 -0.002495156100044442 
-0.002826632348933514 -0.005287496630495970 0.02743435348363034 -0.009176960642602606 -0.001405288785789452 -0.001001181577220449 -0.001298303753188064 
-0.4276905381833349 0.4755294353271118 -0.0001450429963158773 -0.008149810399387017 -0.0003121289225358567 -0.0006518042561326840 -0.0007565263132193213 
2.123183528958621 -1.170855246614683 -0.5961773327006092 -1.277369637323827 -0.5153383713599867 -0.7755575655961522 -0.3217852184187038 
-0.3550248560988606 -0.0004730143234160913 -0.004195694099962768 -0.009296232003139490 0.3319360288658543 -0.001628870456649057 -0.001152414499954736 
-0.3923812026437228 -0.0002213008846140363 -0.0009780479380732923 -0.02813603281989422 0.2964908665931570 -0.0008864210218656754 -0.003245222069624832 
-0.1110789067837897 -0.01802732224026955 0.05899291353375039 -0.004155067847639798 -0.0001462205501219903 -0.0004315223648968617 -0.0004101203968991639 
-0.008546307920930496 -0.007916515705691077 0.01558711824098667 -0.002953458163994908 -0.002998140139796654 -0.0005594600831685332 -0.0009306980785138913 
-0.04859067315086138 -0.001122421371179117 0.02674779802989651 -0.001475073865065356 0.03722254929483012 -0.0004185710346705681 -0.0008179791903685415 
-0.2568289132787291 0.3534198810506596 -4.856793106773229e-05 -0.02912893689049509 -5.318303805901609e-05 -0.001857802752745620 -2.040714746135578e-05 
-0.04763683762184239 -0.0002221323640784992 0.02769605715446731 -0.001742834664355709 -0.001847690525205251 -0.001045396168346387 -0.001477945498935370 
-0.06453286550228485 -0.0002020450197795355 0.1127643363624495 -0.0009091159852629678 -0.0006883367425887399 -0.0001294918881852027 -0.0001754821988572486 
-0.1418968926107165 -0.01297703358701612 -0.01453023470836156 -0.005793990367217958 0.09181075163381830 -0.002596230788932306 -0.004441931579518894 
-0.01322227643268392 -0.003885578589913467 -0.003881234463694817 -0.001579890080944436 0.05122419559387054 -0.001513842808343807 -0.0008329573137942091 
-0.1746419695180365 0.8425428407167059 -0.001722783946141799 -0.1078694454246292 0.1012475571270611 -0.1542782046350119 -0.01530917613527714 
0.2242946680523063 -0.1565893683116224 0.1402669668522939 -0.06377492758644410 -0.01569755850903385 -0.002910166084847372 -0.002172606287830687 
-0.02220454285312973 -0.03420143761258301 0.03215523650478513 -0.02051849143028774 -0.01276870888925394 -0.002347115753886270 -0.007039893128297597 
-0.1121161697632466 0.1903409423228242 -0.001030848514454456 -0.1552337081674221 -0.001842462670630912 -0.01897629873896316 -0.0007600380581800617 
-0.3610127097884133 -0.04759567996409069 -0.0004900829811876796 0.4294867699974029 -0.0006919983795066260 -0.01259725382838067 -0.001452837676474561 
-0.06974816839279228 -0.003960468326182749 -0.005456793442606521 -0.0005848837216690170 0.04988502464873522 -0.02841397986438655 -0.01433602051682918 
-1.078441988647816 -0.2747854710295335 -0.006857183702400571 1.472476830812500 -0.01244105769023766 -0.02022381160479921 -0.006619212277584561 
-0.4542786744891709 -0.08187263166196856 -0.02291349053732710 -0.09922540935243404 0.4304966773751062 -0.02046880837073186 -0.03236108062209016 
-0.03551470638516097 -0.005756214644622269 -0.003453295575053458 -0.005830844566204523 0.09569914571760196 -0.008282522965566370 -0.004833879288583944 
1.336494332367421 -0.8521482808703176 -0.4170231832841774 -0.08201785944982395 -0.02937788730846707 -0.06667456263548818 -0.006482950793188194 
-0.6569630654788241 0.4300217944632706 -0.004505717138165007 0.08375168237050330 0.1278400502622374 -0.001216259473289995 -0.001793392686387924 
-0.4887162043474021 -0.1179738142091729 -0.0007455577763782825 0.5528659189494923 -0.0008184492236281299 -0.002519421668520076 -0.0005985411415950964 
-0.2375154619466229 -0.02714278322260276 -0.0001660502655476673 0.1672038773664110 -0.0003185764319235821 -0.001437075756162996 -0.0001841137589016733 
-0.07021564478281993 0.04541236361350747 -0.0003016056839810846 -0.001522972752526739 -2.675731531385744e-05 -0.0006423077704909575 -3.227759624884484e-05 
-0.3996035220977445 0.5944637257064567 0.1579149926136977 -0.1553349440802025 -0.01275580980054556 -0.006110826298126379 -0.001754312160348537 
0.1281115208884991 -0.1350855331351278 0.01987171974516973 -0.03596505521772303 -0.01088008455491566 -0.06445429487779020 0.2164813172116352 
-0.1965033517665468 -0.03029753356366001 0.01429987911878885 0.3759400076057617 -0.001793887340616658 -0.01206459884820859 -0.003060782199879411 
-0.01199909550332903 -0.0008483884601351573 0.07829189975616459 -0.0007663187341863524 -0.001026696515944979 -0.0001447951619469827 -0.0003473625725794787 
0.05528874653027848 0.01111889039099839 0.02962700674351284 -0.06074252076215909 0.1318026142094354 -0.03686672473925740 0.06397321106287819 
0.2313455413273458 -0.02704733871163193 -0.3133973967234139 -0.02435093860130034 -0.02368431704467017 -0.008861698784291761 0.2550538462305683 
-0.2983350241903369 0.1834333596280079 -0.0007376470488018208 -0.01938523841674452 -0.0008512802116724524 0.1136536567123663 -0.007427647624880641 
-0.01492516838461304 -0.0004832613038282603 0.07189617261466767 -0.0005324487630816426 -9.303904513812637e-05 -0.004503962518536330 -0.001286995387776970 
-0.03496594964569878 -0.01010141191081861 0.05777550572349328 -0.003308031631607105 -0.008737385130157729 -0.02984469562355516 0.09612558070964572 
-0.07986840445258148 0.1075150828641055 -0.0002854139266265706 -0.04924329157706783 -0.0002231762093837448 -0.006936675320664834 -0.0002233364417761534 
-0.01118636156394859 -0.0008651694472917179 0.02719588696237388 -0.002952499687700151 -0.0007573030397676588 -0.0007988913030518623 -0.001038421650087584 
0.7327361130230499 -1.136915245135142 0.06262346017030508 -0.2911112408477666 -0.004408812173876469 1.076155646070715 -0.005132867555048393 
-1.489007149169257 1.167175767093595 0.05506160455268110 -0.05115695196866468 -0.02507785901879390 0.6047277229487803 0.2063674335829294 
-0.08124039306201251 0.1395143765498901 0.09140718232727431 -0.05721952547384720 -0.004280270200949703 -0.007564988508958354 -0.004591901535938319 
-0.5378788938222880 0.6100758088930526 -0.001199507720879743 -0.1118247851320428 -0.002318358817989473 -0.01001146031432727 -0.0003070316621131934 
-0.1577537164657817 0.2252276356275083 -0.0009278644059849542 -0.004573713115608726 -4.722732682370731e-05 -0.001778716960243730 -5.757289153619189e-05 
-0.3726434733737818 -0.0004914559649262560 0.4198339931744235 -0.001099567035093283 -0.0008604775000591845 -0.0005841237708164072 -0.001393032524894226 
-0.002918100306904827 -0.002570363633900616 0.03404516547043793 -0.002654024787823343 -0.0003774753294865491 -0.002205955030270590 -0.0007556416399478368 
-0.07725168889395990 -6.390593450999222e-05 0.08686242244469526 -0.001740810863860068 -0.0001680243294881347 -0.0003944640775520816 -0.0005453162809659289 
-0.007167668145648478 -0.001043078860441735 0.01841185065287935 -0.004720683359871901 -0.0009046541735223041 -0.0006241258789041291 -0.0007373086275838385 
-0.03975905854559653 -0.0001320366397327962 0.01268941551057169 -0.004973659780257730 -0.003961308686280329 -0.0003243169991772244 -0.001580468054576453 
-0.9470735136865793 1.127575187114262 -0.005729589453734077 -0.1969316979461387 -0.006082042471831449 -0.04321771742637375 -0.003059770478083536 
0.09688599596626078 -0.1420190896013119 0.01888488023470466 -0.005035724553320247 -0.01141651669586779 -0.001920195386670399 -0.01131569448312198 
-0.01266376039210281 -0.001343941516489471 0.009715164398867363 -0.003920904586049903 -0.001784334204589078 -0.0007810949337506046 -0.002051180217480384 
-0.2927621232145646 0.1274015934832433 -0.009749054207092803 -0.02225902000156549 -0.003061883193072824 -0.008116242669150392 -0.001186271228051350 
-0.2434734944433407 -0.2885225901621609 -0.0003306421492281299 0.3846898009829560 -0.002550361943726592 -0.01134312825310760 -0.0002837594984717165 
-0.1034041566224490 -0.01990472692906117 -0.01929606759914160 -0.01905286755274665 0.2375231924517967 -0.002812048301378452 -0.003260637210396593 
-0.08741244045371290 -0.0003808176723860668 0.07597848805263670 -0.0002136571320800627 -0.006355206562806449 -0.0005326859775751167 -0.0009448624757882454 
-0.08990472070131760 -0.001492046269187356 0.09169555610383173 -0.001054555451311195 -0.0006123521161542020 -0.001434361898152386 -0.002134960828131125 
-0.2410166310720988 0.1554013459489738 -0.0004955552036883016 -0.01538959152088609 -0.0001925525556729832 -0.01389803558984476 -0.0004345975124144403 
-0.6728470862546364 0.3928882005894685 -0.002990370848210289 -0.09295678414624280 -0.0009236335165335980 -0.03391830500305798 -0.002749556473418013 
-0.06666885961545890 0.1505787595518691 -0.0002406036846768047 -0.01424582776831640 -0.0003309951055561588 -0.009711710412821093 -8.646246493612989e-05 
2.101650952730824 -2.265347023483548 -0.2869935642162685 -0.8073022216496333 -0.3040806157622579 -0.7012992874818338 -2.044155938271222 
-0.02135532151867768 -0.06369800949595095 -0.003869056459824444 -0.02677737865282095 -0.003210229641886873 -0.1564420730272734 0.01170627301788537 
0.1754354347931623 -0.05696838005038640 0.01891342030153185 -0.1311284694341889 -0.01876956480293616 -0.05909415095406684 0.01783916372595755 
0.03134573415447226 -0.09668811567357850 -0.005444778891106915 -0.1298887658249490 0.2893884221523465 -0.03550328622383493 -0.009715727017779380 
-0.2759555237709420 -0.04094684663147495 -0.001579887372654033 0.2296969714925918 0.1537000259086394 -0.04491504837443597 -0.002849999572644888 
-0.1984784288724938 -0.0005367991325092446 -0.0007369509538752747 -0.0009319818587033613 0.2062869860679493 -0.001733062169845967 -0.0007719118462646464 
-0.4609750923304373 0.3917382402245166 -0.0001140705192211708 -0.01557533001159266 -0.0004242612579185935 -0.001855532989670022 -0.0007651418078089354 
1.234640004048460 -0.7836325112542385 0.01552553004552621 -0.3723715781126725 -0.07718285657651504 -0.06616229827119698 -0.02970983399736416 
0.02413701193540810 -0.04218300318469120 0.1177629654175763 -0.02312425437992936 -0.02467032411117213 -0.01805173268408659 -0.008774278159666504 
-0.01434077170614101 -0.02049812651768342 0.06771088550382849 -0.02972910554625800 -0.01469506111498345 -0.01006041385271544 -0.01249459281420317 
-0.1318933228822733 -0.006934414196876989 0.008707219277531132 -0.0008033844570190828 0.06681720783956950 -0.0009756249788699103 -0.004574797983111944 
-0.1784458362086774 0.3122401916039495 -0.0002957446892416267 -0.04476744457406248 -0.0002762326539224671 -0.001214997189031804 -6.416574474981403e-05 
-0.2391587086965250 0.2870346538377472 -0.0004003329512082544 -0.009507827581854037 -0.0004388894171982616 -0.0002610093134648362 -4.889757671368397e-05 
-0.009252374000099659 -0.001967936387882760 0.01057342409724573 -0.003701854576552743 -0.005157625350244440 -0.0006259860221310502 -0.002573093283171925 
-0.02289278230636636 -0.0002870619032710401 0.008954365419430413 -0.0004977184019808150 -0.001483806934112652 -0.0004755117169288172 -0.0005629369630718172 
-0.02227822477657152 -0.003226164246609620 0.01602641664718777 -0.0003321305569203458 -0.001801884439430313 -8.945621532883273e-05 -0.0008408880155287668 
-0.06691751188076850 0.1168105338736103 -0.0008984861027046592 -0.03083508762079877 -0.0007441294786476124 -0.0005864174390119280 -5.939190417730805e-05 
-0.08532138838399322 0.1283179813741150 -0.001361774841761842 -0.03721402317576938 -0.001083563764506937 -0.001726385715821733 -0.0001951732806247840 
-0.03827149994885969 -0.001040715539099982 0.01361047485886250 -0.001172367233145244 -0.009250083694151753 -0.0002974429461591909 -0.001945030106351855 
-0.06500392419435269 -0.001114794323121085 0.03943275350373030 -0.001031951064241661 -0.0006409525298883659 -0.001282258025001944 -0.0006137611247082620 
-0.1796013757720497 -0.004395541980019541 0.1840321775912627 -0.007595447629533686 -0.0006468807187538894 -0.002472303034103883 -0.001194914802586043 
-0.1613252510863293 -0.004459668429582634 -0.003481993196738521 -0.01737291944095293 0.2875017097059636 -0.002114569118745789 -0.002051718578474764 
0.04677955486669345 -0.004750018740316222 0.02776516654491895 -0.1369018364006269 -0.009148243208361231 -0.009992782957867331 -0.005716578350937345 
-0.006211976534619526 -0.0003535520909408832 0.01190145309804411 -0.0004192254581321913 -0.001027792872631580 -0.008722646638649174 -0.004702466499001458 
-0.01901342721531365 -0.0002898998098635785 0.04849943439628861 -0.001684792988887449 -0.001483605940108018 -0.0007654256903719865 -0.0005237004283990465 
-0.05678030556462275 -0.002168055228199889 -0.009372997409611860 -0.0003634245967107500 0.09256796859592999 -0.003221158651900034 -0.009731365378737783 
0.5536341482022634 -0.3031420564969824 0.03732098376933828 -0.1076236912331517 0.1423169967600507 -0.02687253114371076 -0.008233594033530503 
-0.08094028553504340 -0.002520312197537050 0.1259574009927419 -0.0007118077689608303 -0.0003496175411473378 -0.0003054841660677468 -0.0004361274829112564 
-0.1693792084856707 -0.02269492852571066 -0.01077362458546650 -0.01158734086157621 -0.01701265650263709 -0.01800534830714642 0.1044045744199443 
-0.1966622915130501 -0.2335604025236271 0.07360472993064397 -0.07154255137906489 -0.2908065238430348 -0.1103518200689830 -0.03426714471717003 
-0.3978107943166139 -0.05233313774480704 -0.0005053359548985784 0.4694671624577459 -0.0004416698481975690 -0.0003822457312969952 -0.0001213578003101117 
0.6949170072020016 -0.006357040516029601 -0.01527204823781502 -0.02198412816280414 -0.2912720624118255 -0.003140446573126939 -0.004332116776559097 
-0.07795990141103654 -0.01335173826246560 0.01056136360544097 -0.004229933494415557 0.03556877820699704 -0.004330955199280470 -0.008753348451574655 
-0.1431105068639873 -0.02299999777028883 0.1060154691052221 -0.01063359304101930 -0.0009991958979833540 -0.004267838511022269 -0.001630940571161892 
-0.1040888124031354 0.1664975182257086 -0.0006805129179953746 -0.01855821516426045 -0.0002058650014047609 -0.004027054802355152 -0.0001255478297140761 
-0.08032953741342672 -0.004565084574811603 -0.0008256939988297178 -0.0001109798976916856 0.1377923719978491 -6.427200475109943e-05 -0.0003253755857000341 
-0.2394184984391552 0.4134917173667992 -0.04108119821744271 -0.2234353942580251 -0.03462071425333803 -0.02759647806061943 0.02393207466060260 
-0.1066492923825274 -0.008651855551573853 0.07754837529038923 -0.01747109897737859 -0.005320561449814945 -0.001591804367538630 0.06499733251301844 
-0.02867156366253956 -0.08301066804343735 -0.003465920137388855 0.3219519622026366 -0.003330528476924526 -0.005668007425060301 -0.001584272955641815 
-0.1360770817578938 0.1986576085333464 -0.001785727865151082 -0.01388313549407957 -0.0002655341546026847 -0.003007701955426195 -0.0002884012048115463 
-0.04272088692265176 -0.0009760942873032253 0.03314037655448079 -0.0005073612990460472 -0.0007270404946742030 -0.01037026033847857 -0.001649971597116291 
-0.1865769979950978 -0.007967606383405730 0.01805539036412821 -0.02999184799442683 -0.03310782283901705 -0.006608580762215528 0.06813469538866940 
-0.07487523536309679 -0.0002621819282097279 0.1090069887504501 -0.03928138080483862 -0.003406931540368094 -0.0009079936806178333 -0.0009201482315997097 
0.05849924697741763 -0.1460603185686546 0.005750626118927914 -0.001000413757955407 -0.001331303024170622 -0.002203550308431188 -0.002239422894683957 
-0.05680626671899960 -0.001384691772666235 -0.004799453322350938 -0.01561323929163070 0.1205458793431047 -0.003826886010799056 -0.001199651025281941 
-0.2593946972963579 -0.0002251729234269746 -0.001783949054045028 -0.004313686886763500 0.2016428432421928 -0.0003256826729045284 -0.002409758097979183 
-0.2654398733585919 0.2274703224702456 0.06870583971088057 -0.004771351316227798 -0.001872495420455626 -0.01880891738828349 -0.002523431722384517 
-0.4630630757013895 -0.3714222130759045 -0.0009919601603036077 -0.06871848548565915 -0.0005795833543716278 1.428821756946923 -0.0006487582146176024 
-0.3329043923399191 0.3905416730979601 -0.002198072014870791 -0.0003416563799148805 -0.0001025029618012180 -0.001278664593544283 -4.453474747847061e-05 
-0.01795814235370648 -0.0003776135881588542 0.006063498468687784 -0.0006112219406779540 -0.002611472901074417 -0.002933738713225233 -0.0008040498965014123 
-0.006633604774289987 -0.002080029468130904 0.004842764092851820 -0.0002011077986953356 -0.001199623193784349 -0.0001016092486546258 -0.0002172666177649848 
-0.008017118938825493 -0.001733112187917104 0.01773082016199032 -0.0006460743457010635 -0.001237058812907665 -0.001068543894018577 -0.0001425657193425328 
-0.6131879588037166 0.6772249034778774 -0.02635552270393908 -0.04030874712032990 0.1520683084522447 -0.01059185386488449 0.1990704353005478 
-0.01082324446090601 -0.001840466356284594 -0.007465513785248588 -0.0008260815717418175 0.09141972756879364 -0.0008358390951588811 -0.0008808781187906049 
-0.01701640074421690 -0.006006108969260373 -0.005496732889798225 -0.001044638901608408 0.09972863551140806 -0.004947236740731610 -0.003598811458639030 
-0.1338082254297932 -0.006194075895628139 0.04638529613070402 -0.01570792576510575 -0.02137765039467966 -0.003796045192270912 0.2124279856820426 
-0.1213121237947068 -0.01656320086647168 -0.01256058826730013 -0.01974102281141908 -0.006514214416627173 -0.005906111122815578 0.1544083772267630 
-0.1610975116031538 -0.02684935669985646 -0.01875227388542548 -0.03483938243164707 -0.01936387014969399 -0.01822031333883019 0.09640186156973848 
0.02511541824454039 0.03334638544965145 -0.0004109188611917434 -0.06351293333064340 -0.0005744186809723598 -0.08366814598007391 -0.001245304816081796 
0.4440472614175269 -0.001483440822353151 -0.4459383805398174 -0.0004742112319447736 -0.002328706954770696 -0.0005136430418334652 -0.0009767558216615788 
-0.004946000983871380 -0.005971817448358971 0.007013243169528401 -0.0001028197328653349 -0.0004384421725149077 -0.0005888490088849903 -0.0005150601521990988 
-0.03513401586102018 -0.004932928805601890 0.06479410434161731 -0.0001390124489172353 -0.0009612999405603179 -0.0002831860871229617 -0.0006310064423258895 
-0.1863833344026556 -0.0006889837151775618 0.05633755621090297 -0.001343894099437612 -0.005196335500316812 -0.001024649323059260 -0.001955650988599757 
0.4457515084938727 -0.2765170867171636 0.006485713791068055 -0.01008434877194325 -0.002766790268361087 -0.001541388532839231 -0.001466533009621298 
-0.04299715898359013 -0.0004936478652851166 0.03841064779496233 -0.0002222603710962018 -0.0007555003186824155 -5.532855146546576e-05 -0.0006428653302566544 
-0.004931011668407403 -0.001810730371709834 0.004163127189350226 -5.688540273652750e-05 -0.0005338888644276403 -0.0001304220956662628 -0.0006740388963478267 
-0.007206029112227505 -0.0009919341502780004 0.01988602982698942 -0.006502930977508413 -0.001864053610739401 -0.0006934204214147246 -0.0005815047734228276 
-0.01496438392737171 -0.0002320798607969430 0.01338458970527797 -0.0004027461102578991 -0.0004294204753684188 -1.340952151372400e-05 -0.0001833598476529435 
0.7295501391106347 -0.1370619925439420 -0.1046179391146617 -0.2328484246586822 -0.8364620095998907 -0.03326980376638525 -0.02919974616561473 
-0.08277487868949854 -0.01295871476970902 -0.002246264727701746 -0.004942504864878725 0.07875025295973413 -0.001553074327103576 -0.001737639883027105 
-0.03311996304098173 -0.002213418297040947 -0.001066414048658702 -0.001406660276284247 0.1821243045003838 -0.0009477121275030764 -0.0001579797629150268 
-0.03388630571763394 -0.001570541411329608 -0.003808984470474553 -0.001370564045907698 0.1075922606463258 -0.0001806118273314528 -0.0004864850360864613 
-0.08930228961471140 0.1411109047608362 -0.001096467766744973 -0.01019118894466387 -0.0001226558583051324 -0.001822349880093655 -8.772090860873450e-05 
-0.008475104193394638 -0.003050681666586249 0.004983352618123447 -0.0001987613487988342 -0.0009813770560875977 -0.0004060744628157137 -0.0005865398464927560 
0.2426764631621221 -0.1556922828656078 0.006459545251974033 -0.0004018012349659409 -0.0008929511757243521 -0.01228077372801626 -0.0009114497287765074 
-0.07307988999895434 -0.0002176776107737697 0.05273083620414722 -0.0001987583786463060 -0.001008405323034851 -0.0004074411092415092 -0.0003144726914450756 
-0.02498746951061159 -0.0001535205487414577 0.03416468938083601 -0.001749897576770388 -0.002802502997857691 -0.0006702097766448841 -0.0009137577560949442 
-0.2238009074406977 -0.03770689349353475 0.1537962903446747 -0.01675006547350123 -0.01117759395373151 -0.002594875185822651 0.3027688567267207 
-0.07573713505433731 -0.001368785035870997 -0.001617140063288246 -0.001489064561269003 0.09061179494205464 -0.0002698991403457519 -0.0009178581389680801 
-0.1222477623750163 -0.07010112115422296 -0.0001846492608916247 0.1077595662233527 -0.0008570957967832099 -0.008226998546593936 -0.0002640275619139683 
-0.01766979061436877 -0.0006240047279458231 0.01754092796066685 -0.006171025111830803 -0.005127160294238043 -0.001493762795941268 -0.003046516434581983 
-0.008078078412019934 -0.001587411951038223 0.01211351162542059 -0.0003412347115275675 -0.005430716593138056 -0.0001582946849641305 -0.0003351064519997269 
-0.2392192629370029 0.2280631269251238 -0.0005484663853533830 -0.002948333385062913 -0.0004958866146342364 -0.0006964431374442549 -0.0001416627053140697 
-0.005454891775037993 -0.002159765146933677 0.009278788981619693 -0.0002524821455963720 -0.001697053738681823 -0.0004877718538976052 -0.0004935650579977749 
0.5370310535270240 -0.1319976088933062 -0.3333361227254223 -0.01627283702066958 -0.01447076846841981 -0.02151918104752559 -0.01846660390938274 
-0.3437170883119705 -0.04060622737591972 -0.0005537107879234954 0.4195448913324824 -0.001716083204225741 -0.001499037508069257 -0.0002053500403757888 
-0.03246318461071186 -0.008486808057836736 -0.006056411705386341 -0.003280833904019855 0.02435981281954157 -0.002573071565370219 -0.001803444557982994 
-0.4827106375019971 0.7308298150540950 -0.04503004042571079 -0.04794893087778972 0.03537965778474778 -0.01744450017661041 -0.01301808272593434 
-0.009535736531777757 -0.001903054927744130 0.01266587126312290 -0.001325776458299273 -0.001795411093582994 -0.0004729313455509945 -0.0007884634045860519 
-0.2164767314756172 -0.001306121833379095 0.08794321557653462 -0.002623267762258894 0.07980460617599193 -0.0002956508006765867 -0.001737134977752582 
-0.02249223142066795 -0.0008851197593849821 0.02682400002093500 -0.0006006939614124072 -0.002278162217336291 -0.0002278388020705811 -0.0007194109647331103 
-0.1279603978575422 0.3161988796400605 -0.002504538544504136 -0.003792072745297403 -0.0001687231246833264 -0.001913408737241512 -8.279712489256648e-05 
-0.004802060736989904 -0.001669882750671177 0.002243813748725115 -0.002011660644567094 -0.003896055644002753 -9.940321296866386e-05 -0.0006799857888511836 
1.133870951922319 -1.151523569420175 -0.3356313235739128 -0.08962469003433460 0.1603931790473666 0.4550807733076154 -0.004035382924487647 
-0.05682119301066139 -0.0004904772025574217 0.03892821432834653 -0.001510320430383032 -0.001292477307746582 -0.0005247846754167731 -0.0008055290616686624 
0.05330995830986728 -0.04234629443513611 0.007081163614845489 -0.004027825415548298 -0.004270059736145550 -0.0005742749899714329 -0.0006288453203061142 
-0.03159774310026149 -0.003637164165622171 -0.003798749801823592 -0.04565148415849740 0.06716258582294087 -0.006377939070645065 -0.004723449401690732 
-0.1958749130400193 -0.001997323987446825 -0.003894131572101065 -0.0007415196503993229 -0.001727599231744659 -0.006218162658842221 0.1235727901356555 
-0.02074883290947627 -0.008223108889197037 -0.01686405466561184 -0.002778532832539120 -0.01095206502732506 -0.02080298277376046 0.09311237243341826 
0.006188544749431418 -0.3246321871101768 0.01602104771550383 -0.01522432641609352 0.007060812880697356 0.2141795997066342 0.08019969279935629 
1.555271452862338 -1.382409705414242 -0.02503265529023278 -0.5817209463099279 -0.07222133596479155 -0.3265749514025816 -0.02831659954651600 
-0.09345010807845858 -0.006740805316869310 -0.02219047994596921 -0.005604775968155847 0.05037107429820165 -0.003655140309712328 -0.005246586142812534 
-0.09668274684194841 -0.1871427789031596 0.1077943430733061 -0.01659417078876185 -0.02312324647670433 -0.09224850992983273 0.03489209002687686 
-0.2979870726072779 -0.07831063016954058 0.2376740375918684 -0.04617823966971275 -0.005108415543490298 -0.06596418846098090 -0.01298466390293767 
-0.4666036004150053 0.6113773657054129 -0.0008965955306756289 -0.03046633754384801 -0.001846781262474416 -0.002984725056561413 -0.0001624076521776761 
-0.1250161034319995 0.3173705802442285 -0.001999984074065558 -0.003518577293557211 -0.0001610956494660954 -0.01563463667135895 -0.0002552590394230407 
-0.09432281565530354 -0.001509834308041846 -0.01473042287605070 -0.0007617940034650087 -0.002716284699176196 -0.0006439954470208845 0.09935751405937741 
-0.04182258041622043 -0.006375569621423190 -0.06567439326898465 -0.007852816499502410 -0.02020873087874606 -0.001427698304319162 0.06354909621718588 
-0.7263841694655678 0.7678073070050302 -0.0002475989499062604 -0.02356974474019489 -0.0005198647326106938 -0.003395928040327515 -0.0001301921759502177 
-0.1246519813939828 -0.0007868518023137612 0.03388975202751567 -0.002104841890552477 -0.01225411751505427 -0.0008778567056841158 -0.003179582767227375 
-0.7778126677861026 0.8132185850557542 -0.001278200299210007 -0.01012229125263770 -0.0009478585280431964 -0.005723925673120703 -0.0006445478741428885 
-0.04378519925330456 -0.001412396426330442 0.1095850439399328 -0.002606419505490310 -0.001703526281637219 -0.0007761555210713558 -0.0005398110619346894 
-0.1323660194858634 -0.07259588095055665 -0.01931037270288385 0.2907968640644741 0.006389587797233477 -0.01039932118032779 -0.006798125258890763 
-0.03973189617560584 -0.01535352410771066 -0.03463957227394115 -0.003775247151646214 0.02690384280762796 -0.008956523469542461 -0.01124043963975879 
