solver_type L2R_LR_DUAL
nr_class 7
label 7 1 3 6 4 2 5
nr_feature 2446
bias 0.000000000000000
w
-2.642347220478719 3.227254566117352 -1.458173411544894 0.1552246670393361 0.1576601199429060 -0.4639741002224903 -0.09904849045600395 
-2.083300726513505 2.054715999846603 -0.2071941518652756 -0.03536927299442303 0.2951030543201386 -0.08326277458772690 -0.04938836373663501 
0.2929981448985400 -1.744687138822406 0.6098619288658642 -0.7041913536371566 -2.179906350652754 1.331310829479371 -0.1144227779924114 
-3.547631201033028 -1.797905145665779 4.021191281910998 0.1537644815362660 -0.2949980606848363 -0.2899780693798331 -0.07576538959878283 
-2.738236424514605 3.466505037856842 -0.8863937455433654 0.2413301460707965 -0.03770919738530512 -0.6085627424078248 -0.08469383444774450 
-0.4964983751536525 0.2963516979615373 -0.06787107130469679 0.2799893376803306 0.1815886476661789 -0.01334519470866558 -0.01179643010062244 
-1.011307842001950 0.5314389919041914 -0.2044878448668436 0.04174043591190940 0.7272972813176051 -0.03476562511120936 -0.05219573680299443 
-0.5055367478709896 -0.06632305111915915 -0.1605797517777564 0.3536398501668012 0.1372206998877514 -0.02888703595094781 -0.07212545181991556 
-4.152121472519026 -1.249085686800596 4.493461307018642 -0.1104664831465482 -0.6365421174957890 -0.6627303346920638 -0.2939378705227578 
-2.173317204648347 -0.3310417523481926 2.083247489020327 1.306040858889985 -0.03620402208901619 -0.08246451660600362 -0.07649716199087474 
-1.688309678785521 -0.5289080567483659 1.966217470240881 -0.009960789561218148 -0.01466333387034702 -0.07760036061226078 -0.008560621326390959 
-0.3304025153643576 -0.02801897522453650 -0.1768916579024076 0.2001405419011283 0.2516234810751463 -0.01979477167909868 -0.03096421264475855 
-1.424971525900568 -0.8333945778615125 1.721216568555286 -0.05678275934617962 -0.05481599443073788 -0.08138452498493227 -0.01798945052581879 
-0.4745345531997677 -0.4658961136032676 0.6262178359790089 -0.004861606851457078 0.03138930848780783 -0.02936191239642812 -0.001086930293618262 
-2.323147690771839 2.935949328836664 -0.9171311727742150 0.03042246099473645 0.1609830768398152 -0.1784946091446613 -0.01858116751800872 
1.036063310603980 -0.9939722897443252 -0.06035317449144834 -0.2327259897111737 -0.8218340623642432 -0.06356976059076531 -0.08059180865042462 
-1.643300309348807 1.988411059013149 -0.1472310600293188 -0.005986083531175033 -0.02246663955210290 -0.01872841699024033 -0.006176985172454007 
-2.543314842224146 3.202184139401571 -1.667870130701615 -0.1308423902234884 0.4141000442807014 -0.5962288427966959 0.1277193483031922 
-0.01436773692057622 -0.0003544360412384804 -0.003140271398769912 -0.001240549723272328 0.04105938701846199 -0.0005531024823494908 -0.0004840418279512064 
-0.2257282498736408 -0.05866790893663430 -0.03284418195350018 -0.01958078471170175 0.2451915762234579 -0.02045009290643255 -0.01353655394097657 
-0.1459064617493793 -0.2417019837954284 -0.1007780664499989 -0.01612854077443965 0.3760307603114520 -0.06398128377496501 0.005575947286327220 
-0.1306867599515026 -0.005639505621697905 -0.002408743385450771 0.01839000390524874 0.04573789802799923 -0.0008316118335094463 -0.004620631752598275 
0.1425855962575868 -0.1280726906413947 -0.004989753423414707 -0.004702299336962211 0.03883928446781457 -0.001063899111320015 -0.0009719324434294295 
0.4029199773113503 -0.04943956479045431 -0.05840886528848048 0.03241873297129830 -0.7680942159456989 -0.03307052787019148 -0.1840073773377248 
-0.3421776240490250 0.3626488150338539 -0.01961166325574753 -0.001516060477576840 -0.0006548815666371035 -0.01497094717917325 -0.002604598926798666 
-0.9863419377805029 1.071509206303188 -0.07309234580060198 -0.001204559329353650 -0.001695529802264347 -0.03056681063320928 -0.003207899836560738 
-0.3354753292392669 0.2851527330573323 -0.01467828234562495 -0.0005724407532793125 -0.0001529410235694982 -0.008801361829201555 -0.001105594052646526 
-0.9734286951476693 0.7858436005072094 -0.007955766945768598 -0.001040912832226528 -0.0005557572216237496 -0.009359612859725420 -0.0006585442278986489 
-0.007885553197229850 -0.001664114736134999 -0.002281492262003783 -0.001515280779079951 0.02902219259160238 -0.0003462580830652102 -0.0003932024653747274 
-1.926097290398737 2.117288433313471 -0.5372921475318873 0.1087483598369134 -0.001963190549174506 -0.05208332388802515 -0.001813144643020572 
-0.01104031956541843 -0.0009627869431422441 -0.002955756133568203 -0.004987432167467915 0.01538263989452024 -0.0005521374957071360 -0.0004675768071352366 
-0.02211736529428621 -0.0005249260362878933 -0.002510700390407531 -0.003101361219636440 0.02802848593117231 -0.0003373402986350102 -0.0004226157808471121 
-3.086599760233549 3.710494794173097 -2.176672212139557 0.4173739622065332 0.2463208416316037 -0.9549263902523709 -0.2262697261211253 
-0.8427143674059581 -0.3130178717617475 -0.09727571634929148 0.2877040493891687 1.296732545786524 -0.04814393719539912 0.1747257594424803 
-2.480858216303787 2.780586533169997 -0.3572739013981857 -0.05701330990200964 0.004159898723535871 -0.1703178847270038 -0.05384327225573666 
-0.08533784845066877 -0.2456837053571950 0.1326284973194197 -0.004438769385182865 0.02679708759661804 -0.001311400628086488 -0.001071325732128786 
-1.828355216356410 -0.09557332982665719 1.555400681948993 0.1955395583040641 -0.004131447586109161 -0.003374455019854600 -0.001489249343753401 
-0.3610707020464902 -0.07226016051493736 0.2855687326473869 -0.0007273782834941341 -0.001210427028910366 -0.002456166855715316 -0.0004383064540417507 
-0.6112635387977462 -0.2255648927538518 0.7410602660606038 0.07049152815180310 -0.007727785409149902 -0.01246257640074807 -0.004901667949208810 
-0.2318039241748028 -0.01646429831212658 0.1613708305415142 -8.395879359317652e-05 -0.0005154252555021146 -0.002342041193451580 -9.263528899104570e-05 
0.4915261586236154 -0.4062259952290133 -1.049482540211074 -1.649406674363545 1.400778906655041 -0.5240368873786081 -0.1599084481629773 
-0.8916950618632656 1.373483139332660 -0.9974883348539426 -0.04400596111803623 0.2486324419373763 -0.3831979807703760 -0.02210417011236869 
2.041874317261017 -0.9207753904255177 -0.7894963607051456 -1.335649959344776 -0.7395327359507031 -0.09041580381462190 -0.01711393114030218 
0.05971068585902857 -0.06861568504757090 -0.1736183962137499 -0.01106930561499944 0.06820228496933810 -0.01095036950425487 -0.004701215562153260 
-1.567565786434681 1.391383901222192 -0.08664091282671166 -0.008826090431804337 0.1904048705314364 -0.08700144479158352 -0.01966186660530532 
-0.7942910007395128 -0.2081297580366671 0.8438699501088341 -0.006616363811297267 -0.003028599182195136 -0.05710142559082568 -0.004005278196175533 
-0.1423657611611073 -0.005584985988093483 -0.3911650727651689 0.2985838932353391 -0.05548438263734165 -0.01038586006193499 -0.02862700478405345 
-1.061059133067509 -0.4618998645206778 1.308805052010772 -0.006235308150689492 -0.003983309596319905 -0.04621165510230834 -0.002558109458562739 
2.496365339543382 -1.806869917960499 -1.844611686187127 0.01235255897901151 -0.2757989580944304 -0.9198260046249159 -0.1952176605415378 
-0.5474335735849991 -0.005087795110088925 -0.01929837373372186 0.3755537437419176 -0.09688811217985920 -0.007062404432115557 -0.02864229371746935 
-2.076791013217573 2.646452708534247 -0.8866291609861501 -0.01308716593492536 0.1011788288529143 -0.06563709741668938 -0.005407996180711931 
0.1464594364209091 -0.6450401302345509 0.7615152918655709 -0.1034574738655450 -0.7303190427940193 -0.02357113239104918 -0.001981786347411523 
-1.252887523422256 1.717093121048262 -0.8569648576405810 0.2134899469532236 0.3456415062862607 -0.2601544735287932 -0.03258038302414362 
-0.5520183943076277 0.1501220036577973 -0.04161257029498640 -0.03722756653786168 0.8056020036816934 -0.01498059805644579 -0.03398060831053366 
-2.175324494384480 2.848857446399947 -1.132985878335527 0.1665293407730273 0.5286886020430608 -0.2356172105022795 -0.07623292315882467 
0.2427473513669793 -0.5908407923233862 -0.2585245484159032 -0.04900906184628720 0.4646733318985810 -0.06572824958771353 0.1865495073848108 
-1.832139089540318 -0.5149881803659002 2.549527476765236 0.05857470964690045 -0.02337788547017185 -0.05655811069985815 -0.01096249393872901 
-0.2645900097391679 -0.3132319600554371 -0.2878054322697767 0.3437337092420738 0.1963998681667745 -0.04653506688318720 0.1220928460986329 
-1.213671071733009 -0.2577872480153194 1.507788565414052 0.2390402470518880 -0.001897141157640102 -0.04512888196061451 -0.004525684452901674 
-0.6577710911887373 -0.01050101730418225 -0.1132330884235324 0.7367128613593072 -0.1303218986890175 -0.01419195369784466 -0.04241676316561461 
-0.1741447915665694 -0.009884287500449500 -0.3284704426139934 0.4196110945613030 -0.1801148412645476 -0.02337417611292367 -0.06518616157267527 
-1.297824964771939 -0.9612275809387730 1.880565493751394 0.1572611616740468 -0.006310023353855874 -0.08102151869759588 -0.005155999924257655 
-1.105852642619796 -0.5015549758161558 1.363223558371980 0.6453473427191431 -0.02450153305213260 -0.04395021863707065 -0.01203716178781538 
-0.1119867661388931 -0.05066473444522430 -0.01924809108951485 0.2002676524307583 -0.04870889767439187 -0.02052257911474446 -0.03040962161709025 
0.9438797698243452 -0.2800482828505188 -0.2829378828996817 0.3176715834925526 -0.3846096024053279 -0.06941303240291102 -0.01341242194234710 
0.1292101839031404 -0.3631543382288682 -0.5655654328182145 0.6104260801850452 0.2503857036414580 -0.06721670898749872 -0.006027574922757933 
0.008730911611473763 -0.5488800155521354 -0.3391631131870003 0.6664988503323915 0.06313964886753020 -0.1651981846413916 0.1414254839511286 
1.835273593519097 -0.9919095969385127 -0.7213493760983447 -0.8022088528551912 -1.319944223836127 0.2759483282067701 -0.07513672012702567 
-1.025594265142541 1.845248679002566 -0.1990775481347848 -0.02695854200687221 0.5269252236810889 -0.06900681424196291 -0.02840244882208844 
5.175673296336988 -2.629140990683125 -1.997386924757650 -4.146100034655341 -5.585015567898508 -1.781097004423107 -1.119066142029920 
-0.1115969784263533 -0.006016814860334465 -0.003599902605356663 -0.01062918550306345 0.05507769416075946 -0.001891223611089471 -0.005223082364987098 
-1.256705671292451 1.188650588495687 -0.02083522658057151 -0.01440604310666293 0.1216334274880840 -0.009212251894997588 -0.01197280131770899 
0.2212260671523227 -0.1462787252471865 -0.03543732446485829 -0.2659697283421740 -0.08114308096946707 -0.01297977911635178 -0.006747645336129692 
-1.820540211644167 1.614488678799835 -0.06173504187285517 -0.004901430893787633 0.1213085856937383 -0.02628823308979622 -0.01048101365582030 
-0.01266368326892378 -0.001109063467044952 -0.006688354616061612 -0.001822678513690902 0.07425718067100318 -0.0007611384747371627 -0.0008710252664383305 
-0.1716930230242743 -0.07486029707056403 -0.1823936567855001 0.3719543856463838 -0.03949822017095231 -0.1002816431510347 -0.09458582652431591 
0.6224850470333388 -0.8489549915454680 0.07894339358335721 -0.3319584253567178 -0.3531986506457244 -0.08265168394205000 -0.1970912255330543 
-0.2072405352244475 0.1262184887124196 -0.06260846076739070 -0.03878851470273755 0.2134258006330776 -0.01232051789647909 -0.01888947999539177 
-0.04545069488337964 -0.03423159361766852 -0.01646511157438361 -0.01115242706075885 0.04527885646823251 -0.003434166736938104 -0.002965658747764866 
-0.02409438785883731 -0.01278150418936616 -0.002998377919926915 -0.003168530711742561 0.03454857141121925 -0.0006737849097184967 -0.002264862417258956 
1.145927515457826 -0.9257728087055490 -0.7956112132804793 -0.1386176902010754 -0.3044943395552108 -0.1988807927190713 -0.09159483326688801 
-0.1831141240743643 -0.005569156331901998 -0.01315294795026747 -0.001327750141448083 0.04550274154466803 -0.01008036781099115 -0.01630497425633930 
-1.037339767972806 -0.7460605855356184 1.759431182122438 -0.01564019819201590 -0.01094123473760048 -0.08089313240165208 -0.007207835628800386 
-1.501501517187518 1.342090591498116 -0.3368406623406104 -0.3467553595030269 0.4384910492587777 -0.3171102552389394 0.8493636525876241 
-0.3052948892136413 -0.05941402173705666 -0.003729998361973800 -0.02361392937261716 0.2915852977736259 -0.007446838731247006 -0.01479075528644930 
0.04032377493967297 -0.01167300456091127 -0.002896949195837162 -0.002386501096049024 -0.1453767281120403 -0.009330786096679512 -0.006531192381030498 
-0.3094075241724602 0.3488621719124363 -0.03911426885181361 -0.03963686872579515 0.4121148780795272 -0.009953681962309712 -0.01607491974771643 
-1.752421872413015 2.588943733365280 -0.9257186950160059 -0.03785558764476730 0.3117224744887891 -0.1431212743855761 0.1821688061881538 
0.5742474985893960 -0.6096669734086435 -0.02088330871663109 -0.03229200903027680 0.4920830372806939 -0.004062013972282446 -0.01815498914887988 
1.082389151161147 -0.03346729608627107 -0.2568355501836295 -0.5209585198822947 -0.8353899707525315 -0.04371869504145311 0.1079293917165231 
-1.740385970666294 1.720922712598328 0.2775916374336077 -0.09079285719673041 -0.2209876279904843 -0.4740139850759026 0.1893178866641823 
-1.289784089216291 0.6003354802282673 -0.4266739782542787 0.05446218389928444 0.02972375778257629 1.158051933035859 0.3793504040433967 
-3.454134044292262 -1.158632364387815 3.837849805824705 0.009259144815344615 -0.4878329599454672 -0.6495782018629480 -0.3895911162659322 
-1.354325616189596 1.769818542925871 -0.7836706409503384 0.05761237938479978 0.3751055159480808 -0.1737691728028746 -0.04243173275189886 
-0.8609173903520310 0.9835900934093559 -0.07366786062482708 -0.03877686900665451 0.09925756585329476 -0.02992707139695975 -0.02527589404080652 
-0.3488644329704397 0.2925313035742925 -0.1477742382933665 -0.009784470973072975 0.006652093829294842 -0.01935339720608889 -0.001181523727957593 
-0.8441403205321055 0.6924364270788981 -0.06077090136744232 0.08542209792339851 0.2432965000798759 -0.008194352697921180 -0.01385826710443326 
-0.03977659456788260 -0.006069807363925968 -0.05385608257918028 -0.02417349829697132 0.1188477341604334 -0.001720776228796789 -0.003854612003667742 
-0.1087056275637683 0.2007858632671593 -0.02188627387050165 -0.009678242063539405 0.02333264431189404 -0.008363463002387793 -0.003836000524614798 
-0.1207756325317900 -0.001348926790907400 -0.003161548209353448 -0.009042103341891372 0.04780918511064902 -0.003353044221924774 -0.003080832435265102 
1.829941709775677 -0.9953648830300463 -0.7807150510909567 -0.03817331228747856 -1.360954509151430 -0.2191431358156000 -0.02208201077852343 
-0.1341262388646084 -0.02055993851371150 -0.01190472336434602 -0.2739763004579994 0.2063682488289991 -0.01149090830058533 -0.003868793038986125 
-0.06360160231575464 -1.850320050782300e-05 -0.0002733637298752052 -0.001410942035145071 0.01147646896527664 -0.0009140211648757894 -0.0008191602401338217 
-1.984558765349107 -1.278769949340801 2.429129427644254 0.9727357702502580 0.3153044635902607 -0.2451186957143072 -0.02756056765704337 
0.04641430746083414 -0.2907065980953044 0.2213316396958827 0.03810936955996357 -0.003404836447546887 -0.01668875246088120 -0.001196223277788680 
-0.1916671560153362 -0.3417393791548883 -0.2895435278106987 0.03195048656881196 0.05845443807242789 -0.1937779015703234 0.5670275098916558 
0.4519626881422620 -0.0005840684496488122 -0.004014720033473804 -0.0009344561083380314 -0.3005395007218543 -0.0008177324728178828 -0.0009966795253352690 
0.7374593216697423 -0.05604207905026782 -0.02971086586604033 -0.003633314712231196 -0.2316362915179383 -0.003950262284973236 -0.002394629649812823 
1.230717263009321 -0.5350801774801033 -0.01518765856771989 -0.02573364449903255 -1.225063188072878 -0.009768764097996100 0.2997207962002346 
-0.4014220935521827 0.09774662603302418 -0.3022299266133884 0.1586302670262209 1.242464369176341 -0.07107001316226313 -0.04022570641939433 
-0.3252477637590232 -0.09973661961834192 -0.2203480887248190 0.4025167185918139 0.3536151015722681 -0.05549708583563442 0.6627978796009208 
-1.640419615298857 -0.6339739026928067 2.617567188641468 -0.01656752642610110 -0.01171372142647467 -0.4356406017442425 -0.2110293855567415 
-1.480605068486846 0.7282727537747062 -0.04196910751988211 0.1329994212183583 0.4003875006432988 -0.01928946564197420 -0.02034880639155242 
-0.03872823737342253 -0.001841749635466257 -0.0001631931859942577 -0.001403635192982462 0.01421916300892698 -0.0002344854404481524 -0.001437500631793381 
-0.1052032805949384 0.1146721672295011 -0.02124120624183516 -0.0003136371376656019 -0.0002584150474752358 -0.0006625965944904482 -0.0001361047266574293 
-0.4844823764153897 -0.05695819496728441 -0.1028629439345986 -0.02144037922665158 0.5904371898765105 -0.02474076855203064 -0.02018277158374039 
-1.007272604619487 -0.04345002612421110 1.020776864924617 0.1326273072611125 -0.001275868064309436 -0.002277825397775275 -0.001138954398050804 
-0.2089049304265609 -0.07601181774255966 0.1526814113801096 0.01390842823679387 -0.003214495222816390 -0.002006402882084411 -0.0009828371717664503 
-0.1140523449877456 -0.02773110813340411 0.09657488494683715 -0.001526422694280718 -0.002327507525043204 -0.002925356844924919 -0.0007611223274630896 
0.008533024235618754 -1.265756981165091 0.6032756516758269 0.2971311343659112 0.1251600789800977 -0.1393323163635265 -0.01544978822898810 
-0.4702321459975425 -0.3364510675979879 0.6290516409370579 -0.001260558513965552 -0.001336675640645962 -0.01390497205046264 -0.0005498510619900774 
0.4202503088474183 -0.6440607970186325 -0.4793904439159130 -0.4043663602781160 0.1866021185745972 -0.05905876519707808 -0.07504211510422346 
-0.05384265115692982 -0.3112402714804689 -0.04543456815391158 -0.01799867129813326 0.6828282829561276 -0.008022867800404827 -0.004360545521809408 
-0.04156104754912569 -0.2399739966469170 -0.02020011444205478 -0.02767119362526530 0.3534199616087435 -0.001567218155534813 -0.007426560819396557 
-0.1337765175351433 -0.2979451331191632 -0.03970354586276736 -0.0005161011212394445 0.1430452112245619 -0.004544616978817664 -0.001134991075886344 
-0.9001746493930701 1.140574952953871 -0.1165560336326135 -0.005321683014589522 0.1145961266930192 -0.01060820283109994 -0.001623761599631534 
-0.01213712684866883 -0.001865611772994221 -0.001329105683896256 -0.002687373741710089 0.02203163198153560 -0.0002075406835329446 -0.0002912420919701743 
-1.201882838614478 1.118563774493162 -0.04164779598133694 -0.002214555139380486 0.007964196506176980 -0.02430083568553086 -0.003052192956216076 
-0.6180407168703301 0.6507795482509090 -0.1535266638843434 -0.05490180745149514 0.5969354944778680 -0.04342682538103869 -0.01010550319318035 
-0.1834864776004903 0.4589126159461646 -0.09698111985147190 -0.005022396965170628 0.04598821201226584 -0.008766386283538366 -0.003065042545342122 
0.5999849080533018 -0.3089800767184419 -0.009358721455213777 -0.01847847786072896 -0.3907517374934101 -0.003550371179677141 -0.01443798297679967 
-0.3326547073264122 -0.009837860207828323 0.4324975017605380 -0.0001480675255090406 -0.0001513459228238081 -0.0003156620686387677 -4.521768189433339e-05 
-0.2128400755781716 -0.1017294541140656 0.4444430787400937 -0.0001084026819166985 -4.397757679649989e-05 -0.0002762193324298621 -1.302104444455705e-05 
-0.3887771056732489 0.4199525638016009 0.1088110814470970 -0.0001936219491961626 -0.0003289926801595928 -0.001567204850627768 -0.0001074982781392260 
-0.4832469086833451 -0.2064690622722787 0.8360313562494046 -0.003430395889584301 -0.004857975197134881 -0.02034354756639596 -0.002838338300154627 
-1.713556393511572 0.2155568775479618 1.668652115864358 0.7019016186316471 -0.1237435725931288 -0.09311205108275410 -0.02372557876896061 
-0.3139701082909465 -0.01093586295232450 0.2716155823554792 -0.0006640183252688588 -0.0004437112182241498 -7.962460398502654e-05 -3.530911262503554e-05 
-0.1320181579401437 -0.07350343613962575 0.1493787993612341 -0.0009992603240226614 -0.0008911122007239515 -0.001881214632691025 -0.0004719243626336160 
-0.09640152352233322 -0.07981498386443489 0.1674494623942317 -0.001368446172655051 -0.001813743264136001 -0.009030566545884668 -0.0009807777566916320 
-0.3316577084248218 -0.02195527652034643 0.3249122207567829 -0.0007490389376832503 -0.0002187641918969890 -0.001660181096626188 -0.0005541524911684242 
-0.2124911981852692 -0.02400211357730701 0.2188463831987007 -0.0001798402067259317 -0.0002156870457225706 -0.003435160860051748 -0.0001136824800916769 
1.078385987338580 -0.4651510944871586 -0.6478766914889206 -0.3962194558940769 0.04901907634738950 -0.01428523104436202 -0.003730201240859939 
-2.860667341341134 2.966678876335331 -0.3275569047388267 -0.02086379316717986 0.05639834824020340 -0.02453357738038986 -0.004082994767766373 
-1.676828018008373 1.025356200231906 -0.09334440671307108 -0.01473489694286767 1.160090755168383 -0.07047405265645425 -0.03172849782509953 
0.2576445285659378 -0.2070794071148047 -0.02121570657103626 -0.009812244193413311 -0.2070050300792799 -0.03044084312381137 -0.008298560187843087 
-1.905651615927467 2.210451343761601 -0.2419875051095170 -0.05343634605669014 -0.04978504933043255 -0.1798348492692722 -0.05340183321896422 
-1.323394203180304 1.037144033020144 0.4437329738429228 -0.1841241053350210 1.060298694659787 -0.2706476726492155 -0.1051374762039700 
-0.03376101570002711 -0.003543191978042323 -0.0006465516639307259 -0.002284765923714120 0.04124699242954610 -0.0001220774930298967 -0.001375648094709088 
-0.06339939762095921 -0.05173674981958280 -0.002009689573370413 -0.01082495472105242 0.1934336794527488 -0.004688041209184795 -0.005624139075703345 
-0.2770722069094724 0.2747658011624402 -0.06690353099795264 0.04155210880093551 0.02156474527928817 -0.006496429168324183 -0.003041690985388315 
-0.004729652539897299 -0.0008800952312398764 -0.0009342651640855288 -0.0009605816425610764 0.01499760443604122 -0.0002796432652310218 -0.0002939881123627544 
-0.3426650043119890 -0.3456120461521056 -0.09939975056586192 0.1144270590156719 0.3224880146510150 -0.05915171960838977 -0.07525033065759947 
-0.4810072696835889 -0.002375470888909024 -0.004472795823085801 -4.994978347916657e-05 -0.0001124272914552041 0.4417282029775928 -0.0001819229847469446 
-0.02177897311771768 -0.002578712779654352 -0.04265239085417883 0.03405955804679312 0.07313319753653494 -0.002104558689159851 -0.003978028658002006 
-0.2201902526108142 -0.07429716505238884 0.2147520490016839 -0.001188227663666808 -0.002343577002217365 -0.004796171881816932 -0.001050014752332336 
-1.104504275988943 1.417537282878232 -0.3628076520613708 -0.02231060429541337 -0.01182999998960176 -0.05087034765068414 -0.01081855275137444 
3.438825453041095 -2.120434121088829 -2.423753487384130 -2.678335051524584 -0.4278585118421747 -1.430489511948224 -0.3863268515750038 
-0.6835233861295562 0.7013757479347285 -0.06481438929502004 -0.003752962377014412 0.02904423687018507 -0.05231263718959778 -0.01689286702978551 
-0.2327053810487829 -0.005986928577841075 -0.001617112946772541 -0.001792517395589356 0.1113158828197138 -0.0006503036195499168 -0.004676664225786043 
-1.288656179959412 -0.2401160960109002 1.705125679723692 0.3859930450779435 -0.07082877958856108 -0.07656071781263975 -0.03977164444684126 
-0.8810757955265870 0.7177463356601053 -0.02964396813037201 -0.02633871255942687 0.2809036024757811 -0.01684106665685362 -0.02487420262095507 
-0.1554060888816123 -0.04516356469413591 -0.004101272975461854 -0.008607372363849643 0.2487302206661908 -0.002141333932126350 -0.006305765614771771 
0.8369176207628788 -0.3474064986841670 -0.1288809557876246 -0.02492593256447360 -0.1019296683063275 -0.02973383619080999 -0.01399174856936716 
-0.5276089201504034 -0.09928253790835549 -0.04266463237188716 -0.07402760807520124 0.4430317142075974 -0.007837568322861059 -0.03224214254483083 
-0.9493109144500418 1.344761578614012 -0.6488272510302170 -0.01810266556283818 0.03381917169673659 -0.1072774832449098 -0.01659511340762626 
-0.08600864718317776 0.07976342888237610 -0.09251113407454110 -0.03809597221058984 0.3302259776572155 -0.01497860845948656 -0.01116965674727908 
-0.07177357690091515 0.3658167373040178 -0.2502034498330188 -0.01140421196383257 0.08401513401374293 -0.04215187643806408 -0.003346621491641103 
-0.7173863822245867 -0.3362803427567568 -0.009823129385563975 -0.09182026296655463 0.6024130495404286 -0.01596207527632125 -0.07731745051625966 
0.3808540634673289 -0.7228319865636281 -0.7457161927387219 -0.5690294093352190 -0.8272196672381311 -0.5570324341931546 -0.7947961524651195 
0.7370429908686748 -0.5646834060140954 -0.4918920993811091 0.1094682935608406 0.02897067042357654 -0.01987251296835088 0.1337120001792184 
0.1607479968834309 -0.1634629231416957 -0.009038963016320206 -0.002678221684264785 0.2137822383538076 -0.004302721587016463 -0.001608400687143374 
-0.6976802041356494 -1.532446298843037 -0.6388168871029280 -0.2352047987433382 0.4692271435907943 -0.6717037160340004 0.06914418712292830 
-0.09902259855242420 -0.07635859273196438 -0.03758970441999850 -0.002530521067138308 0.1689882578774014 -0.01522964321309373 -0.01530242059667588 
0.4030888726388208 -0.1003848058391800 -0.1083260305907449 0.01778856853548445 -0.01410771327424702 -0.009238004512075633 -0.005540764450316719 
0.1088312295873346 -0.04317395020659306 -0.1512120563713024 0.03726529153714864 -0.002180078280905788 -0.008150223306477323 -0.002342968706228351 
-0.2433007158189679 0.2809548976784450 -0.07229815583118308 0.06392075325249061 0.07107472894500104 -0.02141994607769767 -0.0007698482654116625 
-0.3726954149721770 0.2681319849508308 -0.005029354598794250 -0.0002159849299552899 -0.0006555488748455469 -0.005663166161927836 -0.0004223517544870545 
-0.4164512015679729 0.3203151500594618 -0.01993322660221634 -0.02566262034083155 0.06935728648225296 -0.002227548904850487 -0.004173541031054343 
-0.3588990191161116 -0.09391123280863271 0.2213607724157496 0.3533053248287929 -0.005603132328505272 -0.04439257565141364 -0.005417277465463271 
-0.04694842519151291 -0.03124296501351817 -0.05053963358704952 0.1352826560183756 -0.01404392878144837 -0.004606463970676524 -0.006052679580126281 
-0.01305891014999244 -0.1431405008946794 0.1441417350680854 -0.0006484277527231285 -9.219653031339501e-05 -0.005735015154804066 -9.572008896262027e-05 
0.01623652931735686 -0.01263000179054264 -0.007196874439039595 0.07333106273661735 -0.003198169008947822 -0.001165631919705130 -0.002597657125481181 
-2.463456998436556 -1.042877876299060 0.01261468061124522 -0.02534935915770010 -0.07850148540358700 3.953083812216207 0.09032740183767604 
-1.024465931579034 0.9544777771573723 -0.03345054174553117 0.001880347865583417 -0.006174608803863095 -0.08336225213072301 -0.002742383214175743 
-0.4893366742971405 -0.002076531458049577 -0.006161825101081414 -0.02302754135138160 0.2447752053931417 -0.03050000878982319 -0.03266024718176519 
-2.956760915822861 -1.686145300148781 3.496297517956954 0.2576796560149465 -0.1067964060716432 -0.6500600889598204 -0.1402235129648709 
-0.7353887277145521 1.243348121786134 -0.7133143319059084 0.09936432585288169 0.4329462608193150 0.1558193128293969 0.2006290151227689 
2.762085172188461 -2.859451485008214 -0.7636662711383222 -0.8169804179328064 0.2632548154505951 -0.1360622500688005 -0.02098820088791607 
-0.01573399007970181 -0.001200492792292275 -0.001947037504102302 0.01529563340564958 -0.003002661275718212 -0.001863145211427562 -0.002724579662139817 
-0.1433338259263312 -0.01772239529187789 -0.09905279451830903 0.1153389749243063 -0.004553295199008263 -0.01434450384849736 -0.01655946561241612 
-0.9824958601036806 -0.02758104647170560 0.8540595929330778 0.05781554777431412 -0.003141205375386629 -0.001284962052429038 -0.001654868077457924 
1.447602478826220 -0.8708704980973994 -0.01199493323737306 -0.009629942090510470 -1.113972127771452 -0.01210819349792817 -0.01260307839915858 
0.5601765719891274 -0.5910642221115893 -0.01137172139970226 -0.003089427955968613 0.04410429825140549 -0.01658884967737638 -0.005446082518063948 
-0.5624693152737883 0.5924603339061701 -0.02374357557080951 -0.02832237029940894 0.04549752150379247 -0.01182469121154012 -0.02196651250660367 
-0.3889104048807102 0.4191529849179695 -0.1045493785765145 -0.02927009958359078 0.4264640663031439 -0.01250906723765261 -0.005585989870474250 
-2.273113292742009 2.398426052148635 -0.1381607972024497 -0.01617200228770350 -0.01764103625774713 -0.04785354938671458 -0.01628036060880728 
-0.6180027819640072 0.5782616537113241 -0.2604480221509279 0.2619377543184348 -0.1156031005128227 -0.07189030675694863 -0.02119348991721020 
-0.3280525408673661 0.4078410389887425 -0.1888141830657129 -0.02499171358584807 0.5518220367356398 -0.01223164464045061 -0.005881250860575072 
-0.08454001264124328 -0.008180674686691808 -0.001675369601468266 -0.004733170169477388 0.09193687703447909 -0.0005159544378223667 -0.002774301381426190 
0.04497836102211662 -0.1108355209622810 -0.0005374438812162539 -0.001179013888030556 0.01255070423714329 -0.0006821364741085875 -0.001270271338532842 
-1.092432202546921 0.8649000758423231 -0.05888882842903481 -0.01249638834592224 0.8590694171665600 -0.01320270040966764 -0.007008892463373571 
-0.3499681333648282 0.3902682541414064 -0.05112373024185522 -0.03907562850107010 0.1891765190807592 -0.02803213845201788 -0.01101228016603443 
-0.5594891067692904 -0.2058012487274473 0.9314841399781210 -0.001144905670442168 -0.001299126913613698 -0.02865554057698978 -0.0008601559947383441 
-0.3732743448050975 -0.1442175219443445 0.3628451203579649 0.02884788124253996 -0.002992102637553442 -0.008948133096566762 -0.0008236335999997591 
0.5825856091736590 -1.065977001566066 1.120721373601037 0.08911309157953577 -0.06288200408335963 -0.02954904735702362 0.2205768570463165 
-0.4221157930588875 -0.03886417473567012 -0.01499409612743915 -0.002514800349722259 -0.002056547241803675 -0.005080274647828500 -0.002364505834161344 
0.7126698399148250 -1.247065986212187 -0.5919784928645124 -0.005669887458973901 0.05391833767416280 1.596512034733929 -0.005583584225035760 
-0.8887375799686676 0.8191751602567330 -0.01001572074052357 -0.03255540916253206 0.003392575489917503 -0.002783818142711610 -0.003637689651425289 
-0.4340867307576993 0.4446780282410259 -0.004510849744322918 -0.008680876090324731 0.07507719536874327 -0.006070077524949493 -0.008079122085216875 
0.4346208855280176 0.07329603323412316 -0.07378721116422562 0.005575734600713748 -0.3023328712675053 -0.01591993497758331 0.1250909489134024 
-0.5768848664292063 0.6048437518865310 -0.006609235513594458 -0.0004933641837304179 0.01921937389288398 -0.002938162058667319 -0.0004253298233511379 
0.07534420257633521 -0.06666046571919285 -0.001221977953824103 -0.0003369989926681721 -0.003663263273518400 -0.001431036108871583 -0.0008069787294661479 
0.8281128106836817 -0.03213109217246192 -0.2253379717085059 0.1089743994239520 -1.542689163242784 -0.2487417722785106 -0.06418882452679305 
0.9459185437704001 -0.9700529423037647 -0.1197003413804880 -0.4477684975637860 -0.05441015341438760 -0.2960666820496806 -0.03578096856704419 
-0.7795437696617673 -0.06216045461615932 0.6320156684830720 -0.0006239749297410168 -0.0004648413614199936 -0.003548339162895177 -0.0002614521943736560 
-0.1035480045078636 -0.009939470317580775 -0.001512356193178754 -0.004264400049820290 0.09373891882615251 -0.001600998476253384 -0.005948222264363431 
-0.003149925045964503 -0.002640383094072673 -0.0001707309640369149 -0.001098895190634573 0.005047699874913890 -0.0003598851993754886 -0.001518498381287492 
-0.4231523429351900 -0.07321402237306644 -0.06208222249804084 0.1354704457491169 0.2037246477752658 -0.01938404693169823 0.03585467261861600 
-1.396002099057172 1.761884407793957 -0.1471881299778073 0.09576553800410313 -0.006595581920008358 -0.01319942553404805 -0.002189358744073734 
0.1321511693498705 -0.02508599466195333 -0.03919244133601493 -0.006356589856892914 0.06275994789419825 -0.002379873883174310 -0.003345966443545759 
-0.1141082247777699 0.1530064928288101 -0.04079092671304670 0.06077899438668593 -0.03221971574497930 -0.004210621065358711 -0.004293050394556601 
-0.02041126341329409 -0.001911117506586099 -0.001347630417072642 -2.381495066612421e-05 0.1668616349890794 -0.0001212557833382431 -7.010716093421581e-05 
-0.1859792632939821 0.5087127003397885 -0.1914091203142638 -0.006034164086179281 0.02856179066196744 -0.009854394689269507 -0.0009175434720754018 
0.6010962433803159 -0.1842423525473556 -0.1766083633053886 -0.01284005690750923 -0.3268543211287934 -0.04492458607065426 -0.008833811474556188 
-0.4617351913524945 0.6744133544338426 -0.3127371088667283 -0.01448964886925710 0.2190222079256278 -0.04501097701801732 -0.004019127477381620 
-0.02613826401611415 -0.04175048358413094 -0.001861130196692479 -0.002950567309612883 0.02396352436335318 -0.0004681148006409004 -0.001265862167183142 
3.926671132919979 -2.799399162735542 -1.151255970967398 -0.05624019063202054 -2.220354096891329 -0.2776654102579115 -0.02018538261958548 
-0.2594879811718296 0.2380174548349210 -0.003090149268711961 -0.001803109189552668 0.0009360652550673725 -0.002775693163871213 -0.001264232440185995 
-0.4679932109121019 0.8308308971795617 -0.08765314569927113 -0.002801862848894943 -0.004790302310882024 -0.002073821679496898 -0.0003135830116492326 
-0.006973028403614485 -0.004973860855093951 -0.01371019120092530 -0.01996326765177381 0.01609985432282626 -0.0005422513523032585 -0.0005136728271273053 
-0.1178246083797236 -0.003335449364559103 -0.007331703677225726 -0.04894994215796033 0.1458337186443691 -0.004846572679901598 -0.002406097489781553 
-0.1458012280882469 0.2063839919931963 -0.03659469366914988 -0.007017971861013347 0.04103499946388367 -0.005751279915902990 -0.001372500943436113 
0.9388011291361218 -0.4191001977805223 -0.1584433933705953 -0.01775845702155886 -0.2108491670867499 -0.02223479706841633 -0.003692826860767644 
-0.3302943419260327 -0.01489534760177049 -0.001736753727863683 -0.0003891084892869657 0.1485333247910190 -0.001677793942016960 -0.0003529509872272258 
0.3751383490203889 -0.1664350660893405 -0.04355172707404061 -0.009663928687874697 0.05671609565054622 -0.01071133117391873 -0.003436790818606894 
0.7628230186339979 -2.196797973584378 -2.020691903666538 -0.1075034178002086 -0.1065435224267923 -0.8628024916268404 -0.1635449551478056 
0.2279560010134357 -0.1052380031574209 -0.04868702831878691 -0.009196935317724590 0.07971839067499893 -0.004261451786776099 -0.001662244816267587 
0.4898452635446564 -0.03250765609876333 -0.03606485743568792 -0.001612346378463248 -0.3590455242634704 -0.003066401847715722 -0.002959037466480290 
-0.1977915534294957 0.1503253902565170 -0.002244314767756457 -8.044019511019666e-05 -0.0001816887906504652 -0.0003311004717523609 -0.0001934678663166173 
-1.866310071990049 1.757157302420014 -0.1218831819334337 -0.01192082352271126 0.04843789317409537 -0.02618736428918688 -0.01174483065338015 
-0.4104195519738447 -0.03547918213524404 0.4432674503247075 -0.0003064439706071660 -8.919732561484788e-05 -0.0005008256095926187 -3.088217787079246e-05 
-0.3778952656965706 -0.02132295759761569 0.4282976880257461 -0.0004697368585579579 -0.0001395371597427884 -0.0001283976103382253 -3.620212716048672e-05 
-0.4129717950009343 -0.01121617234982985 0.2794684873397055 -9.704689133057976e-05 -0.0001991703926696514 -0.001672684274678883 -0.0002217960382686898 
-0.02162520815743656 -0.09251146775172257 -0.001348449440433346 -0.01274088883774121 0.04055953052704054 -0.002146020674627098 -0.01018813553286440 
-0.3825573735257948 -0.01199884370647508 0.3874842561223367 -6.489159040789225e-05 -0.0002299920728600173 -0.007628250944950072 -0.0001583708893574879 
-0.3749065780109896 -0.02864275067246035 0.3648168329338165 -0.0004902739734533380 -0.0003499589655384921 -0.004636875365587615 -0.0001800608451279540 
-0.4891525018330887 -0.002024452030419940 0.4661713031118105 -3.363759610340208e-05 -8.274135607869024e-05 -0.005587304584731112 -0.0001827195069734144 
-0.04197434509533243 -0.007911316710241176 -0.01166921524516722 0.1706686594689713 -0.02232562096873314 -0.004193046525582994 -0.004206632973214592 
-0.2185999563113807 -0.03586345163494371 0.1463227550785449 0.02265568785896629 -0.001495721145362733 -0.004521460229903552 -0.002572312692638838 
-0.4513439968173793 0.4565724099754701 -0.007848497743304782 -9.289753705382444e-05 -2.509392788725058e-05 -0.0001883729781077208 -3.985179435295315e-05 
2.204716606620072 -2.121458400285138 -1.080238196197640 -0.1712509876400553 -0.05434734802240038 -0.3342949851738889 -0.04881797028833399 
-0.3931074775663334 -0.05578862730768605 -0.06628654262250798 -0.01036036321495562 0.4419039200471523 -0.005494538803789342 0.2709215076301682 
-0.1844716204271084 -0.0001381859819213093 -0.0008824877558560327 0.2806162053733454 -0.0006336363977667510 -0.0004364376454001605 -6.756750627500297e-05 
0.3662691491725841 -0.04996006235012073 -0.007248769210300397 -0.0006429706592168703 -0.08366399037498662 -0.004966078956179849 -0.0008217453840789512 
-0.5553580948298519 -0.1066675772375492 -0.09857204602038190 -0.02430584817173457 0.5203935929005373 -0.05788101911444768 -0.007477774011935800 
0.02917386253882363 -0.02815229538450759 -0.0007474328070990843 -0.0004903566519515604 0.08156228286321860 -0.004698922275999138 -0.0006355583095615748 
-0.5552388308301326 0.4568884668071670 -0.009744392758313503 -0.0001135998605134665 -0.0007548828119374354 -0.003282126273856467 -0.0002521373298921555 
-0.04097781586439036 -0.003647110583435024 -0.01129219190404439 -0.003353909341064838 0.05192712800706931 -0.0008957826262725901 -0.002119221389066330 
-0.005818772097048989 -0.0008486096475692198 -0.0001297388110713895 -9.478638110069024e-05 0.005128886503587639 -2.399363687446617e-05 -0.0002053516521914490 
0.003188490060624632 -0.007413199756346274 -0.1627614995047352 -0.01194567799939961 0.7458712945942270 -0.1043303736967437 -0.02376022365398961 
-0.1283885762740868 -0.2215509357287928 -0.01103079723097925 -0.0009686319071861408 0.1920301332359098 -0.006010503094490327 -0.001750153901316017 
-0.004895232365094914 -0.001042182302930657 -0.01697700551768016 0.02605710436518455 -0.001561359475316172 -0.001617422908381329 -0.001111070053825542 
-0.02937268025870222 -0.001749250788975488 -0.004710769783837394 0.009411606977657364 -0.0001780105310012266 -0.004143393816151109 -0.008045570987902673 
-0.3454786559305675 -0.0008127081643509275 -0.002918132960954324 -0.001870097146014745 0.2103933634942434 -0.003973712487275826 -0.004441691900375921 
-0.8871114224069515 0.9255121025261579 -0.09211697846543679 -0.001752366848409035 0.09418527272732656 -0.007884171302688226 -0.0007445681733405215 
-0.002349767350327616 -0.05674867639889483 0.2468557803608728 -0.0007168281045190500 0.03647387454376055 -0.001827876403345080 -0.0006216527365621178 
-0.01138456963788233 -0.0004459931573226507 -0.002678275523652637 -0.001290986220993306 0.02610902657765462 -5.076469013261339e-05 -0.0003278726665067565 
-0.4980318825402302 0.5416883288184157 -0.09038868200604863 -0.02524665709100688 0.09236418210058592 -0.007017301956244288 -0.002635404575855854 
0.1604025807519995 -0.3696159711068704 -0.7190448958951989 -0.5620143714935448 -0.5394653056523478 -0.2572390067525057 -0.3536583500229452 
-0.3969520846607926 0.4325521509766752 -0.0006000312204993092 -3.960052657017791e-05 -0.0001185450620093695 -2.453057188259009e-05 -4.318583214437624e-05 
1.746843361003909 -0.9305972856435170 -0.4061393547609624 0.2097117504426068 -0.7896360985058238 -0.02844941893260888 -0.01204878928651443 
2.034471004839001 -1.889562357062187 -1.360009721977597 -0.1033339206630342 -0.04220396684295331 -0.3007429612041877 -0.04334343466867850 
1.629186641770406 -1.233289210073805 -0.5543085088092011 -0.07630577085451375 -0.01985291081866409 -0.09245150588133932 -0.03930004342294714 
-0.1456921550513340 -0.001843050606903001 -0.0002745764767943807 -0.0004442381142654990 0.2625459434917009 -0.0009699615090974000 -0.0007869252610042082 
-0.2119022151312366 -0.0001912316365342666 -0.0004532472775722212 0.3022269676202919 -0.0004481658694168318 -0.0004197437910706127 -0.001080713283064980 
-0.3400149860381534 -0.01499332052771119 -0.009068007745130332 -0.003042954849179005 0.1608063970955681 -0.004228665236483780 -0.007074804342273415 
0.2029774895947894 -0.3770043950323127 -0.04347463081770310 -0.004081173307790540 -0.1379290340139598 -0.01580246342025176 -0.009365753603056802 
0.4057751493738320 -0.02797114332769133 -0.02154353970522717 -0.001717488352099031 -0.4723610002244026 -0.003657148111005827 -0.002177911658923230 
0.1109914080280342 -0.2159505393725352 -0.03199896167005110 -0.002222682469083187 -0.1770545643357193 -0.004168809655459340 -0.005805063231567717 
-1.700003604130438 1.720890841358892 0.1159764830605653 0.08724876405069087 0.2723388763642780 -0.09153466875081553 -0.02929462567439096 
-0.2027557900315254 -0.01596646427528819 -0.02342915605656212 0.3275510148399148 0.09266883881628583 -0.004256915161120601 -0.001721294556008531 
-0.2948409758035256 -0.01257593026814771 0.4054023993185439 -0.001242709366123609 -0.001767724695164923 -0.001639275273863842 -0.0003993670099559619 
-0.1027884630530507 -0.06872874902148683 0.1726001641572769 -0.0004598489440825527 -0.0009555077372426925 -0.002288159588966482 -0.0005328283875460169 
0.3936191477554431 -0.1143181936416199 -0.01839548232953047 -0.005909352938720280 0.07103448038778402 -0.009481680419297502 -0.001994433844426347 
-0.1699543418776990 -0.1595350284945283 -0.2571425510192467 -0.003524237326222815 0.2151443707125536 -0.01236494996376114 0.08754417577692869 
-0.1744650237097085 -0.004574909747158625 -0.0007624150140061181 -0.001120922160220486 0.08497925755151822 -0.0004449456668363915 -0.0005329663152851409 
-0.2151194741937274 -0.008155208626526545 -0.0002557277127319814 -0.001920737142541788 0.1371747758959501 -0.0005814441247090592 -0.003101710683078529 
-0.1969752591362775 -0.01634928560522871 -0.008366577947584207 -0.0003138289883672012 0.1373597806145767 -0.006178387576104815 -0.001428302806895720 
-0.007452902070846226 -0.001446690141409063 -0.0003434604072328324 -0.0005615074975113232 0.01307889652027549 -6.583246387526057e-05 -0.001297887991698063 
-0.05424952510117605 -0.04513651214612852 -0.006665859177952313 -0.01590090378514907 0.1091944873528386 -0.007125081348548756 0.2129894626628385 
0.5957053118285988 -0.5507261887091652 -0.2158698029204414 -0.03330146697454142 0.5844299658971196 -0.6228455742719966 -0.1084307909049020 
-0.1526541863979511 -0.005880437231377502 -0.01993133342565402 0.1185963719277544 0.06920652984607234 -0.003873264313878117 -0.01258733859941895 
-0.3402441194447033 -0.003369086603621655 -0.01275738418409088 -0.02898885531738966 0.2826376309485095 -0.005175597388256986 -0.01492895061784835 
-0.6065249621516201 -0.02709215776836844 -0.1046789285196870 -0.1211163772251994 0.1667659743139779 -0.06398859181514446 0.3094855577325764 
-0.01778532271907274 -0.0008733651410240293 -0.002336822044185563 -0.003720311180062221 0.08261759002264929 -0.002667644825980442 -0.0007379261458591724 
1.807917950422297 -0.5441678419979257 -0.2405781752112610 -1.546300399108235 -2.222484324994650 -0.2409202999525665 0.003757316281459593 
-0.6592247918846696 -0.009994953492613774 0.4336778946207515 -0.0001329862769842757 -0.0005207869982060370 0.4926622986644976 -0.0004088501312117337 
-0.01144523002321433 -0.002931906885650880 -0.03008722877503242 -0.002201962754868979 -0.003763536030998501 -0.0004265813413799699 0.2800204025029819 
-0.1267537704266645 -0.01871623058119270 -0.01678733902547605 -0.01827695233200825 0.1961844832843183 -0.01269347657412202 -0.01260937480918464 
-0.08085850229983960 -0.08941614209242010 -0.04875980021024357 -0.04077254538386105 0.2805520680204014 -0.01666294558947609 -0.01460863400161350 
0.1393152726873070 -0.06809219957021398 -0.007957987746001085 -0.01026236296965566 0.05982587940216039 -0.02006506356173233 -0.01450990479607724 
-0.1446907283452206 0.1578227778714076 -0.01235977693312521 -0.01152150041291680 0.01579370666091399 -0.003598572428079476 -0.001762317064894129 
-0.01305719664009312 -0.0005345243712867962 -0.0001565234560703165 -0.0006688064209511753 0.01196007987244687 -0.0001471957896383975 -0.0003462962756690320 
0.4350513031399743 -0.1833433103616100 -0.08918466210049539 -0.008177900186144392 0.02830745443547123 -0.01692624730029819 -0.002311827634995634 
-0.03300223687422908 -0.001623640057312721 -0.003346937683231313 -0.01115548429494666 0.06116294839677942 -0.0002916501085255758 -0.0005775615299133519 
-0.004958281766865027 -0.001082018098488242 -0.001153272733730926 -0.001366400229375152 0.008237019507151345 -0.0002051771602540957 -0.0001234694555674846 
0.07034346545950809 -0.05255455453737959 -0.01640975727069441 -0.009086983309828097 0.05586314424995545 -0.005613033409290578 -0.005107655481517268 
-0.1674002514707391 0.3909370998582076 -0.1705858974889499 -0.003336046418064285 0.002927683827467267 -0.01084508307327183 -0.002042323376228440 
-0.5262270975567215 0.6340759871401199 -0.06318597808680339 -0.01499801151687306 -0.003549009196414001 -0.001196529380892802 -0.0001202329358409450 
-0.003578378604309510 -0.001271264510076646 -0.0003742486307094362 -0.001103878376295276 0.002169070067073071 -0.0001745833531386189 -0.0003923864702633708 
-0.03080997970992924 -0.0001936325241795034 -0.0009930254277491440 -0.003208253302810944 0.01715688627492457 -0.0003101687505761788 -0.0008934136971303308 
-0.01637135234020977 -0.0001717932925643726 -0.001220212068138522 -0.002977023076762095 0.01243829388651523 -0.0002768743417866128 -0.0006464814284673059 
-0.5750763112950953 -0.6333921777732383 -0.2111458419229026 -0.003003824890772579 -0.008460909477792981 1.593920189845406 -0.02823105271503896 
-0.008496345705429374 -0.005808742559558798 -0.07464217776952096 -0.003755632070315848 -0.003370732916237609 -0.03021202930126008 0.04678779533221709 
-0.04182879665610827 -0.0001722805590364919 -0.007570936971857951 -0.001428240868433640 -0.005069040313202519 -0.003832285976907472 0.1195418376847064 
-0.6039760188679173 -0.02635364987813516 -0.004622374181343140 0.2434607678273013 -0.04426360955058366 -0.02666046608530152 0.09133622326323810 
-0.1218875846555610 0.3387482469984242 -0.04888192822448986 -9.358629049002465e-05 -0.0002830598283550026 -0.0001783450955662713 -4.459220141681595e-05 
-0.007724093111508382 -0.0001792976791624133 -0.02433467723972548 -0.001027759824682797 0.02276619044582339 -5.178441204887252e-05 -0.0001078240552287232 
-0.01776352745468757 -3.740158974998487e-05 -0.004973183581259592 -0.003557011836047639 0.002806957536718587 -2.207693932903170e-05 -0.0002647508467814378 
-0.02556693040127477 -0.001691930116198497 -0.002102275619146818 -0.001297645075197512 0.1547895774859148 -0.0001387304341173575 -0.0001562813062707943 
-1.040757777947323 -0.1760155854838608 1.303145031131270 -0.003109766468560685 -0.003312866993220672 -0.01876938727912164 -0.002150473304752375 
0.3017795833093480 -0.1502476246503201 -0.04495052465003457 -0.004436028946609428 0.05836434731522445 -0.01376220997133546 -0.0006627849843217372 
0.01470373772553148 -0.1635591981743289 -0.002059491454427723 -0.01059141222224161 0.08462517217903012 -0.002633999611795297 -0.004828968862802861 
-0.01720224253243553 -0.09321559009768599 -0.003190080995852678 -0.002940848794682442 0.07168492092774975 -0.0009379285172364937 -0.002110514883328848 
0.6252366559129648 -0.4893379106609214 -0.01060150225721148 -0.004787005719084907 -0.006888634579363483 -0.03264708295703208 -0.005144726146632415 
-1.358230111378181 1.452164548046415 -0.007174094766624515 -0.002186239347738135 -0.002495391420986217 -0.001453629348743783 -0.001461052792817575 
-0.9437037719790164 0.4320582910956635 0.3449332464265505 -0.02014501166190463 0.09308059466012703 -0.01205668369882037 0.4292764729663570 
-0.5801690315427258 0.4671680417619089 -0.009486409182366870 -0.0002857940075175157 -0.0003040877100294974 -0.2997045638720493 -0.003984053094901667 
-0.3262417044128267 -0.009175203010778038 -0.001299961229560429 0.004105757579541196 -0.01519680432631532 -0.06725757510281104 0.03200525715771090 
-0.4031629646677606 0.2788891296891337 -0.05260610822473161 0.1144011459455924 -0.002065957147486387 0.3641780565820904 -0.002665707528458568 
-0.07498837942488032 -0.02593485654499456 -0.001085871573366121 -0.01477722358254146 -0.01850568785698400 -0.01623137356367457 0.06308604913248542 
-0.1273297663573515 -0.02306929991925524 -0.005918691510469446 -0.02132282316114775 0.07229497596685007 -0.03467472077167618 0.1113963959490282 
-0.1654957796361461 -0.009879617019039156 -0.06410523067727894 0.03316589225270224 0.08705343375716854 -0.01287774946648238 -0.008574807265299517 
1.084651560278769 -0.6323006307954830 -0.2188490703443308 -0.02647900323524626 0.04291368331095317 -0.4342630923834929 -0.03679216160403411 
-0.1388672498357971 0.1226995923745977 -0.002339429011466910 -6.153641487014139e-05 -0.0001831022137671087 -0.001050469233342464 -8.477393919882747e-05 
-0.3746840199185178 -0.003712869117583719 -0.02403409462272547 0.1493658751958156 0.09101628146066557 -0.005455462220832894 -0.01502318947866801 
-0.07141478129835695 0.1723261262360492 -0.02425304148677768 -0.0002681274934921458 -0.0004117707770143913 -0.0002628051618716660 -2.972038216370154e-05 
-0.5461729103124278 0.2773311555049160 -0.01959362758047785 -0.001147525142655629 0.04348189467906933 0.4785216828101319 -0.0006371815769249331 
-0.1411925545304631 -0.0005822614532905320 -0.004295143208401832 -0.005835403860023889 0.1498204636197052 -0.0004926099072333088 -0.0007973490203369675 
-1.722084474933555 -0.3967565498034057 1.908925691798285 0.01901778709966744 -0.006551651317938441 -0.04882711897134822 -0.005735932529749190 
-0.1180696724046501 -0.01126089359999477 -0.001770609571049744 0.06237892975399919 -0.002856269065608864 -0.006301061346709420 -0.004938917040728490 
-0.4427849266957170 -0.008852355746553967 -0.0005431694925032596 0.3193835053541416 -0.0008464185611781491 -0.002949690333368128 -0.001446022367085310 
-1.124765037513098 -0.4049250039529078 1.745116919862700 -0.01325875005986772 0.08832696243013637 -0.06092225419742171 -0.003974773988445721 
-0.6778438029822483 0.4994363222711037 -0.1087820346861794 -0.008714513898872343 0.4685397078826056 -0.01401391139943374 -0.009172030084225414 
-0.09633442381993826 -0.1401120856497317 -0.004492038950421697 -0.01968096598575113 0.1046850285241434 -0.01180575138443347 0.03988030030108893 
-0.4079807195722445 0.4442440630590726 -0.05747306523572304 0.04258855799316153 0.01571937207928466 -0.006003122644542192 -0.004868836740841273 
-0.5738364973024414 0.5859080973881995 -0.003463115289179861 -5.294532377670714e-05 -4.845787675789651e-05 -0.001795504545995390 -6.472632087776421e-05 
-0.01207750876942281 -0.0009500729715105750 -0.001079206562086262 -0.003090657567919835 0.02306399928241975 -0.0001115430824403135 -0.0005728773414299731 
-0.5387027896684357 0.7272670049141197 -0.1418285691406923 -0.004425840022999067 -0.003970473159268120 -0.01810007593099656 -0.002381136053551562 
-0.4338265671147752 0.9403522796304579 -0.1152303904448766 -0.1025798816707318 -0.07713838748987337 0.1445294271603211 0.07856093748795397 
-0.1253373559958441 -0.003567202612339466 -0.006742814544635805 -0.004724340252585779 0.2494709485896845 -0.001835121048939445 -0.001030785182797261 
-0.01244000293821247 -0.02848880304491911 -0.001373279645873452 -0.003746999818408980 0.1514969432494536 -0.0008408944542505592 -0.005330214044499368 
-0.2052364632470697 0.2274151214478614 -0.007640262015826591 -0.002253101763980578 0.04384885642095418 -0.0007410713923622228 -0.001260408171415083 
-0.2636401140224203 -0.0003223008499990084 -0.002012251130941621 -0.0008717587883077444 0.1053034019639596 -0.002050595113929910 -0.001677692583238453 
-0.05684908746740595 -7.098048246744110e-05 -0.0004950748534330263 -0.0004696198500562706 0.07863369112875172 -0.0002204679212975251 -0.0001016317478074759 
-0.007388707722360870 -0.0003329066876360854 -0.006802141671231936 -0.004109029130933741 0.01186692514509851 -0.002936178469355212 -0.001692334669596015 
-0.1773003193163675 -6.232569998424214e-06 -0.001002409399645988 -0.0002392031265211181 0.06425054541106466 -0.0004104988234894885 -0.0002010372127491591 
1.166393942234334 -0.6108966922824456 -0.09639214309706890 -0.4984076194471322 0.007107426042731404 -0.008733699811509966 -0.002850396554495626 
-0.4807272973700802 -0.01038472644473831 -0.002879627152533679 -0.0007761160066861307 0.4244595149715207 -0.0006723621693902480 -0.0002656417381366239 
-0.2404209330389801 0.3653169402659071 -0.03249678508306401 -0.2126991136802934 0.3939264582823770 -0.01552506897198668 -0.2249483228518764 
-1.841606507180407 2.255341781932915 -0.1094725506947464 -0.01567453593330478 -0.0005843546731856689 -0.03581359135550739 -0.004623596564411795 
-0.06172505636772686 -0.009508505410920435 -0.02873025684339566 -0.06146693276450394 0.1328215082513044 -0.01995397782288007 -0.007398915091510864 
-0.1012318071332094 -0.001726764717829533 -0.0009905610425030083 -0.005769626787109764 0.05364917635653033 -0.005559079295842992 -0.007300627253469517 
-0.5918192372953517 0.3442943469546291 -0.02829319673010638 -0.01143771653433210 0.03327429068462554 0.9093855757731629 -0.003700195290578120 
-0.4844463747011406 -0.05822400218655147 -0.007694050346306531 -0.03121393063352394 -0.04835909469345899 -0.1080429651430042 0.1432497328908290 
1.540468716667880 -0.3851769532612984 -0.2943219044197274 -0.05408097662239128 -0.7890725768131424 -0.02289366944026246 -0.008046794079028604 
-0.4126230288165210 -0.1021609094834991 -0.05985562156185578 -0.01600179017396988 0.5356264833825183 -0.007464655835691715 -0.02502168739510717 
-0.2716009950600808 0.8679108406105926 -0.02333289550355389 -0.02189695672874605 -0.006973470309234809 -0.1123104012439204 -0.2707000551217038 
0.1614617631677467 -0.1191448461735871 -0.02146904424392302 -0.009967238177083932 -0.01704024987283713 -0.01438357100811278 0.002234639752594737 
-0.02019402233776780 -0.0007626701725262763 -0.005651409492783126 -0.002161495993075007 0.02571680441617750 -0.001401448635731181 -0.001972728979011093 
-2.173074026521265 2.100697302849206 -0.8086204471604428 0.2787768145334048 0.2221528614136578 0.5744430121012326 0.02711493374929157 
-0.8649238885831949 -0.01424739115289327 -0.1599084275713916 0.1550015440301023 0.4596469744187168 -0.1478145511470193 -0.1936412420813325 
-0.5525445299492190 0.5886823360585607 -0.1217757225303410 -0.002483896356471184 -0.002289076765643568 -0.02595816551622798 -0.001957886991103732 
-0.02712997604507987 0.03222893880213670 -0.01500923088478262 -0.01006842151803815 0.01681609385528783 -0.005717351778247478 -0.005629485679157756 
-0.1745653097470306 -0.01183963123557909 -0.0007455929399660505 -0.005701336268340604 0.1088128844645983 -0.0008314900346314897 -0.004383385002259521 
-0.5235046095436636 -0.08593866513436306 -0.01919023570414303 -0.07738195323343997 0.5363771406851133 -0.004958609503446729 -0.01535970952021567 
0.1800522005641331 -0.8565625540798871 -0.6380478672014872 -0.004951057345972919 0.3283866348462199 -0.5642463345841021 -0.1342106741432101 
0.4889566157276600 -0.8580024033422173 -0.08971588325676289 -0.002681436790288164 0.06135349830185031 -0.05248188105291558 -0.008068530011783585 
-0.4355212405051180 -0.04241675952201700 -0.003804329799985259 -0.005519126865781860 0.02800491783482969 0.4927401480937399 -0.001778219937069356 
-0.4289363789598129 0.3737731513058600 -0.01096886645374178 -0.006041778503056474 0.1610272726632183 -0.01202853604811327 -0.006585445505265316 
-0.8972555122695153 1.440460301866339 -0.2984590244117538 -0.01059539154520433 0.1493069427772852 -0.1465096612587286 -0.006745617834486564 
0.1689328505993224 -0.07020811540155802 -0.02505065698931144 -0.01936551798970506 -0.2063740524988579 -0.07749550518666168 0.1012814216946686 
-0.07996694291843137 -0.003213127072562170 -7.499861275799270e-05 0.4535329140743665 -0.004573969336355633 -0.1633922851721641 -0.03459162409492238 
-1.476565091397911 1.261343298632002 -0.1988511176917950 0.1118012337061866 0.01085955417038986 -0.5894164041447008 -0.03769412818226997 
-2.126392819430985 0.1647621259035985 3.061578776931440 0.1532599464511987 -0.01770642966657745 -0.1287862042901170 -0.03094489103469962 
-0.4203653393940993 -0.04259955693072434 -0.006301753372257564 -0.04104309968030647 -0.1036998296111103 -0.2919633462330306 0.2495871948736966 
-0.6465836092670566 0.7867840636114259 -0.02124079105794654 0.06620148371538840 0.04379420127010184 -0.04508299988885816 -0.004047480698185111 
-0.001266364753778115 -0.001209155726468584 -0.003603545361855144 -0.001527819709251327 0.005114432024627193 -0.1519846724351410 -0.03119118908846002 
-0.2334993519873761 -0.05961949856313628 -0.01609289304127988 -0.007738713486133355 0.03046407034765920 0.5755071844952927 -0.002046761950221591 
-0.06575508348630232 -0.008213248103686593 -0.01038773386008743 -0.0007560988664922497 0.04813903005172740 -0.001084258037611342 -0.001207975949390020 
3.866798765634652 -2.063484793975535 -2.088466886371559 -3.347143766289102 -3.947424519516962 -1.122848835735238 -0.4631614917697663 
-0.08885849490772027 -0.0001699383415958021 -0.002021905559687656 -0.001298385984566947 0.03370934558209603 -0.001000317843806992 -0.001636444432563959 
0.9908258152660837 -0.2759105131068954 -0.1887794875672404 -0.03886663681894659 -0.4397072982903497 -0.1062368977388295 -0.01020446625776154 
-0.06867693453132703 -0.0002978901476821663 -0.001706845954950801 -0.0007630434565965229 0.08082253179826230 -0.003174866809760550 -0.001654789948656762 
-0.8926047628127762 -0.4344646427614708 -0.02574457315650955 -0.01527550232424396 -0.006313336276053456 1.259866411826198 0.3016474623374001 
-0.8338827963572575 -0.05372567596424812 -0.01484808559608714 -0.1324926366516100 -0.2486277933291613 -0.08464746629384166 0.5147574560043855 
-0.2521372020225270 -0.1221158649970416 -0.01027768008616902 -0.01448239735634740 0.2765032073050616 -0.01909774150218118 -0.01662144694743040 
0.1139918430407606 -0.5520617205006563 -0.03232655740200262 0.1216907247347596 0.04290806097359735 -0.02355709021507346 -0.04235243787498704 
-0.09083395778590167 -0.0009874802699271666 -0.007082747967200617 0.08169816338031045 -0.03067844503099659 -0.002445469381875591 -0.003023381563826165 
0.09350584948109930 -0.03465562792091153 -0.1291501567938037 0.02759051492428538 -0.05122571345673172 -0.007294643824714334 -0.01038290630110045 
-0.02132528418409880 -0.01373729397347836 -0.0007550536240192032 -0.005557126507979531 0.03907606647037159 -0.001886945384532691 -0.003998670714865226 
-0.02159051719339093 -0.001992347294561348 -0.001068766089656215 -0.006261410794602570 0.03047684139559763 -0.003481438654347779 -0.01352908234975048 
0.07659991056134880 -0.1143567147289624 -0.02344873341972237 -0.005903445103319505 0.03547167387563520 -0.03925057279225661 0.2378149584682404 
0.7676253676987495 -0.6368111195586085 -0.2077543352894791 -0.003945204597394846 -0.1781127285094993 -0.02253396788962599 -0.003425194661140462 
-0.5491277373197345 -0.02112128397338225 -0.01056144220837283 -0.01014332180438167 0.3570203576817611 -0.002219132401148701 -0.005782220472568078 
0.2138381939835343 -0.0001503277783600400 -0.0001902009797562366 -0.0002033477299466108 -0.3416707484613710 -0.0004725644620135467 -0.001348530745453061 
0.5930236266028593 -0.7814707030721230 -0.3584322435064685 -0.07733275103846021 -0.8731234483973708 -0.6560046590489365 0.01491859843997841 
-1.329887589773343 -0.1769202258368550 -0.02764138276919198 -0.01601558063253892 -0.04819291073390709 1.585702362078098 0.3072628085178791 
-0.6555356295693348 -0.02518505850611835 -0.08323480794500315 0.3544693373019204 0.2632249126328173 -0.1829321038798791 0.08013300011488667 
-0.2380078610653981 0.4380598536877529 -0.1099677150365484 0.004223369620385086 0.1545696175881259 -0.01892324804946884 -0.01439673305817452 
-0.008642963039517611 -0.0006311542773703091 -0.008558367936345502 -0.001312991984362397 0.01794035591795437 -0.001580968589660337 -0.002553797401671345 
-0.003784131026737478 -0.0005436407355885755 -0.004028677845757632 -0.001134291968941654 0.004952215194332680 -0.0009682317681614276 -0.001868855131109393 
-0.004447438068769417 -0.0005053565171617162 -0.008535741706110020 -0.001294299988043029 0.01004579466835516 -0.0007786447299811435 -0.001554284238506791 
-0.5229987087884534 0.5672231643730550 -0.07391606142417058 0.02743042732142335 -0.009697139559784294 -0.01316288148393241 -0.002463246979221693 
-0.1775849310927019 0.2428213465282295 -0.02554386257333880 -0.005493225626718972 0.02851780971875871 -0.02074907650597492 0.06038392014011652 
0.04398610349931333 -0.2852607495608998 -0.04218465724237540 -0.002030601425873043 0.07777743329884218 -0.007079916492011000 -0.0007218727156153402 
-0.04738570273150414 -0.0004098071218419724 -0.001663587367234399 -0.003221218573450960 0.01710913252362167 -0.0001242783729645793 -0.001430465019172234 
-0.03814825939656065 -0.001012473482334982 -0.001230744896754944 -0.005805063223863877 0.02063269994562567 -0.001583096769484877 -0.002845274193843872 
-0.3188760477206756 -0.002383214502447557 -0.0005877649566560179 -0.0001562624704340661 0.3108814338298109 -0.001353426859303955 -0.001138797943969484 
-0.2778582590706182 0.2728661770405976 -0.02069436666768968 -0.008236762237175260 0.03739011350418004 -0.004514912154809390 -0.004615853145182933 
-0.3716068072474563 -0.1747961102653288 0.6872073007037881 -0.004780880099440127 0.03533944986139120 -0.01141178199339242 -0.004567326877513416 
0.3365510676603362 -0.05124754815135831 -0.002030195069651782 -0.009832967407940096 -0.2291513772712591 -0.003314962978110188 -0.009440747398988458 
-0.6338243816299814 0.7673213170047577 -0.1679141494838846 -0.003203238041733748 -0.0009350863594699782 -0.02192235966519102 -0.0006628316628023474 
-0.006816339268570772 -0.0003837152957791487 -0.002278245234562739 -0.001734463466018734 0.02420988514701606 -7.624647262673082e-05 -0.0001168240248070821 
1.209891884166960 -0.6578488312715112 -0.1784658084768069 -0.006187282296620415 -0.005577700195728094 -0.02188230163143281 -0.002467698289093267 
-0.006046838118991656 -0.0004349209894924278 -0.001375333611254317 -0.001088862312912133 0.01684607181235949 -0.001828897595777886 -0.001045735338694153 
-0.007293121576702748 -0.0005674204154320833 -0.001069474365112632 -0.002404800822597223 0.01478031774505656 -0.004386456214627551 -0.002887104587210926 
-0.01033494579525955 -0.0008604555887628313 -0.001123824843234192 -0.001217190378661435 0.01423750964576739 -0.0007712454328326942 -0.001040886097919353 
-0.07011998433247010 -0.0006718393060072872 -0.001229364980936337 -0.002641121892517155 0.06086430645456289 -0.009038840146541080 -0.003091031093650242 
-0.2965920873980589 -0.02084567286676384 -0.003798814610061643 -0.0005378661893788747 -0.004671815744512977 0.2207245063474155 -0.01967751982603926 
-1.087938802949060 -0.3780306420091096 1.338685798485757 -0.01079387070061802 -0.008367157117110766 -0.1061781066742617 -0.01017984702615626 
-1.256081369595993 -0.4671923282427903 1.360711392058941 -0.01979894785751450 -0.01005731454783476 -0.06603142560451647 -0.004723563831970745 
-0.2945105276286383 -0.1060370429100385 -0.2081579534076323 0.4012409526020915 -0.1085853710566243 -0.08436775673013287 -0.05337081700372753 
-0.3776345398630414 -0.02830964190318504 -0.08812149883665849 0.4285647036590506 -0.1683690046063751 -0.05516074690192762 -0.09880346186246472 
-0.3714335044367995 -0.01064651085781498 0.1373892380751561 0.04614249405446869 -0.05301019045670942 -0.02637046588404863 -0.04155138523417899 
-0.4894427855493417 -0.2562327106127775 -0.03305513007285098 -0.0009067287331494976 -0.002155480437142969 1.018367265308044 -0.006773635771236751 
-0.2457686676432404 -0.04975518830744057 -0.008079740565796896 -0.0004182613357062890 -0.002506402228519299 0.4168426010878187 -0.006961881607933617 
-0.08257670556057425 -0.02575303806690937 -0.02084055385666360 -0.02108094455228614 0.1083516103655667 -0.05421613623854069 0.02494468163825497 
-0.3063041720451978 0.3256653242943565 -0.02000142366585067 -0.001839019527586195 0.09556590997794207 -0.002283505117203727 -0.001418136621083532 
-0.01343719415111537 -0.0005802993512910279 -0.0002903848209745548 -0.0005419325229598198 0.01750760149332576 -0.0002383353443488182 -0.0004049525804841416 
-0.3267172915027377 0.4110002212718109 -0.05511691101926213 -0.0005838077958279682 -0.0006750517799470068 -0.005672888604808476 -0.0003083263344905466 
-0.009080159402518850 -0.0005535394771553711 -0.004247013937295885 -0.001454907365644438 0.01110220705871521 -0.001808690579080135 -0.002149288972702622 
-0.004250301938497055 -0.002501213968036431 -0.0002157815211240710 -0.0005012921503318701 0.004684939610458442 -0.0007790399318959558 -0.001104067174176380 
-0.007182926707859519 -0.005839799266797635 -0.009259733474001842 -0.007099880205822678 0.01197507636071375 -0.002029596467958697 -0.001582672499200894 
-0.2600484477037526 -0.03998225850661242 -0.003302915309066905 -0.0006084874805412840 -0.004204006440062012 0.2667781951320882 -0.02574759206148295 
-0.1614549903587287 0.2456226597105410 -0.01269266586039297 -0.0003669474798556786 -0.0006417606633647541 -0.2553472098088900 -0.01813274443836349 
-0.6677213972322441 -0.02668769501642026 0.6878964088744407 -0.001270048682537394 -0.0005456600763660524 -0.002588170757958262 -0.0005516535727115691 
0.1220637040901482 0.06166680486861702 -0.2206763028512713 0.02169645147459989 -0.008410330968628116 -0.01754322798272478 -0.006049053624606176 
-1.187406981193630 1.137646304306802 -0.1327360529360791 0.2837085982819319 -0.2634453035693605 -0.1145109462210529 -0.1567115660662100 
-0.3416877874494675 -0.08984453115054095 -0.02929438766658077 0.2688286217485649 -0.05817459454214245 -0.03360941286338222 -0.03753206496366404 
-0.3308655041356516 -0.7431110199998835 -0.2203387798841400 -0.002129666604430789 -0.004096334390003519 1.902258904766167 -0.01658607078586427 
-0.6420225516745920 -0.1304103293938764 -0.01010721823630174 -0.007303303121414813 -0.02293499685320041 0.6193596402548240 0.007442091947207721 
-0.1079231709264833 -0.07490362687512404 -0.03018315079960967 -5.292353779845756e-05 -0.0001325030817952927 0.2021368272685023 -0.0009452229477157854 
-0.2205152439859743 -0.03545172000832746 -0.02704720226571054 -0.0002315133477872058 -0.0009001819297935518 0.2539195282632025 -0.002748545802996330 
-0.2201468288843000 -0.03527582331311639 -0.02705717123207272 -0.0002309521623314249 -0.0008977908111948336 0.2543886654356130 -0.002841546706398646 
-0.3276458450772002 -0.01628871050884476 -0.001945168375025059 -0.0003575188500447337 -0.004410911475848869 0.2946941482270250 -0.01352475095086597 
-0.6529677602916014 -0.02623232551695267 0.4216794824833632 -0.0002925892085345023 -0.001478626856183388 0.3289036692849198 -0.003291255151933524 
-0.2208792531711368 -0.1209543249548565 -0.03951089262698260 -0.0004319117783902996 -0.001815697583859241 0.3033378690426524 -0.01116393439862626 
-0.1288594814032195 -0.02482474538753412 -0.004550522897381693 -9.873440404707384e-05 -0.0005393386019941131 0.3656890967432309 -0.0004279053656987505 
-0.07012572256033162 -0.001392002207615019 -0.0008679507541043990 -0.007056126428585967 -0.03293140000330615 -0.008831482825874440 0.1215507615277931 
-0.2192025967406230 -0.04874292767126366 -0.01368467644365533 0.07802136136484224 -0.001660409870822737 0.2873340034090497 -0.004999986151071115 
-0.08437433042969837 -0.1127705216294652 -0.02738249526621614 0.01873368758364010 -0.006352595404830600 0.1992703939745068 -0.004913969795263359 
-0.2930292894679867 -0.01981328175884388 -0.004636552082781391 -0.0001872167464967415 -0.001418112995597869 0.3305725616411515 -0.003076781406508005 
-0.2747459749571535 -0.1272650266314944 -0.01548459585493950 -0.0001335707074154533 -0.0006642592944289410 0.3912249503549083 -0.002463852775055693 
-0.3130559777979629 -0.03606126163393116 -0.003801526609115413 -0.0002947359536229619 -0.0004822066168675692 0.4625142250622364 -0.0007557653074798257 
-0.02116063180047443 -0.008330037300284235 -0.0002586538133345751 -0.002556324216605480 -0.005994069341933386 -0.005220639343855491 0.1686361911516280 
-0.1174925418457897 -0.08950566109263595 -0.002119275478809315 -1.563397688316675e-05 -7.925696665951960e-05 0.3400338870677996 -0.0003199333553249732 
-0.2058579399507770 -0.003050223207876123 -0.0004281680168064175 -0.002226557068584368 -0.004422334011440769 -0.01305712704814009 0.06622686201444374 
-0.02475339166901247 -0.004230315883490751 -0.0003097215654635997 -0.001224595729230537 -0.006214442968054127 -0.01843742535829358 0.1462672934653211 
-0.2190758138887507 -0.05533323224227783 -0.002609687302646609 -0.0001056725200016474 -0.0008156453523965060 0.3675068552057550 -0.001504919840273562 
-0.1296709478379001 -0.05750025281488984 -0.008940629244154947 -0.0001361478297942060 -0.0004894948875272397 0.2777327138598087 -0.001001651356424568 
-0.08397300997051271 -0.06572234048788744 -0.03350836525428279 -0.0003576316199265456 -0.0007268010159169317 0.3949322206653107 -0.001438589967294146 
-0.008154893637044148 -0.005324699387442225 -0.04323341293078344 -0.04565892657345082 -0.03524370278813484 -0.02570918472524375 0.04869492603355729 
-0.4689596413755290 1.177655682556263 -0.1523339762380557 0.05513844085213615 0.001978884022396240 -0.08244036029380565 -0.02008086126903507 
-0.1595904643433576 -0.04262130145437790 -0.003275685432132451 -3.552792042085911e-05 -0.0002683825951290834 0.2308131532228256 -0.0005375478967286248 
-0.1332749284561974 -0.02480233081885111 -0.003496317489556329 -2.288786786000311e-05 -0.0002902423339443388 0.2779409189093925 -0.0002527164986778612 
-1.312982480917009 1.154713061616620 -0.01229866134988576 -0.0008034477319950081 -0.005211447050371019 -0.005969269487501349 -0.001387658894726663 
0.7369900907683357 -0.6449698107852160 -0.1428064699188251 -0.009740454420052946 0.07554408222050339 -0.009747355684420735 -0.003785479984150131 
0.4160274128014367 -0.4214311061696232 -0.05018366415887507 -0.009372566735668584 0.1350196198226536 -0.002107376759805399 -0.001564578453416892 
0.6215047325567916 -0.4075830404450175 -0.3214456529587429 -0.03340977306858768 -0.03715549764273243 -0.3073586140375986 -0.08200187762113667 
-0.01383647104735110 -0.001422788254565198 -0.008371547505326486 -0.006989893091800696 0.03955034404648720 -0.0003203410872690202 -0.0007996888692661870 
-0.1194285333649333 -7.651900289411205e-05 -0.001274693629683436 -0.001562846238021236 0.03973297462618858 -0.0002529649279394631 -0.0009663191113715788 
-0.07783527649260880 -0.0001138299049666835 -0.002108276646612567 -0.001524478731374274 0.05005259611829904 -0.0004129070694196417 -0.0007997935758549228 
-0.06071914618852838 -0.0001301525586563938 -0.003088528002476348 -0.005933575400359182 0.01119876486097558 -0.0004801923628064410 -0.001398729720077209 
-0.4296564894764034 0.6912964026432595 -0.007791194244412908 -0.0004105108336514583 -0.008601072602847720 -0.0002085212290113808 -0.0004645067654194453 
-0.2205672790118625 -0.02811248530288240 -0.04192361283573758 0.1642846506742555 -0.04465535976844749 -0.06159758234021583 -0.03731674345546848 
-2.670737351681905 -1.159025248597897 3.048032020656458 -0.07274149353883926 -0.04407915082895630 -0.5328122420183825 -0.06964149769438525 
-0.1941001937240687 -0.01647466109450578 -0.07802841184226819 0.003921058921292313 0.3011114509223953 -0.01002408556720436 -0.01554950542403026 
1.561793783202767 -0.3722508218661343 0.2049135575089076 -0.01252447281383292 -1.631298132754136 -0.07112728138239767 -0.2575593392717552 
-1.603576351341844 -0.1663790134531421 2.196438495504859 0.03882950932578518 -0.01739078930872070 -0.01989703041150657 -0.01006003086844871 
-0.04776103746898626 -0.02060175441964137 -0.03307286399867570 -0.008680701661386589 0.2870395634292808 -0.002705150480631902 -0.002513255794150459 
2.147340813821541 -0.6210572443985563 -0.1102760147735394 -0.2375596505754357 -1.826360354528343 -0.06333791477972898 -0.03172827711229531 
-0.1476582753426938 0.1836626861608149 -0.03310515147375804 -0.001726647022108485 0.05598356221975318 -0.002634018598107283 -0.0007388709154051629 
0.1623597748027750 -0.1564487722516238 -0.01557673925841301 -0.02578460223718219 0.07933562531230397 -0.005324724588910322 -0.01483040827780577 
-1.118076851351852 1.353419189638930 -0.1770655333307473 -0.01136253219132547 -0.005956003401891238 -0.01976809863297291 -0.002346848388033274 
-0.007416183351817396 -0.005689618106706980 -0.003011030881789878 -0.003383237153380445 0.01408801327686697 -0.0004464001958083001 -0.0009522961138463141 
-0.01952657742635778 -0.004791325310623813 -0.01056148431795437 0.01839821946464544 -0.001422253904765845 -0.001770040647513720 -0.002270900654343161 
0.07965050087873199 -0.1544841160588199 -0.003082803899895644 0.1899642176275875 -0.02870782945332323 -0.002499971688930850 -0.008154479176013934 
-0.4713567913535028 -0.09771096329161219 -0.06309970000721501 -0.005433369847684623 0.2625452713037489 -0.09054997627972736 -0.01243529319496264 
-0.1704800784362932 -0.07229205433355959 -0.04970362951459680 0.04461701809893678 0.2248256081615465 -0.01354778878374300 -0.01446373348574457 
-0.04003493601359413 -0.008212892086045597 -0.005487519012214355 0.01441177146867959 0.03124726445805947 -0.001890418142469328 -0.005724947899666596 
-0.7677542977878224 1.027209866891732 -0.07375899907042258 0.04821024923061510 -0.05974413519314200 -0.02127102385740278 -0.01835367418439747 
-0.01343131183435274 -0.0004306004710583907 -0.009632926134260596 -0.002337922379823642 0.01251145802152482 -0.001024591926155090 -0.007085129138794827 
-0.4963229831457176 -0.01529787806278408 0.6484593238326806 -0.0003795477213521288 -0.001716435002814325 -0.0003915988999519905 -7.603798472990907e-05 
-0.03735313572281362 -0.03627698978472244 -0.05566033058365236 0.09748631390002768 -0.02711538831999058 -0.006904702246528973 -0.007222994948288482 
-0.006682438765305502 -0.003300040394477869 -0.02942902599453671 0.008648994801585400 -0.02258521932678331 -0.0004484595240956395 -0.0009408617964080863 
-0.3875613184297658 -0.05913711668303380 -0.04172824675721000 0.1121875910625085 0.04133033474145909 -0.04595488788782765 -0.01483091478293891 
-0.1092173591354446 -0.04438134930944605 0.1173375425700684 0.009801252621171142 -0.02596231979178303 -0.01137726345603509 -0.009162385251968466 
-1.581892926013899 1.458870628219630 -0.01656129829251028 0.05158921624121358 0.004489687613942346 -0.01832018980975892 -0.005782585697794862 
-0.6229146587982584 -0.3878952454022039 0.07588483879467740 0.1068671739286013 -0.06051024951561310 1.619326515842023 -0.02461350371206767 
-0.02748454677299449 -0.0004899196651747344 -0.001862754771404378 -0.005278787509603981 0.05348120883075359 -0.0001639991966509545 -0.001380748039945645 
-0.5339622987985496 0.2791923598906057 0.7253105030252217 0.02353261398754068 -0.009215927396898518 -0.03656074714218274 -0.003541490694351619 
-0.2074996952990310 -0.2357295785603464 0.5751052914017827 0.02753882569272442 -0.02620821613345086 -0.02450225447782908 -0.005862761107823867 
0.08697596606207580 -0.05628881670245809 -0.04346103254413500 0.07575078314410280 -0.006588801006555354 -0.009398160909530506 -0.007439899453063550 
-0.1241384398248334 -0.02260371491512327 -0.02482001003674410 0.1196675278202356 -0.004592573699779761 -0.004385407314832541 -0.003752813288638259 
-0.01876667475588593 -0.01471450957098252 -0.009255980862729815 0.007703027940180867 -0.02739791349907491 -0.006603380333467636 -0.01683147249744296 
-0.009003357055997351 -0.0001208341783960683 -0.0003360228793436852 -0.001004336711305608 0.02012730351284603 -0.0003434021428476925 -0.0003468212967956742 
-0.3470472451494913 0.3645004368514566 -0.1220644190669354 -0.003311911377285133 -0.001687628922270236 0.4577568190117548 -0.002193154441899480 
-0.1360988539701871 0.2750502919188584 -0.03230491110687397 -0.0004605150219134837 -0.0002890251570970531 -0.01766049828555451 -0.0004964750380714684 
-0.5204973472711566 0.9621522470856713 -0.09275060587391455 0.09754964046193788 0.1376794186574516 -0.1244210361992840 -0.05953656987045453 
-0.4686212367125789 0.4752462016019798 -0.008546934712945840 -0.0003055770506626169 -7.420181665346126e-05 -0.0004418091781994682 -6.720028425845630e-05 
-0.04295796696326466 -0.0001713624915748117 -0.005525192403898867 -0.006854590189445558 0.01673714819494952 -0.001113680455055599 -0.002019600080702016 
-0.01713267902868806 -0.0001955712682135711 -0.005691681112259994 -0.008392959972523574 0.007047627445341565 -0.001220247584289504 -0.002601224929203777 
0.1674957763415048 -0.1341394388257327 -0.01654637436232235 -0.005984566468913280 -0.01695671629589028 -0.2647624139682071 -0.004908126784963843 
0.5370357759034022 -0.1389840300892920 -0.03811791224949972 -0.04906554821568690 -0.04468874384480571 -0.3188808345986985 -0.01180085713854770 
0.8303722287882813 -0.3342361245702415 -0.02825074354030763 -0.0009667970357692289 0.04020910458525340 -0.02470419546223702 -0.001585490943336702 
0.2655009509538550 -0.2374157431297452 -0.07973812978744345 -0.3180040668712844 0.3957450622867187 -0.01088443718708510 -0.005900940675288232 
-0.6813826911529938 -0.3828597445085297 -0.09001512164624252 -0.001594203125087985 -0.005529152881444774 1.244832454476536 -0.01665078637234898 
0.8122457012298171 -0.7030205742560015 -0.2307691003851219 -0.01402162086658505 0.1966347470303857 -0.04713294284362252 -0.009755738735742310 
0.1430900086952037 -0.4576849774359123 -0.5446629670864189 -0.1117143183489705 -0.1975209790200957 -0.3387617761027326 -0.05953671886852249 
-0.05002212837976955 -0.009070984438272520 -0.008602733274910250 -0.01473851306123539 0.01565248571103749 -0.01108070377590522 -0.006261342483732895 
0.03713715905833723 -0.07635047156046500 -0.01460830606907609 -0.001051515188311227 0.1598688025886016 -0.0005800530434436071 -0.0002169774439204065 
-0.2929278333435096 -0.01998024856301084 -0.003600872904194803 -0.0001077437506437490 0.09160469318572940 -0.001314036444252706 -0.0004725688076192928 
-1.089874176925795 1.794502395984977 -0.3596067045988765 -0.01775365579993081 0.05901181827513512 -0.1205471345465638 -0.01332277748490702 
-0.1041763837974943 -0.02021153865442284 -0.005938956013786817 0.09610561329535190 -0.01793239093281138 -0.009982192102297565 -0.003731139378593199 
-0.02031170089988448 0.02534651349814359 -0.03576786815394985 0.2315531103856410 -0.008340592717577531 -0.02848792370825906 -0.004402594364978516 
-0.07345990846037298 -8.227292355292916e-05 -0.0002205652037743924 -0.0003279800700011741 0.008463573210521920 -0.0001097073266462407 -0.0002579099425368208 
-1.314006092527487 1.365005223397719 -0.1305153784981952 -0.02589326327559666 0.2305231562100240 -0.009820957481854478 -0.003086155464578659 
-0.4788898168024938 -0.01510964946323653 -0.005497404777451859 0.07727656240618258 0.2997149630171549 -0.03414531763414380 -0.01650485508283655 
-0.02770742110678499 -0.03521221783569346 -0.009447603611808922 0.09868554098287180 0.1027859778021732 -0.02575605649210066 -0.009069321139556998 
0.05818160044914888 -0.4725614098353132 -0.01855692356762072 0.1048934214872491 0.05410292890663617 -0.01930329185896616 -0.05186778727082587 
-0.7481797662884795 0.5883412770798625 -0.006782909992448787 -0.006982377538090670 0.04027461805330303 -0.001512911058386230 -0.005159907258178373 
-0.4584363169041202 0.5517880022669235 -0.04315899136685114 -0.001326872351594188 0.02639229354058963 -0.02076604996203586 -0.002214117756149202 
1.314259540652726 -1.281211620323018 -0.5001261096179828 -0.05916829644081444 0.01133047002571430 -0.08679257361481202 -0.009336213747954123 
3.062956565863103 -0.6647785976662669 -0.4920491784533116 -0.4642414997308753 -0.07293952131111726 -0.07028199362239707 -0.9402052771308257 
-0.8041511342918969 0.7648503194011252 -0.04831668223288823 -0.003534544545203197 0.2393033175500472 -0.02019488841506721 -0.0003111195822734903 
-0.2123306106904126 -0.07327225284490205 -0.002996605036021104 -0.02204259979604415 0.3328726842565842 -0.003181752848735064 -0.007454664102048931 
-0.2940796864103376 0.1175931766993990 -0.01461651681380510 -0.02844576877253479 0.2344567559774553 -0.003571929456321057 -0.006546034965110680 
-0.07978586424484789 -0.0002506724759538579 -0.001740647545965408 -0.01786757656886796 0.01044787127568262 -0.0001168594746107596 -0.0005934112815536929 
0.07425925086023373 -0.1236213568085645 -0.09664229490187129 -0.02293057406368418 0.3417067702521073 -0.01264881084773168 -0.01255774922050675 
0.1333688876297694 -0.02983078285130302 -0.02101813776216435 0.08378829816988546 0.003393442334039194 -0.07131034080290313 -0.04145782119461348 
-0.1617619194755466 0.5127175161318427 -0.09085116326831885 0.07827621234828656 -0.003349877617177172 -0.01281145637711248 -0.005865832703840109 
0.1486715671675070 -0.1812878628552378 -0.003210712353106600 -0.001076133344561264 0.02227631709466324 -0.002586197318967161 -0.002391543403187783 
-0.6683027220417507 0.3482697633361205 0.2989251347568579 0.3389651622351648 -0.07090841958089904 -0.08945435577305570 -0.02360671537184945 
0.1782450937733186 -0.06063455301296256 -0.03360788424889796 0.03368702477005607 0.1312757712270761 -0.1380332261622509 -0.006381298173935844 
-0.04322803347790483 -0.1007881892754131 -0.06226256193456491 0.03188886135459897 0.1045647455271588 -0.03119429400353780 -0.01045174490924985 
-0.3706212896314982 0.4986940784717782 -0.01482459557431581 0.06024153163879188 0.05413745170327871 -0.05099911473656216 -0.01776479373382951 
-0.2729195263475310 0.5981877428780672 -0.07420488812768578 -0.002220264922247662 0.08743372733102803 -0.006565394388072971 -0.003399754802291378 
0.6128506170956158 0.5226395303745665 0.1707864292428839 -0.003353196155777964 -0.9099164974900712 -0.02101973764236441 -0.004570942002207296 
1.666596444030959 -0.8513113526937921 -0.4324398587998977 -0.04819092281618974 0.002104854701839348 -0.04405729266127643 -0.01216668323361771 
1.109695015597581 -0.6039709063503392 -0.5384120472373486 -0.05199285583578198 0.09796139702147556 -0.1414058948245593 -0.1022548134298311 
-0.9810202229020222 0.3852238203476310 -0.1398652141169133 0.07147651057681371 0.1604626001562575 -0.03128507651807076 -0.01204266732013937 
0.8695571263640527 -0.1470674768861834 -0.1627598604334525 -0.1205883935757668 0.02970968932512526 -0.008482165514872760 -0.001697817789645666 
4.655280888224695 -2.164390087460641 -2.059351510800748 -4.008389588983038 -5.824499418862536 -1.692119544777639 -1.769486673525234 
-0.03731400413007148 -0.03025467928767566 -0.01587511908427183 0.09698056166375316 -0.05542127135455706 -0.009248996841364706 0.1348953031609522 
1.854603912954893 -1.665995617893946 -0.9671872370804612 0.1335587276291647 0.2208755125406729 -0.1598275104015513 -0.006977875910827729 
-0.07504685835343548 -0.3139457029305908 -0.3278478877805516 0.1141041910949835 -0.004037980045661571 -0.05988585897427498 -0.01233149099942884 
2.104773370262425 -1.065185036774651 -1.598723388395231 -1.230699298113501 -0.2135600407840950 -0.5720377937649710 -0.2011531923449035 
2.554418068836043 -1.297847240908215 -2.058443878005021 -0.2316542149165357 -0.09780555413148230 -0.2129236029890616 -0.07639541106356733 
0.7875092429824511 -0.4083632253003266 -0.3711632428811700 -0.02772339508332794 -0.007250429809353651 -0.01190772302009415 -0.001578638803018168 
-1.279403567018504 1.353047260836412 -0.05937051148958075 -0.001781565357132972 -0.0001383859357160310 -0.001157301419188201 -0.0002223202695915768 
-0.3249893021268193 0.5715216814537961 -0.03261248873971843 0.07971174280188341 -0.03005714564643741 -0.03756225980257762 -0.01283384880204770 
-0.2511420421995528 -0.2856226902457098 0.3500130167558591 0.03807744057742077 0.02953210739808142 -0.02665583726619246 -0.009640172141710417 
-0.1261787586219415 -0.06374720915512318 -0.002872291281912465 0.04985504944257906 0.02324926696486358 -0.01953035780155552 -0.02405452193316023 
-0.3274107608493925 0.3114684061857641 -0.01054595813309710 -0.02450680882322259 0.1802772186111001 -0.005396228465892534 -0.01596813033387525 
0.08677390828235745 -0.1687293732368795 -0.03308269594282989 -0.05386196443381184 0.2421221869258358 -0.3357843207906682 0.5550607434886793 
-0.06315372450082770 -0.1894852141474492 -0.02256979718468932 0.001772816115001064 0.1200780327617298 -0.2113549652267668 0.03020502285090324 
0.03114741302969490 -0.01116424750897976 -0.01127901006517436 -0.001956399228767288 0.01967638764044969 -0.001257807974092279 -0.002165277983405809 
-0.4448993912339085 0.7868231749792902 -0.01247391775729518 -0.0002316888649991536 -0.0004477304174671989 -0.06279119027131856 -0.0005140913741023777 
-0.7692880487786662 0.03375461159396030 0.5701359496443797 0.3511815717887906 -0.02108203128673340 -0.05185618987801057 -0.01345716820909660 
-0.3232731776588902 -0.06276513076468570 -0.04887533684825728 0.4491348032944970 0.06058234523772847 -0.07162053906480574 -0.04049857853728676 
-0.1471781311010767 -0.02099487595584210 -0.1129257062154117 0.3077012054840513 -0.004743676366242112 -0.008806570807078914 -0.004997079939097722 
-0.4495273339453069 -0.01511240056556477 -0.007529406874687691 -0.007530343593714951 -0.03277696805990886 0.2603708457871193 0.01190371676728232 
-0.2644858241415905 -0.007669355565357822 -0.006105785703867300 -0.008562295759540657 -0.02197699512139534 -0.1470654949358655 0.03251126609082921 
0.02906777893787599 -0.02779560012510276 -0.007072485977180961 -0.01256515313222081 -0.01438469664314343 -0.1202005015937520 0.2433799037795386 
-2.794113034112747 2.206046521836800 -0.1017087769748494 -0.009859555414090681 0.5653316353997730 -0.04756986211614540 -0.01038907087311176 
-0.04156588231776630 -0.1905451098542359 -0.02145903251295829 -0.01420880353290256 0.2761017330194479 -0.006498261244759123 -0.005629344053351227 
-0.1399215074927899 -0.001300854829259317 -0.0009046139704537813 -0.001466198144557822 0.1026905033997032 -0.0007311011850782107 -0.001667254808720659 
-0.08367570932675443 -0.002273144657950131 -7.083726515003199e-05 0.1670412376781226 -0.0004599013650897100 -0.004111070707842550 -0.001406609158441698 
-1.671576886148932 1.899412922069780 -0.2170202742181480 -0.007206417619072974 0.0003319847034240340 -0.04299667176440871 -0.002802288200345848 
-0.2355303608885479 0.1917725707632320 -0.03301822075778078 -0.003586527196998232 0.03712294923915339 -0.001565592439816599 -0.0009955923873081894 
-0.2710068993752825 0.2398287478806122 -0.01378177536621788 -0.002401264560374353 0.01238525364836867 -0.004461410386935314 -0.001436800826821862 
-0.04471866256820048 -0.2245730511460943 -0.1601929967704267 0.3140708188750711 0.6104214689519110 -0.01797259915334538 -0.007486283888236008 
-0.01572380596541624 -0.0001385127195607918 -0.002524361519348251 -0.002665011750190912 0.005705511048754417 -0.0005797797495902130 -0.0004687913592655739 
-0.1714967961764168 0.1570692067981054 -0.01217341074473618 -0.0006188742723430461 0.01441955987614667 -0.001822780194200692 -0.001133532274513024 
-0.2739102609047833 0.3163504801577565 -0.02244540538949507 -0.006023135442483241 0.03092296855638767 -0.009151383328330162 -0.007438200074174834 
-0.7954191112950042 0.7410444497564395 -0.02590139768863972 -0.0008056033987387475 -0.0003500993788305486 -0.007225933545113489 -0.0003233792635608586 
-0.03688646919626018 -0.001343328977918244 -0.001349532820699186 -0.004112180531778957 0.05868391022489689 -0.001441216252054619 -0.002022126381199450 
1.356293334613857 -0.7075095134746547 -0.3705222037426724 -0.3556739064578517 -0.003239798850855242 -0.05785154228487641 -0.01971617249512859 
-0.2449530724342465 0.5130304581160139 -0.07142080149784133 -0.0003000737229684043 -0.0003321168107814390 -0.003855708395852860 -9.077741603674244e-05 
-0.04716025130878047 0.06619183243545236 -0.03471133341523339 -0.0003711355913351147 -0.0002040024926681426 -0.002150390355470829 -8.150835053648606e-05 
0.2061159874148273 -0.1174155330432470 -0.04033499056703068 -0.008855612091072093 0.09521433019558473 -0.003025841431590702 -0.0009249235148842588 
-0.06687565476833969 -0.006786315399025768 -0.0004747717280802313 -0.003796189437187385 0.05534252312208183 -0.0002628734612183682 -0.001080637090045970 
0.03223597684260138 0.3545875171478331 -0.03723504693186502 -0.03951570984934675 -0.2005792268165600 -0.02560649592852349 0.2027610161392456 
-0.004012647287710629 -0.001756893057839067 -0.002642159466823779 -0.001284604176742034 0.01433913883544437 -0.001513460409884423 -0.0006776025285588472 
-0.001193486479744872 -0.005970366175899757 -0.0001037662281343449 -0.0009198621088138811 0.002377040809399895 -8.640439199401480e-05 -0.0003578057867832410 
-0.08028474795573327 0.1459533852876431 -0.05809146849528991 -0.0005671338578663430 -0.0004537052428976688 -0.001003284807724739 -0.0001266870827410062 
-0.1411431088963731 0.2056157613916111 -0.1314320507035182 -0.001031948115337173 -0.0004179213379217941 -0.01088481841100747 -0.0004248834028652823 
-1.880954741236969 1.522769890442900 -0.04376765652252570 -0.002840683767315074 -0.01216049140034401 -0.04133597241179016 -0.006410118235389770 
-0.01938920761453664 -0.1936528810608393 -0.001460654671935180 -0.007312629150587171 0.2918973694215676 -0.004217042501823548 -0.008326003231473192 
-0.02708157262772680 -0.0001405517092715130 -4.775823706196872e-05 -0.0002969377814153372 0.03787207819865242 -6.045440627535823e-05 -6.700077788474249e-05 
-0.08106628993968054 -0.0006583423434675857 -0.0001874400405308312 -0.0005826170027471163 0.06350864166174844 -9.829593694448834e-05 -0.0003370180005855208 
0.1399469065648954 -0.1214412467479663 -0.002493396375126968 -0.004857806976448924 0.003877926218775136 -0.001998818409959002 -0.004681599556640446 
-1.227280627543956 1.817385130475774 -0.4571003484978337 -0.005030301151262898 -0.01013986554209107 -0.04046985474605276 -0.004270666952157681 
-0.07993573443567249 -0.004695612862133923 -0.02010981747382367 -0.01134231985679289 0.06878726788734219 -0.002714675354758236 -0.003580933805868184 
-0.5035415462918618 0.3039420767155338 -0.004054732728364289 -0.002244203127108684 0.02257105286743967 -0.007614147091086509 -0.001303614264539004 
-0.1608571248813343 0.2651866659365910 -0.01257418812542250 -0.001136718635805928 0.04418261596415411 -0.009552685802264002 -0.002402542037373253 
-0.3736750364341316 0.3171830721666977 -0.001631951428829408 0.09669335259101963 0.009711954422250835 -0.01063373715584817 -0.007422906389728987 
-0.2564605650822389 0.2537260148741094 -0.02039704705242907 -0.0001608963097412084 -0.0002190074479167643 -0.003777376343226474 -9.759997668093463e-05 
-0.3531130606417785 -0.003601377908502071 0.3343237267357944 0.05821343413498145 -0.01783455760534489 -0.001201899787565170 -0.003868526546579401 
-0.3819363435508790 -0.01392470258716852 0.3865316718022767 -2.936526425609971e-05 -7.665221868549397e-05 -0.0002228753115276072 -4.193411443722740e-06 
-0.1785645649721833 0.3309958891084155 -0.01261023985430003 -0.0001696610914002445 -0.001549361563445550 -0.002923456742778858 -0.0003355237963957775 
-0.6577194059534631 0.8585350636809760 -0.1696134419650589 -0.008849993893199628 0.05161704738313311 -0.03619162893955734 -0.001544457562438040 
-0.05498613139975416 -0.004854974402339912 -0.005869766840016107 -0.03541223908247556 0.07828372385892725 -0.0009340052065683743 -0.002462206594540127 
-0.3273120057583167 0.3084947656410003 -0.02886405541183985 -0.02217718166647040 -0.006496201949455660 -0.006907033533433798 0.2670465020622660 
-0.01457879416670931 -0.006960395507928918 -0.0001518469241882017 -0.0008631404821036945 0.02734657027407544 -0.0004041386023856250 -0.0009759946202015857 
-0.1242401243507449 0.1399779073607053 -0.01023920458918761 -0.002052932714468127 0.006957058991851837 -0.001817489395389199 -0.0007399143709560751 
0.6182955275066390 -0.09092855830620801 -0.003828836176402969 -0.4285192713745479 0.03803850732508955 -0.01093932636355162 -0.003518382986912826 
-0.1180442255754774 -0.001115534214654812 -0.001876449254789684 0.1452700343842354 -0.0003655770401922146 -0.001827306850741887 -0.0004272752808300416 
0.05686221794220713 -0.02123843738052641 -0.01020772138979869 -0.01761533393309880 0.002732468158762633 -0.004405191177020673 -0.002883688315427996 
-0.03862325542393466 -0.0003489045723095249 -0.001460518273781355 -0.0002388141142179667 0.02718323234288429 -0.001665334688398264 -0.0009344608462146686 
-0.02643875468559068 -0.0001307675163655425 -0.001332972663499886 -0.004569916868308401 0.009405892498552147 -0.0003661968147004734 -0.0007052076032587937 
-0.008329800765924083 -0.0007440483103583321 -0.001104214437683772 -0.0004055451522080160 0.04225398595940325 -6.542303413606672e-05 -0.0001139104169234089 
-0.1249762165883299 0.1060210474058604 -0.0005232428337674298 -0.0007958843978580884 0.01903255293828154 -0.0006304713481332224 -0.0005625078786270734 
-0.06703792962923788 -0.0006026978863718492 -0.0008539081939827345 -0.003010648123202959 0.03814363068394260 -0.0008902939981238325 -0.002018823168645924 
-0.2775079926463653 -0.05369355384016943 0.3378150306077925 -0.0009270801250953105 -0.0007843031422588765 -0.008848626356407634 -0.0005802142708153482 
-0.03041860434905005 -0.03096201397320648 -0.02488258030821780 0.01600939831951877 -0.04097382411748889 -0.02188171981775951 -0.03967367093720021 
-0.3715274073485320 -0.01188406340074150 0.2691061675933408 -0.0002322215975653855 -0.0006867439832505863 -0.001135200707305343 -0.0002074701409786491 
-0.04692659201406305 -0.0007821695046550521 -0.002030396942169996 0.09781977289558959 -0.002205762585791056 -0.0004503747530424883 -0.0003680158617021717 
1.817121939102377 -1.781406409528744 -1.018330289640247 -0.1140724231877297 -0.2345838326048915 -0.4879135055522694 0.08006516908959538 
2.003058281331311 -1.519689215858267 -1.072817645087715 -0.5935318622666111 -0.7332195835368420 -0.8538496722174844 -0.4115616677304708 
-0.7246978065176075 -0.002533123911351106 -0.01379040875480272 0.6672441913960884 -0.02999124510475293 -0.001742022408093394 -0.002041892304933811 
-1.374424646330152 -0.0004278187990564530 -0.02707900463149126 0.7200553703827054 -0.002777163009641085 -0.0009698137710585698 -0.002532361334536468 
-0.05020962362417145 -0.001407901791811154 -0.0008465286101019661 -0.004205200454976806 0.04149591545747259 -0.0003497794616654443 -0.001170493701402056 
-1.099460861666317 0.9780336475445370 -0.04077704076310400 -0.008813182618208683 0.02515221638582472 -0.01615917495665039 -0.005661471930578837 
1.059413611483117 -0.8497486257407990 -0.1592648099539070 -0.01206890869960858 0.05056139654277444 -0.01823967052088634 -0.007084726297940532 
-0.04214036484666486 -0.01733537665499653 -0.04585450140607508 0.004880646545125369 0.06674153071226292 -0.005160454927009943 -0.01327081375061049 
-0.08803737785554733 -0.001416231965626356 -0.01122126198842156 -0.01418217599261062 0.05967283142880848 -0.001897496237756459 -0.006220049227130798 
-0.2194050016598414 0.5093933807791355 -0.02665016705097231 -0.001683531230720416 -0.003367628303592398 -0.002075599279348792 -0.001553530332904477 
-0.03552714926072524 -0.001673499699167044 -0.04239741848027500 0.03239302038000914 0.02562332695633213 -0.002034819421643423 -0.007017583421673632 
0.2934840650314711 -0.1765512854580262 -0.02113175033806322 -0.003399658935571264 0.03738102196990718 -0.007920190952463086 -0.0004411914250941221 
-0.05323543707886053 -0.002061324425566291 -0.001008063057410681 0.1240219585179610 -0.0004159594532486574 -0.0003379739470680334 -0.0002881156107520578 
-0.3356162155835213 -0.005757992055546131 -0.02444986373055482 0.2133735893120979 0.06606505920647147 -0.003370193575492329 0.1424399320062046 
-0.1413889448307855 -0.0001302523106382682 -0.001728318742076440 0.1387365556281445 -0.0003414389577485770 -0.0005214427918309230 -0.0002831883330463780 
-0.02656883100886728 -0.006242916578256976 -0.0002352410604997127 -0.001586459476473193 0.03276017442614502 -0.0004869979724947793 -0.0008554895881241558 
-1.606976707058245 0.3880847057652431 1.222908268973351 -0.003345864789241476 0.04276995362160086 -0.03214245077311292 -0.001109928721521466 
-0.3804738303065910 -0.3648270403270927 0.9106816865975608 -0.01556927567185231 0.03428205530519093 -0.03718503091966065 -0.005907036477734002 
-0.2720814571169354 0.2927424004076313 -0.008837100468025045 -0.0002276132824945222 -0.0003054279294585922 -0.001051394900151405 -0.0002732904744517670 
-0.5070053673206583 0.4399125308731104 -0.02422944898921557 -0.0003389283838098559 -0.0003635223246234860 -0.008710979579764444 -0.0004958605823265163 
-0.008135146988309616 -0.007394297952749834 -0.01093078508254844 -0.003394311338822420 0.01484180575303822 -0.0007825815347452642 -0.001232622706648485 
-0.1591359604270428 0.2551354618102107 -0.01707770315409563 -0.0001226730555841620 -0.0006105310912941757 -0.0008607789895879880 -0.0001121661218620678 
-0.06314529162218510 -0.0001509768092602187 -0.0005881155895312405 -0.0001482088283279490 0.08270189170751745 -0.0009138366863387429 -0.0002822628964822086 
0.06191388736285535 -0.02777883490628716 -0.002643961670032762 -0.0007951729657653327 0.09431415844889227 -0.002308509492513888 -0.003201115924384285 
-0.01373922997880815 -0.0002182698609651703 -0.0003931713566296764 -0.002534617828957939 0.008829858968568475 -0.0001159509566230781 -0.0005816691681644943 
-0.4928420768932039 0.7540453362651041 -0.07089654621901724 -0.001706092425948343 0.03892152711035025 -0.008377818152239393 -0.0003036755716246618 
0.03832217039492220 -0.03343371851789894 -0.01291713083147666 -0.005789633578249947 0.01574844520805365 -0.002413189681740976 -0.002331800574512913 
-0.07091825749649590 -0.0005557950624064665 -0.0005127127028494430 -0.004289742003219710 0.05594682956735920 -0.003140535077198640 -0.003573607569778438 
-0.1763743627843445 0.2655533141102950 -0.04938930608528083 -0.004710981125393025 0.06249127121457956 -0.01020014481175782 -0.001967838141534063 
-1.165911115700262 -0.1138207361539141 1.664972327884353 -0.02495648159595765 0.05524517334830460 -0.06433817628373018 -0.009214867625752906 
-0.9457275558205598 -0.1500415420972784 -0.06706202184858524 0.4349268540246615 0.05356849605408803 -0.05659128892622688 -0.05413415898990587 
-0.007957890521477254 -0.001363903863361340 -0.001333375290619836 -0.0002053497024902037 0.1079407990995458 -0.0001921270937495008 -0.0001919028660847940 
-0.008256768219937151 -0.0008924855409252574 -0.0008912775873223282 -0.001346775016119962 0.04641719698480004 -6.000765535277274e-05 -0.0003060537469643082 
-0.6667393460240598 0.7856779411257249 -0.04630541957367602 -0.0009335232564129121 -0.0008822454218454439 -0.001755773723002051 -0.0003191915343938936 
-0.3637913179904977 0.6496719570787683 -0.2511114469646059 -0.01217215005339586 0.2441334662909537 -0.01088485795339065 -0.002449454734118900 
-0.4623401734907206 0.6799388968119249 -0.1032476063255819 -0.0005549068702396621 -0.0006265960310421037 -0.01352122706128312 -0.0008808937780837797 
0.3413994266592231 -0.2783127275722390 -0.005439944794015468 -0.001324866158059771 0.01366331042003379 -0.0005579954647696314 -0.001070544476275973 
-0.5276971553712160 0.6275120540925649 -0.03947615305801554 -0.001934809392654528 -0.0007849549250833721 -0.003640136657612723 -0.0001583951762849042 
0.0006235544808475754 0.001310103735287064 -0.001504978888679707 -0.0001456054000474695 -0.002361825774590888 -0.001259558416072984 -0.0003036698160332606 
-0.4902910948697711 -0.003849397915782074 0.4883974138473730 -4.998399313102376e-05 -4.922616497789075e-05 -0.0005024945397618059 -0.0001173134481948565 
0.01946893429618962 -0.005228306609824942 -0.05396026480937924 0.05718224594829893 -0.003310592322552154 -0.0007289495788425535 -0.0007766983277050127 
