solver_type L2R_LR_DUAL
nr_class 8
label 8 5 2 6 7 1 4 0
nr_feature 2389
bias 0.000000000000000
w
-0.7097283011809710 -0.1265770222962580 -0.1015502580931038 0.4218947205628926 -0.2585231199162769 -0.1743407749263866 -0.5009086861735149 -0.1098250815016124 
-0.3938822880828485 0.3283996264455974 -0.5741104599113801 -0.1451866111340161 0.1785498552141149 0.6550012387055566 -0.2611176312778286 -0.2324742909942702 
0.003603253718576526 -0.3664596802889674 0.07682077803426256 -0.6989156449745375 -0.1940726386577117 -0.3487255713462368 -0.4673378068578622 -0.1954336105573073 
-0.6748615463759617 -0.1766615964755032 -0.1813967596090433 -0.6579618923397390 -1.164034871812583 -0.4597785154563452 -0.8753441993835323 0.3162719872822256 
-1.256569400361867 -0.1987383119777033 0.07901679761635070 -0.9814981818570662 -0.7772212574577056 -1.259707168431009 -1.033640607873662 0.1833090594273625 
0.2505937905484597 0.04083048631692267 -0.2553863529981832 -0.03855635038172840 -0.3681402122740058 -0.05261693010148084 -0.1112108614203054 -0.1686544027656231 
-0.4858804598273681 0.6259619903938428 -0.5826748717002566 -0.07240891618599230 -0.4452524499605718 -0.3912563026712205 -0.3571172125119054 0.1738448490671219 
-0.3308387332158613 0.1082922587137285 -0.1752084286788488 -0.2466669754858015 0.1567617885344064 -0.4257977976301877 -0.4290582856478934 0.3019631253542641 
0.09310815983126548 0.2191043060924193 -0.1012103427053713 -0.6839536339074470 -0.2284517158831244 -0.5226846497277784 -0.01428506478164850 0.05150975470761599 
-0.1002107584797505 0.09193269717468489 0.4218672338536807 -0.2502042014309877 -0.05346945823429737 0.04137192408920611 -0.2461326255969382 -0.2609558150833086 
-0.06822703527925508 -0.2347459569920354 -0.1091047396442928 -0.1182462100778888 -0.5289533363601124 0.3355267801822278 -0.5219594673121369 -0.2970784630568895 
0.2452838105053058 -0.2796860576874557 -0.1497071965225499 -0.06469058349330320 -0.05128122653134893 0.3054608811166956 -0.04366659134671715 -0.02445350242020837 
0.04923923582435857 -0.1252683747521356 0.2303125821724112 0.1418377274702984 -0.2248949778052874 -0.1198878245750513 0.1731201415550553 -0.09999219065050237 
0.2909357208527837 -0.1139338940591916 0.2473391622737012 -0.002415761845026662 -0.004695185900738004 -0.06768110324170254 -0.002003118855831922 -0.2331645242601537 
0.3795045448092538 0.6057977545236936 -0.4432903955080463 -0.09073828440525379 0.06397926057235373 -0.5466077000356540 -0.1177303600354929 -0.4050979929937504 
0.1031544706988960 0.2570731418905807 -0.2139625897981285 -0.03322936919294445 -0.05326137510368844 -0.06841268224896126 -0.03523996025433520 0.02328249785643916 
-0.4970209952200542 0.2335275907113237 -0.3570613945589581 0.06456781441566371 0.1446480015615800 -0.4358347876685027 -0.1482541961767759 0.3591541077155507 
-0.09857543510697933 0.4546918263358638 -0.05355411841547789 -0.01566568208366055 -0.008963884847207747 -0.006610173756345354 -0.02656209779087369 -0.4953712330014239 
-0.06436998809453003 -0.2739722428542397 0.06466201505981942 -0.01018617225809370 -0.01811972166782239 0.1746412743719569 -0.01386624435641944 0.1037723700496462 
0.002922221561520179 -0.2299393299724907 -0.03304685246887994 -0.01934771779701717 -0.04611059088259911 0.1410976060738886 -0.03184730861163128 0.01495665898105909 
0.006201179090662524 -0.0005957096943918860 -0.001165187868687140 -0.0003720451115844478 -0.0004888503817133249 -0.0003369399162306819 -0.0003967327753138715 -0.006325006471945716 
0.009525770433106715 -0.0009886222676787240 -0.001515206412779138 -0.0003969404609861245 -0.0005544281686805215 -0.0005188873887313496 -0.0005368927371873248 -0.01145980871614431 
0.03682756944355462 -0.008607346410937373 -0.01394303002761112 -0.03488076621701817 -0.009698626005140454 -0.02877510104481874 -0.01598406589398420 -0.01138916661662629 
0.01573222058219216 -0.08916157798598104 0.1636362895244326 -0.02553104089751359 -0.01395518634681044 -0.07685132082428506 -0.01553697072511666 -0.03217695242621493 
0.03674908034837493 -0.01023104042338057 -0.01369416932734955 -0.02455259247776286 -0.007357823195433882 -0.01956445345431015 -0.01227751375682657 -0.01216627976210794 
0.06302015233251362 -0.01255450639700591 -0.02841695917108870 -0.03678275843615250 -0.01025512949344174 -0.02309984617054892 -0.01248123633428189 -0.01460564209047457 
0.04489761806177625 -0.01231708497037123 -0.01599159549721850 -0.02841655134920619 -0.007500321287192200 -0.02568632422311798 -0.01356225746111664 -0.01443173111838277 
0.4534736339006180 0.1509264559293665 -0.1425093444815941 -0.05634684333496638 -0.08709065911385232 -0.03777911441530477 -0.07699870887486855 -0.4299737113095170 
0.2519020792564205 0.03134271416561771 -0.1687416700707867 -0.1167824621140032 -0.3138969765633407 -0.2511448525930261 -0.1210126983354017 0.07366475881582374 
-0.01114974816432943 0.1182265901183488 -0.1003476728730307 -0.0004362499808384697 -0.002308714771540731 -0.03304426673672511 -0.001850665854085058 -0.005300030128132122 
-0.01522436616985657 0.1909120897701921 -0.3208460586671015 -0.001049380593508377 -0.007375442188144027 -0.02198128963505500 -0.002263128102541482 0.1066583454030520 
-0.0008442260923195124 0.04946363146166315 -0.04312298596988722 -3.368058691192916e-05 -0.0006482723330750380 -0.0007024828823336554 -0.0001564440190282019 -0.008360506843468564 
-0.01067645603084157 0.1577306338401834 -0.06702426624870103 -0.0007727875589826381 -0.003401797252098077 -0.03796583894102584 -0.001658891137597741 -0.06655589278548919 
-0.01104114344863450 0.5812532101092436 -0.3071474334068819 -0.01632924055505505 -0.01261026562619943 -0.1396301503064413 -0.01043169968520251 -0.08039389640414080 
-0.003253268282083110 0.1324806302935542 -0.06502346980699843 -0.0001359193477465332 -0.001891819793847690 -0.005472508360913817 -0.0005286583430686225 -0.04429739750136816 
0.001503771732655328 -0.0003489876142915207 -0.0003743653256182026 -0.0002483718906414508 -0.0005748811372064800 -0.0002022304475283949 -0.0004194365821639620 -0.001697164487622561 
0.03127830435984546 0.04766828395188342 -0.01218068113689611 -0.001168601007527386 -0.001688016572600284 -0.001660124662907817 -0.001702676780190881 -0.02298058097734093 
0.2425094396160928 0.1789533270783106 -0.2728538342261519 -0.02450245932487193 -0.04909297285933748 -0.08418816962965865 -0.03472458162120196 -0.1075871250293669 
-0.007575231332558009 -0.09040315563624209 -0.02418684742669746 -0.005160357022074320 -0.002930247772701095 -0.01581677194725309 -0.005283361859363576 0.08181339986971514 
0.3359600409995743 -0.1480193054280678 0.1029474874146432 -0.01589797261851427 -0.01521841065298404 -0.01573193805150478 -0.02031144090796362 -0.3448864984432746 
0.1549230553634166 -0.006859685423101536 -0.002571353613405868 -0.001428974195403641 -0.001801330100881929 -0.002124448719258834 -0.001868983653621407 -0.1438651156463422 
-0.08411402473848294 0.6130381586931928 -0.6283441252429923 -0.01017724146638925 -0.02379468494671663 -0.07983574844871823 -0.02110671235896444 -0.1502739951591266 
-0.004734107161479424 -0.3863638181633339 -0.01272422592550656 -0.001575915262205729 -0.005466891132397465 -0.03370964546664660 -0.004578537912349480 0.4264382443852696 
-0.1990099906850606 0.005956337754142539 -0.0003297039943939874 -0.0004895752541027824 -0.0002501076111749170 -0.001830388903842209 -0.0007978310795829902 0.2307228290461491 
-0.2269075450329452 0.006115207671987271 -0.0004732717584201760 -0.0004411947370726017 -0.0005953261878735101 -0.0007193576874287917 -0.001093908284729284 0.3068377394541320 
0.03640404691907975 -0.004532002358303009 -0.001053328704908194 -0.0007332646341227696 -0.0009144191302489798 -0.001141538041748073 -0.001305070444285199 -0.04217091649250440 
0.005347002605101224 -0.0008681880391287791 -0.0006454272262896321 -0.0002974970515335031 -0.0004975321304524615 -0.0008427627052123817 -0.0002970509618776879 -0.001724062766770160 
0.01256385904427144 -0.05630988623104054 -0.009540920734937536 -0.001316115746106054 -0.003237233929336275 0.03559974587979201 -0.002285036640527981 -0.01379144723712918 
-0.6200577102510705 -0.09399803678171638 -0.4450726046264473 -0.1304231704198804 -0.2254408944685244 0.01450562793126453 -0.1586354888784908 0.8057108975646511 
-0.01192142335330262 -0.1325802720885957 0.1241359528824577 -0.0005605127155209983 -0.0007568303546866221 -0.002753516416987291 -0.0009140678262472622 -0.01065864425092519 
0.01471597484310206 -0.1103637050689702 0.08484326784692822 -0.0009629306676891640 -0.001288899467277109 -0.003489050282066968 -0.001593295912826588 -0.03066299775084075 
-0.003366742737238887 -0.1072530518749654 0.1106928615747152 -0.001289519530980086 -0.001954502596508744 -0.009405913410726358 -0.001886789124405277 -0.02597781926485663 
-0.07958487832243959 -0.1224284105909360 0.2093574868449780 -0.002070294564592653 -0.003743415526254577 -0.03103003111464184 -0.003250585428815344 -0.07288557439518940 
0.01715795625652001 -0.09293182694290003 0.08861000281560400 -0.0005262096434533312 -0.0007994324496478500 -0.003287888281905904 -0.0008438409773807366 -0.02500714480889022 
0 0 0 0 0 0 0 0 
0 0 0 0 0 0 0 0 
0.007842709958736536 0.05868219659832797 -0.005864790328119610 -0.0007221880337859077 -0.0009804637655021692 -0.01261783468721093 -0.001275474113768907 -0.07020234453348817 
0.003187924370089334 0.02898955019718286 -0.008143890925131472 -0.0003039532873840435 -0.0005319823146612115 -0.01114590827650601 -0.0008257693699868187 -0.02459425778251917 
-0.003180584018558971 0.03727334419590668 -0.01548065999282423 -0.0004060463729791760 -0.0007915207980852287 -0.02244873447694255 -0.0009864496245459186 -0.009557224232545698 
-0.02297638643763194 0.2197293088095956 -0.02616725652662699 -0.001102924684960173 -0.001110404388053915 -0.05638445863029539 -0.003826728902687683 -0.03377238161017986 
-0.005375715934296397 0.04093812194620765 -0.009111720581065949 -0.0002038978254279021 -0.0004263459166373116 -0.01750417681643227 -0.0005600989317623014 -0.02183862717831036 
-0.005066326436289317 0.04671533648446961 -0.009353408214140447 -0.0002033033711573391 -0.0004086823402796318 -0.01784494474464080 -0.0005605763759603164 -0.02566475833946102 
0.06519176594263452 -0.08955737823320724 -0.1367808197415925 -0.009621808029278317 -0.006297386781285623 0.1587214581753933 -0.006602853472006578 -0.1039458710564992 
0.007070964361387078 -0.001188635034372753 -0.001102328921792893 -0.0004515888429676244 -0.0004970096260426067 -0.0004030890848098496 -0.0006971192969639093 -0.007766504115147333 
0.003528328846033070 -0.0009024826377371997 -0.001282921120860338 -0.0003607144443548460 -0.0007843721147583055 -0.0003198315772242977 -0.0005768455231660221 -0.004857493051869851 
0.03008404294722120 -0.01185720449629083 -0.01290457621334866 -0.002132753511573083 -0.004715334951328093 0.007590170608295688 -0.002782780603342980 -0.03539964898700661 
0.006397385741832020 -0.001722365203656704 -0.004229922585472981 -0.009812653111607278 -0.009897475908723679 -0.005726773266541784 -0.004805083853464902 -0.01011927454734396 
-0.4429882346235997 -0.03466641841078445 -0.7511131535458536 -0.08240932963259202 -0.1654480369731820 1.029177094370365 -0.1221991082076823 -0.5938830265809626 
-0.0003130322642757384 0.01852028623583502 -0.03016806226617297 -0.0003589383154091653 -0.001065552005463050 -0.0005966444417985167 -0.0001761190960236673 -0.02980160365157492 
0 0 0 0 0 0 0 0 
-0.002164637014841889 0.06308052958393365 -0.08714933120096818 -0.001817107202842620 -0.003111606330013676 -0.002782315801772960 -0.001830830764234726 -0.04404542180004073 
-0.3512266173106714 0.9729143739909653 -0.2035938374028291 -0.04413581043605026 -0.06789450784707467 -0.4172715711704688 -0.09420787660569300 -0.1217051866451046 
-0.005103285976427775 0.05086954143721519 -0.02920669797611437 -0.0003007682913538668 -0.002418110717731039 -0.006076258660924927 -0.0007590972342952872 -0.004500300320704180 
-0.003329347122169416 0.04216193915646277 -0.01996189457651120 -0.0001514329127261092 -0.002129956495343731 -0.004537669757467696 -0.0005088643183444859 -0.004721565051146253 
-0.001776680091632602 0.01350781408154518 -0.007776485314146858 -9.963701222918206e-05 -0.001535510006211170 -0.002042418606972040 -0.0003253632349772226 -0.002321626620136837 
-0.0009622625459242279 0.01415588264409155 -0.006602750713703413 -4.837367438856616e-05 -0.0004577979753014296 -0.001766131480259666 -0.0001226748122257810 -0.002889921646814894 
-0.003274229643337000 0.03617052740048365 -0.01135916511493779 -0.0001610118663421880 -0.001715741424336500 -0.003891623995014516 -0.0003869098161187891 -0.009840473499819980 
-0.3430586346836434 0.5075255361333723 -0.3353026744716879 -0.02908903887494552 -0.05082131480549659 -0.1597862322247709 -0.03999048718002694 0.1112394325043559 
0.1768546103378060 0.4273667707489863 0.3489271952198211 -0.02949653655789002 -0.04144846188557687 -0.9827863968400548 -0.03697133678979244 -0.1330269651544983 
0.01115642600720784 -0.002883940266248842 -0.002559678140666977 -0.001644999303817630 -0.002175734209890846 -0.001090283501769918 -0.001952693175428862 -0.01799843231414294 
0.1091313717553866 -0.002960193582428222 -0.01205172610923982 -0.004415657790443638 -0.007407229955376820 -0.004755573290879624 -0.005613656294462234 -0.08744905628474152 
0.2867162887026947 -0.05757673606840558 -0.04341826358493695 -0.01639993753529269 -0.02494967179345636 0.01866354553416191 -0.02472928125357162 -0.3027559281407389 
0.01757634739075858 -0.005115091793609760 -0.01304032745110851 -0.001188093286885116 -0.002191058488584402 -0.0007524775475459013 -0.002338171985546058 -0.01617624340469043 
0.1128654211710295 -0.009831804176632012 -0.01242663565788149 -0.003386538253310734 -0.004995490611324638 -0.003282633527797833 -0.004860869003041122 -0.1647928980723623 
0.002982536374611270 -0.0009440563577194621 -0.002858524784108275 -0.0002730404862019738 -0.0004972444431117563 -0.0001635214941197241 -0.0004898711478794136 -0.003031662167335383 
0.1535369530388664 0.05249335394506527 0.2043096430493848 -0.03179822777158342 -0.04903581180827564 -0.2633695330849964 -0.03588821520172515 -0.2198085684542816 
-0.1995038373117324 0.5424844984097432 -0.1731288869519523 -0.01295369064052225 -0.03000236802450574 -0.01629735562324746 -0.02432334487600681 -0.1149171721153971 
0.01592914306459038 0.07127763603368362 -0.01047303819319536 -0.006815401493367138 -0.002379577554026886 -0.0005589406129120368 -0.008471902995473090 -0.08656271881368974 
0.0008580391844266921 0.04463724753102800 -0.01227443045778094 -0.0009851896884044050 -0.001763517555561834 -0.0003353194942351977 -0.003411614560465182 -0.03159922162114057 
-0.002541032682829700 0.03806300219878120 -0.02659505292584882 -0.001110590905060642 -0.002375871340581913 -0.0003638114692331223 -0.003352287015715282 -0.02841143370010438 
0.01810661310245023 -0.002719173250551136 -0.003866382609059715 -0.0002919218109081050 -0.0002183121513431945 -0.0001406060066798462 -0.0002966234411126192 -0.01162009700444641 
0.1250205228845734 -0.01935638526607354 0.1254905331973348 -0.01000849534398058 -0.02057022437620719 -0.02894238935703559 -0.01863043734868630 -0.2069336608572538 
0.07921481778186049 -0.02901413600539527 -0.01060354643793048 -0.003662354696763676 -0.006292860725749382 -0.003645421892337120 -0.005074963990401082 -0.07811989623869131 
0.003725765520445225 -0.0005969482579821237 -0.001966026961639682 -0.001187874366323400 -0.002526529807615178 -0.001187774822127865 -0.001809735633606841 -0.005318465226465069 
0.005182018899442359 -0.0005434071997976378 -0.002595159327575453 -0.0007379122519775753 -0.001791644992945341 -0.0005937400972179013 -0.0008536467344912254 -0.005536997867021684 
0 0 0 0 0 0 0 0 
-0.004153290617502977 0.1799010391623624 -0.1919568629557114 -0.003345255884051049 -0.003102108145629666 -0.03972950573904664 -0.003734221608709928 -0.006350394056917506 
-0.001861293045895515 -0.05819795523857083 0.05664063624621380 -0.0007589869658187359 -0.002328034805053978 -0.01194492157882233 -0.0009516352276875415 -0.007944916448789799 
0.004521039055406457 -0.2055975722611378 0.1414312110936363 -0.0005858787302814119 -0.001346693830152469 -0.001865587397509728 -0.0008330845742881810 -0.009948955750070461 
-0.006083773299191817 -0.4386408269740267 0.3280640379977334 -0.0003448531922330141 -0.002669240654499083 -0.004557794953299393 -0.001158211896450401 -0.01420194773507174 
-0.4721516097990918 -1.070532122220330 -0.3349962310412865 0.1801859938691175 0.09565746497952483 -0.1936186526568504 -0.1596241127016009 0.3743213846971458 
-0.02728282327450327 -0.007225366671482629 -0.01452516869592740 0.3727168968943111 -0.01066459853390982 -0.006024378222235258 -0.01171779066412875 -0.3908176245817255 
-0.02502526090627743 0.03877208815551714 -0.005080441366898796 -0.001048115934123136 -0.001978445035314796 -0.0009994255129588377 -0.006524421543247666 -0.007637386560897443 
0.2714624248911806 0.1506229752831909 -0.1333191375695395 -0.01655532199417369 -0.02794696732352118 -0.05269902123404444 -0.02592110250455062 -0.2617508049513516 
0.02383122043825013 0.02067537985015185 -0.02454183926389099 -0.0007083607813793845 -0.002440195991005402 -0.0009452418460426317 -0.001858113246603656 -0.01423512301175325 
0.004901284702396238 0.04741812309419811 -0.01331123704793935 -0.002014662030396883 -0.006481598308770696 -0.001751256035560506 -0.005045251096480427 -0.01396179730283408 
-0.01723342952261776 0.07575145339840730 -0.05044263938339642 -0.001610270687922341 -0.007278282638855557 -0.001961672821056840 -0.003989299892995710 -0.006922403003174755 
0.02597568987218917 -0.1969799859282065 -0.02163761031090905 -0.004411444501126247 -0.005322865498103005 -0.004756901731277087 -0.01120091045674746 0.1186541395879958 
0.004060691048190217 -0.0006836307577582262 -0.0007372099753584599 -0.0005072488467672591 -0.001161212492510145 -0.0004739470088158411 -0.0008567529264595930 -0.004993874075214805 
-0.1361135739476247 0.3215814414625571 -0.04281027747577299 -0.03154599888792274 -0.06452882285638385 -0.3151674526939455 -0.04743164538888908 0.2588532358243068 
0.1281270154762441 -0.07298755249884188 -0.02766356823709855 -0.003492174368997913 -0.005290408772984014 0.1059421312250283 -0.004880778596459142 -0.1156638431396570 
0.08699800358117470 0.1292188987196369 -0.2408965594104243 -0.001881949380259008 -0.003127390986609240 -0.002962323272483130 -0.001991731062194419 -0.1347362049199967 
0.05850948419577087 0.1228556562400890 -0.08321883861190014 -0.0007992149452427671 -0.01104145258942486 -0.003576044129846382 -0.002862667690341034 -0.1194872023856968 
-0.01744623353444153 0.1670456962249458 -0.09370763978902191 -0.005022628072117535 -0.01216750935203854 -0.003843437170431950 -0.01065827289468064 -0.1013699528201630 
0.02371439475012761 0.02074250878094988 -0.01032829523920462 -0.004221818229213130 -0.002172870781590106 -0.0004629579765588526 -0.006401973173436028 -0.03077004459998068 
0.05668253213912335 -0.003970032675836107 -0.002247233488525369 -0.001317516631102683 -0.002736990160866815 -0.0008010597502971168 -0.001566898451284102 -0.08113701194650513 
0.01647447964611203 -0.003005683943497837 -0.009089400048127853 -0.003022245521236032 -0.004929415851491695 -0.002600011777063269 -0.003988647748612254 -0.02328133282210804 
-0.04482394634355619 0.02992328951500578 -0.07282132005614683 -0.002599563260892778 0.1515132966149362 -0.004516875691748406 -0.005888750103639710 -0.1014895058997970 
-0.01625794427205197 0.05468905888747271 -0.1198515642572378 -0.003449476570770464 0.2346251802965844 -0.006930994215612931 -0.006380914096060086 -0.1957921368061463 
-0.01108546140974065 0.1486328061592046 -0.1715660488385620 -0.0003566521069064299 -0.001763321452825670 -0.002216342092630887 -0.0008427600343395413 -0.01030631553545300 
-0.1053652913318694 -0.2910515988014782 -0.3090451200306317 -0.03013308683309557 -0.02219351559768871 0.3657706379688823 0.3444073729923509 -0.02022811641439699 
-0.1470446196855902 -0.08583659829490367 -0.05425430931148800 -0.003674198808357830 0.8002891043660826 -0.02736478998752377 -0.01437992193958958 -0.5486127036778287 
0.001643527995793976 0.06436154144070270 -0.06635568655874180 -0.001550112593185343 -0.002701064186913346 -0.002684341215208186 -0.001650781006556290 -0.1061905956781635 
-0.003384585898355159 0.03497973328146005 -0.08492419278869329 -0.0007507690369364186 -0.001485054216385051 -0.003457362883973195 -0.001204350555048072 -0.01226082895680081 
-0.007008685724690219 0.1927704645083757 -0.1387960619088886 -0.0005097530604366428 -0.003606657759496934 -0.01873742576741161 -0.001411186292170257 -0.1211711324804924 
-0.0006766873919595578 0.1244586884471141 -0.1306002902791018 -0.0003071101011163645 -0.001552234811892399 -0.0006010225958808307 -0.0003545724335698743 -0.1252407796807568 
0.1398465635211641 -0.003203098260432720 -0.0001264644448498940 -0.0004532882673848256 -0.0003068152949557200 -0.001819362865603850 -0.0003220751956863069 -0.1379103382098311 
0.04947104256086979 -0.003687744018629159 -0.0005121921272508201 -0.0006085548485368585 -0.0003216559361378081 -0.0009723623260283046 -0.0005337995665945234 -0.05275497641975969 
-0.0001357552182406303 0.04566227181400143 -0.01171649142213970 -0.006359565494543039 -0.002416597692211406 -0.04571006982485298 -0.001662378416679437 -0.003667085231182339 
-0.005092456774931636 0.09627012467798701 -0.02278544279215903 -0.01592011432342681 -0.004659483903090770 -0.05799093586365413 -0.007443139071909624 -0.01257332782156549 
-0.006426279122735320 0.2153657783516101 -0.1089086572157302 -0.005935791648269016 -0.003970895117421132 -0.1208540627794357 -0.002004478238683571 -0.008028405423264226 
0.03509857163555470 -0.001432521114447869 -0.0001946256320591153 -0.0001143973339040772 -9.865660631369016e-05 -0.0007712519091062077 -5.074606826320923e-05 -0.01530293758570210 
0.04057421873826059 -0.001333505827205748 -0.0003094150133684669 -6.322366838881335e-05 -4.382482549788990e-05 -0.0002603023638603618 -4.365920132601553e-05 -0.02452089517066649 
0.02792649698689807 -0.001504596107892161 -0.001786391128642767 -0.0002589685969870202 -0.0003279829746054871 -0.0006893848763558286 -0.0003252803987291148 -0.01914037837598151 
0.03048102445946606 -0.001499448958151947 -0.001953627629466851 -0.0002811851907289603 -0.0003432740973140880 -0.0006288084732759896 -0.0003111884474322418 -0.02180395663292378 
0.02830989118520906 -0.001205612322402233 -0.001446130971619878 -9.945949448349157e-05 -0.0001511061387226531 -0.0004384290233046339 -0.0001326902430916918 -0.02066604728400880 
0.01119499362344686 -0.0006105112382004806 -0.003202115469213240 -0.0001217436087291012 -0.0002943477763398841 -0.0003696703092872036 -0.0001466214608616770 -0.009064628744446654 
0.2006363874971300 0.1324020709239514 -0.09709927790260611 -0.01287922143899717 -0.04173569755843211 0.02704028473410402 -0.01819656944282568 -0.1913148326486415 
0.003185799894101643 -0.001097877875070418 -0.0009813635201227884 -0.0008454695748290209 -0.001691995605164482 -0.001034823336396758 -0.001105919833844007 -0.006533657308129558 
-0.3481888272981394 -0.1603306740708251 -0.3196264734281365 -0.03884831198653645 -0.05928723618065702 0.1574089087094735 -0.04439010509403813 0.3509627843485653 
0.008929415374510327 -0.001102755524049164 -0.001827553188848654 -0.001262301535440948 -0.002172840016468682 -0.001353755253723869 -0.002039449904074766 -0.01059018102318138 
0.01253427378460013 -0.001514452685980202 -0.001102300628252015 -0.0009496240837783038 -0.001472503583007899 -0.0009914150897901940 -0.001546304944706223 -0.01910881613213379 
0.006960368651327268 -0.001059883047433522 -0.001795251106585943 -0.0007998947019671364 -0.001058848549262237 -0.0009191562105615465 -0.0009950751638978417 -0.008907921923369793 
0.4542456078383467 -0.04490834726821828 -0.2439664069284912 -0.05267214314429592 0.07569220410749583 0.2369781535858104 -0.06604025883644601 -0.5434358773085654 
-0.006107305745168273 0.1822874308990320 -0.09998391417045716 -0.0009324801042226533 -0.004143710332573236 -0.03303936390970391 -0.001606708407593917 -0.04844596762877161 
-0.02181667942983076 0.2697516555062652 -0.1694308613470237 -0.002178670267750621 -0.007839418896431012 -0.05856761281794949 -0.003014012817206812 -0.05073863293865426 
-0.04246774010994773 0.2462954205597006 -0.1385424265102170 -0.005922910397413045 -0.008265987132535227 -0.06122597631029791 -0.007431678937368258 -0.03168565412456789 
-0.03741778092507255 0.1390026757424461 -0.08335059035591856 -0.01293693984242066 -0.01202750864351465 -0.02194449023175175 -0.01731022561729524 -0.05084453735792575 
-0.08957355951848314 0.1227196957437161 -0.03355104133620093 -0.01403610964764839 -0.01574468941678639 -0.01701875489283061 -0.04040816409410323 -0.05800923264970447 
-0.1098950651050848 0.1345290003787643 -0.04070815385919874 -0.04239015811476609 -0.03440119556606565 -0.02129216942979986 -0.07722531042293354 -0.06616056189215533 
-0.03769313186665105 0.1959582019197293 -0.1088359750487039 -0.01246740353596557 -0.01204586024943265 -0.02614447650786916 -0.01623978992992747 -0.05965482610315834 
0.02400107844250169 -0.002856284969458772 -0.007064934186827619 -0.01339355214132779 -0.01187540313552834 -0.005821653299296197 -0.005858227311417831 -0.02155317956776363 
0.1721784482441698 0.07647772620622209 -0.02162233111095233 -0.007858023244463510 -0.003191934813111728 -0.01920925681103865 -0.01011188789700835 -0.09894065051692824 
-0.02008962463158076 0.09869863534774707 -0.01402904903345939 -0.002114419313947037 -0.002122962807951956 -0.02090598012605317 -0.004828737547636813 -0.01648316582796260 
0.04170104268584873 0.01504081409259356 -0.001191775811823771 -0.0006835149169332785 -0.0009386492680637190 -0.001518005759883836 -0.002284955365755746 -0.04947718572122493 
-0.1394173119911560 0.3957513280799825 -0.3214753753223567 -0.02093359772140876 -0.02091287837937634 0.1946019756351824 -0.04839602115007845 -0.1000552751856793 
0.6384894948131222 -0.4107799111194918 0.2112417314617740 -0.08232059412650557 -0.1698916233197466 -0.04356379750211952 -0.1138827624070102 -0.7122540999839535 
-0.2282657163443776 0.9433300724228180 -0.2766156582074194 -0.02154980708170026 -0.03423993651441366 -0.1068232039669541 -0.04554109719362737 -0.1447392465076373 
0.02725047348471306 0.01050841984288778 -0.0009204135706231852 -0.001602692920094851 -0.001110026156661358 -0.004141837016705073 -0.006630776910611215 -0.03721085796762481 
0.09331932848226365 0.08735907074641527 -0.05143582302235844 -0.007129795224942706 -0.009107562878966892 -0.04835856419768069 -0.008538876931429090 -0.1059846616233685 
-0.001247538239643795 0.3634157476120089 -0.2964416719836044 -0.002030418623101854 -0.003605449171231550 -0.01738526901920144 -0.002771581500685864 -0.02594192026226172 
-0.005969360987889831 0.1754939941701702 -0.1572801600577485 -0.0002114578629199212 -0.001523919988191976 -0.005308112334948734 -0.0007416540630576363 -0.01439483191912921 
0.009908989088327016 -0.0009075069063498015 -0.0009302138845574957 -0.0004969882590619451 -0.0008981448192241200 -0.0005651582823488514 -0.0007603481087114956 -0.008800543730721793 
0.009099601854499144 -0.001575466419841295 -0.001455817327126291 -0.0006167082617350553 -0.001235435369828215 -0.0004731884395221168 -0.0009366845022754724 -0.008231180076050525 
0.007928273658822326 -0.0008860418327517939 -0.001026399338771859 -0.0003666618696045811 -0.0007240735030593422 -0.0004575366256999105 -0.0005897339753541182 -0.007848485934977839 
0.01239268274470906 -0.001909274795145404 -0.002627537595518977 -0.002363560068990390 -0.001523471928170849 -0.0008824818627351355 -0.001556878944811688 -0.01290791926892330 
0.3478735110480097 0.02491687902047596 -0.01780485615468815 -0.005586502904453635 -0.008504801854830580 -0.007763069988437864 -0.007301124164020788 -0.3977303413726108 
0.02179628230353163 0.06126328208706865 -0.01826058204137983 -0.004167244727289079 -0.001744952105913797 -0.01051401225355380 -0.002767740196282380 -0.04866927927613619 
-0.001595164499528070 0.03020137767664632 0.2726735540091756 -0.01009438447242343 -0.01567571609224043 -0.02342187964873215 -0.02348578926172825 -0.2904092382418189 
0 0 0 0 0 0 0 0 
0.04156554453227081 0.05766718905179050 -0.03489199946276111 -0.003221962734222111 -0.002685324555271734 -0.03682934263068945 -0.003332864822977640 -0.02270318936256170 
0.04437865815922360 0.01441040220417979 -0.002964781645389809 -0.001113500889292428 -0.001012242241177987 -0.001442689444923639 -0.002006675326251379 -0.02537334922910940 
0.2182418207330066 0.02548224437187166 -0.01407135349049906 -0.005727306732070769 -0.006667037750273561 -0.005568963043790403 -0.008952478856229292 -0.2685164367827712 
0.1638845912148147 0.03064718208079658 -0.01543040895414258 -0.004789929050207343 -0.008175165200699610 -0.005181479143982209 -0.008938874720779977 -0.2398970630994444 
0.06289925653619330 0.01157965891596684 -0.004427815112282720 -0.001237665299331702 -0.002192485120304429 -0.001995477269148595 -0.002042736404435364 -0.04434003981949515 
0.05482571133266156 -0.004347836577678899 -0.0009074665304144390 -0.0002915637801053548 -0.0004593492489823774 -0.0008183082984023880 -0.0003102307274196130 -0.03952766409802556 
0.07670249400216263 -0.003258356883613896 -0.0006165901824964955 -0.0002298127989418473 -0.0001810495211434402 -0.0007197455879837420 -0.0002219584107367506 -0.06214382055125571 
0 0 0 0 0 0 0 0 
0 0 0 0 0 0 0 0 
0.005944769108845090 -0.001046513496320624 -0.0005220453183415494 -0.0006056302836414937 -0.0004410149969618506 -0.0002709018444483617 -0.0005122135332824416 -0.005883291046271362 
-0.1906440818036978 -0.03282873466784936 -0.009152771237111326 -0.002964907092681840 -0.003383891392634124 -0.003422955838870007 -0.003214183829083804 0.1805765538284480 
0.04977429224397170 -0.005828052509566179 -0.001793160965159241 -0.0008755244637464792 -0.0008404706157965972 -0.0009872156851778156 -0.0008362818581551525 -0.04514918655599656 
0.002993857023962382 -0.0006790468535762183 -0.0007056514631171505 -0.0004722814108679190 -0.0006827889450218893 -0.0002778092811050486 -0.0004348837986484742 -0.003248954974527796 
0.001764359255294899 -0.009592020497356368 0.05313017218567340 -0.003908861838710135 -0.005511518819863167 -0.09500603445387444 -0.003775084978711557 -0.03582033900349442 
0.007220017382201698 -0.0006021879171681292 -0.001310660829363841 -0.0002384948320644352 -0.0004069751982044026 -0.0001499431203665909 -0.0003103128959933760 -0.004911414095435569 
0.1880460771888273 -0.07274467269120505 -0.02905931646165966 -0.006770154955201731 -0.02556370494589524 0.02973436520412433 -0.01043830592373969 -0.1103851304998057 
0.004602512393547112 0.01264679440419213 -0.03353219745333177 -0.0008415334492003590 -0.002549567764916785 -0.001071987297295904 -0.001572501082016501 -0.01429677199811825 
0.005528301510583522 -0.006416199199398667 -0.0004509849559141122 -0.0008419326861598854 -0.002168207484991056 -0.0005024567053519516 -0.001519398644603819 -0.005072844777141533 
0.005079620812744411 0.008063752180333940 -0.02717348930787553 -0.0002310861187094203 -0.001485877919126084 -0.0009734707704198556 -0.0004774433863470494 -0.01253064601781260 
0.007280861064127338 -0.03055825389016529 -0.002527802899565837 -0.001308058079148222 -0.01484050767182961 -0.001750046894121099 -0.001514584177421796 -0.03633220430534680 
-0.02460993469259875 -0.03314718868182567 -0.009504200364503373 -0.006586667552778394 -0.05186872650355665 -0.01004029179478246 -0.004903457399305897 0.1078816970175082 
0.02286434075418688 -0.004254943223257019 -0.002034241824637300 -0.0004080988840394056 -0.0005427862978422996 -0.0004597290176350384 -0.0004292502008038736 -0.04710704497294302 
0.2771015905475752 -0.7524463365130429 0.01064282242147604 -0.05206125312739172 0.08906411772210525 -0.01887415455131723 -0.07343833319646306 -0.2133825586182163 
0.008691651887539120 -0.002640065714861254 -0.004374425945542472 -0.001916801209822678 -0.005897615639636672 -0.001652738574069489 -0.003369141213212885 -0.01567722207559096 
0.002836669974136425 -0.0003584459887532922 -0.001191499673423548 -0.0004925826423088890 -0.001253770503275551 -0.0003151387483974857 -0.0005658787889877405 -0.003421317358870585 
0.01308163526136028 -0.001839704129261282 -0.0005701607874541339 -0.001051232123717759 -0.0006238140442546884 -0.0004254924816166012 -0.0008962537850277304 -0.01279374143120833 
0.05241061262595508 -0.01120608981780598 -0.007338359715315873 -0.001555784960967236 -0.001850587162325671 0.01631029101672327 -0.002191952005563267 -0.05465813268603482 
0.006492582853288401 -0.001631391886242731 -0.0005037557524896959 -0.0002917711420089609 -0.0002247795765775768 -0.0002290996937166968 -0.0002579858052726539 -0.005101219850522851 
0.01972896045560287 -0.004181998500341518 -0.0009665221174321550 -0.0004399734327714700 -0.0005725943453672917 -0.0003255015933176460 -0.0003135783253886168 -0.01271334646963609 
-0.005786112425073517 0.02143106351135722 -0.01681151996451871 -0.03614715387259028 -0.005749791889859499 -0.001127937502059512 -0.002173079207194875 0.1078118459911673 
0.2621960470698206 0.1638177654337522 -0.04202246119810076 -0.009081151741928351 -0.005933883134512843 -0.04008210251963702 -0.01209768265362522 -0.2891270156948731 
0.004929072909789535 -0.0003260676069872893 -0.001035494773330300 -0.001544871212646694 -0.001191962077107502 -0.0005036099020622077 -0.0005758310889949902 -0.002777919567251422 
0.02121572008265524 -0.001527837066407010 -0.0002604153385010828 -0.0002068955517046962 -0.0002009451299432850 -0.0002462769262536635 -0.0001806043954092385 -0.02291101454948659 
0.006349784173580658 -0.001250914115009590 -0.0001858507061321664 -3.524462234810138e-05 -0.0001160658999191875 -5.247497700009765e-05 -3.804230161348587e-05 -0.001946723069283733 
0.06379724211432744 -0.04348023175991152 0.02201352659525473 -0.007280591080012533 0.1405291507684448 -0.008384304939111801 -0.006162864266066018 -0.2027765364378994 
0.04103140215879237 -0.1301044083754236 0.1790915536848659 -0.006535000076038049 -0.2651117145732148 -0.007759622285937964 -0.004069473991977986 0.2085150170331264 
-0.002003284935916443 -0.1945551288119239 0.2208018489410643 -0.004292265807003847 -0.03287619265428273 -0.04975388151350529 -0.02971822608479173 -0.1329514714397828 
-0.08109912499353453 -0.07545214434266447 0.4895037127665003 -0.02110226792924228 -0.04421755262675990 -0.2368370342671659 -0.02089292341328778 -0.2500935404119117 
-0.09981792769741976 -0.04831242734467924 -0.08594955229280458 0.0007769308536118655 -0.1255549813272220 -0.01678304774152147 -0.02889516034279181 0.1083310301401591 
0.008229716837887204 -0.0008145186134815455 -0.001024299570474324 -0.0009547610132858619 -0.001643618014564438 -0.001024477651199773 -0.001640433692961581 -0.008034003892494040 
0.01028593339599100 -0.001194159569056500 -0.001450368305894811 -0.0009809651139941697 -0.001584757013683547 -0.001064577170491076 -0.001599823934022013 -0.01160340408003811 
0.009783953282062724 -0.0009213970614790527 -0.0009112524436111009 -0.0003697403791185619 -0.0004436648663556141 -0.0003711586864507268 -0.0005464702272119588 -0.009086045378196326 
0.009974402097958048 -0.001038366423524921 -0.001652304802928757 -0.0004878688596208480 -0.0007489661716651148 -0.0005703370008419319 -0.0007536684385084251 -0.009855435913144802 
-0.01048737562275155 0.1435191008314574 -0.1352639298317458 -0.006250456368108127 -0.003197931653041534 -0.005084206107597798 -0.004758515798749067 -0.01774237092162950 
-0.08622742235488600 0.1568629791028371 -0.02380425713148241 -0.01687667155297018 -0.005651649385747973 -0.003437798656451599 -0.02566318880022705 -0.06225895932294479 
-0.008645413587638833 0.1993467024602798 -0.4112419516413725 -0.01976028960670662 -0.01885891983474277 -0.01167485623271307 -0.02518021592934815 -0.03037634233121367 
0.01450943442247675 -0.003465994967017373 -0.001593219021295341 -0.001608982092929992 -0.001822319779104886 -0.002724881974061833 -0.002255168847585331 -0.02279793044075711 
0.01387693155738194 -0.002693947234874377 -0.002516341420667589 -0.001370495983642729 -0.002636900753662770 -0.002473696058261723 -0.002329340626482513 -0.01588459576743476 
0.04134644945525937 -0.002614293259924197 -0.007444096740711290 -0.004717326018232465 -0.002114364394644418 -0.008980756496028404 -0.003382438165301707 -0.01213500504307186 
0.02154005365666912 -0.1837825365827937 -0.1137816707259684 -0.02409401959982756 -0.04783133037200375 0.03337274072367742 -0.03375251564436609 -0.06693610587804312 
0.01607669237770885 -0.005455881494799941 -0.001712823652126860 -0.0006900215395153028 -0.001787949618396429 -0.0004896562270109623 -0.001069000874490830 -0.01398533137430957 
0.004643129140936793 -0.001781504458104877 -0.005283404836678538 -0.0003917553281573286 -0.001373082303683977 -0.0003295342983768279 -0.0004349170439371274 -0.003081269262862744 
0.07677356149724036 -0.1210621667471069 0.07977502621892489 -0.006013084645692713 -0.01330247488703252 -0.008925916455808128 -0.009375687300894683 -0.1336234229090987 
0.001358086506761647 -0.0003265295868512543 -0.0009743171403661785 -0.0001072915600164770 -0.0003336989786677845 -0.0001034428306880831 -0.0002425420107778746 -0.002098936454094886 
-0.001654488526909522 0.004477879442736021 -0.0005371316515280387 -0.0001761625442890348 -0.0001430859897707310 -0.0003388566692657969 -0.0009080999912731221 -0.008423821610999025 
0.03962086790526172 0.009682750907017946 -0.001926716875362817 -0.0004506681968557945 -0.0003003641570974170 -0.001707018641717104 -0.002186668228033089 -0.03812316161915273 
-0.002497965761459196 -0.007378342829612797 -0.03724318334221784 -0.009425068033812305 -0.03879057879722490 -0.01270029412500051 -0.009989717581122010 -0.1508810556243168 
-0.006833023285673878 -0.006518659431903500 -0.02664728379689547 -0.2139394106133198 -0.01802858243987242 -0.008497067245324195 -0.01427119488508217 0.09107534452152502 
0.01394247033051525 0.1447246827721959 -0.1053538609881495 -0.006527236124745842 -0.005177878762760800 0.005456910219644952 -0.005831091732827078 -0.06212213445584340 
0.01895138200023330 -0.001401462355375297 -0.001545386545046400 -0.0009377369221896700 -0.0005861410762228311 -0.0004283884763945398 -0.0005206182293630042 -0.009906842092903555 
-0.2589722348727211 -0.1179922025246755 -0.09537587107102224 0.02251778328576860 -0.1586726647500257 -0.09185836420103692 -0.1133658386277101 0.1476593697132188 
-0.01800740571666182 -0.01000585881555254 -0.009188073048038583 0.1426561913715203 -0.006054808774306088 -0.006444544299313773 -0.007560802635056253 -0.1892900261576856 
0.04193253281855673 0.2579946275383189 -0.2310775506109193 -0.007178876136182163 0.1796157057597220 -0.03096262094198145 -0.005890351543383342 -0.2267899159668235 
-0.03076618478553363 0.04463320257899897 -0.03831923803527234 -0.1920807596703176 -0.08650049513396010 -0.04850889106739003 -0.09053448006533570 0.1506869121453007 
0.01903932272152625 -0.006020222259433603 -0.003506797331532310 -0.002236053926097110 -0.004334212869662069 -0.001677436904872017 -0.003085848177336738 -0.02862617719246362 
0.01317893708973009 -0.003300967458640590 -0.006697755431237305 -0.001919243412623878 -0.004789644003254293 -0.001864348610504237 -0.002653864662909181 -0.01662530697733345 
0.01621920052637221 -0.004243646272558964 -0.01134931093399642 -0.002978179572442031 -0.009543246553911103 -0.002885703956459327 -0.003391660149067526 -0.01905323727945608 
0.01973243041137487 -0.004567395650077253 -0.007503578432517947 -0.002265369065434193 -0.006059014570164483 -0.001808087010670798 -0.003333266641285246 -0.03419143859026782 
0.03877850468994349 0.1754389829769487 -0.02965906719437408 -0.01385640316348075 -0.01294662295022511 -0.04246051800873977 -0.01104290438948532 -0.08318302776958796 
-0.03167293548612295 0.1540513377959344 -0.1049436621634892 -0.02973160357456555 -0.01103287001752227 -0.008844682106158581 -0.02295373655457881 -0.02414616841556621 
-0.01652439385916490 0.2756506558571397 -0.3091701521672724 -0.004429186801741498 -0.005978933932411702 -0.02129463108866365 -0.006406711679427628 -0.03329869050201606 
-0.003627932323052958 -0.2211015026830636 0.2346415256339854 -0.002073773128139393 -0.003829094149054933 -0.01449668437797897 -0.001460659975043312 -0.01822032618624902 
0.001827677137048363 -0.06085131000711631 0.01620313068301372 -0.03035379122922943 -0.01081321693960892 -0.03106268100432587 -0.02275824033895648 -0.04456625225431316 
-0.1207170883531031 -0.05012823715736511 -0.02354476843098989 -0.08370335027706062 -0.03436201112459982 -0.03769030848203887 -0.03756582685799770 0.05936375128177521 
-0.08451338949383484 -0.03998143770495229 -0.01310335749940535 0.2682761864181329 -0.02170666786422387 -0.02335402300156812 -0.02599313976938492 -0.2718012495551364 
-0.0009464324242804344 0.04266732671207242 -0.03086127488648937 -0.0005260384956746357 -0.001951581354488637 -0.007160463784118874 -0.0008904483987114287 -0.01188642700047633 
0.07793530168606070 -0.008786652279611881 -0.01135450708053020 -0.004577882880492778 0.1097910914920812 -0.01052879705723925 -0.002843173369415418 -0.09375785538558429 
0.07710729355630240 -0.007646292002818579 -0.01480300856699641 -0.004497918919286244 0.1990604596593135 -0.02730374298743920 -0.001415312973545256 -0.1417234888697767 
-0.02438074209029460 -0.02381616881833675 -0.01605778310410931 -0.07168406726643003 -0.02448651475681329 -0.01881875435711017 -0.02616401206014806 0.1565838421752210 
0.02026598651655890 -0.02477566627102850 -0.04607017693576141 -0.06749928462568151 -0.02789966523582793 -0.05698749651947922 -0.02879106544828131 -0.008400688637455170 
0.06681512138589826 -0.01832766616809014 -0.03602735444794550 0.2103855896466250 -0.03194726453629639 -0.03089522734259804 -0.02049979036923891 -0.3211646050197455 
-0.1604377060611163 -0.04912043302683927 -0.05642377646060047 -0.09719540484712060 0.2462016704469357 -0.06568818452374668 -0.04221033945615085 0.02539826109983928 
0.01761955798592614 -0.001082884315784799 -0.0002229902953785515 -0.0001691293245191616 -0.0002251409468225815 -8.218471787909050e-05 -0.0001533301963792302 -0.01365838393028061 
0.03890733375193451 -0.003470582272751026 -0.004554963185880604 -0.002494825050200854 -0.003587816537270436 -0.001594269053386755 -0.002286300991971706 -0.03933094284362404 
0.01769015486154260 -0.001831533344102053 -0.004875084830077533 -0.002231809283966324 -0.003155130977201391 -0.002127196745815601 -0.001919628736130470 -0.02495086742914569 
0.02267543604032147 -0.0009431181421486188 -0.001417771043575675 -0.0007015772798176283 -0.0006851233006240826 -0.001070677099899204 -0.0005104850017503658 -0.02870534045777754 
-0.07272196994476984 -0.02069862559690679 -0.02079120765948647 0.1635623998717002 -0.02560156804885877 -0.02873778460187582 -0.02315015540942909 -0.1908377298527619 
0 0 0 0 0 0 0 0 
-0.07272196994476984 -0.02069862559690679 -0.02079120765948647 0.1635623998717002 -0.02560156804885877 -0.02873778460187582 -0.02315015540942909 -0.1908377298527619 
0.001403794873880014 -0.0002596641787198288 -0.0009606722499833474 -0.0007102604402864878 -0.0009185957397487299 -0.0009032287100713884 -0.0006923255018467440 -0.003001472857191705 
0.001403794873880014 -0.0002596641787198288 -0.0009606722499833474 -0.0007102604402864878 -0.0009185957397487299 -0.0009032287100713884 -0.0006923255018467440 -0.003001472857191705 
0.001386859868154953 -0.0002620715948550067 -0.0009526167372857197 -0.0007053403483595986 -0.0008727289488018315 -0.0009666502430382393 -0.0006947534200156505 -0.003016261262295894 
0.001386859868154953 -0.0002620715948550067 -0.0009526167372857197 -0.0007053403483595986 -0.0008727289488018315 -0.0009666502430382393 -0.0006947534200156505 -0.003016261262295894 
0.01514498156793769 -0.0008133505069279694 -0.0008904161814644938 -0.0009169743778534787 -0.0008088711492127686 -0.001024877770598930 -0.001074998942061670 -0.009712254435146362 
0.0004575614599805802 -0.0001965978748913633 -0.001550032512959206 -0.005258710528543267 -0.0008932757123109198 -0.003266552106973573 -0.001999086279034845 -0.001926979639346020 
0.0004575614599805802 -0.0001965978748913633 -0.001550032512959206 -0.005258710528543267 -0.0008932757123109198 -0.003266552106973573 -0.001999086279034845 -0.001926979639346020 
0.002166841398800001 -0.0002943695702769197 -0.0004283020945690218 -0.0002607264682548523 -0.0006195446892677891 -0.0002090105848986423 -0.0004490123068296691 -0.002423179406207641 
0.007095678970907503 -0.0003345439839431347 -0.0005151001992677459 -0.0002201869964594275 -0.0002321538708614166 -0.0001744975985672289 -0.0001575970010287984 -0.004935980721557342 
0.02796313884291725 -0.01482320783713529 -0.0002945581151657009 -0.0003238546580371332 -0.0003868872447500362 -0.0006485464976526625 -0.0004910365231008178 -0.02725041568846214 
0.01328235734249235 -0.006032836074064633 -0.0001992864441503584 -0.0001410413319926337 -0.0001396589946210859 -0.0001990105499908542 -0.0001035443044570311 -0.006841801654543914 
0.01055946729237987 -0.008354169703241990 -0.0001979136702522221 -0.0001632423474178953 -0.0001901107703785878 -0.0002211700758961287 -0.0001031891423125532 -0.006195576605596348 
0.01611495495135322 -0.0004082972180534172 -0.001056621618670532 -0.0002649149887572902 -0.0003963811603559513 -0.001026699765437297 -0.0003541034815847137 -0.01465468080473478 
0.01992352770564064 -0.04485485991698503 -0.006062449722860283 -0.003454383985499829 -0.003263229280509748 0.04820691637064025 -0.003382924245025775 -0.02784025967074047 
0.01637870454961400 -0.0009887972723085074 -0.001624027284746328 -0.0007324525408786665 -0.001004370591638030 -0.001353541767874274 -0.0008778802333587127 -0.01741814605994128 
0.01764234065256406 -0.0009893912613281545 -0.002637056709243143 -0.0007368960176967771 -0.001226535571411118 -0.002438285978125745 -0.0007332158456557711 -0.01492525868975124 
0.001577428984890670 -0.0002956577606336356 -0.001345385155347704 -0.0009403243452370422 -0.0005821192224711123 -0.0008413423656403300 -0.0006917617749929418 -0.002986763903507734 
0.001201242503746261 -0.0004161576910187964 -0.0007610513659128633 -0.0006733490645806462 -0.0004835763392339131 -0.0007199417304149238 -0.0005180136345039538 -0.003297458190981674 
0.002778671488636931 -0.0007118154516524319 -0.002106436521260567 -0.001613673409817688 -0.001065695561705026 -0.001561284096055254 -0.001209775409496896 -0.006284222094489407 
-0.06919793557293738 -0.01173452986769530 -0.01165245205704127 0.1223214848084398 -0.01702566472184214 -0.01762447244449809 -0.01917109864610650 -0.1165109481382410 
-0.06919793557293738 -0.01173452986769530 -0.01165245205704127 0.1223214848084398 -0.01702566472184214 -0.01762447244449809 -0.01917109864610650 -0.1165109481382410 
0.04971045919528416 -0.01538629680818712 -0.06476502746653526 -0.001830623757969285 -0.003797673998781495 0.2049838296870040 -0.003013581102114638 -0.1052585709598083 
0.09364891153068317 -0.0004162463520946042 -0.001048271332455430 -0.001144237240961820 -0.001247774818233849 -0.0005400139338896854 -0.002615878893718536 -0.1719975895945857 
0.01512870530967797 -0.003237990622411700 -0.007823235969526022 -0.002852069063094044 -0.006139847199072586 -0.002394829335897528 -0.004503795535725653 -0.02414354423653315 
0.001264293283681764 -0.0002455072856778035 -0.0006611869362281019 -0.0003961735694371161 -0.001021784150786018 -0.0002709857412636097 -0.0004449500078906727 -0.001845313299232419 
0.006652039864799436 -0.001703740349588059 -0.001636212047867196 -0.001797824870472296 -0.002873837110882409 -0.002352151665465029 -0.003578359724954247 -0.01731721643620070 
0.02067648210345636 -0.08954785375204341 -0.01027872399432177 -0.002279874082805946 -0.003411061609266152 0.06804981939756896 -0.003427459663608155 -0.02141325332484044 
0.04730575751459435 -0.005291151139949295 -0.008007664538622337 -0.001784386857347419 0.1355116101230612 -0.004660698185990554 -0.001668528250227615 -0.08030796165707456 
-0.009434364230208618 -0.4722071184110915 -0.09472763349632918 -0.002151207696585315 -0.008047771303293014 0.6146281350866265 -0.003500026223247041 -0.003093715736250483 
-0.009434364230208618 -0.4722071184110915 -0.09472763349632918 -0.002151207696585315 -0.008047771303293014 0.6146281350866265 -0.003500026223247041 -0.003093715736250483 
-0.05541194679459621 -0.02079551272863346 -0.03193281260693289 0.2339153704901287 0.1976981576806077 -0.02086665377114426 -0.01426279980846743 -0.4033303130197647 
-0.01912063042527664 -0.1519767683798014 0.3016406592870636 -0.002182407091559375 -0.003969908250627324 -0.03423832703892325 -0.002068899536956616 -0.02830974194579992 
-0.02066918591881259 -0.2459938624826199 0.3860617916028148 -0.0009678594210999335 -0.001708990781372338 -0.01429028566903656 -0.001012824467905231 -0.03294308524434085 
-0.03978981634408922 -0.3979706308624214 0.6877024508898786 -0.003150266512659308 -0.005678899031999662 -0.04852861270795982 -0.003081724004861848 -0.06125282719014079 
0.001419515032091489 -0.0004980731190568923 -0.002744986744023014 -0.002707224917021404 -0.005761477986046568 -0.003418424849664825 -0.003289940936589508 -0.004233091612684436 
0.005323477805851145 -0.2323717553222050 0.1786627832886848 -0.005758213764835680 -0.01132265660522742 0.1221943303343769 -0.007192938017154361 -0.03507865270218247 
0.0009359738604024525 -0.0002072117910109666 -0.0008149858860829935 -0.0004866082126041507 -0.0003267466665831650 -0.001557075479925476 -0.0003218569981218105 -0.003424751350388712 
-0.07415643628917692 0.07201494117175508 -0.1422226168495641 -0.01187081334158524 -0.01354378367777254 0.08891224654729468 -0.009841623705322856 -0.007364285719116749 
-0.07415643628917692 0.07201494117175508 -0.1422226168495641 -0.01187081334158524 -0.01354378367777254 0.08891224654729468 -0.009841623705322856 -0.007364285719116749 
-0.01400041903208493 -0.005200410655288120 -0.01141571104547223 -0.007979123726564608 0.2773623516391519 -0.01709179189688497 -0.008154073920025033 -0.3479334802175163 
-0.05161584941569694 -0.007557467253861320 -0.01283635809645330 -0.01363448345924768 -0.1902861586357432 -0.05060396823526704 -0.01335093074634688 0.1630531111811062 
0.004088757795400288 -0.0006258287819866588 -0.0009175131003391367 -0.002781642681977318 -0.0007011061718534168 -0.002161892318499275 -0.0008965790094579332 -0.006718062851618023 
0.003959389632837155 -0.0008212467568985505 -0.001095475407289130 -0.003058606888338764 -0.001590149644299277 -0.001503620869100510 -0.001268629304794089 -0.005386284884737443 
0.002629272942128484 -0.0006790729031084244 -0.001460401761082644 -0.003637417029137593 -0.001514401090068096 -0.002560070995916481 -0.001145858369348371 -0.005686460542781326 
-0.009847370609327880 -0.01140188431002780 -0.003560489394276175 0.1817159601538582 -0.003410936874884812 -0.003415736734205832 -0.006125185834984751 -0.1779649733585615 
0.0007399736240113774 -0.01534944680671459 -0.001662646307959798 -0.01029499535717023 -0.0007934722780140955 -0.0003404443982505374 -0.0004401635572015365 0.1075320164432175 
0.01148664788663126 -0.0003443019553638944 -0.001053681701952996 -0.0002272477209467381 -0.0004381801159135879 -0.0002084285989781061 -0.0002724958370036229 -0.01197336401255173 
-0.2480704745188102 -0.1236614532534632 -0.08127327225005188 0.2819241226168314 -0.05844532529591862 -0.06572464047070668 -0.07734434229477312 -0.04714831507697777 
0.09096779582480535 -0.04237302355963513 -0.05814122231246982 0.009170978222559910 -0.05677375353945956 -0.09562890321204547 -0.05531403693358000 -0.1945673423685406 
0.1427220536630726 -0.04767441354294680 -0.09591317517381685 0.07164028981464676 -0.06407803155261264 -0.1102871934934270 -0.06161371620798416 -0.3397778463586419 
0 0 0 0 0 0 0 0 
0.003844461092236954 -0.0007805071513728272 -0.001779260137782252 -0.001965009722233290 -0.002151738869639323 -0.001145260559075737 -0.001683271241464863 -0.005343797018328388 
0.003844461092236954 -0.0007805071513728272 -0.001779260137782252 -0.001965009722233290 -0.002151738869639323 -0.001145260559075737 -0.001683271241464863 -0.005343797018328388 
-0.1172099158430092 -0.03321348935737167 -0.02556445444375932 0.4045086417511798 -0.01682732198510713 -0.02667734355662264 -0.02419443354782841 -0.3178961520909281 
-0.05769200962223346 -0.01467546893817237 -0.01739957125034673 0.1873880553329729 -0.009617762931087747 -0.01223569256239021 -0.01281148784217591 -0.1628221393406806 
0.01421884300397011 -0.001612827350694148 -0.002430177401639967 -0.001873326393657856 -0.001604249981841820 -0.001500906315282759 -0.002198600519461975 -0.01385574498844232 
0.01056046308570127 -0.001415504251518718 -0.003460992353234273 -0.002024955799308926 -0.001272653564330407 -0.001670181502360285 -0.002388012989043167 -0.01365036838482108 
0.01958134113461638 -0.001293557531897909 -0.004664073541703873 -0.0009872293043609824 -0.0008768208348831401 -0.0005117867549093179 -0.001232844904520401 -0.01343712398669056 
0 0 0 0 0 0 0 0 
0 0 0 0 0 0 0 0 
0.004064860989629612 -0.0006661446152866248 -0.001574717957824519 -0.0004652970329954025 -0.0004833421484403992 -0.0002913939832141774 -0.001366013128653039 -0.003253088833614552 
0.006463669639866231 -0.0006884455396252718 -0.001249115333857708 -0.0004110150107537262 -0.0003743849968690586 -0.0002968977830781386 -0.0007793212580671131 -0.005884463502919981 
0.005992060591222928 -0.0006591963750620644 -0.001939541236462331 -0.0005580390496769972 -0.0005499119797893075 -0.0003948547583151407 -0.0009592710854602341 -0.005212463694920531 
-0.007052390237277731 -0.01363965331704088 -0.01832901084646503 -0.005069023474705129 0.1887925177516708 -0.005342487729685568 -0.007874918524878441 -0.3199723443596859 
-0.001409415642467084 -0.01308264394548016 -0.02423782873433431 -0.003659260978518547 0.3172934084024049 -0.004163679657939423 -0.005392769738742306 -0.3768767932448793 
-0.005535713295966996 -0.006559690235973648 -0.01394356764456641 0.2241667278997851 -0.02213959290415886 -0.002935407066513753 -0.007995089943855366 -0.2052030675969173 
0.007176776304432544 -0.0009594561238486830 -0.002207981208010818 -0.001222512744699893 -0.003578715073247031 -0.0009793300161319066 -0.001570138880944226 -0.005481310534941288 
0.006958003777316301 -0.0009458408407801141 -0.002811865054850414 -0.001201124576584443 -0.003556736229273294 -0.0009973702359303512 -0.001410166130710610 -0.005329563335712258 
0.01115034361801000 -0.0005972096232338712 -0.002292894541646343 -0.001160012288148846 -0.001393746441019898 -0.001037022374585870 -0.001069549256237558 -0.01048883923239753 
0.005075039355900145 -0.0006251568946741633 -0.001323738727358240 -0.001117452961127492 -0.0009098311163495168 -0.0006986539009941548 -0.0009253065868235198 -0.006997348042035564 
0.01895654193661892 -0.0009680612680081828 -0.003547966215312976 -0.001076766751476789 -0.001406591468892999 -0.001141130981670378 -0.0009098353099169881 -0.01541005570997772 
-0.03019276934517758 -0.04518888153029071 -0.04951230923560197 -0.3507853595436322 -0.03388951522153921 -0.03878111865679301 -0.04298334568148422 0.1517299760401111 
0.04136495785681808 -0.006888019740570649 -0.01394321182546000 -0.01605232943684547 -0.008382928519167762 -0.01360105681821389 -0.01254536432817745 -0.02147292119206948 
0.004753193313279632 -0.0003160300405834501 -0.0009523169852596929 -0.0005299516842083156 -0.0004551600271035565 -0.0003841099553498870 -0.0003959452220451117 -0.004262753491296965 
-0.04674792527823760 -0.01402842680482421 -0.008464462917087540 0.3316814128537223 -0.006054794188159146 -0.01230379194419526 -0.01046156618328747 -0.2385890419687482 
-0.01734669967570752 -0.007030867721073493 -0.008568980170356665 0.1953724352849810 -0.004929048238821001 -0.008424739616363815 -0.004902571903218625 -0.07761971633865132 
-0.1445050560386625 -0.1049585059500194 -0.03300561997495905 -0.01164993913756526 -0.008962359467457222 -0.005414670937610374 0.6500336155408083 -0.07387069073327378 
-0.1073733880058364 -0.1015680678502110 0.1266918219352045 -0.006231787631986022 -0.007964914914286279 -0.06516261130567967 0.2543020956599015 -0.04105524449283027 
-0.05565545417137113 0.2132018433607782 -0.05728302491276521 -0.008346643721568299 -0.01127141214810973 -0.07218668717782671 0.3888828693592314 -0.06594456886445614 
-0.02852914551263900 -0.6221657214897574 0.4125353599636105 -0.01755076395947981 -0.01065000879239644 -0.03668540860875953 -0.01684371862484119 -0.01854975099413406 
-0.02852914551263900 -0.6221657214897574 0.4125353599636105 -0.01755076395947981 -0.01065000879239644 -0.03668540860875953 -0.01684371862484119 -0.01854975099413406 
0.003356290113363045 0.1297360304236933 -0.1468899426716308 -0.005702323891592633 -0.006497168932864530 -0.01333431375520941 -0.005269035811283200 -0.02764207957679759 
-0.01512572602560801 0.1367773109625100 -0.1454475352172140 -0.002160571304858172 -0.004932425382324575 -0.01202895282999486 -0.002726481388340553 -0.002831391511733227 
-0.04203131409690240 -0.1403156637507841 -0.1350578161569925 -0.01885869393918709 -0.006507056534195444 0.2587055410194916 -0.006009382230937030 -0.01839150251600451 
-0.07298957063696279 -0.1892478076945680 -0.2055573325587796 -0.04116728879064976 -0.01214749034619262 0.2630157088413418 -0.01068407920995364 -0.01788104103390318 
-0.01283018273639221 -0.02052884862407684 -0.03616347987043211 -0.001914208044602892 -0.0008812891740691864 0.1216129587102280 -0.0008574739613569290 -0.01049789382650065 
-0.1250949237256343 -0.07206918868324676 -0.04922635534193841 0.6534235013619720 -0.03465094948917416 -0.03501894106789909 -0.04424413109935795 -0.5488722839181824 
-0.1124041448610141 -0.09966778556032137 -0.1331819004663984 0.2193461136697320 -0.03829861732498334 0.1001205511434906 -0.03864086894330702 -0.3522236286137915 
0.1147289942712695 -0.004715524917588233 -0.02246524452533523 -0.004619073784479138 0.07498337510979756 -0.008478433359398047 -0.003878830471437909 -0.2884217242402205 
0.01798195699993716 -0.001918266881320348 -0.002227881578349706 -0.001529414294717914 -0.002987187825320673 -0.002941504196991668 -0.001914775134117316 -0.01883182726594337 
0.02461469558431455 -0.002039450733159895 -0.002844221380693986 -0.001598973061989100 -0.003443978898216251 -0.003758821265347820 -0.001989879211465054 -0.01902069871559518 
0.01971227252087402 -0.001241368168136990 -0.0005715558542601981 -0.0002832973748533784 -0.0003843891865309000 -0.002356869427100052 -0.0002909532627897468 -0.01824814655362836 
0.01999955882148333 -0.1959958367132058 -0.07942977762053126 -0.005867470892949596 -0.04552879801954453 -0.006912328464419138 -0.006600648583541177 0.1577142215974314 
-0.0001421430942152089 -0.3332457475631059 0.01832493497030617 -0.04269113223070348 -0.03008371703988742 -0.01216423051925495 -0.02076602358921126 0.1714405235161538 
-0.009445738383237631 -0.003679514765685121 0.1590889162141362 -0.0005583673627868032 -0.008733786182036829 -0.008143321300164298 -0.002073653340810458 -0.05325102437701524 
0.07621155299649288 0.02547788415752736 0.3614668428684597 -0.004929306853392572 -0.01913295359372987 -0.1364030819588350 -0.01372762215262650 -0.1539902186228689 
0.05927033212928190 -0.001431582118316109 -0.003725547532959373 -0.007054186368002540 -0.003300056104651882 -0.003121277811534624 -0.004989611069839601 -0.06020348738023347 
0.05393149376087798 -0.006367201399183690 -0.003870900177251808 -0.002317519206201851 -0.003323831966581385 -0.002751550739468897 -0.003205036420842811 -0.05336174655240761 
0.001693651631976994 -0.0003214328134953553 -0.0009966934769681459 -0.001764276830350436 -0.0006282106363281048 -0.0003763205052364703 -0.0008239978175852285 -0.002683536954282555 
0 0 0 0 0 0 0 0 
0.1053915617861787 -0.1773401405861197 -0.06210462297888492 -0.01059603205808269 -0.01931177888608591 0.1410114226558629 -0.01378157632692892 -0.1286645345955194 
0.005931471184216278 -0.0002672279422970038 -0.0009253652953875456 -0.0003671308139822440 -0.0003848622830315824 -0.0005265260528959696 -0.0003474933601117568 -0.006073574294359938 
0.006909051882699200 -0.001046923573818687 -0.001861922581908525 -0.0006488298584991269 -0.001190533141294805 -0.0005787799621219231 -0.0008640712380202317 -0.008789083223275212 
0.004297124052652807 -0.0002553183562364906 -0.003406595074191232 -0.0006628709337695830 -0.001619922440579087 -0.0008723164892554163 -0.0007485389674603873 -0.004283991498910438 
0.06935531187448532 -0.01180175183316009 -0.02602172574989813 -0.009186042405620817 -0.01559808024850394 -0.008689094683470205 -0.01110786418403937 -0.08018477874067900 
0.004468819505090128 -0.0005865609062959784 -0.0009426982425799467 -0.0009273713326709908 -0.001725826030711734 -0.001323518375350556 -0.001469482330089688 -0.005213502653801519 
0.03558049860793031 -0.006010535823264176 -0.01311265415240878 -0.004396533410298708 -0.006643034389445205 -0.004332350515914806 -0.005291538251688797 -0.04446073088340748 
0.002737403359781211 -0.0007743280066646913 -0.001366481177049119 -0.001181388289902376 -0.002072129765657826 -0.001067879748078957 -0.001714005391371497 -0.004941128190002453 
0.01047353235881189 -0.001071960138027151 -0.006132192740419434 -0.001662886454778766 -0.002998525454250706 -0.001637634268107814 -0.002254860063367161 -0.01057664569513187 
0.002114997403109665 -0.0004060663514597742 -0.0009750939089384465 -0.0004821501155319269 -0.0007124213884258954 -0.0003208220193069951 -0.0004487041425864553 -0.002850588401024412 
0.08995079971444812 0.06091876353153441 -0.08353924114786428 -0.01009914238821544 -0.01727216359391269 -0.01375598592801262 -0.01380640694944126 -0.1040402908652114 
0.003096364633203238 -0.0007024815012725350 -0.001148068073461422 -0.0003413940944676790 -0.0009693854961630920 -0.0003110480159368894 -0.0006076368180613207 -0.004006677526941997 
0.01034498040936109 -0.004681745787364919 -0.04565518721634318 -0.001426341219443219 -0.001950633097608120 0.04717738623038679 -0.001929164670714103 -0.02615632282527595 
0 0 0 0 0 0 0 0 
0.02065208692401351 -0.0007288617688604691 -0.001006219710946075 -0.0006739603551812476 -0.0007009030980354529 -0.001610692021427626 -0.0007353112524118137 -0.01966969797858409 
0.2365096441395165 -0.01100596659259875 -0.003726764716134429 -0.001315998676323549 -0.002082600333588381 -0.002228510812927431 -0.001738396468440865 -0.2255293495491278 
0.07315330349234787 -0.2916594949167968 0.03573715008516779 -0.02601882370624873 -0.03979559641152745 0.2394227010871479 -0.03307080316006270 -0.05603200510055787 
0.02674871460321660 -0.05466669334759697 -0.1132413752706467 -0.008260333989935933 -0.01565585511694703 0.3345373769059514 -0.01696349104736847 -0.04470510473940469 
0.03231908662739016 -0.008090629899506627 -0.04010228519292783 -0.006685703966392386 -0.01241751653700184 0.005419752224444085 -0.009201344144719547 -0.04943347038474605 
0.005049071673930212 -0.0007723282107440780 -0.002434874131666922 -0.0002908714805749749 -0.0007838581587750295 -0.0005719919023299549 -0.0005603076621072121 -0.006568801017332622 
0.007148916538348917 -0.0009648217887477128 -0.001787577706512447 -0.0006166464088554572 -0.0006879750004197412 -0.0004333111752568930 -0.0007009222113216894 -0.006950947897391280 
-0.001953795333800480 0.05307298908356457 -0.009310190417337440 -0.002267116842151183 -0.002604604828089119 -0.001510946399642560 -0.006359772874135911 -0.02933876576475936 
0.06802854557000860 -0.01420477566685187 -0.04270017811195641 -0.007720407431068232 -0.01504009810932067 0.01751970304637779 -0.01082012774924224 -0.09749630522539642 
0.001875953776820010 -0.0004317658847602404 -0.0007294135437547282 -0.0003784256940372057 -0.0007744240341808117 -0.0003011617922450202 -0.0004875462344987495 -0.002473818324607708 
0.003903269997188270 -0.0004209703659309280 -0.0007998528933122329 -0.0002897123411129920 -0.0003383842933228118 -0.0002526676164208760 -0.0002969428999265744 -0.005361100033176281 
0.08904454749450558 -0.01149586151953180 -0.005229486900406167 -0.003869483958919890 -0.005659663060293190 -0.003902719298332972 -0.004401908025159957 -0.1051049180075037 
0.001237256787394756 -0.0001938378829112520 -0.0005364645219673291 -0.0002426200804004634 -0.0005311750529666844 -0.0002027326900422016 -0.0004033922161423001 -0.001284155549004600 
0.04283031961825061 -0.0009377080934380435 -0.0001143076200816419 -4.681079403429727e-05 -4.980269041784491e-05 -0.0006605120909074656 -3.692624422298630e-05 -0.04088589838859423 
0.008126675576603805 -0.001911880957910903 -0.003002860972640966 -0.0009891296099148100 -0.001361350933934545 -0.0006838034836233154 -0.001143134614682354 -0.008609436777959643 
0.07424758103908526 -0.01093139443419573 -0.01827744450207913 -0.005447580217647165 -0.01096442310663761 -0.007110313509769460 -0.009557103719244375 -0.09580462772033112 
0.004855763008426365 -0.0005599375519230933 -0.001674901419958942 -0.0007741934170194399 -0.001950454575026233 -0.0006482556209712739 -0.001042573928696790 -0.005253713491458589 
0.002370012633093988 -0.0002984569816527526 -0.0004294737726122884 -0.0002633382454190338 -0.0006209635565899904 -0.0002140428325478733 -0.0004444697632738123 -0.002621241643373554 
0.002485750375332377 -0.0002614805702703407 -0.001245427647346654 -0.0005108551716004059 -0.001329491018436243 -0.0004342127884234007 -0.0005981041654229777 -0.002632471848085032 
0.006224789729954629 -0.0005482863520001349 -0.001588094571848095 -0.0006902572418118792 -0.0008476074402422076 -0.001023340490360934 -0.0009324195035207188 -0.006850954576691434 
0.09908534313868513 -0.01419030481963331 -0.02133904063550197 -0.01007514418883269 -0.01552673280647769 -0.01352756108892145 -0.01310607720395998 -0.1113587827039951 
0.006463954205005601 -0.0007792987770067934 -0.002612510776781502 -0.0007871519844876379 -0.001662976805166859 -0.0008134618490699881 -0.0009815757805889790 -0.005145426379133161 
0.02053395825661649 -0.003648528546096443 -0.003757034798367966 -0.001293314833994125 -0.002918185000701265 -0.001511284616930255 -0.001652087594247159 -0.02143917210772123 
0.008758173826880267 -0.0008503160592943179 -0.004480560620797174 -0.001132510581526332 -0.002599978561541205 -0.001705132147931900 -0.001282146094560613 -0.007110930027915935 
0.006678711785262062 -0.0003668300951114083 -0.0009881845841633002 -0.0003462195475515980 -0.0006970289615899548 -0.0005030622318479017 -0.0005625661919492084 -0.006479869195630252 
0.005129496677219497 -0.0009485705621656013 -0.003274464572853788 -0.0005667025422997850 -0.001349909692200073 -0.0004609228739604055 -0.0008532157466179944 -0.006407140340357437 
0.002988582563473458 -0.0006578662358935152 -0.001220355860670460 -0.0005870703373276750 -0.001032324825546796 -0.0006481084059403943 -0.0009302897662211691 -0.005423002675463719 
0.03943780158441580 0.03844035033381418 -0.003121806487156268 -0.001656825612907778 -0.001387743226538437 -0.004902944632619899 -0.004036466304101817 -0.05107423175269526 
0.003071409587639127 -0.0006479824766096460 -0.001748789404514259 -0.0008136907376296987 -0.001120615562857487 -0.0008907344508199222 -0.0007648614307725793 -0.005180036210705711 
0.07961193601066394 0.1318021773186946 -0.1233578968629070 -0.007942449952088594 -0.01034440579688332 0.1135408720483824 -0.01016257469460213 -0.1291672217139957 
0.001548139400070332 -0.0002477690647595544 -0.0009477278706926446 -0.0008732239224120942 -0.0005079567676157139 -0.0003012203767164324 -0.0005055845053007596 -0.001971436158984151 
0.004075084109479192 -0.0006715697503060540 -0.002633465677515452 -0.0003756714185065490 -0.0005072247618038353 -0.0004550707022513070 -0.0004748928759334787 -0.006363833949349374 
-0.009606294069325243 -0.5361281370917037 0.1050623543161496 -0.006394805898599725 -0.01106651762229045 -0.005236740712065234 0.4137704993418963 -0.04793052759790646 
0.001020559263755030 -0.0001112487945455399 -0.0004191033521825890 -0.0001825825133618871 -0.0003993976923314731 -0.0001713142193125693 -0.0001586885896355753 -0.001156056808790976 
0.02144326708627803 0.001197410082743076 -0.01206121168383930 -0.003050497572620031 -0.006293661664063043 -0.003136870293697743 -0.004185240129281721 -0.02869909935792876 
0.05088427921507102 -0.004790944000366031 -0.01073061050962969 -0.02795920338421076 -0.004564311787803753 -0.02316418084854140 -0.007987599145322447 -0.008657799498490769 
0.01125077614444827 -0.003025289741549977 -0.003467018750759141 -0.01139284600461584 -0.003079988886507003 -0.01024580423864725 -0.005988304036068371 -0.004046722469943455 
0.03963350307062276 -0.001765654258816054 -0.007263591758870549 -0.01656635737959492 -0.001484322901296749 -0.01291837660989414 -0.001999295109254076 -0.004611077028547315 
0.01168377645484854 0.02808332323536725 -0.005870337386218210 -0.001991235406930190 -0.001053461136636179 -0.0006677209856628963 -0.006355504016167227 -0.006598078497058088 
-0.006791480243898522 0.07677627463233638 -0.05349062161447701 -0.001964279659631567 -0.001776397470805292 -0.004138536667340768 -0.006241134619925226 -0.005938778099844890 
0.004964934678273867 -0.0004777036600434708 -0.001367622934811793 -0.0004915586236606933 -0.0009377197945696748 -0.0004794549776263002 -0.0007358268132952074 -0.005966809382091052 
0.003470453329169548 -0.0005833414700092843 -0.001248377108450658 -0.0005943779499723745 -0.001007417167086874 -0.0007477630509586973 -0.0007753033670348723 -0.005128143144029359 
0.08823593451847304 -0.005444404805734267 -0.003604058224607508 -0.001580315745549562 -0.002436803879024862 -0.001997287998958102 -0.002126861699295826 -0.06772443258014242 
0.09056638720317074 -0.1558373039317240 0.1838790064769296 -0.01012482116163296 -0.01688469344291586 -0.01585732610676430 -0.01359828477184129 -0.1079655518466802 
0.05349117191287062 -0.002553324585106538 -0.007500510810587748 -0.002099867814306888 -0.003339926780471238 -0.003009694415695894 -0.002338119018387559 -0.06114798383398647 
0.08332833751965023 -0.1103695558676909 -0.02613152899085996 -0.008267547743284134 -0.01541823169596534 0.1232180061902060 -0.01229424360735358 -0.09608151158571974 
0.01426535566146676 -0.0006782505179318294 -0.002174295831387833 -0.0006079779293612651 -0.0005800560399048657 -0.0007485147435958453 -0.0006464606284468959 -0.01150646219412456 
0.01084372130792102 -0.0008806787068012844 -0.002287378716416596 -0.0006469087955912984 -0.0008848101432921324 -0.0009055693014885920 -0.0008241973079891906 -0.01108001231715513 
0.006349207356747932 -0.0003316915164660501 -0.001190166687831581 -0.0002663019075204041 -0.0003163197580189517 -0.0002579886757478930 -0.0002756686140922246 -0.007306453716342178 
0.03651468379272848 0.1261408854843873 -0.09555642790320693 -0.001319129742884712 -0.001878745122657115 -0.01209446603789124 -0.002415957846160878 -0.09933775000245906 
0.001360373946632552 -0.0001757033765889115 -0.0004762632559237207 -0.0001829905217099508 -0.0002720557709037920 -0.0002307784554736797 -0.0001610380697071736 -0.001680073483191636 
0.02004603411903329 -9.323552826969678e-05 -0.005710479560303679 -0.002534154587556813 -0.004546224624472712 -0.002056506703167530 -0.004841341950667016 -0.03073722927196554 
-0.01715679015297697 0.04759296006388419 -0.008369159708061444 -0.002010161150905684 -0.002818827269389121 -0.003960409456095863 -0.006693357664822745 -0.01941656184109790 
0.005331556226118662 -0.0009299717185542906 -0.001914929727183743 -0.0007625147502142584 -0.001466241303223552 -0.0008188866941245890 -0.001317232595637401 -0.008042883895004332 
0.003853130795041192 -0.0006298981471630307 -0.003882708837733412 -0.0003408435515684473 -0.0009013669891159467 -0.0003500798226847556 -0.0006023487558672637 -0.004146385774477415 
0.008853103081981787 -0.001769014987945905 -0.004404225081188387 -0.001175146447495045 -0.002127138379842573 -0.0007330990675808860 -0.001593563680942146 -0.01147576496346520 
0.04855481020252875 -0.009317609255340607 -0.01509483182431970 -0.005291711935996827 -0.01127557430898533 -0.005457463322375243 -0.009650436818143898 -0.06883264666978116 
0.001626011170410555 -0.0001366551028047353 -0.001076624099127276 -0.0002291777031128908 -0.0006709300899486611 -0.0002265067843322867 -0.0002613138774534997 -0.001943316478190803 
0.004648498850957070 -0.0005789994651515858 -0.001413368839033283 -0.0005554034196007473 -0.0005293372181994717 -0.0002731698429167944 -0.0006677206758303872 -0.006287016024918261 
0.005426769872529931 -0.0003422528671745422 -0.001144926819381907 -0.0003806159469141178 -0.0003913370631246432 -0.0003811624639519183 -0.0003617826343090070 -0.005136763158756317 
0.001359140846776602 -0.0003688743306419840 -0.0008853876695905813 -0.001410892863163852 -0.001061952684564562 -0.001396949903385331 -0.001111555300477079 -0.003575586932381284 
0.04450960017057103 -0.001026299735716147 -0.0003392419115516193 -0.0001583256166768011 -0.0002291220728007126 -0.0007515046417289409 -0.0002357772345802455 -0.07320573950457720 
0.03829207064544298 -0.002164511016617477 -0.0005015049256892514 -0.0003686768394294434 -0.0005315635264200543 -0.0007157726644259323 -0.0005174304603725217 -0.03979493571542538 
0.1774533900566046 -0.03219203363424457 -0.01010343001957886 -0.003841085908336930 -0.005970893240451934 -0.003745245630692528 -0.004887296726160081 -0.2108970932337158 
0.007455682968719183 -0.001286063779456292 -0.001853923412695008 -0.0007235709050397376 -0.001004143677934908 -0.0004078661482349763 -0.0008688674518453364 -0.008998246349742403 
0.01564121898269302 -0.006227208375749134 -0.04706319395372775 -0.002066042840761156 -0.003098436316022104 0.04196676082180038 -0.002672643858293300 -0.02979215859639875 
0.003009181216773254 -0.0007687684867460867 -0.001166293464736722 -0.0003798317262907424 -0.0006159165281765565 -0.0003580842182629819 -0.0004858554388803096 -0.006150993715590773 
0.001760656639027888 -0.0004013591811007619 -0.0009475649516055714 -0.0002325082491471601 -0.0002987302433249054 -0.0001546417485932749 -0.0002277900425803844 -0.001781049371235664 
0.007359368371518465 -0.001514600924639462 -0.0006349692104282255 -0.001219764389606211 -0.0007293614569460328 -0.0003731505796729260 -0.0009678499884673346 -0.007118282595965956 
-0.01845987912417546 -0.05313343319834431 0.1160072827780415 -0.003810243917446888 -0.03875848906092924 0.003324940413864893 -0.005652165300892733 0.09103209562275758 
0.06805881028375681 -0.008189652372694199 -0.008117595702042528 -0.003838293990979396 -0.004365814415547457 -0.003713100517011257 -0.005053262329249428 -0.07330585920225276 
0.008753812388900906 -0.0006349591478069628 -0.001881717708213250 -0.0004206088908046222 -0.0006849486644850686 -0.0004062735809903938 -0.0005501645173264754 -0.008679641181073172 
0.004697650898036551 -0.0003901951118161521 -0.003541649259359815 -0.0005544296415973804 -0.0009333837843796559 -0.0004243196893457078 -0.0007595540955896856 -0.003625920272943429 
0.004806416454696033 -0.0002665352312496040 -0.005132309090067353 -0.0004343492082413212 -0.0004865219807769840 -0.0003590242446409309 -0.0004706412462790378 -0.002625929225776304 
0.007075820262679549 -0.0006183327071292420 -0.0004625636057533859 -0.0004678717038905379 -0.0003007966574609716 -0.0005616252892678171 -0.0005237562084658811 -0.009685361949097885 
0.01567434196308570 -0.04541361911467304 -0.06527867288186516 -0.003415356958265613 -0.005499673270854131 0.1356307630085662 -0.004912507395484657 -0.06610125474584473 
-0.06588989585057240 -0.009232044118698294 -0.009442968169149121 -0.004212683983348696 -0.01033200209495812 -0.005098268315906865 -0.01073854597526046 0.06536360321043527 
0.1574506836743384 -0.008563885008907778 -0.004801964700084944 -0.001432611935382362 -0.003247861171970676 -0.002169065984778364 -0.003092495733678275 -0.1581622132123310 
-0.01337928135477808 -0.01646874352411491 -0.01013885374185973 -0.003688976696815949 -0.008472451024146527 -0.005448798962387998 -0.007949924022994673 0.004048114908452428 
0.07415408853019323 -0.001947764449175120 -0.002876626354471538 -0.001498653555258261 -0.003242250174687758 -0.002505285808063557 -0.003300366088360638 -0.09292696320887044 
0.01025563520143567 -0.001435531024704041 -0.002104663573387567 -0.0009593408659098782 -0.0008211514682692267 -0.001264871390657685 -0.0009911834547403220 -0.01352921271467708 
0.003359214010207047 -0.0004960219151227401 -0.001728933731956923 -0.0004231537388721501 -0.0005584460166541622 -0.0003457713632275380 -0.0004561414807632343 -0.004385312313535479 
0.02398439638421162 0.08877169483355164 -0.1130480915408276 -0.003849858055009315 -0.009284026927047094 -0.009870908145010408 -0.005411132532543222 -0.04463068960791804 
0.04387467519725626 0.2713752040360500 -0.01902770924004696 -0.0006858195428075149 -0.002100511961146515 -0.2325536599930687 -0.001113827663895770 -0.04448739437136159 
-0.01404215258263972 0.02723798129345056 -0.002049519201591678 -0.001486603185398016 -0.001236872025604765 -0.001118079427369757 -0.004417387335789377 -0.002562389689662821 
0.04854131384760228 -0.004333065049814641 -0.006578299421116503 -0.003201170115903098 -0.004905954102605758 -0.003787475183017647 -0.004216784267809444 -0.05160912585786902 
0.002776662069740735 -0.0004084048577897217 -0.001361907182614386 -0.0007376109926471045 -0.001271883563729868 -0.0005781515717337893 -0.0008694883591585347 -0.003823487081343985 
0.01875831033345739 -0.002142817742502345 -0.003364341886413580 -0.001169624749292606 -0.001652848966765216 -0.001181832805880065 -0.001210812148742644 -0.02162452376525605 
-0.06161467703279833 -0.1808383544907504 -0.07360436265513504 -0.004087495475608349 -0.003622265051373292 -0.007162373140630412 0.4126636548194196 -0.03973960719560078 
-0.03685651315733104 -0.2820336218619089 0.2138735700144596 -0.005393369681363731 -0.01111598436051376 -0.01038515583342409 -0.01389931161831682 -0.03698890365195762 
0.003207004427696563 -0.0008352524981901217 -0.0009287050993378447 -0.0004846245959234573 -0.001016306848630005 -0.0005423129387356750 -0.0009742852299880008 -0.004914024166938312 
-0.002067890511758784 -0.03330298688022364 0.1243937459089311 -0.0004835640823297012 -0.0008796740928806868 -0.01889344672273424 -0.002281547433400118 -0.01664520085029313 
-0.003636179381525131 0.04100619260858356 -0.05835179060118220 -0.0006765201224554168 -0.003716201329883827 -0.001931469183192977 -0.002372882967793762 -0.01454621227856632 
-0.009263180253451568 -0.1330617874884496 0.2330243639177377 -0.0005256006664333440 -0.003283275254891419 -0.03006183869592865 -0.002016726136131373 -0.01108540918325241 
0.004084662490876937 -0.0004910590790618782 -0.0003326261295983691 -0.0002667306632980548 -0.0002542697519291336 -0.0001978062082528345 -0.0003713773496127539 -0.005516406577483940 
0.02452876177519093 -0.003827071013851066 -0.003828193313954254 -0.001914697602389664 -0.001973999186653028 -0.001638862855066803 -0.002314629833598580 -0.02656027877471240 
0.002974456814347027 0.2852813146144309 -0.003173232569777265 -0.0006033804089891248 -0.0007163532283171681 -0.2948709353498094 -0.0009618238412061862 -0.009866870877324345 
0.008234856755456408 -0.0009063561682563663 -0.001086855091386841 -0.0004348361965237206 -0.0006979481492735045 -0.0004475765642182049 -0.0005729835625758184 -0.008095893317954513 
0.01420750648023838 -0.001124658037903878 -0.004789117568254010 -0.0008515204587448327 -0.001496893417018621 -0.001204325961430514 -0.0008894067293708801 -0.01446524043439854 
0.008003861129902607 -0.0006528401828613845 -0.002012188006698297 -0.0005068264749180245 -0.0009076374486744000 -0.0006995119345616855 -0.0005313877862882262 -0.009364777326677485 
0.007145873647776885 -0.0008087031438246980 -0.001030205254229197 -0.0002989590898689963 -0.0006427842154663081 -0.0003031725596093206 -0.0005063363940587620 -0.008069472468612048 
0.01135088447346925 -0.0007105205710223193 -0.001665239347903924 -0.0007983402815969822 -0.0007924288577508573 -0.0009320156398735499 -0.0008374376854390065 -0.01258289308026660 
0.006688153230361083 -0.001055909922140926 -0.001106384422741913 -0.0005823339166585075 -0.001400438981332383 -0.0002586089799371652 -0.0005773743299366896 -0.007324837776920658 
0.03643848583621796 -0.005760234975105872 -0.01209350384444444 -0.005244505865709377 -0.009228921480136622 -0.006138223847025537 -0.006867574039385419 -0.05067452374154480 
0.1260919659276872 -0.09639466659642774 -0.02047791850856862 -0.09041786297859439 0.4141187805166481 0.02801839388296184 -0.01223213073979230 -0.2254172928341965 
-0.01321426172460343 -0.02755478332016772 0.1335693696044267 -0.004243467662313077 -0.002620481708892519 -0.09000921888114291 -0.003584259174119742 -0.02935676750925369 
-0.02821849738366695 -0.06699422919554007 0.2361660541387314 -0.007770275135157766 -0.008508901246685423 -0.1618890384645726 -0.008361298613452514 -0.03942256331743886 
0.007673859567673651 -0.0003896167603752417 -0.0008206280555803160 -0.0001024507466994909 -0.0001752064198531393 -0.0001761200214798486 -0.0003215565365952830 -0.01270702322685878 
0.005975405292801606 -0.001169766926177530 -0.001036416420628616 -0.0004034275598058774 -0.0007791014463245441 -0.0004547451835814505 -0.001075273122255056 -0.01095164418752916 
0 0 0 0 0 0 0 0 
0.008595716629754915 -0.001795888546501312 -0.003118012983332239 -0.001173033261917220 -0.002119610068048886 -0.0008488694161745467 -0.001666144191937322 -0.01087010450470063 
-0.02944778982019818 -0.01390151111590036 -0.02248068171329272 -0.001433244025866947 0.2375212166832376 -0.006243032190233515 -0.003108269453509801 -0.1463859721932953 
0.01414374657641399 -0.0009230807316111384 -0.002614020364762898 -0.0008903257606977148 -0.001446501333534078 -0.001080798597533547 -0.001158468464280914 -0.01372803720948916 
0.003921435876671911 -0.0006188404256937646 -0.0007621623218175312 -0.0005081383388605590 -0.0005099591077111329 -0.0004403449938124722 -0.0004467355543750032 -0.004548449594281656 
0.007491128511281664 -0.001161459200302718 -0.001650759999391745 -0.0005870593829601391 -0.0006882168585345657 -0.0005673674114813445 -0.0006255497665281571 -0.007407408904921111 
0.003178628609445434 -0.0008396878476580623 -0.001156476127552315 -0.0008236876761681401 -0.0007883639185979736 -0.001107266469816714 -0.0007636670524347466 -0.005472312106900311 
0.005357948434688921 -0.0008927102117665766 -0.002188442645674977 -0.001111366980267812 -0.001000626630978729 -0.001557819869594208 -0.0008609096367172560 -0.006840343979834601 
0.02945057550934391 -0.003323927577866689 -0.004912386847137067 -0.002001168453497096 -0.003090349731481628 -0.004349349621917313 -0.002943062937556215 -0.03465045025516172 
0.005280120415100332 -0.0008591877258441266 -0.002849702241444900 -0.0009460649139954630 -0.001295251018806798 -0.003196713143260913 -0.0009504858298185308 -0.007030708638442875 
0.01009700016569452 -0.001618906405002969 -0.001128944684959500 -0.001120600187662704 -0.001001132419642166 -0.0008566870827963776 -0.001271610229842724 -0.01065388475609059 
-0.04175382642959948 0.1574494212003788 -0.04441293494084634 -0.004133722854571313 -0.008385876373457514 -0.04934556092943566 -0.009173881434997457 -0.1248257498313372 
0.09839376889534673 0.004931565753858032 -0.001572621061466601 -0.0009114323538422268 -0.001397238596948605 -0.001172840364901733 -0.001756364956659059 -0.1114970073034624 
0.04107960725096203 -0.006585410069111418 -0.008313836278681206 -0.003133306701410000 -0.005075971384983734 -0.002483838076107823 -0.003983607762695913 -0.04428297073597915 
0.04115169319696953 -0.007639516699358366 -0.006606449749248484 -0.003463484416321599 -0.005965503010710655 -0.002441616301194537 -0.003786601694479045 -0.05245289332894700 
0.001182417596961139 -0.0002799533395337522 -0.0002291471485590657 -0.0002023519909491177 -0.0004781792055515409 -0.0001312416577347207 -0.0003340863905889594 -0.001775561311747386 
0.001279829217215607 -0.0002512524991182115 -0.0006646581967665495 -0.0003990548779810930 -0.001025955487856888 -0.0002630945823695561 -0.0004432151993517403 -0.001876875664721513 
0.001279829217215607 -0.0002512524991182115 -0.0006646581967665495 -0.0003990548779810930 -0.001025955487856888 -0.0002630945823695561 -0.0004432151993517403 -0.001876875664721513 
0.01416282232222318 -0.0009409790550722237 -0.002869260992297275 -0.001595782338806278 -0.001471754941199928 -0.001143254184308198 -0.001181623167961070 -0.01299346813763764 
0.004742290302050593 -0.0003122012867051153 -0.0009622271103754249 -0.0005334420905442308 -0.0004937449865199809 -0.0003764502436440036 -0.0003947251153638337 -0.004299404878191060 
0.05575731347009313 -0.005320811557551000 -0.1063873050320436 -0.001577550872395656 -0.01133380064459421 0.01867119338671152 -0.002123651681825218 -0.1025181182000853 
-0.0002314423561713026 -0.005585287534698259 -0.08948994439496698 -0.0006924399932616108 -0.001881252107371399 0.04421768122330933 -0.001140390552285855 -0.003620023670163960 
0.001194466866325751 -0.0005742403032592033 -0.0002718850188214274 -0.0003676127385700574 -0.0003780274373993062 -0.0003830309664769040 -0.0008228459853839204 -0.003634679164690540 
0.01521888087148320 0.05489736295849473 -0.01743989656131938 -0.002571840900462781 -0.002705565375766647 -0.01646382598581748 -0.003251738770454209 -0.04515967360511805 
0.005361601628244810 -0.0009802979465680824 -0.001517380532584057 -0.0009436409850686288 -0.001027290551668066 -0.0008285504055490361 -0.001259013496488853 -0.008496345660622146 
0.002226999355468027 -0.0008921775270435601 -0.0005669247873489467 -0.001760127718854881 -0.001212784191080393 -0.0005136440706187301 -0.001745128545460592 -0.005274975918649527 
0.08414375411761078 0.1207902623204812 -0.1658772332852490 -0.004925225022663209 -0.003293812719077041 -0.02776193467528185 -0.004541157663721918 -0.03639466078420763 
0.1336124737410491 -0.4107079337658554 0.4218078878747895 -0.01174996996205660 -0.004488838291138952 -0.02983587459520032 -0.009783115206254600 -0.04979826259563256 
-0.03563085650544732 0.05972478408081509 0.3494807871039623 -0.008860404464134768 -0.008307020250092723 -0.2513799699864771 -0.005435618971190689 -0.1373158947108749 
0.01343079522282179 -0.002144165134251961 -0.001151341540833460 -0.0008167201219860542 -0.0007987744365723009 -0.001138283096614396 -0.0006229432163857394 -0.005375249302919302 
0.006801826438492337 -0.001385851030055383 -0.001196820029648274 -0.0008057478470990672 -0.0007936302150954924 -0.0003306223661108741 -0.0005952693841235265 -0.003765650617180768 
0.0005576038229976358 -0.0003110485986547457 -0.001113443396736293 -0.001588900524168186 -0.001531257417089100 -0.0004071890638447062 -0.001127798030197733 -0.001068036872936999 
0.004736159922912773 -0.001819103060802314 -0.001414471556225469 -0.002165564066966982 -0.001592733601475590 -0.001044225072938753 -0.001422026171412555 -0.007468848671093613 
0.006752803124766620 -0.001113060603313214 -0.001003348547038411 -0.0004407908443851191 -0.0004979620866463880 -0.0004369318306669339 -0.0004919790378207840 -0.009915018739039699 
0.006495529070288032 -0.001038603739510461 -0.002743933433621539 -0.0008600288156546405 -0.001840936822316087 -0.0009289415127966716 -0.001463293564606739 -0.008176881360957856 
0.003805849608219423 -0.0006623994682983433 -0.004614295416594287 -0.0002929800619403106 -0.0007753753944392385 -0.0002715253264508215 -0.0005211011242070547 -0.003803886674869074 
0.04506668511612059 -0.006591593846485879 -0.01577655019642248 -0.002367858406995300 -0.005318548264570092 -0.003606849080276075 -0.004223235749706267 -0.05142176868560264 
0.009576790925409669 -0.001256082155406119 -0.002149810546141456 -0.001668868585926316 -0.001320694497471050 -0.001674052237606775 -0.001510695120450776 -0.01115793520302456 
0.003898258019529657 -0.0008851839632512686 -0.001665410752322938 -0.0006478196559763102 -0.001459663002232514 -0.0004531079582429620 -0.0008651097100735789 -0.005122769068686001 
0.003465679573268717 -0.0005468447345420391 -0.0003783530540348537 -0.0003793332995095449 -0.0003305488375797917 -0.0002597695126840463 -0.0003721124514869403 -0.005176989340927054 
-0.0008206589447502144 -0.07341407642279335 -0.03183002477700610 -0.0007286006328978149 -0.001354453252093662 0.09735252658710912 -0.0007326784758537120 -0.004886890326828250 
-0.01454161263863393 -0.1067229705169889 -0.06566346151612477 -0.0006962059173521763 -0.002963602886993654 0.2160935100451757 -0.0007417069671418865 -0.006166797162208743 
-0.006174711416758103 -0.03691738063417308 -0.03430819847836784 -0.0007543923449777788 -0.002113291613639066 0.1182728228276768 -0.0007085798352148877 -0.004298749533806609 
0.01905816746450931 -0.04226455601192675 0.1339226767895102 -0.001101894827287961 -0.001872736748820672 -0.04678468513715371 -0.001543607184591596 -0.02360549170044126 
0.06167971344532865 -0.01035436658296537 -0.001217120242907396 -0.002096990889445768 -0.002994179067079422 -0.0006867009660718604 -0.002170018347784783 -0.07820812910386787 
0.03667477842484060 -0.003674506317295531 -0.002732080125807963 -0.0003839218260109328 -0.001391928227329961 -0.0004490113522538350 -0.0007630238033955426 -0.03771417164588634 
0.04567347546466651 0.002049945631115030 -0.003637904872284672 -0.0004989485664411569 -0.001072292490203121 -0.0003887235250365706 -0.001190816039005305 -0.05564331074944064 
0.01487353497920665 -0.002724593057799732 -0.003087368497125789 -0.001692150124543824 -0.002832925081686281 -0.001498567638338689 -0.002490489088732788 -0.02234322642040617 
0.007269281922441138 -0.002219705447902579 -0.001309374455114725 -0.0006652944556647397 -0.001296203203367881 -0.0003854551260839936 -0.0009560780243116668 -0.008518235312536522 
0.01251186079910663 -0.2996523996533864 0.3253638768727830 -0.008021107825593110 -0.002034417018791978 -0.001066041407228041 -0.001946784036531480 -0.009835649557659937 
0.01153612980136495 -0.0008692614244473392 -0.002262919443926554 -0.008703193942196220 -0.0009120813767918262 -0.0006175480167455797 -0.001246864857884430 -0.009602172035014149 
0.004970200157695223 -0.0007601251384927882 -0.0006594658524537685 -0.0007258075210971529 -0.0007750733129427738 -0.001012280105366762 -0.0009524070818060699 -0.005836037687237995 
0.01617014898805252 -0.0009786152554960587 -0.001874009880372676 -0.0006916981633923504 -0.0008754615979607441 -0.0006639046328559625 -0.0008759048742743936 -0.01165157877818200 
0.008186225452609644 -0.0002827776639384919 -0.001585945519318668 -0.0002863783953917085 -0.0007322733502183252 -0.0003442214411933782 -0.0003373144610270155 -0.006538983617363320 
0 0 0 0 0 0 0 0 
0 0 0 0 0 0 0 0 
0.01864657762115482 -0.001339631034219968 -0.0005922211867927202 -0.0002920889602723753 -0.0003538304877306043 -0.0007196665862251604 -0.0005046944411671180 -0.01239670427089142 
0.01208268213679821 -0.001561940901417257 -0.001339372805365184 -0.0005574075893375960 -0.0006321913316192506 -0.0007473194432379887 -0.0009832570794881957 -0.01286933131442030 
-0.1467433965215231 0.06673787116164287 0.4782719685699250 -0.01935268264693687 -0.03810112015019519 -0.3483271458409430 -0.02426776686475651 -0.1261576918171541 
-0.007637929247643671 -0.008005449008209292 0.07128158201523639 -0.0003511514785520071 -0.001584648478937046 -0.07016434250572540 -0.0009501804837889982 -0.03097585962131393 
0.003993435660276306 -0.0006565195081670626 -0.0007137947069765917 -0.0004857970249175893 -0.001346220864044815 -0.001423046707180005 -0.0006646707517562310 -0.006578480277801563 
0.003043934653070889 -0.0007627008508341374 -0.001854212656449649 -0.0009374405752930143 -0.002498232828147404 -0.001070772078243931 -0.001358722709350678 -0.006329786466634023 
0.003513804416251062 0.09069402854574313 -0.07090092745596237 -0.002120386841831671 -0.002873706202865201 -0.01487904731634220 -0.003400539491834477 -0.04980323887515472 
0.004474068071993028 -0.0002565899687371909 -0.0008799431803702844 -0.0002479802898366300 -0.0002220317641363846 -0.0002471716882799789 -0.0001845329384294682 -0.004521391937131940 
0.002133034624059492 -0.0001483470602466231 -0.0008390485492250537 -0.0002419518470819719 -0.0005265666495592162 -0.0005513229520518528 -0.0002182461542230347 -0.001298614166954000 
0.006465710935213542 -0.0003877525482608907 -0.002847699909278193 -0.0004027511541058800 -0.0005337599706106371 -0.0005190206995839920 -0.0003587364315882478 -0.006462475188191711 
0.01770242784364317 -0.009523152979626240 -0.01133338276933329 -0.0004027225213520283 -0.001378150575499544 0.02957128524440534 -0.0007119313562881772 -0.04275388295319826 
0.01119886352553052 -0.001479973658118012 -0.003029425633359538 -0.001862081469868761 -0.003055789523542780 -0.001687665317273079 -0.002177908665663971 -0.01110030762880628 
0.002747302035616774 -0.07899463102356429 0.2077873661154523 -0.003084192200759581 -0.004749032252369403 -0.03276601684595431 -0.002673673894018556 -0.02952220699639182 
-0.04199496317384209 -0.04758929697495611 0.08230894073844913 0.2760860214922413 -0.01079848038029140 -0.06253518689509696 -0.01515988855932905 -0.2430355633264768 
-0.02087900310963569 -0.09908361662755637 0.1576751231942588 0.1803500347442036 -0.005919315479025217 -0.03145579771087533 -0.003826782604423759 -0.07459947955852848 
-0.01757295174836256 -0.06311836275194564 0.1511132790414632 -0.001810197928680622 -0.002464128338124967 -0.04895729911813876 -0.002030765830418824 -0.02043801799222269 
-0.008582144545357720 -0.05432413229327858 0.1151010694692985 -0.0009607908880406561 -0.002004561591102036 -0.02939515785505177 -0.001032078528885288 -0.01925874166369379 
-0.003774133863523004 -0.02287792231231632 0.04937579430933274 -0.0001930285253152714 -0.0004774895242518260 -0.007068396256901855 -0.0003712222747282929 -0.008850167809610024 
-0.01669080394986300 -0.06413028484891008 0.09469780103614577 0.1758383866103967 -0.004389135679236365 -0.04036626167569060 -0.003384377503166329 -0.06465859203359119 
-0.006962236581273830 -0.01285496822461643 0.04040338539315764 -0.001002292192613873 -0.001801769443549681 -0.03270252409972900 -0.0007307401632460605 -0.01233350257663573 
-0.01547818257368948 0.2465318551774024 -0.04001852677794630 -0.009680890320062516 -0.006349593388375133 -0.003994411176135268 -0.006728018559599217 -0.03994213132357136 
-0.001796924256359822 0.1230183859288786 -0.02979564737279293 -0.001476320600557614 -0.0006392415899579466 -0.0007163806929938760 -0.0009028804850362002 -0.01966712271504122 
-0.04261774548700519 0.07655069049893769 -0.01948973657472605 -0.01272853423527369 -0.2003235950456903 -0.01476557805008597 -0.01865491016851308 0.1140468074574254 
-0.01195925678881769 -0.02334467059590136 -0.005147623113315732 0.3221376880877656 -0.003196725825407696 -0.007145211276562116 -0.003130876983499095 -0.1969103743069449 
-0.04059579800123137 -0.04445407212533335 -0.008745295310731610 -0.003806490348092890 -0.1942783413293805 -0.01089387560208481 -0.01240200694310575 0.1487751742100723 
0.01348769592992989 0.1073778518397942 -0.02748410103312642 -0.0005603594680130376 -0.0008924095268276496 -0.003440461389839720 -0.001319930396171945 -0.01470688875549685 
0.004439777726600779 0.09513750035556408 -0.04116229506479394 -0.0008830878176622666 -0.002921806719099493 -0.005087887851710401 -0.002537185206603915 -0.01850893145920020 
-0.05463911704363454 0.2757680385023252 -0.1211657156345482 -0.01253254228316476 -0.01022891522144732 -0.01183750118875873 -0.02242610221142557 -0.01373946840837687 
0.02940787141158826 -0.003161979253836770 -0.0006788964266024637 -0.0005659291297554596 -0.0005720703147117489 -0.0007671044922823412 -0.0007295636695803714 -0.01377180997489072 
-0.09280212827201448 -0.02791305311040490 -0.02158279747216813 -0.08967162158397282 0.6290250619176002 -0.009766587852496948 -0.01327875579339258 -0.3080296029608469 
0.0005588289785026517 -0.0003262113365331695 -0.0009721850314618483 -0.001211068723841982 -0.002153728215657970 -0.001179357064605365 -0.001460875276647095 -0.002390722079281331 
0.2008047115322862 0.007319464231157764 -0.001132791526105825 -0.0003974610080460138 -0.0008452648643727467 -0.0007218162004990779 -0.0004910553623561529 -0.3014996959863575 
0.007595697151829323 -0.001371486001744343 -0.001299828887633494 -0.0004192735135681583 -0.0004454773319126803 -0.0002440390826450961 -0.0002858185089917079 -0.006855803921900401 
0.003385984265375278 -0.0004432557324007536 -0.001629813867080313 -0.001024326966951393 -0.001779597674441476 -0.001450774300228795 -0.001536679639305883 -0.003248593749990628 
0.003171706268750355 -0.0007503685438042051 -0.001152676922808226 -0.0005819223658511485 -0.0007469526707037724 -0.0006689419268114780 -0.0006690258901118761 -0.005488773077145107 
0.006495781259574110 -0.0006076809927176960 -0.003100918021825415 -0.0007773965011791727 -0.001137958170182174 -0.001360165510836646 -0.0007250734321101950 -0.005378569624517778 
0.07037603197981697 -0.006492530085803052 -0.008179797161759800 -0.003519204867815669 -0.003634132086601115 -0.002703176659050538 -0.003535592089993695 -0.06045115903516100 
0.004063064223091927 -0.0005706907659538340 -0.0005153351492207328 -0.0003151499948869836 -0.0003490174082900379 -0.0002671181078939113 -0.0004216373695057193 -0.005589261405960982 
0.002884433758696363 -0.0007454344002661980 -0.001015695687393130 -0.0004433806384529630 -0.0005610078181706366 -0.0005711140374381321 -0.0007129773305511348 -0.005942879110521014 
0.01949689621522144 -0.002117767769168730 -0.002420366906610855 -0.001252103648950659 -0.001554469390130620 -0.0008423730714205315 -0.001538338588673775 -0.01886929940711233 
0.003838040405951963 -0.0006208347823323552 -0.006792637557446487 -0.0007441261653826727 -0.001385065174800524 -0.0005536795076580624 -0.0006718046885007152 -0.003625289866014268 
0.009903844124015836 -0.0009513887943857514 -0.002484636826426792 -0.0009381579567724741 -0.001456030545017153 -0.0008752353046036427 -0.001167600629174249 -0.009041473925759306 
0.04868719873021783 0.01679167580263980 -0.07638636136378837 -0.006804570106116337 -0.008420330855637117 0.04341167680745604 -0.007423280783788238 -0.1140907450492248 
0.08518786528931427 -0.01906665653263889 -0.07198187212704240 -0.009193189393189962 -0.01041367763798861 0.1183702710734256 -0.01051687745549551 -0.1438924982552558 
-0.0009530466883090824 -0.05857219884841519 -0.01257972940946718 -0.0005577030745074954 -0.0005024764679470554 0.04257389860466437 -0.0007968376819434200 -0.002158214818034335 
-0.0005290006440030155 -0.09936601436403690 -0.01172545543698818 -0.0006701351392930249 -0.0004195113285728673 0.04512504338145731 -0.0005536821314160026 -0.002488220402256297 
0.006968039215304074 -0.0007845728033168526 -0.0005416945533488431 -0.0003817703542223402 -0.0003650668951231175 -0.0003666314736368661 -0.0003967892545617922 -0.009392640487522258 
0.009275727519004372 -0.0007651425330927339 -0.002223598743544703 -0.0004360086288631159 -0.0007452112629471687 -0.0005364720718569419 -0.0005073182594760319 -0.009461532326519615 
0.1065002581249524 0.008736509715755790 -0.07596807473114676 -0.01277832128753426 -0.002431368710624784 -0.01952598952568286 -0.004337663673122010 -0.01189962559112940 
0.002028070200189398 -0.0006101348081552604 -0.001248274909999050 -0.001142633481127816 -0.002287004994101491 -0.001371650694439676 -0.001761526173876785 -0.003712403759341462 
0.0004143937968664927 0.1266746868668737 -0.04108304551176462 -0.001986596165379915 -0.006297346578806418 -0.06265965169704732 -0.003411226677218035 0.1168937534996019 
0.01220410615263295 -0.001393386850719183 -0.002843635494936523 -0.001936733081392313 -0.003155394664961369 -0.001809849955120221 -0.002543673833414674 -0.01465300137136098 
0.003357474661797200 -0.0007326282580615612 -0.002185580398900212 -0.0005373753033946805 -0.001448741137008532 -0.0005787540859604865 -0.0007014902920264589 -0.002067925898422676 
