solver_type L2R_LR_DUAL
nr_class 8
label 8 5 2 6 7 1 4 0
nr_feature 2458
bias 0.000000000000000
w
0.005622811254330676 -0.001435482832443021 -0.004260362978333559 -0.009875649644194797 -0.008529243831981950 -0.007020246351210817 -0.004960160816791909 -0.01041076059560916 
0.1979908054072319 0.2928111591331702 -0.2288661107134538 -0.03374220579519828 -0.04728338618759222 -0.07528917558624376 -0.03688279457007564 -0.1362516303970143 
0.3120343281178760 0.4469769224957678 -0.4157284533863615 -0.09435851504748732 0.06634719614348351 -0.3246344657596410 -0.1299345491300412 -0.3010318673969603 
-0.4760196518739062 0.2659061159546092 -0.2698135671239896 0.1670251804151014 0.1487664203422487 -0.4895156392299887 -0.1650040312402908 0.1471179479671789 
-0.08791257324807843 0.5156194639270237 -0.05952793383685585 -0.01655789021985063 -0.008265206747075050 -0.01428243113292336 -0.02776426331494140 -0.5392032394572256 
-0.06197372658590775 -0.2893878872584877 0.06772937561133142 -0.01294803710061114 -0.01675687556889939 0.1726641975479457 -0.02972464389657258 0.09449566210088743 
-0.02997640293457106 -0.005269014742221542 0.06985770964489676 -0.03138001131589464 -0.1593881002528515 0.02624593717959375 -0.05050351028670106 0.09513966969068204 
0.007489852600156685 -0.0007679125914974390 -0.001230141453067238 -0.0004868419851576977 -0.0008371374909136905 -0.0004799468738155659 -0.0005845239091650006 -0.007989201071128332 
0.007690892268050720 -0.0008063923011646711 -0.001354757594995874 -0.0003165767284946689 -0.0005720076983692865 -0.0004449289163445956 -0.0004340572610040366 -0.009684781738647865 
0.04315700265940434 -0.01032229422486204 -0.01471178182832623 -0.04374315295844010 -0.01020797795426862 -0.03039659233960130 -0.01680180230938922 -0.01244859413873942 
0.07614287165052544 -0.09648411098221034 0.1440696716837895 -0.04271231380784312 -0.01886954905372313 -0.07872781086403421 -0.02149084371238898 -0.04449725780600276 
0.03666053268305747 -0.01187659927362717 -0.01248690464339015 -0.02705787113689809 -0.006772082619895058 -0.01986679054384367 -0.01028910870431843 -0.01052834815180366 
0.03571992842562318 -0.01224703666360552 -0.01395892195309374 -0.02723111838726239 -0.007976556301100470 -0.01924587888900198 -0.01125465609648467 -0.01157424636014152 
0.04644339631615751 -0.01048763997944788 -0.02467996355208586 -0.03162093034015875 -0.009457286538288728 -0.01702649717563416 -0.01006376934532424 -0.01117230185375050 
0.5316161582530173 0.3158058478160786 -0.3264282055031016 -0.05498398485290968 -0.08258046345890346 -0.1244614247922401 -0.07922923086199521 -0.4902875102226056 
0.2639631321268786 0.02304215720637168 -0.1749909585874198 -0.1233276582500399 -0.1100569220328373 -0.1272373449666221 -0.1385292580761793 -0.1089336845218670 
-0.01392372637118459 0.5747225744578494 -0.3058927031343031 -0.01479062167531607 -0.01450544904133785 -0.1573014042380102 -0.01004892449959802 -0.08021741003017083 
-0.01081685408442951 0.1126338538623685 -0.09606161519023365 -0.0003453191992204735 -0.002308594368522803 -0.03119571513921659 -0.001636564185448977 -0.003757249820823943 
-0.03285807701723556 0.1397980686705608 -0.2193620156928657 -0.001906265498560952 -0.01360232344158152 -0.03144555182322080 -0.004063875262012365 0.1085834431252998 
-0.002525728006853043 0.1384834901598949 -0.08333827112644804 -0.0004019307407325411 -0.002896575505212703 -0.01961654654197576 -0.0008735011357402789 -0.02619698030251884 
-0.01162522074979487 0.1811745373463266 -0.08563623122888034 -0.0006186906600825264 -0.003602176447406960 -0.04632055798271759 -0.001555049452660225 -0.05960204743509242 
-0.003421747765071765 0.1141623182990656 -0.05233087154032586 -0.0001035008750315962 -0.001727722291100762 -0.006545778027780832 -0.0004600514273718650 -0.03399725794617247 
0.002467553619653988 -0.0007219325914218039 -0.001032459839762907 -0.0006411218595505554 -0.0009054253305066817 -0.0009137092443955918 -0.0006521872906368037 -0.003789133185195981 
0.03018290438399114 0.04452033161914896 -0.01300707315821177 -0.001423297013189615 -0.001795034840386299 -0.002694392180198986 -0.001683118425418210 -0.02055273458950077 
0.3079346555414140 0.2826524154852708 -0.3198247373841737 -0.02338762028016861 -0.05632498765913874 -0.1108696275276417 -0.03423925980030722 -0.1477929338230587 
-0.09652832688370543 0.7211076036991753 -0.7456679367105638 -0.01018926216432622 -0.03103573855856333 -0.1130217809601635 -0.02461503541372144 -0.1497549818554921 
-0.01141328532291721 -0.1654609441730297 -0.04507523185034804 -0.006481678561380864 -0.003482070928042446 -0.05343290456449982 -0.007554371253701829 0.2582044942842276 
0.4192736498885911 -0.2730721051507340 0.1455118348127652 -0.01517630128367071 -0.01658357996378740 0.03339483755689661 -0.02105218696045373 -0.4031248890914218 
0.2654274471832145 0.003610319638990246 -0.002854155601917503 -0.002104176721617368 -0.002148664901402744 -0.01227077305863563 -0.002512669062151650 -0.2166877154304819 
-0.004381765888654618 -0.3587927844273820 -0.01474843553447595 -0.001691700192238258 -0.005627234506623583 -0.05507660097690916 -0.005185580023881954 0.4292295210078170 
-0.1494282879566390 0.008727984810537255 -0.001027434064496203 -0.0005870468065826952 -0.0006683966079262271 -0.002917763864238288 -0.001081843694407746 0.2048927737041343 
-0.1687825836462658 0.007900892002555249 -0.0009191270171493136 -0.0005994184962235612 -0.0004440154173455551 -0.004928625831506167 -0.001030368143443684 0.2025454783282372 
0.04271176502179125 -0.003964190517207360 -0.001158835185841323 -0.0006709426834913250 -0.0007760792058682140 -0.001176429808949594 -0.001206945721424026 -0.05362273294314660 
0.01579890629124058 -0.04888248725636897 -0.008987659864690418 -0.001176262941792995 -0.002962112047463239 0.02675978038973917 -0.002587315217842395 -0.01732708477463563 
0.004946325845651491 -0.0006753117091274202 -0.0005040322500771215 -0.0002640053848777335 -0.0003266363348303557 -0.0006498631414470889 -0.0002750838059742511 -0.001593190130915842 
-0.6166231917840869 -0.2538502357856215 -0.3745859125824139 -0.1281175975565942 -0.2388693210201813 0.3113395017302285 -0.1671027305638922 0.8282457994615836 
0.02006583658654061 -0.1576017907340379 0.1303124764247029 -0.0008153811140714462 -0.0009624655655192279 -0.002642633398850390 -0.001042602884980377 -0.02504417631391510 
0.01684694568484034 -0.09918521741096274 0.09883965789465639 -0.0008612095781871085 -0.001181832360547334 -0.003298734139871491 -0.001107860433210870 -0.02782435214244059 
0.01303021010227220 -0.1203188234098244 0.09267731001786403 -0.0007170996310528263 -0.001389303131632774 -0.003143424663942091 -0.001375254659887743 -0.02882388535536153 
-0.002794815329996965 -0.1174425398084503 0.1312798135520096 -0.001030246587814137 -0.002455644418609097 -0.008522251992286130 -0.001840989687285021 -0.02499137843558517 
-0.07846049430964597 -0.1672012473946395 0.2486354421341932 -0.001542559979170777 -0.003973671795883078 -0.03490350292292502 -0.002624949562742753 -0.07030615794201318 
0.01205892413589401 -0.0006764681566014754 -0.0002526365064922064 -0.0002706287193457949 -0.0003726676038302528 -0.0001347686673597377 -0.0001814790058432665 -0.01185832958081025 
0.01205892413589401 -0.0006764681566014754 -0.0002526365064922064 -0.0002706287193457949 -0.0003726676038302528 -0.0001347686673597377 -0.0001814790058432665 -0.01185832958081025 
-0.1348025288243844 0.3966347338274923 -0.2929023490009682 -0.01987813505536162 -0.02149518348641820 0.1176725085511504 -0.05398124948093929 -0.1101473782750956 
0.01215250790999423 0.06131470608255955 -0.005929425018412104 -0.0006706618180019928 -0.0007321670260939441 -0.01548698862791930 -0.001166374358421022 -0.06724191512530131 
0.001522213160987214 0.03807160756768762 -0.01032441764135427 -0.0008276590648115096 -0.0007045013111385171 -0.01531945111592137 -0.001131949859058221 -0.02430367554193450 
0.001653346462195729 0.04861934959949456 -0.02290385900040651 -0.001248773011420608 -0.001484704944422724 -0.03202545809561375 -0.001983685894975170 -0.02312791000121445 
-0.02827050362299286 0.3013198642357533 -0.04292331302310035 -0.001271822221063625 -0.001075966359695607 -0.09013100162180934 -0.004205328007962157 -0.04103302405300242 
-0.004703561053639896 0.04977339092730963 -0.009136273397397119 -0.0001597646873467351 -0.0003869255954023727 -0.02115707086794785 -0.0004896380895121079 -0.02255314852009117 
-0.005176566924257977 0.04376246286957711 -0.008928039225630494 -0.0001592565514731269 -0.0003894965532414136 -0.01971831688952280 -0.0005015688771335027 -0.01885872267934079 
0.06762043929122907 -0.08440626236993742 -0.1363068892168863 -0.009069314459131340 -0.006513764459493734 0.1509309911912488 -0.006581368442520126 -0.09589969431233486 
0.006622949612284601 -0.0008663628432152794 -0.0008943220084771101 -0.0003721634517963866 -0.0005170892292295496 -0.0003890922727535687 -0.0005744176166373636 -0.007171697404996893 
0.005272047751365137 -0.0008121593077396020 -0.001111400595922134 -0.0003870197087921093 -0.0008446263274931834 -0.0004585508308601303 -0.0008127262001301025 -0.007937179093856453 
0.02706301161757048 -0.009749939333071776 -0.01015626380722578 -0.001785922784778871 -0.004034724385005576 0.004471196606014939 -0.002354978349942792 -0.03169212944462319 
-0.002737115418030508 0.06170300142064941 -0.1124048349769968 -0.001488385277252842 -0.002732941557123016 -0.002534261521382970 -0.001653271377663121 -0.04242085599684383 
-0.4959234115050570 0.1725700326930941 -0.7736888987850498 -0.1024303929125335 -0.1788510944867840 1.056856656609492 -0.1518454331499272 -0.7350339125740392 
-0.0003022749970215951 0.01757094961145022 -0.03639142979296840 -0.0002816526737852631 -0.0006427902641248849 -0.0005964910716400913 -0.0001357098955560109 -0.02163721073108757 
-0.0001925508331181324 0.01550926441776574 -0.02264059347107203 -0.0001408399001429565 -0.0005894172077944696 -0.0005654181927942606 -9.333576702432043e-05 -0.02226015669970807 
-0.0006303328713173613 0.008767325133370400 -0.01831355064618256 -5.259016889118341e-05 -0.0005080604456493447 -0.0001293635331341241 -6.949667731733026e-05 -0.01474632719802064 
-0.3666092892825418 0.8970588228365330 -0.1057129436448185 -0.04456846560300470 -0.07103777430763536 -0.3962990873416963 -0.1185897956822998 -0.1613640732598363 
-0.004841731045189208 0.05927592976302704 -0.03575212385243538 -0.0002321439070638935 -0.002116645161961413 -0.004722954945693646 -0.0006196627671703565 -0.003471967002657915 
-0.002995038728078233 0.04762691021085561 -0.02280330309044430 -0.0001158695106184226 -0.001934385101894629 -0.004437476227587644 -0.0004274957260882877 -0.003521509195127939 
-0.003041324620893298 0.04281477561179544 -0.02152529963074739 -0.0001148420106217094 -0.001924569319452145 -0.004302041102760665 -0.0004347053057485251 -0.003523577179019903 
-0.001899604899924597 0.02186831518459149 -0.01125013733560096 -0.0001081993864863192 -0.001103894362730865 -0.003029074815439677 -0.0002965132910617142 -0.004190855457440399 
-0.003250418046926476 0.04094653136336091 -0.01278632131462469 -0.0001212376888081306 -0.001371614459515125 -0.003921879412763788 -0.0003282570954981960 -0.007779816692290928 
-0.2778415938128278 0.4976073157554579 -0.3504846070124814 -0.02731254106721152 -0.05110127469559929 -0.1591697016630972 -0.04241598198042558 -0.001890808832826552 
0.3644427332429377 -0.02309688948949086 -0.07304334269618647 -0.01620526228797405 -0.02420979534474204 0.05170271643316786 -0.02528676001604437 -0.3644538036362141 
0.2606503469797679 0.5447971752423211 0.2350658265651525 -0.02800648857748386 -0.04420015238257374 -0.9878211352425526 -0.03578900912341170 -0.2224668577265569 
0.01255150478669349 -0.002860182684572964 -0.002259684083895761 -0.001545638576823766 -0.002137532341312031 -0.001226431972510426 -0.001621494139681949 -0.01817271649763905 
0.1241284786548449 -0.01078762434652588 -0.01179461720698095 -0.004678087187437260 -0.007931260155149762 -0.005467978857045269 -0.005488773081979430 -0.1026518841151760 
0.02199241099825537 -0.005531734412706940 -0.01240733597033954 -0.001093642944636780 -0.002356168724204890 -0.0009816663741853008 -0.002618782772050585 -0.02069410405583360 
0.1314376791688750 -0.004225724472265463 -0.01145829891163387 -0.003016164307116030 -0.004860874305482927 -0.003536947702302441 -0.004320167068362815 -0.1892314310914521 
0.007779350807477580 -0.0009609402053386232 -0.003667556142986543 -0.0002976829930333828 -0.0005719154295600504 -0.0003200532235038595 -0.0005447420067537948 -0.005330840810611765 
0.1689152980135358 -0.1063429920127910 0.2860109768245722 -0.03824563552162779 0.1995396211943350 -0.1951242272215189 -0.04789303101050219 -0.4998417931894490 
-0.1816281979516417 0.6106006220599522 -0.2040002913893759 -0.01077656210096583 -0.02987076996785472 -0.01785515193848843 -0.02275810924546335 -0.1265181018001080 
0.01760508288609040 0.2296116078461440 -0.008401268301615833 -0.01460274714113257 -0.004111084710675832 -0.04162915260454747 -0.01846724902937695 -0.1052192128567733 
0.01537730306686169 0.03698747806444214 -0.006771037928619329 -0.0008701821994754823 -0.001361751457994223 -0.0003904829821547450 -0.003898875222731202 -0.04748574351052771 
0.02957056580753080 0.02868763621356810 -0.01565861411188666 -0.0009764967399551708 -0.001796580695078422 -0.0004832831682961674 -0.003942174741699321 -0.04794976515101666 
0.01672821266152414 -0.002614926731315399 -0.002506702519670721 -0.0002325051744688350 -0.0001842360006539934 -0.0001709169644486650 -0.0002173257857693647 -0.01142095052778027 
0.1395158068577988 -0.008787115664406509 0.08959513939632681 -0.009119150500121114 -0.02023440111334229 -0.03283140311069193 -0.01793088430787139 -0.2253291847884339 
0.07708641983855280 -0.02632338905997319 -0.01347494066282228 -0.004368862581899197 -0.007752479539222591 -0.005386869145023072 -0.005761122634654200 -0.08271612615050650 
0.003451114711831101 -0.0004912505169427539 -0.001516478415906176 -0.001040020499738873 -0.001706080702950416 -0.001153209114955143 -0.001503428593730680 -0.005428170542725466 
0.004659372399222766 -0.0004615490890753184 -0.002007108514753458 -0.0006085491899098420 -0.001362543449677509 -0.0005872364861314702 -0.0007260236828151212 -0.005431267487187494 
-0.02666783316508230 0.01535723201799982 -0.006434662675554989 -0.01012207514835994 -0.002829493780939574 -0.0005821257659970836 -0.02422375077831353 -0.002020332283658069 
-0.02956369584126829 0.1815787342665748 -0.1770460526518983 -0.01279110763195972 -0.005220587506984892 -0.04108365117997895 -0.02703899806337776 -0.007598795956514564 
-0.002895862676185992 0.1662215022485749 -0.1706113899763433 -0.002669032483599778 -0.002391093726045319 -0.04050152541398187 -0.002815247285064235 -0.005578463672856492 
-0.001224608260924170 -0.06996126183890503 0.06315303879375130 -0.0008857964027644963 -0.002155370705587393 -0.01247270990251577 -0.001189690840811340 -0.007946157277298287 
0.006244490927833747 -0.2239976509932480 0.1519546514837084 -0.0009279985231083061 -0.001751522957748602 -0.002702253151137849 -0.001274477015081113 -0.01152514019799131 
-0.004934660301952956 -0.4713531211883845 0.3476704727792634 -0.0002801592876604328 -0.002187792414594203 -0.005137926681824835 -0.001006640211329906 -0.01102716869188598 
-0.4888534286724768 -1.129282473291436 -0.3390125988825700 0.1206351293539464 0.006462116434535712 -0.1991738996909989 -0.1594490142956929 0.4110800381740094 
-0.02220322566819951 -0.007384144995542440 -0.01253881554894614 0.3594731614447269 -0.008992978246616337 -0.005412721670433971 -0.01008368908190878 -0.3874987255132447 
-0.01857156667772244 0.03499734527512194 -0.004088632517242730 -0.001988931011225392 -0.002876015206394564 -0.002253397727077083 -0.01913636490813981 -0.009032201382230456 
-0.1575923678662200 0.1653365274893501 -0.1435071354260448 -0.01628430672272707 -0.02674295658500071 -0.05573270968937131 -0.03149442344417090 0.1865938287141040 
0.006922233414765089 0.02575593766571912 -0.02702271964365705 -0.001594543941639178 -0.003709240474938402 -0.001525606648119549 -0.01526685256999706 -0.01168541963414631 
0.05928502142182729 -0.1652937349236410 -0.02004713064297592 -0.005236680402004300 -0.007379306149110612 -0.009175942678977672 -0.01429221486336804 0.08395841159432849 
0.007685880986052395 0.03687102404591842 -0.008739383724925774 -0.001628485314006710 -0.004569801721292571 -0.002637093515978432 -0.004475802707890033 -0.01380846083622815 
-0.01852165324301780 0.08217066614838580 -0.05241880926594188 -0.002533072737740351 -0.007843690130257437 -0.003025689393294177 -0.006928086404366441 -0.009226996186723390 
0.005605908130541146 -0.0006933614347743642 -0.0008504992334916430 -0.0006230135203802497 -0.001076731577093024 -0.001086678514711787 -0.0009055099820971379 -0.007455966848652088 
-0.07035272894536598 0.2454337699750910 -0.07166562348883494 -0.03639324681322682 -0.07115415343441844 -0.3563472188104019 -0.05297504663200925 0.2598879890246653 
0.1285087578924860 -0.08062615958956420 -0.02571913069934115 -0.003587818247684261 -0.005843670268926029 0.1156220687830724 -0.004696860468755153 -0.1181292297999863 
0.08012990213326770 0.1598495695878742 -0.2433439708813554 -0.003467257911967418 -0.003701973660163785 -0.005847614212892006 -0.006476835526325925 -0.1495002296429401 
0.06366127068167352 0.1392494810471361 -0.09329453885869762 -0.0006689607233553679 -0.008446510912585720 -0.003641233063680385 -0.003048732218383522 -0.1031728296824436 
-0.01501000744543336 0.1881943230224873 -0.1012159052383983 -0.004574645423325649 -0.009702398087282803 -0.004204698806888983 -0.01044630225626071 -0.1187614529047749 
0.02947336236323191 0.01462065878601433 -0.007687805820886596 -0.003621668472192724 -0.001969459592510160 -0.0005671461318793033 -0.004736393039743458 -0.02914344604392751 
0.05246411810826783 0.01290379607284239 -0.002756532071215567 -0.001436774189496742 -0.002631377036916164 -0.001008685620704789 -0.002560324925967879 -0.1193622213078825 
0.01279210908674986 -0.002237842836439720 -0.006944995654281506 -0.002587078283872292 -0.003925195712453432 -0.002536119742002233 -0.003481309223697624 -0.01967609283609112 
-0.04343326367865243 0.02293753626027868 -0.07724213756003100 -0.001962013256825654 0.1503818717212805 -0.003804790658412694 -0.005669213437213038 -0.08895054154894709 
-0.007660739989387275 0.02882705080518606 -0.09557634607512310 -0.003010237279481668 0.1848901071013266 -0.006265722339067624 -0.006089642939647671 -0.1734916491444077 
-0.01171273421764256 0.1178954308334718 -0.1514539702262512 -0.0002442038332014446 -0.001047820069319638 -0.001750749169533913 -0.0007115340518883974 -0.009361591487255402 
-0.1052467481759479 -0.2934354825798464 -0.3945943710225746 -0.02474894178426087 -0.01749891601713297 0.4399436460066899 0.3329059931037460 -0.04285181792389080 
-0.1434019199498274 -0.09120653395183109 -0.05556817823418944 -0.003621501720579468 1.117620987329697 -0.03427855015287978 -0.01577073821699395 -0.8291631368470058 
0.0009438782167332734 0.07908344033446182 -0.09458616897188453 -0.001287616309227298 -0.002655592155173515 -0.003098625703144255 -0.001619572660307154 -0.1021756930241180 
-0.003585164197219539 0.02911760298222994 -0.05654993449376589 -0.0006291993951382636 -0.001466991937156324 -0.003794091754947124 -0.001052337073423762 -0.006572889278810896 
-0.009247639537429148 0.2190141217700805 -0.1808414643822195 -0.0005167779985305249 -0.003721130547860791 -0.01910416002737851 -0.001428117645664969 -0.1311007598779100 
-0.0007477401093823945 0.1126825333477580 -0.1351783659809446 -0.0002332054961039945 -0.001310184156014430 -0.0005006199194536598 -0.0003102560697987756 -0.08313712230484799 
0.1597575667219632 -0.002703368832266948 -0.0001097682735957906 -0.0004612162090018294 -0.0002929131584619438 -0.004787800684093724 -0.0002584955998583165 -0.1711258605154114 
0.04741017952505362 -0.002851833703903935 -0.0003466692319303193 -0.0005126253548645016 -0.0003638671148919796 -0.001222902397278821 -0.0003811662872004368 -0.04627136481014272 
-0.002331464012143335 0.06727926970547820 -0.01251068667042082 -0.01543908477730422 -0.005210357562191566 -0.04467574257311004 -0.008255829254284384 -0.007337387475240695 
-0.004263674129445301 0.07887159750424173 -0.02099271000208337 -0.01200244798762783 -0.003766894847088343 -0.04479446140022814 -0.006329025018160604 -0.01148690117279319 
-0.006572036966368149 0.2015721491784221 -0.09765677117462575 -0.005632446883265798 -0.003158761871968079 -0.1136413246750114 -0.001551379740246816 -0.01256562228713884 
0.07404211478230832 -0.002735846355500380 -0.0002726311550829062 -0.0002402919040475663 -0.0001760417586469335 -0.0009160266299944757 -0.0001060758868461013 -0.03991057459499721 
0.06785847511311276 -0.002494455535219079 -0.0003946864488881614 -0.0001925923842159360 -0.0001422988706021370 -0.0004087385569539869 -8.938100786074202e-05 -0.04233473677630215 
0.03592500451817855 -0.002118751858104684 -0.001478867403741313 -0.0006736664996809953 -0.0003720700803926489 -0.0007438498914510694 -0.0004928235687056758 -0.02954261209048115 
0.04042880527466870 -0.002325142510464213 -0.001745697885726819 -0.0006783074998304468 -0.0004377840023815363 -0.0006677857946518327 -0.0004781911394592777 -0.02835781381738107 
0.03576145162288115 -0.001829300786067962 -0.001573612136347637 -0.0004507598173294705 -0.0009532919786004920 -0.0006662270075178565 -0.0004628130057993470 -0.02981876458631763 
0.02785882862380321 -0.001741732310660469 -0.002837706318673184 -0.0005110480636651007 -0.001142224913478197 -0.0009085727691431971 -0.0005188177243917743 -0.02372527655368945 
0.01421950017134333 -0.0007760138241332296 -0.002017555445955519 -0.001285548038881335 -0.001381486589175608 -0.001087935005356002 -0.0009663337648523375 -0.01221659082490778 
0.009452623688068464 -0.0005165931560224030 -0.001339696085721329 -0.0008500172992032734 -0.0009219830337166392 -0.0007293942111865535 -0.0006511969925330847 -0.008130313521263990 
0.2518447649212431 0.2014935539706381 -0.1618106056952624 -0.01356069369599496 -0.07587723881174688 -0.003747191620475164 -0.01838915903684747 -0.1247758975356212 
0.003176167352160047 -0.001228838905787582 -0.0009203323792236421 -0.001006734402491791 -0.001836326033266190 -0.001387135959125750 -0.001378272443721616 -0.007125242515411585 
-0.2491160330794616 -0.2023594473203319 -0.3683876218343261 -0.04047118993886838 -0.06186669966925251 0.2545129775036630 -0.04975815858765014 0.2387703091966638 
0.01708462638453840 -0.001008649008353387 -0.002509698575931960 -0.001387741773194341 -0.001881238075691244 -0.001877075398638414 -0.002152703417042262 -0.01745817893832919 
0.01452999094412061 -0.001118270449102524 -0.001036570276789743 -0.0008380930818416531 -0.001093041484690737 -0.001000168871975737 -0.001296282877229192 -0.01820686125397423 
0.008957642933588758 -0.001050605981753190 -0.001755461949643501 -0.0009153999239195536 -0.001642453381803276 -0.001095334180027095 -0.001310847644317583 -0.01030868112706865 
0.1424166544569413 -0.03357237324518209 -0.2799845104070266 -0.05657383912801665 0.05954556417020131 0.1954542788676590 -0.06688719309915929 -0.2257379009987726 
0.02896838743963212 0.1642562574184244 -0.08229478773339875 -0.0009313773781021155 -0.004909137356963623 -0.04418209546494438 -0.001800668426751798 -0.06047971390133641 
-2.620922985900295e-05 0.2434770817423167 -0.1446593253475583 -0.001995532515743416 -0.009055293838560529 -0.06548899603180662 -0.003009228051573277 -0.04526710860260047 
-0.04573748977828913 0.2906191706503063 -0.1559137639778748 -0.004856735508304207 -0.01206278450413885 -0.07297823055926587 -0.006789452408865887 -0.04077249949466048 
-0.04696684113709516 0.2061034500960775 -0.09725308168125503 -0.01020534477886787 -0.009634876338654666 -0.03914525227830439 -0.01572068943563712 -0.06752639896167027 
-0.04217730773895215 0.1488575110887661 -0.07559021903404434 -0.01055659061789178 -0.009731636823283062 -0.03112093934238588 -0.01645658703933105 -0.05641089398324650 
-0.09367991660167385 0.1321137462800838 -0.03285273284634249 -0.01126578899697710 -0.01381908745405589 -0.02164950902506442 -0.04174152378398354 -0.06330181525493782 
-0.07847353705495323 0.1388617902061109 -0.03664143786110483 -0.03442282124123437 -0.02898030298860436 -0.02784381238344764 -0.07701197780667693 -0.08213096517880500 
0.02952681628801276 -0.002777571443130892 -0.007641061757387439 -0.01460005640758902 -0.01363734790033822 -0.008461504341061948 -0.006575056455295505 -0.02759991927305621 
-0.2313645719339842 1.024884824814327 -0.2860275416488255 -0.01838695473040121 -0.03188839954865896 -0.1572341598206328 -0.04319430741881208 -0.1721835567516439 
0.1948561589642878 0.07918409751771195 -0.02589359630951500 -0.006838604492154912 -0.002954112082229402 -0.01990168607093276 -0.008265503207191773 -0.08849820470127119 
-0.01580467965854244 0.1058321215855672 -0.01707329308755488 -0.001522395771473104 -0.002003215291574100 -0.02021181128500535 -0.004538485440420122 -0.01689445257714401 
0.05226216517993532 0.04325093681521477 -0.009128753347651609 -0.001028858491337044 -0.001959517192736700 -0.02738331090098716 -0.003371890983540575 -0.05223718349745332 
0.05661012963144992 0.01579155408857477 -0.001971944620445364 -0.001745556371162432 -0.001973379514886833 -0.007421428155755864 -0.006671311033505569 -0.06739134616896635 
0.6968613340003320 -0.3439595483022324 0.2676995066189997 -0.08683351061431578 -0.1858695005077855 -0.07247090969789907 -0.1229329785148211 -0.7845934786963998 
0.09807401547961628 0.06452751631839997 -0.04565129378244948 -0.005733775847296196 -0.009121890789327366 -0.03649084463412827 -0.007564152116890153 -0.1097215911010233 
-0.002902744268573675 0.3300922685671955 -0.3082529105445875 -0.001518823157689059 -0.003075024905079795 -0.01320776840387039 -0.002520972081837752 -0.01771266034501026 
-0.007662455386545527 0.1718424219288596 -0.1839553203038464 -0.0002264157593248678 -0.001452352261398380 -0.005148229124577177 -0.0008786398261434412 -0.01867225887956808 
0.01404639186084946 -0.001400084407611466 -0.0007673832307971517 -0.0006326145468574529 -0.0007146261050238982 -0.0008090899564848529 -0.0007445233428442029 -0.01052804610000833 
0.007458496002653118 -0.001693618178749950 -0.0009555537735958006 -0.0005448624763072683 -0.0009511143445337293 -0.0004692123820990873 -0.0007387302171302777 -0.007374758561392010 
0.01179276244022863 -0.001000747594573646 -0.001016517435250362 -0.0004265246641767718 -0.0006598869924243257 -0.0006352661020451828 -0.0005386141448435646 -0.009695352331755724 
0.01071720788041895 -0.001882987348018190 -0.002221551195658284 -0.001906374698886650 -0.001320083410013035 -0.0007866457897131846 -0.001187731147433408 -0.01091997611486531 
0.3580872421916385 0.05658321721532540 -0.02575940868701952 -0.007678217094971203 -0.01278070478513920 -0.01096184785687151 -0.01094310280849964 -0.4388243747156742 
0.01129829639569215 0.08527076879079606 -0.02953193383524901 -0.003461795482362306 -0.001927018645406566 -0.01225665294638281 -0.002549542921471674 -0.04823773182322011 
-0.02707912775429567 0.07098214284216064 0.2759611556300171 -0.01070533678681990 -0.02200606756903430 -0.02449596337302929 -0.03173310087436636 -0.3270276289102177 
0.006292580650427848 -0.0004245848874217149 -0.0004789650380404999 -0.0004208387629623828 -0.0004413339555203424 -0.0002975878239932090 -0.0003077347758004898 -0.004216512055312442 
0.06566375122725883 0.03350035580627672 -0.02649922559647920 -0.002214618473046087 -0.002323412871191579 -0.02350063408840658 -0.002840020597055148 -0.04604811327952403 
0.05240958674661163 0.009449645178818487 -0.001899562913489033 -0.0009869171178955092 -0.001198351096816800 -0.001741183069590210 -0.001913664838443634 -0.03235207644775900 
0.1960019244585372 0.02914211813531981 -0.01272477212256185 -0.005861169449098111 -0.008093505718035798 -0.007475523712652069 -0.009474334878610280 -0.2441112636431644 
0.2885918956217797 0.02134621376455743 -0.01411829594955476 -0.004481056984111251 -0.008273034280536910 -0.006388232078286879 -0.008610584596506645 -0.3365238947995873 
0.07122183713571423 0.006024569255425515 -0.003224354368274568 -0.001153160151888194 -0.002084096986553235 -0.001963217542692024 -0.001921353567168226 -0.05105862306234812 
0.08382764494229415 -0.002290999699150251 -0.0005393203027228592 -0.0001880195316573995 -0.0001597180304672273 -0.001779516151348705 -0.0001477095605755991 -0.08313421540962536 
0.04030761944913278 -0.002321134298777638 -0.0007711296339598260 -0.0002359235946916325 -0.0004176466442297788 -0.001605583978033631 -0.0002640883752197916 -0.03414814515964186 
0.002091031749810213 -0.0003418152409150575 -0.0008236483354258685 -0.0004014756734250674 -0.001198042938483499 -0.0003302086650357371 -0.0008264308739487630 -0.003357727850380660 
0.002091031749810213 -0.0003418152409150575 -0.0008236483354258685 -0.0004014756734250674 -0.001198042938483499 -0.0003302086650357371 -0.0008264308739487630 -0.003357727850380660 
0.004578563552927159 -0.0008026153154214082 -0.0005487049591366376 -0.0004840532094206971 -0.0004262576484748144 -0.0002382729382204832 -0.0004150152886881880 -0.004343387824893437 
0.05062010714599881 -0.004088867866122763 -0.001417375734842280 -0.0007076666331708413 -0.0008849747563923345 -0.0009433035802301360 -0.0006839049572216911 -0.05150538374724930 
-0.1804795020454410 -0.03761214799146123 -0.006857292054958119 -0.002786039119931835 -0.004057094601820477 -0.004266743633551695 -0.002931431237733065 0.1916253090818795 
0.005068166786921011 -0.0007035949282827273 -0.0009272920180377036 -0.0009019689650937078 -0.001288261500914100 -0.002182035121772652 -0.0007313679612183630 -0.005886364562520707 
0.006979019455003644 -0.008769465371976625 0.03805398820264863 -0.003907153404622121 -0.003795352053163580 -0.08156461074826007 -0.003357186966167442 -0.04016928297838029 
0.01035680847040910 -0.001060156332804689 -0.001748284326590309 -0.0003609307031099763 -0.0004746106194488376 -0.0002103069736017690 -0.0005219159377058649 -0.01000344679373757 
0.2616298437455812 0.2169178072639857 -0.03378305005658049 -0.006162958993721870 -0.02449939572351901 -0.2602037376483422 -0.01046098355560672 -0.1992792882705133 
0.005132289710459902 0.004330540896661165 -0.02974342240979258 -0.0002513073492702796 -0.001461284319358523 -0.0008480795471015522 -0.0006015128546640895 -0.01254328385855064 
0.005201039720610447 0.008303623238772200 -0.03550167315755522 -0.0006680353313176621 -0.002156615519225795 -0.0009451963182911244 -0.001612899227274656 -0.01429437783757282 
0.002895285639942591 0.02481708376668083 -0.05455704832417831 -0.0007068262142836255 -0.002707493064021464 -0.003319695263884458 -0.001658727952825192 -0.006337947486775630 
0.01533046651756171 -0.01719952215562338 -0.002655697891980754 -0.001405483812682185 -0.01302875883781111 -0.001710252516091889 -0.001211779572338997 -0.05082394507963536 
-0.004478622079540178 -0.02626928483717428 -0.009283074887745890 -0.005642961914210481 -0.05425514232447474 -0.009447451433613812 -0.003748082024911924 0.08272615558253732 
-0.009700550500390502 -0.008155278769311380 -0.01203082409571289 -0.03444736815487947 -0.005981831209075998 -0.003203902727638379 -0.003211102136653835 0.1380298836132739 
0.2961164855534406 -0.7412586583422905 0.01979262003911037 -0.05159602526017623 0.09835826521103548 -0.01900651762031176 -0.07831454314198169 -0.2933282389528359 
0.008887188496125322 -0.003262837790020920 -0.004333657761081864 -0.001659664464306244 -0.005359497642037347 -0.001245543260972092 -0.003094139858205222 -0.01657386529229318 
0.002530668018095089 -0.0002526195683983156 -0.0009056865647283735 -0.0004080304531803528 -0.0008967839187476769 -0.0002926573906794288 -0.0004928910251033356 -0.003550217612173519 
0.01643232508837373 -0.001789245355660420 -0.0007454647012159919 -0.0009599077779000951 -0.0007272665820805041 -0.0005540190654057034 -0.0008394761425776086 -0.01571554817983730 
0.05652873653062106 -0.009965613645213554 -0.006394045722710705 -0.001559139096696832 -0.002603787201865274 0.01323384703711874 -0.002466875764867423 -0.05618789045620326 
0.01380102508013541 -0.002229255999738094 -0.0006332357689171938 -0.0004261086484013387 -0.0005187538558153227 -0.0004734682203379545 -0.0004809126521421499 -0.01262508561020596 
0.01693644194131563 -0.004122122030691057 -0.0006143953906756590 -0.0003421714140858766 -0.0004931270034395003 -0.0002819347923378446 -0.0002512062170044035 -0.01124329949122806 
-0.004851328542649316 0.02020742621120626 -0.01751654969611679 -0.03498162636024311 -0.003409244936289670 -0.0006685054165570259 -0.001919486446848759 0.08538993059537792 
0.2833407490255067 0.1569742532535350 -0.03890247851334707 -0.009234752239737700 -0.006649634755594328 -0.07069051018951333 -0.01163615528230354 -0.3095999004856291 
0.004551259766360558 -0.0002328405201999670 -0.0008194592344658169 -0.001211684876851251 -0.001083941667669996 -0.0005450831776503022 -0.0004777651850477509 -0.002894409240991694 
0.02275011756093174 -0.001199076783435068 -0.0002323306577045034 -0.0001741578072677362 -0.0001519184357984027 -0.0004056059117374856 -0.0001339331637351717 -0.02207613543699122 
0.03527529812304983 -0.001251825759806812 -0.0002302288230561922 -5.687509138352153e-05 -0.0001435218067853015 -0.0002409437496456808 -7.982970562014756e-05 -0.02911542248695999 
0.05639131195213093 -0.07594885955013939 0.04878156932067958 -0.007726882896163994 0.02741264966641428 -0.01043514746213813 -0.006886539603692993 -0.1270000871002731 
0.04182549339484729 -0.1556634219743056 0.1566499067204865 -0.006302076253735165 0.1032995896860368 -0.008358824834890297 -0.005054801061203273 -0.1876351857242173 
-0.01266929132589293 -0.2548457510024095 0.2726381212601572 -0.1726169340145507 -0.03760088549218496 -0.04521057840590682 -0.03550234289041720 0.1136412536430130 
-0.08309430837644939 0.03850152811881673 0.4646796573497897 -0.01928572894970535 -0.04028644334026928 -0.2683674344286746 -0.01815174646337045 -0.2701972958843207 
-0.1322616254219881 -0.04996924436953383 -0.1202615116798514 -0.1701559302841351 0.1215235687630058 -0.01884264117000551 -0.03764684732829617 0.04388378235808334 
0.01107059489310970 -0.0007518786733268189 -0.001363188143756082 -0.001032669076456270 -0.001343842934780373 -0.001291669888677499 -0.001607862140669712 -0.01018465098822143 
0.009753088577392518 -0.0009721455270417865 -0.001129415685540635 -0.0008699569906176805 -0.001196975096988241 -0.001072314324578411 -0.001331422085726305 -0.009940156796349492 
0.01060428808514734 -0.0009482325627869141 -0.001253893040008530 -0.0004663629290602962 -0.0007437054976637326 -0.0005560148736531201 -0.0007105969110339891 -0.009882212998743131 
0.009881429027233641 -0.0007941586737120064 -0.001299046438516157 -0.0004150669310542326 -0.0007853985935640401 -0.0005270475676978565 -0.0006782877016616982 -0.008983963383375947 
-0.01228597444704016 0.1391504729590720 -0.1356429735336162 -0.005937609692896495 -0.003391199660040810 -0.004146634332207815 -0.008778181704573887 -0.01512957118946409 
-0.09193858405607817 0.1657781806496885 -0.02417992841634755 -0.01420999481175127 -0.006186311154154199 -0.003618587694009818 -0.03669300286844442 -0.05406676675462362 
-0.001937840571370280 0.1939788304972264 -0.4160491578305460 -0.01617103196534106 -0.01381288745929161 -0.01179128828506454 -0.02677948615016162 -0.03170632663408921 
0.01199502375789373 -0.002603797480688985 -0.001273241688011046 -0.001351500945128311 -0.002022165019257005 -0.002429198141024591 -0.001925488781789898 -0.01705918693413647 
0.01764476029009743 -0.002327347212668084 -0.002157991830708999 -0.001249440182771495 -0.003031596905527415 -0.002594106038751924 -0.002166932281141874 -0.01622010220746127 
0.08325179464030733 -0.005514458845520152 -0.01207774959612954 -0.007962898731250697 -0.003721430117778384 -0.01130128733935905 -0.005113255496001199 -0.02147237101838279 
0.02443477109309681 -0.1314992501455112 -0.1337393043812484 -0.02324349733435981 -0.04095760102638069 0.02654206448766653 -0.03307539148648821 -0.1500596872427727 
0.01358726756038274 -0.008083916678961212 -0.001191403106767996 -0.0006157512936902288 -0.001208439985821285 -0.0004921190829612010 -0.0009578815739125367 -0.01311583405041681 
0.02797061927282529 -0.2753678420663692 0.02799336341946924 -0.006644047662851326 -0.01351109958293365 -0.02871393323083298 0.2780539975722089 -0.1211041742746094 
0.005095442848965770 -0.003101053879160232 -0.004512323908421534 -0.0004296198328285888 -0.001598715076198122 -0.0004990798926833060 -0.0006124914328494059 -0.003954352121415806 
0.004288441948393970 -0.0002868413888862910 -0.005133181173229936 -0.0001667239664362561 -0.0005023074364526231 -0.0001602129649269057 -0.0003836652275193921 -0.006634516423012977 
0.003972071554567682 0.003003741348932209 -0.0004064195396590660 -0.0001496979512373387 -0.0001198045846702003 -0.0002782308513220965 -0.001071519237225257 -0.008169234265404213 
0.03230923847643793 0.06187199298833269 -0.003199542354817622 -0.001335574160218923 -0.0009666763032080726 -0.008986650008111621 -0.01217422648539591 -0.04589346011979163 
0.006476288451776963 -0.005251861747106212 -0.02787379511333117 -0.007872710139642691 -0.04668424061823460 -0.01131866925260492 -0.008650270883510558 -0.1922845296364514 
-0.006234025629430319 -0.007830013813822269 -0.03075210287137268 -0.07096584727857655 -0.01833319756131909 -0.009880430063363914 -0.01661699803067004 -0.09299263295477642 
0.01478593297409001 0.1357440893770507 -0.09594856931892827 -0.005026605811532114 -0.004473600068731908 0.005744562334455543 -0.004961220768119010 -0.05701825572586244 
0.01697768352421683 -0.001232382769051683 -0.001041496363923805 -0.0007546753691634650 -0.0004983164950825981 -0.0004224736380400367 -0.0004123498491695831 -0.008707055001834607 
-0.2651720709111424 -0.1164964247379566 -0.09507157508034464 0.005381940338977033 -0.1580413684925553 -0.09537431357889496 -0.1069806782190785 0.1975946548891354 
-0.03334168499871563 -0.01739194228322165 -0.01607825585980372 0.2441364660499994 -0.01077773993515610 -0.01193428352101044 -0.01362792253998399 -0.3436983705680774 
0.05005018845702290 0.4357588921233993 -0.3510581301911036 -0.008502042893194527 0.1222521062610049 -0.03890527559815172 -0.007261126893286955 -0.2197785060434714 
-0.01787828457423961 0.06163167214278287 -0.05762546302321030 -0.1783479842852644 -0.07938150509092438 -0.04902201425778968 -0.09207080245508827 0.1203229793675383 
0.02507133043256653 -0.005558092901772855 -0.005190734589465813 -0.002679418165114363 -0.005491718936304734 -0.002684845463197009 -0.003765066949933929 -0.03858738356169202 
0.02007322384929283 -0.003323763278096574 -0.008739970776579736 -0.002086213256271287 -0.005686402450048827 -0.002591225232388607 -0.003450259353265549 -0.03739949697677772 
0.01375705890335978 -0.002947869893537055 -0.007956322482635132 -0.002092907869447149 -0.005553598256322532 -0.002798506149989301 -0.003628786837180290 -0.01845607461652181 
0.01437293197461123 -0.003379652319903544 -0.01295259538172619 -0.002640845604279894 -0.008777573362793022 -0.002865622297060612 -0.004289226815422475 -0.01826351464628095 
0.01841291436852735 0.3936049467051662 -0.3638253600087488 -0.01590930844076288 -0.01595914906540183 -0.03439132420389829 -0.01467138026471638 -0.1035204600932894 
-0.03809313165824839 0.1589133372798239 -0.1020826737037244 -0.03238684084972647 -0.01151640096082750 -0.008907208682061667 -0.02719915178668038 -0.02194053832867460 
0.01381670286571544 -0.07565245686414711 -0.01752464994807846 -0.03285967601885879 -0.01216579871055743 -0.01719452861963339 -0.02579225445140314 -0.05826083645229305 
-0.008319595243730292 0.2662079098264304 -0.3209564371228518 -0.004236032925921660 -0.007209489138020995 -0.01153833233915135 -0.006837567957958613 -0.03516799173545779 
-0.001005332003099084 -0.2288589337119671 0.2203866159176785 -0.001895166853161927 -0.003653789763839050 -0.006216618007764626 -0.001203539195933467 -0.04480817115392691 
-0.1081048966089310 -0.05103729914506541 -0.01879680818302938 -0.1213812341120314 -0.02851094188451340 -0.03225489825822249 -0.03345635226540142 0.07565972597644494 
-0.07519240586752730 -0.04180249233989959 -0.009821440708907904 0.2451441313751763 -0.01723420676842966 -0.01946905797831660 -0.02319849829306859 -0.2591882821988889 
-0.003005190564310668 0.05875472948733299 -0.05841416428039380 -0.0006802668026563146 -0.003712212557384392 -0.01187052861787514 -0.001142616136939612 -0.01150065671673711 
0.07591614301425910 -0.01047014442866345 -0.01813154664356352 -0.006741668691033778 0.05177127117333020 -0.01595009522523275 -0.003871526905472660 0.004193114014745070 
0.1016562131701350 -0.004818248732815676 -0.01257715405784048 -0.004008043633257239 0.2632939072905432 -0.02488556262584308 -0.001236535265485903 -0.2913641669718127 
-0.02533199603955181 -0.02646242728336169 -0.01722154736391148 0.04238735708992390 -0.02025954930241065 -0.02045971743433267 -0.02818736356913632 0.01553855504883106 
0.02224732922176391 -0.02349888129208196 -0.03590162925746293 -0.09768976331398953 -0.02027471796631715 -0.04480052226245086 -0.02495069382103764 0.03253755228429285 
0.06243192019955565 -0.01561507464929502 -0.03056302527396058 0.1973817824448770 -0.02809422545316028 -0.02493854536773877 -0.01731423223750940 -0.2913497690007931 
-0.1794192012006797 -0.04908597235504095 -0.05309742854933292 -0.01321224478338550 0.1682463908041602 -0.06263466301864125 -0.04207049577849109 -0.02020088198383843 
0.02898703826308696 -0.001151472565238079 -0.0005125544821017782 -0.0003608924215390073 -0.0002665455283325467 -0.0005432190457765789 -0.0001844246448654018 -0.02935702332804071 
0.03868277370158647 -0.002751485938587663 -0.003254793318422272 -0.001984100705075390 -0.003755873869579676 -0.001568409985116164 -0.001802206082068553 -0.03886320639238926 
0.02704459071110161 -0.001879478101143227 -0.003824972381410106 -0.001970001515861365 -0.003529929662888682 -0.002479289669943283 -0.001603976986183661 -0.03607274232076577 
0.02312706776587269 -0.0007027672396004299 -0.001129940655426901 -0.0005774922500023829 -0.0006266067471167844 -0.001118148165817481 -0.0003716396549158996 -0.02717890322584417 
-0.03482992245810702 -0.02468391163492664 -0.03098560060894364 0.09693220436892527 -0.03841942136854214 -0.04111604862187520 -0.03488941009970373 -0.1922059637669225 
0.03303943502165437 -0.005813198584833213 -0.01324008278016419 -0.05120414513044981 -0.01634448359464366 -0.01603515759820295 -0.01508215826490879 -0.009565461409460203 
-0.06304654252427794 -0.01933993926255654 -0.02009747098306964 0.1575943833396466 -0.03251385903816945 -0.01896978517472422 -0.03158604592125836 -0.2929440665376047 
-0.06786935747976139 -0.01887071305009342 -0.01774551782877945 0.1481363494993751 -0.02207493777389848 -0.02508089102367225 -0.01980725183479494 -0.1826405023574624 
0.001215923060322011 -0.0002070374518981037 -0.0007283150413063516 -0.0006170318046911791 -0.0006442473293413242 -0.0008664264621529835 -0.0005973879817601143 -0.002751595226560568 
0.001215923060322011 -0.0002070374518981037 -0.0007283150413063516 -0.0006170318046911791 -0.0006442473293413242 -0.0008664264621529835 -0.0005973879817601143 -0.002751595226560568 
0.001219583795578214 -0.0002081679705179650 -0.0007286136117870704 -0.0006175910329452238 -0.0006432704517880175 -0.0008611461005412136 -0.0006112448178836175 -0.002737086874428840 
0.001219583795578214 -0.0002081679705179650 -0.0007286136117870704 -0.0006175910329452238 -0.0006432704517880175 -0.0008611461005412136 -0.0006112448178836175 -0.002737086874428840 
0.01915237326087843 -0.0008358886136489530 -0.001443813286951459 -0.001411253348681771 -0.001367102803913797 -0.001849635503796542 -0.001450313251441176 -0.01295002574002015 
0.01042424909765448 -0.001311036200679497 -0.001488818078051056 -0.001095271757950481 -0.001519271200527494 -0.001396256297310701 -0.001193371442380987 -0.01333929773620681 
0.001192647986895798 -0.0002073683190913350 -0.0007317336137636452 -0.0006090593548096789 -0.0006424373227449496 -0.0008580947429442544 -0.0006037442349585975 -0.002761888967727732 
0.0003737297122010088 -0.0001592266530680855 -0.001204302576928390 -0.004452185064002901 -0.0006994731009970822 -0.002123183495900916 -0.001623016690893002 -0.001609583288195240 
0.0003737297122010088 -0.0001592266530680855 -0.001204302576928390 -0.004452185064002901 -0.0006994731009970822 -0.002123183495900916 -0.001623016690893002 -0.001609583288195240 
0.005772386942251207 -0.0005236896901148841 -0.0008701943033733916 -0.0004276627311682888 -0.0006902842132499315 -0.0004341968596422468 -0.0005085066516318604 -0.005809605392952231 
0.01016146424960685 -0.0005864933611255685 -0.0009076593790093295 -0.0003829939765414471 -0.0004136829665902116 -0.0003563186581474608 -0.0002762011579264741 -0.008081186179326141 
0.001128927625022063 -0.0001861215554799969 -0.0008891955050143826 -0.001729265328315373 -0.001490696994611273 -0.001262999282991252 -0.0008871644903881913 -0.001923092121958752 
0.03469796355545749 -0.01034533860055854 -0.0004683583799581487 -0.0004028883227969847 -0.0003942328790550140 -0.001247979348980156 -0.0006615657464444401 -0.03667628302211203 
0.01527658155946784 -0.004423771587432189 -0.0001886646868907554 -0.0001160206646449111 -0.0001035094212363387 -0.0002484844176657874 -7.918164815444564e-05 -0.007283971056383875 
0.008575552316393027 -0.005763646152280403 -0.0001904258245901677 -0.0001310189473635358 -0.0001358475716813269 -0.0002118402813227147 -7.899880415827959e-05 -0.005579379184919360 
0.01715065922189652 -0.001058247055965187 -0.001180200687739541 -0.0006584411731145516 -0.001115479185967151 -0.001274955761044166 -0.0008794127880695081 -0.01704257757781307 
0.02214208671044561 -0.04818937982584895 -0.004775868437009577 -0.002919863281974002 -0.003051008647830818 0.05042254689697635 -0.002732701514331410 -0.02889695915680018 
0.02001873620630088 -0.0009991030125923150 -0.001240768729744164 -0.0006710218119399926 -0.0009455490097823789 -0.001525021881982638 -0.0007164548942292504 -0.02123782495310439 
0.01617008522868788 -0.001015098266339110 -0.001732036096457189 -0.0006028136883214502 -0.001016514231350421 -0.001923788141426291 -0.0005736656771897894 -0.01394353508683135 
0.002521970291293912 -0.0005716059608248214 -0.0009355503527803266 -0.001075225119671651 -0.0006808436633595945 -0.001215223269109285 -0.001003918048096206 -0.005718753461318685 
0.002289893818775625 -0.0006551202310885406 -0.0006721691446235726 -0.0008877473437565050 -0.0008331559456433709 -0.001214290574488897 -0.0008359755152225039 -0.005839209431542675 
0.002097002302310198 -0.0006447680652221692 -0.001273469581951327 -0.001307090514370472 -0.0009471665753076809 -0.001204378554566998 -0.0009995826941935964 -0.004830920745340246 
-0.06128748729064577 -0.01190741039319050 -0.009306056277583790 0.1068311593348554 -0.01523532731917045 -0.01381396578885671 -0.01667534152045462 -0.1090258777000125 
-0.06128748729064577 -0.01190741039319050 -0.009306056277583790 0.1068311593348554 -0.01523532731917045 -0.01381396578885671 -0.01667534152045462 -0.1090258777000125 
0.1250833919484265 -0.0007513173246633738 -0.001939884199747071 -0.001124570185716328 -0.001686506065397006 -0.0009152980746582838 -0.002459272512384291 -0.1887822983753918 
0.1429712481925330 -0.007811482535421885 -0.07298590184474893 -0.001862405378310758 -0.003758243674810887 0.2237799301592731 -0.003381420600903421 -0.1770083150729163 
0.01690425865082969 -0.002081017960279362 -0.01088289969619442 -0.002728650590111808 -0.005367584968525293 -0.002955014620468550 -0.004476005852728164 -0.03068581404009788 
0.002429716806636298 -0.0003003913418427110 -0.001491182099337298 -0.0006183944463098328 -0.001490899624007273 -0.0005747396633317760 -0.0007566720860607502 -0.004179390371350657 
0.006846655954467614 -0.001343658961051807 -0.001839370867493245 -0.001688486793869535 -0.002657290599987936 -0.002223873457147231 -0.003877355700634938 -0.01785722944736404 
0.03299969661623997 -0.08931178483530691 -0.01113793503876693 -0.002353880752003301 -0.003678510574584986 0.05827719403291743 -0.003436512792280074 -0.02923349364191580 
0.04734464050733740 -0.007523461081713270 -0.01003400480916323 -0.001865138651041116 0.1973599590745926 -0.005755598709236321 -0.002059537505745917 -0.1519876401212808 
-0.006836265722575119 -0.4834607257903438 -0.08251057614025656 -0.001931911949606019 -0.007771887644065233 0.5938501388548914 -0.002908433847319719 -0.002457563833434526 
-0.006836265722575119 -0.4834607257903438 -0.08251057614025656 -0.001931911949606019 -0.007771887644065233 0.5938501388548914 -0.002908433847319719 -0.002457563833434526 
-0.07015839254335610 -0.02151279025582919 -0.03481939850173096 0.2163887477777433 0.3309822219089023 -0.02237769240015265 -0.01368174355071455 -0.5017238494877176 
0.004603438287535240 -0.0002378179915103383 -0.0006379363691684070 -0.0001854174662981703 -0.0003358268585559221 -0.0002195248871585545 -0.0002884001870037990 -0.005342087905393165 
0.004603438287535240 -0.0002378179915103383 -0.0006379363691684070 -0.0001854174662981703 -0.0003358268585559221 -0.0002195248871585545 -0.0002884001870037990 -0.005342087905393165 
-0.01455326295001474 -0.1371404250569365 0.2870540897563563 -0.003982321054475321 -0.005261364586679572 -0.04151130508112186 -0.003296920592285119 -0.02899842232752479 
-0.01756804966385726 -0.2619200659784959 0.4321400447586560 -0.002830997631851876 -0.003285059783059503 -0.01690998671825457 -0.002354745812736094 -0.03143577354574600 
-0.03584224607163539 -0.3974045623994262 0.7205686072691935 -0.003030452817888996 -0.006332128043651207 -0.05588605288801317 -0.002743042921739906 -0.05498152745464853 
0.001174792716413786 -0.0003684788331035136 -0.002177612096800608 -0.002297365341063193 -0.004031375965901099 -0.003167972211608963 -0.002972926715949848 -0.003983150638766951 
0.01872715844406566 -0.2262818564628441 0.1714579377975950 -0.005315659854913618 -0.008791103986875434 0.1338005873429584 -0.007559753150052837 -0.04083103767879897 
0.001919938396545360 -0.0003315879507273143 -0.001190965441920588 -0.0008484391941981997 -0.0004532934713065785 -0.002388006752693441 -0.0005314526487452955 -0.006718075146694001 
-0.2555420777480519 -0.1202996536535632 -0.07745716696194378 0.2561966626698359 -0.05530688245464222 -0.06987586566779966 -0.07254697067162995 -0.002824211067586104 
-0.03329711282827748 -0.04007357676067558 -0.04252524264744316 -0.3749153317727381 -0.03060873985621314 -0.03479875992700363 -0.03729486208740055 0.1572512625735419 
-0.05934764305475179 0.09566056723525829 -0.1568715328686925 -0.01152287728604467 -0.01228204003065391 0.1046984118793005 -0.008021704112574638 -0.008447730301136505 
-0.05934764305475179 0.09566056723525829 -0.1568715328686925 -0.01152287728604467 -0.01228204003065391 0.1046984118793005 -0.008021704112574638 -0.008447730301136505 
-0.02806268932999502 -0.008022475416214791 -0.01519339076714248 -0.01185238791427956 0.4761708917464445 -0.02844156557408121 -0.01356658360611844 -0.6099386352125709 
-0.04660389327287838 -0.006426697798271971 -0.009533788725992002 -0.01110325624314349 -0.2013012384760495 -0.04200120225666388 -0.01253845194690981 0.1796525982742867 
0.003418234944029588 -0.0004412270103523507 -0.0007541834145169766 -0.002218600186529994 -0.0005927204800116841 -0.002010410038252585 -0.0006995512078917419 -0.005992060173828463 
0.003328992542995888 -0.0006041167900542422 -0.0008340874391903881 -0.002509051623951146 -0.001608759684340309 -0.001538850276273307 -0.0009948557530825087 -0.004862648891622808 
0.001871732859173138 -0.0004920142335614352 -0.001166251874929525 -0.002805615153030906 -0.001531337135584858 -0.002276846254233567 -0.0009357038755336137 -0.004673745770364230 
0.003818634238093321 -0.01007136985092244 -0.003226624707566787 0.1655162837184022 -0.002989113038683314 -0.003641968433071256 -0.005161703326681011 -0.2064305931865862 
0.01218131490753225 -0.01320802434668933 -0.001410444249094247 -0.009824683044279140 -0.0007140047067542762 -0.0003990605024150140 -0.0004756489478406705 0.07984733623696878 
0.01084910516308853 -0.006761439912932678 -0.002188128274692863 -0.01527431047077239 -0.001103121448529859 -0.0004054310528928481 -0.0008900111501717406 0.04934086745674877 
0.06855839505685479 -0.03795510886018554 -0.04653055776441602 0.01186416230753156 -0.04614554520590074 -0.08228749408637148 -0.04448932352684187 -0.1915125438588101 
0.1750089097708394 -0.04250262700188272 -0.09233626014093183 0.05990258787830247 -0.05722433498584924 -0.1026026189522127 -0.05476133698201004 -0.3238456244253207 
0.04278228095096996 -0.02374413721244777 -0.01694780406011174 0.2426304932772625 -0.01041831399274051 -0.01520369427339452 -0.01438626199279201 -0.2590003849621634 
0.003475693260962902 -0.0005224048156301255 -0.001510973478276572 -0.001577284283733804 -0.002090216918974110 -0.0009864660186102393 -0.001504532305499289 -0.005166562852165236 
0.003910454844031064 -0.0007304807405496641 -0.002324359763889168 -0.002703384087212876 -0.003560111768329818 -0.002154396188317287 -0.002944143255949913 -0.006904363658510835 
-0.1059385627483132 -0.02958307015289159 -0.02390224320498189 0.3693657445223443 -0.01450363895988859 -0.02589428977948930 -0.02005095935334639 -0.3148365647321392 
-0.1042071919469643 -0.03332047956665331 -0.02146036627432847 0.4389534676818069 -0.01407726643050901 -0.01937550262529366 -0.02108206974664605 -0.3854510386198533 
0.01085369599558621 -0.001530747091448513 -0.001310927995661163 -0.001597366206179441 -0.001338253493423763 -0.001427796069634624 -0.001836199567655732 -0.01214638677966014 
0.009556517572356515 -0.001190257922585039 -0.001950700949912862 -0.001702535752367706 -0.001209948086378122 -0.001584527443222989 -0.002001200562065416 -0.01203728572714716 
0.01546802847646920 -0.001345748178833403 -0.002391916967095997 -0.0007536406244035433 -0.0007507841852170350 -0.0003098604839262547 -0.001218003033539230 -0.01147405060584890 
0.007655389512008784 -0.001308223061115939 -0.0005903015978690521 -0.0002276975495909714 -0.0001583637754967246 -8.450662328602510e-05 -0.0001773910151577895 -0.009110783458539912 
0.007655389512008784 -0.001308223061115939 -0.0005903015978690521 -0.0002276975495909714 -0.0001583637754967246 -8.450662328602510e-05 -0.0001773910151577895 -0.009110783458539912 
-0.06334835020799381 -0.01941393536794901 -0.02010674671328180 0.1570625787483604 -0.03245379398408647 -0.01893382251384292 -0.03154304699485445 -0.2925086655097648 
0.004553337483904700 -0.0005125564287623307 -0.0009632936279108406 -0.0003995838785660455 -0.0004119851917800859 -0.0002509197175496770 -0.001587655175829559 -0.003247850428573427 
0.006209269321568456 -0.0005872862639524636 -0.0008004278651863009 -0.0003392744454162834 -0.0003913921511021777 -0.0002758719447419555 -0.0008222061341216677 -0.005276279709650267 
0.005563447813808147 -0.0005511957029082591 -0.001220493660796360 -0.0004513625163155124 -0.0005420630943069458 -0.0003457036827102429 -0.001056269569323471 -0.004473173395292559 
0.0003056427937934260 -0.01043277967413996 -0.01649434433879272 -0.005071776759090778 0.2042223592974157 -0.004915608070599887 -0.007313296945592750 -0.2987367406369210 
0.009949499567969181 -0.01070478567450649 -0.02168874233602534 -0.004302819476905553 0.3120051060719638 -0.004544472706452813 -0.005933094898255268 -0.3514310771854329 
-0.02038058618057106 -0.01142659129794163 -0.02485173257156746 0.3526920339686610 -0.02398785867067939 -0.004506636970351916 -0.01316886931524351 -0.3288757871209634 
0.008811069965790933 -0.0009829655788368512 -0.002033152461282662 -0.001265548433696987 -0.003267440716185474 -0.001229974297550479 -0.001701579023542473 -0.007404469327210467 
0.007600448297669635 -0.001010457398027472 -0.002890029115152538 -0.001191030187957292 -0.003516413340074924 -0.001191387424204171 -0.001447711418876354 -0.006428056389112637 
0.01201881860304474 -0.0008678374608502622 -0.002014871865960609 -0.001790138458287727 -0.001506690582198907 -0.001119707993958794 -0.001407139014316015 -0.01295862701670529 
0.009148830800687444 -0.001241409037681633 -0.001855250440834985 -0.001950782905723778 -0.001334412784888724 -0.001027267876758817 -0.001370628878325443 -0.01284404473198019 
0.02623396245555592 -0.001385727193413494 -0.003647473687095618 -0.001492067491923801 -0.002109320187784443 -0.001573180599994909 -0.001267105645765441 -0.02089638470619288 
-0.04807720862080868 -0.01203268716321663 -0.007282871126977723 0.3056112027853998 -0.004994314775938260 -0.01211488944801784 -0.008681813309155951 -0.2257888541418785 
-0.03590421466937324 -0.01146606942803253 -0.01140989502368445 0.2951841571903470 -0.006356551657128503 -0.01371531898118839 -0.008152166376709740 -0.1223303920708585 
0.03422347601422360 -0.006371125056736583 -0.01075928363334616 -0.01214728343318828 -0.007170565517926348 -0.01099909036993004 -0.01022527084375696 -0.01854297918691229 
0.009314043765709313 -0.0005237194822426854 -0.001346876953799591 -0.0008603518030199377 -0.0009277060908428197 -0.0007359436231841809 -0.0006370828975189718 -0.008070611104577362 
-0.1378968667377943 -0.1331301608026554 -0.02572595030972586 -0.009767182673464807 -0.01081743596857468 -0.007632012862626546 0.6490784729386494 -0.05722350554634274 
-0.03613411630562705 0.1281270772240585 0.02205183367187803 -0.007939628907960116 -0.01108973362046885 -0.08017239160102990 0.3995170943373468 -0.06218502177439814 
-0.1146847195303850 0.2165449098484177 -0.04406513781791250 -0.005367905972247016 -0.01310735737821927 -0.1086061333299381 0.2401911909674732 -0.03933782686965203 
-0.01987803309565221 -0.7169282014645284 0.4691262203011391 -0.01428052041328528 -0.009278388568739419 -0.02570788538962147 -0.01350892607253526 -0.01664727030940362 
-0.01987803309565221 -0.7169282014645284 0.4691262203011391 -0.01428052041328528 -0.009278388568739419 -0.02570788538962147 -0.01350892607253526 -0.01664727030940362 
0.0003928435409398818 0.09566037278173789 -0.1063741431088867 -0.003938392066970871 -0.004257841832158252 -0.007394583156411093 -0.004132513234791059 -0.02789428481498917 
-0.02965535552727781 0.3501973140490094 -0.4609508766105254 -0.004515358033135079 -0.006722917556763006 -0.01127848806640908 -0.004772850951846393 -0.005999844291170351 
-0.04300823474792348 -0.1496929126866503 -0.1622443473006118 -0.01729327633486489 -0.006120313367958977 0.2984129569611725 -0.004917372976233730 -0.03170307572806375 
-0.05729068896927526 -0.1804210458496074 -0.2055844329848080 -0.03530170555081255 -0.01014361772426475 0.2403492774125113 -0.007533797211133723 -0.01884979666936000 
-0.02114525866432480 -0.03437088637928790 -0.06567147233467720 -0.002658971589592413 -0.001503226135867209 0.1747106668539621 -0.001238238339860504 -0.02368628200303413 
-0.1166148672121011 -0.05784954997056831 -0.04786824826714747 0.5960165938151021 -0.03121262627290389 -0.03469290092626663 -0.03872455649923335 -0.5274128357332526 
-0.03824610996118587 -0.01841902858606158 -0.01672052136279286 0.1637256908620043 -0.01218318898672402 -0.01265103979532252 -0.01425464573902185 -0.2218286407471834 
-0.1020302842464283 -0.09111948049982349 -0.1331501083001629 0.2105385134476215 -0.03366153923623216 0.09196197386705784 -0.03374243757985360 -0.3526035177798750 
0.1388232002575546 0.01832948669225084 -0.02314791748350053 -0.004604449714706188 0.04971885687889478 -0.01037367678729301 -0.003817834811436650 -0.3084244213370571 
0.03489996291828122 -0.002711232061718728 -0.003238724829678920 -0.002413997160154834 -0.004930783285704506 -0.003876853258708537 -0.003098102447597810 -0.03465739944012050 
0.02956105455004329 -0.002452644409578520 -0.003704322704280949 -0.002389232127855177 -0.005060958593085782 -0.004026383214296451 -0.003058112924854163 -0.02569100040241033 
0.02680055806579712 -0.001182841034270309 -0.0004876147860443254 -0.0002165756986843995 -0.0003036822013982168 -0.001362597641943632 -0.0002123215840398124 -0.02564038962635461 
0.02704929978479052 -0.1079368332003414 -0.04171075691458881 -0.006369309272912235 -0.2308526240333431 -0.009964924797136584 -0.008498548526358821 0.1566355319919043 
0.006970215814216395 -0.3954182686302606 0.004193354892411877 -0.02919932281357823 -0.02347934446000010 -0.008767568051549117 -0.01757255701965411 0.2141323544057802 
-0.006921932770815140 -0.005982698931491892 0.1952483591083759 -0.0006518490282559161 -0.01172921722668357 -0.008837963922978274 -0.002570239343673675 -0.1432749224729269 
-0.03791444486493592 -0.006619847907461215 0.3405906847698255 -0.004383249567173078 -0.01528280471241999 -0.1314945288732102 -0.01341778305551452 0.02851576681144182 
0.08804841247026199 -0.002815744145276934 -0.004218416421869985 -0.006322046227621499 -0.003266218148626258 -0.003319357521096979 -0.004248236057989827 -0.08277425311942235 
0.06636658255368602 -0.006511597279454416 -0.003987794578532704 -0.002425785543126879 -0.003620216784739756 -0.003254984424849910 -0.003239995891717520 -0.06062179792840469 
0.001571187819302820 -0.0002248891850315420 -0.001158235708128166 -0.001400959225588436 -0.0005250300838602819 -0.0003051537674507030 -0.0006195983044984685 -0.002493404315028673 
0.003101254969220344 -0.0002948359591567845 -0.0007251455648557219 -0.0002554650815620831 -0.0001707993742588976 -0.0001230681607082166 -0.0001813928403793756 -0.002681272672692078 
0.1178684070223867 -0.1679318388828457 -0.08286687296406164 -0.009892533999491207 -0.01987580870918938 0.1319941388536532 -0.01316820173439685 -0.1488046978828477 
0.008684309218875983 -0.0002703337360173829 -0.001377600624254842 -0.0003723001422202580 -0.0004027550796317997 -0.0006687330077278430 -0.0003704739262487176 -0.008596983119381557 
0.01318354234991210 -0.0009701140466074332 -0.002266742497252347 -0.0007256288553922005 -0.001211942159459095 -0.0008653797629798476 -0.0009235606667074283 -0.01436521626970461 
0.003361292726725356 -0.0002171551908825986 -0.002762998855886893 -0.0005426009548475099 -0.001242136810208775 -0.0008028412178290032 -0.0006236396743035536 -0.003481446868010466 
0.07257983611753023 -0.01051947487451525 -0.02732765347465653 -0.008724053734367326 -0.01542702738612410 -0.009953508735809512 -0.01045240272630489 -0.08976475903901172 
0.004140492242349937 -0.0004300676388913594 -0.0007023866257344397 -0.0008257628423825289 -0.001267653064972150 -0.001334509234328486 -0.001207198315872942 -0.005027573364706236 
0.002313634622885757 -0.0006054671480471647 -0.0009972238076247529 -0.001004976072923632 -0.001729918715813985 -0.001075005613495474 -0.001399076084699643 -0.004502738739085415 
0.03856947635457794 -0.008100389737961912 -0.01022110507812810 -0.004138204816059216 -0.007010898870145429 -0.004595270427282363 -0.005028647041857669 -0.04814907960045370 
0.009416805807178649 -0.001055023310586711 -0.007016979394889745 -0.002018730459833456 -0.003674978507063835 -0.002345869811349774 -0.002825655988564278 -0.01106193961872122 
0.003102582794931085 -0.0004380063861051738 -0.001425777919170402 -0.0005291720112695987 -0.0009720517061612986 -0.0006834361075176813 -0.0004901689427711132 -0.004100176909979749 
0.1022286972702275 0.04372702492099491 -0.06559282777504973 -0.01009150134076884 -0.01754888378277738 -0.01565992081652901 -0.01386063648687914 -0.1152829546655062 
0.002747124026229397 -0.0004768942934829913 -0.0009439294240105962 -0.0002772207356387242 -0.0008007044825812678 -0.0003111442408743820 -0.0005103885586031446 -0.004215579919463341 
0.04835996113874394 -0.006420397180936548 -0.03254030530545420 -0.003331368291727035 -0.003411700077729252 0.04489323618435031 -0.002656551520509364 -0.06868704358070345 
0.0008309989450960728 -0.0001358616603365443 -0.001327087344374034 -0.001838948781383550 -0.0009156046578762838 -0.0003383855334381623 -0.0008638002716505274 -0.002134177863016964 
0.02128576894236348 -0.0006196999729352166 -0.0006959232808592246 -0.0005780646570944383 -0.0005135149574986998 -0.001858092128597979 -0.0005456538117623277 -0.01933635128280695 
0.2483220862166773 -0.009266572799569360 -0.004260234264132247 -0.001410731539811296 -0.002112780509721155 -0.002591975513126787 -0.001958740396057616 -0.2587570634034370 
0.07400550875899880 -0.3003699594823102 -0.02618943732806455 -0.02619609029130611 -0.04464483926182624 0.2254643394609177 -0.03142024290536399 6.388240384610198e-05 
0.02406062213940559 0.1323438740769961 -0.1209806374836726 -0.008084442691898836 -0.01453868378444126 0.1048293939593879 -0.01618248622616715 -0.06434219084804163 
0.04016707176593053 -0.008106740044708557 -0.03840658225936588 -0.007198488732797365 -0.01228135979568095 0.006777775961932123 -0.009610790497344679 -0.06001755275314702 
0.004083782153307940 -0.0009763532426972490 -0.002498395956067556 -0.0004602349185014293 -0.001462976471144404 -0.0007321826183403980 -0.001115521156335261 -0.008088921866374266 
0.07406418820123560 -0.3673652610860408 0.2812224993728973 -0.009236365491899275 -0.02314631742657747 0.008244062541446903 -0.01328927476978656 -0.1183725578932529 
0.006414184082823751 -0.0006735371664217028 -0.001566136354701838 -0.0005123008395740130 -0.0006974762823681634 -0.0004393631022624231 -0.0005614373678393319 -0.005973714426661191 
0.008305670857056425 0.05165629527761889 -0.009757976749603917 -0.002938720620727678 -0.003472341103928102 -0.002807116186067595 -0.007322057936263137 -0.03498180909780759 
0.001811111986001906 -0.0002725799897445472 -0.0008249405677456193 -0.0003078546373868936 -0.0005632073646504084 -0.0003256517001713811 -0.0003862653194566862 -0.002845256855571973 
0.003746241583955195 -0.0002378763824735022 -0.001133390136217857 -0.0002287345800449763 -0.0002737401294881201 -0.0002571960770503572 -0.0002330801589727008 -0.005574789129708199 
0.1154603147688765 -0.01112428434992058 -0.004763199372611399 -0.003662064034899625 -0.004851472043382118 -0.004426216998710745 -0.004194670790099129 -0.1393818127076684 
0.002477950899427542 -0.0004835060949610940 -0.001042058946408030 -0.0005778170618056850 -0.0009331271524452062 -0.0004833473053026380 -0.0006662976539377481 -0.003293317203280766 
0.05980297491647642 -0.0005974912250861276 -0.0002342743126890521 -4.962825901391091e-05 -3.866221598574030e-05 -0.001789893969792791 -3.637989904163034e-05 -0.07171151571740428 
0.008871327220250113 -0.002077523230184528 -0.004160442171682879 -0.0009690876857989662 -0.001609964788601948 -0.0007140229733890330 -0.001244269538739660 -0.009884251266270513 
0.07324073910259915 -0.009204891672114891 -0.01737583797256908 -0.005223222148424315 -0.01120883784631986 -0.007459425585406790 -0.009130386434004530 -0.09291258209086208 
0.004690549392764835 -0.0004183511116840818 -0.001306053761411429 -0.0006531185358657810 -0.001393604013547138 -0.0006655441463585043 -0.0008780675561076231 -0.005587393035711678 
0.004170526740933782 -0.0005708349676327707 -0.001015761533311379 -0.0006055543511891585 -0.001232788528116687 -0.0005473459330938523 -0.0007178860333264298 -0.005304675210585801 
0.004133654928997629 -0.0005429921008827904 -0.001647179847571161 -0.0007993181125550664 -0.001754618479873243 -0.0007263509004830179 -0.0008711672788479553 -0.005185905537799167 
0.006229300181206232 -0.0004549526143913722 -0.001207548726250688 -0.0006195424999646459 -0.0006400952824614323 -0.0009460255824443760 -0.0007445935907932853 -0.006384304698077973 
0.1255104662639097 -0.01513752551210195 -0.02754935801653425 -0.01134368095603421 -0.01773668206454977 -0.01700800070369072 -0.01412555791366156 -0.1319713642916446 
0.006562681745491826 -0.0006043541692147689 -0.002098918448028905 -0.0006535273999694114 -0.001286856237980962 -0.0009489780046293133 -0.0007748562128456484 -0.005531173862067553 
0.02999944264875372 -0.004179898670295228 -0.004162912219457241 -0.001320599859657663 -0.002750514672951756 -0.001849964083515967 -0.001744847111021087 -0.03389640848111492 
0.008867664767960302 -0.0009323577310256094 -0.003840241053967310 -0.001576414324115937 -0.002893917035394239 -0.002497146127548374 -0.002119281320394031 -0.009111126741404492 
0.008746600553684295 -0.0006430094746744990 -0.001250414526677332 -0.0004973012513241201 -0.0007661369044258274 -0.0007327728730579914 -0.0005889513192401860 -0.008378784512321926 
0.002471394934021511 -0.0005202769261474367 -0.0009093084927102413 -0.0004955657577218071 -0.0009807248447909795 -0.0006643564867694462 -0.0007697126605405234 -0.004732784147224909 
0.007495319046968948 -0.0008455072829897646 -0.002866581355490154 -0.0005764470224879346 -0.001426237968325174 -0.0006783133121142165 -0.001045822212974692 -0.009360304933922660 
0.03970370564421220 0.02892869071486832 -0.002669469859238707 -0.001522947734462410 -0.001457453063546888 -0.005264625607811840 -0.003875348536241700 -0.04563730047633689 
0.006469472716806707 -0.0008828921468877934 -0.001756742970061160 -0.0009624757608033641 -0.001631485042889219 -0.001219907410523812 -0.001004790875396871 -0.009491668688855835 
0.08404823844446552 0.1018765368416517 -0.1336532905463887 -0.007910988074777636 -0.01183949960146287 0.1662214851479167 -0.01084796095072347 -0.1219644378963279 
0.001425907118179032 -0.0001683917722567902 -0.001158423423995517 -0.0007178690583341088 -0.0003399279682161232 -0.0002638540455700411 -0.0003955089231990117 -0.001977249880171303 
0.004593733546232914 -0.0007597500762586000 -0.002121846301410392 -0.0006162433064554424 -0.0007399999527170829 -0.0007801136284087181 -0.0008767872767659698 -0.007937229981279771 
0.01419810285059188 -0.4832015729381353 0.1212939376879512 -0.006664567711413612 -0.01095813441561203 -0.008004507725863703 0.3503275464772123 -0.05149918266655509 
0.002798238442479720 -0.0003033673260937081 -0.0008458817704727168 -0.0002910061321395541 -0.0005069639365103903 -0.0002937483967509759 -0.0002428196090792137 -0.003614507523167975 
0.001804630671256892 -0.0002013401107075178 -0.0008130274219152220 -0.0003728282900116866 -0.0008617297483846940 -0.0003742873575601418 -0.0004526214731801341 -0.002501636940444335 
0.02389290612243949 -0.001282640862049670 -0.01541317902744796 -0.003691592252991634 -0.007711210379536619 -0.004104991444645827 -0.005397473954272529 -0.03355677118629316 
0.04499750323695308 -0.004505563907567073 -0.008181355251920180 -0.02653142161594803 -0.003627178087768163 -0.01921361028702187 -0.006101452890618002 -0.006471678034585459 
0.03517329118482469 -0.005244726044198777 -0.008371026349501461 -0.01890132707176433 -0.003598031937821822 -0.01178700960473072 -0.005754521239850650 -0.007569504622232935 
0.05948607741201585 -0.004085425217496724 -0.01120503369136724 -0.02310998959106941 -0.002397974515142405 -0.01424497571549037 -0.002782876088740951 -0.007555791950742101 
-0.01091976316113837 0.1120992242245348 -0.07126691910095542 -0.002732483670806749 -0.002073791082708483 -0.005577655034093393 -0.01317310602079766 -0.006275324844153549 
0.01556243788536319 0.02850885125713287 -0.003850552862066048 -0.001725529186310327 -0.0009244252389768442 -0.0008734206753328794 -0.007452925761187859 -0.005956716519799480 
0.004298041696275044 -0.0003614278154303765 -0.001023753329328468 -0.0004304035297896119 -0.0007573322416622576 -0.0004764861614601695 -0.0005865799313380766 -0.005280955597558465 
0.003164961117263406 -0.0004680741923062124 -0.0009126180520396010 -0.0005179761424736450 -0.0008022006940643874 -0.0006716564575253608 -0.0006299475708450587 -0.004810370717360182 
0.1100804910041813 -0.006670155614784247 -0.003143521569446616 -0.001560790216680366 -0.002621706395969246 -0.002675989238541602 -0.002020918841799993 -0.08933556905890966 
0.08348520828242206 -0.1617849774306379 0.1972299949103618 -0.01017073666099051 -0.01818014827847997 -0.01627531863690173 -0.01327425923633743 -0.1059961757705529 
0.04973287342320986 -0.002529783094286444 -0.005723286941340873 -0.001950883377787147 -0.003220391475262604 -0.003051144625756796 -0.002127155644608342 -0.05388581486564872 
0.08044802658549294 -0.09478442844402178 -0.02834966393400972 -0.008609459862755270 -0.01620755865934653 0.09856617795220718 -0.01236097349499040 -0.09395517768854528 
0.01344510931033396 -0.0006974045294278156 -0.001920239824175775 -0.0006310735652781648 -0.0006272183569079300 -0.0008904751352680774 -0.0006387094116650201 -0.01033120776249757 
0.008172588407265858 -0.0007222075396696693 -0.001730187197913497 -0.0005584206166699299 -0.0008053706527228947 -0.0008902538514800110 -0.0006618239938154676 -0.008499423766429662 
0.007321610715507383 -0.0003692177913151394 -0.001627195683194312 -0.0002944858389170918 -0.0003292295618882024 -0.0003620707288453618 -0.0003098584995799564 -0.008159569364618890 
0.04254185714921083 0.2259455863495936 -0.1051884132741343 -0.002290719151302108 -0.005361355787063362 -0.09578696156045920 -0.008965171683819656 -0.09619618501225187 
0.002328199009696947 -0.0002821842678820620 -0.0007791512309427082 -0.0003079966282522032 -0.0005515591765689972 -0.0003537427178856332 -0.0003976356198202716 -0.004173959269719806 
-0.01263256052440098 0.05957215220518087 -0.008638509648785816 -0.001966991178060919 -0.003169329679191505 -0.006557261443239509 -0.007802528905595246 -0.02949900180467378 
0.04031585968158689 0.0004497750975619678 -0.005967240265025334 -0.002532775659252747 -0.004713939564920737 -0.003271874943105514 -0.004501935132061201 -0.04837222375394400 
0.004421682995260961 -0.0007586352776836401 -0.001494569683376478 -0.0006421284038666453 -0.001381460395471407 -0.0008341746611201105 -0.001072113828585221 -0.006506928086360121 
0.003180066550146105 -0.0005804339343847535 -0.004838334529582260 -0.0002997128062738444 -0.001139974120201752 -0.0003288996831899682 -0.0007369863616840464 -0.003718311525994654 
0.009030095673083877 -0.001810214278994652 -0.003885100953039671 -0.001085807354632100 -0.002127777916551321 -0.0008517783960493407 -0.001406727041477734 -0.01156596831572745 
0.04809880367394052 -0.02527026469803223 -0.02762518429912239 -0.005067207944416659 -0.01157588764964599 0.01855133216840108 -0.009284097642269076 -0.07370898405803453 
0.002314499278637735 -0.0002064355261056298 -0.001525853255922871 -0.0004376570690665096 -0.001016927441543657 -0.0007018683582114685 -0.0005288861158779703 -0.004454443082754177 
0.004594494694850122 -0.0003945987933737024 -0.001603723295630906 -0.0004618593723768137 -0.0003468490348153238 -0.0002629792974337062 -0.0005405283038301549 -0.007146180754479201 
0.004807646486838854 -0.0002364885838600138 -0.001298205562105255 -0.0003027128659278393 -0.0003176839446831093 -0.0003799814097525981 -0.0002856299308418887 -0.004806437664731175 
0.001206092472815590 -0.0002901487389894982 -0.0006333294145705651 -0.001172612687807119 -0.0009760967348652842 -0.001249205578194283 -0.0009337027780874880 -0.003057219887387824 
0.03248992619741670 -0.0009190329979130755 -0.0003148068195560385 -0.0001338963156625841 -0.0002300655882263118 -0.0006779151957601416 -0.0001740642379653550 -0.04847080311686468 
0.03356585286180089 -0.001561989333206496 -0.0004691481050220514 -0.0002989066160541229 -0.0005487991705227757 -0.0006038944235219708 -0.0003879776483285276 -0.03857340976299997 
0.2575618615526000 -0.03707732153054842 -0.01161278630635730 -0.004055644532548489 -0.006351353878189655 -0.005021723165622037 -0.004886534699658844 -0.2811239477976504 
0.006852088735190094 -0.001120457672081205 -0.001234238970116349 -0.0006062920652708818 -0.001034138789546190 -0.0004475663889673641 -0.0006694800132147339 -0.007716264828450460 
0.01704705497989279 -0.005682603107681336 -0.03104335629545837 -0.001971913234418088 -0.003564342738287379 0.03763516877969134 -0.002519636299612864 -0.03306445002575883 
0.003870745771164526 -0.0007374332687146855 -0.0009989597013414261 -0.0004057404609566426 -0.0007252305545198420 -0.0005098912106362790 -0.0004886182349116175 -0.006672784665920290 
0.002185856693055752 -0.0004850623154515854 -0.001357394762898906 -0.0008417761177901455 -0.0004412849199884664 -0.0002938499995182229 -0.0006125566220181735 -0.003732430041012583 
0.005197583689700545 -0.001184239449792881 -0.0006324542725953065 -0.001014494449761992 -0.0006457506692481757 -0.0003465500838390087 -0.0007062877536868459 -0.005234419276539480 
0.2226022801565246 -0.1369939610440291 0.1376114459381756 -0.003633662371746814 -0.03542955292893878 -0.02323229346906321 -0.005640466363187840 0.07860916132164700 
0.07360260905812640 -0.006919848351462448 -0.008868409063782575 -0.003871166618905930 -0.005141094096630938 -0.005068324427331235 -0.004986152257221780 -0.08066661335353442 
0.006752398709708995 -0.0005133752249015392 -0.001475216742565164 -0.0003487656421263182 -0.0005484495334344839 -0.0004221301914390282 -0.0004247378116250891 -0.006596918674261119 
0.007617582735181211 -0.0004578024740263351 -0.002710058714222055 -0.0007227673627385743 -0.001091029852893385 -0.0007097208440281012 -0.001015450849198463 -0.006729886727886002 
0.007457454472337779 -0.0004548165221605645 -0.004140443945690232 -0.0007563599436375172 -0.001129826408499822 -0.0006278527381281761 -0.0007917505799756773 -0.005190203343572061 
0.009653544478060466 -0.0003816915378139867 -0.0005634084905366127 -0.0003952048310663085 -0.0002855594073245160 -0.0006156648389772447 -0.0004648862862282730 -0.01208111336157499 
0.02768990120896524 -0.04308166483989778 -0.05824781258586215 -0.003532744319535354 -0.006287826808167856 0.1172358144672397 -0.005211764167792027 -0.08886349260297732 
0.1789723816117494 -0.01068516502170866 -0.01062510570794896 -0.003919143706858628 -0.01010646065295418 -0.006974611429410861 -0.01025103997213058 -0.1792208835912131 
0.2030307258517982 -0.01569001265021872 -0.01084914966862757 -0.003955604163896511 -0.008793119867835873 -0.007234245189236080 -0.007816766811918962 -0.2123855374313926 
0.1534014119432716 -0.01006948960186757 -0.004703073139272880 -0.001962811737278019 -0.004111847883468750 -0.003885306808732961 -0.003654268204041628 -0.1570564818017856 
0.1263462764332935 -0.001568050250940347 -0.004682258593607303 -0.001500324779830251 -0.003541004142489273 -0.002928522872854792 -0.003322005165175670 -0.1529987005808045 
0.01011629512189407 -0.001109920051044167 -0.001826312518303452 -0.0007932471635501276 -0.0007968716600933999 -0.001208494479455868 -0.0007831958290971715 -0.01269334192700007 
0.003562349222626208 -0.0006922296902582301 -0.001649139825870650 -0.0005957279239083226 -0.0009585826541784420 -0.0006917436712641215 -0.0007854428502350585 -0.006018573142486128 
0.03164071371318711 0.08367550668041461 -0.09760141136377369 -0.004260747609069244 -0.009598314180641675 -0.01216602715737186 -0.005874159320468915 -0.05871523872057226 
0.06901801487385144 0.2640182702733315 -0.01949019707732870 -0.0006704909234063169 -0.001940263138340015 -0.2290493817919397 -0.001016432208518661 -0.05423998483116543 
-0.01752032577912808 0.05631685156894062 -0.008562034312890831 -0.002174662405702755 -0.001953431831317027 -0.002150745193071907 -0.006044262968095760 -0.003574152220428921 
0.05045925399100217 -0.003622754729992682 -0.005717766830699375 -0.003111670736473469 -0.004993672981970313 -0.004808333285083137 -0.004026815504500758 -0.05327912101727452 
0.002326872890868368 -0.0002644040223992764 -0.001621302030292942 -0.0005808276141814079 -0.0009992253702720034 -0.0006069704099362647 -0.0006906074124861683 -0.003680525395287658 
0.02423860195600116 -0.002394354791085259 -0.004241491266328911 -0.001249435167660014 -0.002005835080908854 -0.001453551719168874 -0.001306274188560833 -0.02412033668874963 
-0.06713060149810712 -0.3620739661331911 -0.09102804905539924 -0.005147707008648784 -0.007077393427736389 -0.01830861192904789 0.6320787924640032 -0.03510135349481566 
-0.03764146634044108 -0.2373058126273342 0.2325347151039024 -0.005155618093587180 -0.009180793169934667 -0.01383357888678360 -0.01872319305625022 -0.04303533320315207 
0.005841833007311024 -0.0006862756825493836 -0.002041420870228293 -0.0005063976068887262 -0.0009680901241240553 -0.0006958600862932261 -0.0008682762029725376 -0.006507800858476505 
-0.002225362627462910 0.03701677245321784 0.04900727692452130 -0.0005167535315330790 -0.001325899834886644 -0.01757667211710804 -0.005703765125827527 -0.02373709309306819 
-0.005231812225572447 0.01524661477164971 0.02780249403747967 -0.0005426112617282111 -0.003752657359138609 -0.01529529068814637 -0.002971900077226085 -0.02911863138105765 
-0.004887725145963407 -0.1443074150856062 0.2813297699200623 -0.0004748541140649898 -0.002758886041294006 -0.04230855080689271 -0.002482953872807091 -0.03111994888662067 
0.004812339364046528 -0.0003525719973687750 -0.001018975712450263 -0.0002987794656721728 -0.0003539753559565148 -0.0003944509469395778 -0.0004660212400485281 -0.006900390623606147 
0.02655920292056144 -0.003517667379274420 -0.003764423525328716 -0.002152934843939235 -0.002632252450405119 -0.002471480510788817 -0.002826691120352515 -0.02989131477473614 
0.003050040564429609 0.2918876510151489 -0.005473457012121370 -0.0005473221521413708 -0.0007176321192806690 -0.2833501501007549 -0.0009409068715728755 -0.007453626350580110 
0.007874388265832578 -0.0007330863660913053 -0.0007991619856702823 -0.0003661206412157941 -0.0005614255019180715 -0.0004736249921831599 -0.0004553179410522688 -0.007539626081412950 
0.01449240825407539 -0.001164477108291049 -0.005051988172808044 -0.0009503547804213503 -0.001841425315581514 -0.001436937677717527 -0.001011121253433744 -0.01733129559782067 
0.007577427704485704 -0.0005507882990492177 -0.001495223723116782 -0.0004075686575437937 -0.0007782731811637898 -0.0007467496081287155 -0.0004303084081073841 -0.008803294246775364 
0.01216110300978001 -0.001098552456547654 -0.001043766010144863 -0.0004363859651556945 -0.001028341105514532 -0.0007022935429231066 -0.0006348222895100667 -0.01238487262614347 
0.01381756574921230 -0.0007161102807107639 -0.001650385177987439 -0.0008538931968135827 -0.0009421803490237475 -0.001167401270162556 -0.0007880116739673203 -0.01591295522902352 
0.005920346901512854 -0.0007490350819675396 -0.001190976240253269 -0.0004558509512280995 -0.001314187749718680 -0.0002460617965161219 -0.0004259617440415995 -0.006866279487759370 
0.1025911294143321 -0.09617314871276056 -0.02468153816323220 -0.08760777054106940 0.4261016320997498 0.03437254902911655 -0.01411606104485003 -0.2265255500188829 
0.03706215347793619 -0.004617991681585680 -0.01160057792969604 -0.004667721105772777 -0.008366365805745350 -0.006434518001981913 -0.005961760020266122 -0.05310780254738286 
-0.01071123437925816 -0.02883371698689372 0.1309798638706954 -0.003720323753300270 -0.002269789963118728 -0.08629317048020750 -0.002806175201334387 -0.02845945345064411 
-0.02264747329848644 -0.06757660748382466 0.2228856339525034 -0.006937599123841723 -0.006005241408065313 -0.1528826799602039 -0.006720508503097388 -0.03877546193881018 
-0.3734250813953740 -0.001126718940299057 -0.001103038184972361 -0.0002024148254018641 -0.0002547662118821425 -0.0002523305874692890 -0.0006781889882361081 0.3832455444738698 
0.006984832935794775 -0.001152249035378941 -0.001579455056567260 -0.0003802067924432761 -0.0008693660694530216 -0.0004611006034029680 -0.001036816128764021 -0.01205996181726132 
0.003386557017031969 -0.0003671226878599656 -0.0005433352070136552 -0.001117257719802146 -0.001162280237211030 -0.0004045328108264475 -0.0004383215951797164 -0.002226714232084853 
0.01001793955669397 -0.002292069830465533 -0.003946713063265800 -0.001335649065827832 -0.002574312368362067 -0.001201383924548743 -0.001714085981097180 -0.01277057801213435 
-0.02482898706589014 -0.06240781550524054 -0.08506439602694908 -0.001200861191335002 0.2064696674783736 0.2059845892793443 -0.002911654164938059 -0.1440808589243407 
0.01135790477723573 -0.0007728843492676854 -0.002228013523735086 -0.0007482175799861985 -0.001403006499590622 -0.001046509676640566 -0.0009283140972169140 -0.01010959140605833 
0.006894385774842115 -0.0007213640018075454 -0.001004719921598229 -0.0005371691543217293 -0.0006192217941153036 -0.0006856918725333494 -0.0004769911138338473 -0.007412645371166990 
0.007302730798855276 -0.0009718091513237540 -0.001148144802904978 -0.0004785748778618655 -0.0007103714246598791 -0.0006420142108895419 -0.0004669484368095923 -0.007267251384322151 
0.005549480412733562 -0.001024553376696029 -0.001059268727906371 -0.0008117837091794681 -0.001000780283103209 -0.001156832991399059 -0.0007287427883075060 -0.006909556648841660 
0.005056466001649124 -0.0008755357090124435 -0.001549325926384680 -0.0008945854584612649 -0.001040806816281603 -0.001487782957567978 -0.0007045543707241641 -0.005661262543791369 
0.01214337185110052 -0.002220825320755008 -0.001189964944776239 -0.001084290280424648 -0.0009242841189644503 -0.001138203669733727 -0.001054870066337005 -0.01151161513461637 
0.03392664427691407 -0.003909107018769369 -0.004546435196039904 -0.002066045295517378 -0.003107364253274354 -0.005039431305805132 -0.002627178912620095 -0.03567731982824899 
0.006833232257921613 -0.001089142978327724 -0.003991496693396364 -0.001350867346376841 -0.001944604917885167 -0.005444057918437037 -0.001300297212961326 -0.009680728286596630 
-0.04374997482718838 0.1451904579742173 -0.03913205526542866 -0.003171857315745572 -0.008742422087052433 -0.03881735335175668 -0.008573877502037110 -0.1179582472947857 
0.1207952139700977 -0.0003678564638773280 -0.001096487000583778 -0.0007903008400237384 -0.001202732731934759 -0.001294311648485562 -0.001428470475783659 -0.1270430974935045 
0.04133890826535877 -0.006779744119374292 -0.008326536238825726 -0.003228301753056673 -0.006025150477388992 -0.003025708881030683 -0.003958347698439910 -0.04345242744601510 
0.03641234797688173 -0.006763696293880956 -0.006204389396144659 -0.002971234261529646 -0.006445952518023799 -0.002534874041819374 -0.003093503447120425 -0.04698038253002745 
0.002758031082788130 -0.0001868943280472203 -0.001075889245889590 -0.0003774494788498316 -0.0005351024314079148 -0.0005780268831587600 -0.0004949595854714830 -0.003200232580084595 
0.001227078859401964 -0.0001503057272620820 -0.0007520744034885733 -0.0003075589580609702 -0.0007499587150971926 -0.0002873108252661514 -0.0003852134914849030 -0.002133460797609995 
0.001227078859401964 -0.0001503057272620820 -0.0007520744034885733 -0.0003075589580609702 -0.0007499587150971926 -0.0002873108252661514 -0.0003852134914849030 -0.002133460797609995 
0.004766876483274865 -0.0002594206681108264 -0.0006778593602341892 -0.0004355307396780615 -0.0004595035554589695 -0.0003585407941694482 -0.0003151367723192526 -0.004086277303643800 
0.08251043445498912 -0.004420495230433384 -0.09146279136095438 -0.001473879600478665 -0.009011349377905892 0.01515521079919085 -0.001957577478571263 -0.1075429745199107 
0.004071244805820517 -0.005015023777270353 -0.07740549995877373 -0.0006621334355641073 -0.001650837353701990 0.03508450067912731 -0.001104793828613498 -0.006023010624816407 
0.004956314872112861 -0.0007283010068048282 -0.0008451958769406889 -0.0005174234141059904 -0.0007430511791282199 -0.0005694304395048111 -0.001052154612211026 -0.007378140987714524 
0.01322187373835876 0.05759221869819918 -0.01769922788265746 -0.002092331827911712 -0.002443030984010176 -0.01997382172859501 -0.002875608055989104 -0.02852292360767022 
0.009483430206542400 -0.001504705388430561 -0.001994022504243524 -0.001270532122757321 -0.001746062366120520 -0.001282461051783886 -0.002124566001850816 -0.01407070633115627 
0.002854677126416115 -0.0006214146201097045 -0.001304688673265273 -0.001468665676685734 -0.001005659209697343 -0.0007430530193050493 -0.001426636753772375 -0.006612895009251570 
0.1350067731458015 0.1207503010319928 -0.1893739311019151 -0.006202367857219895 -0.003748885350068473 -0.04077876831749634 -0.005138751389188541 -0.05854344873856256 
0.1135018535276204 -0.4143281739949712 0.4159949011487832 -0.009653378593202660 -0.003747120128284864 -0.04537972184636300 -0.007884128511236630 -0.04174889339438633 
-0.03918403300928836 0.1159389133290504 0.3648454736804168 -0.009282109938748466 -0.006887614665205102 -0.3345189831249338 -0.005408454317953662 -0.1338376851665446 
0.01446038308299658 -0.002061664668685878 -0.001376486585460001 -0.0006568596731311590 -0.0006221045342341582 -0.0009515131453187401 -0.0004911333461234026 -0.006151467178278481 
0.01584802672903656 -0.001529211510520116 -0.001499086672870741 -0.0006643710553148719 -0.0006335870419247009 -0.0009153053256645644 -0.0004906937231992225 -0.006708941776144194 
0.0004525730649793654 -0.0002311572597186998 -0.001209895704090891 -0.001300892678469920 -0.0009956356478815118 -0.0003137818496493030 -0.0009341293565051006 -0.001044485618082708 
0.005843591967293921 0.02681458960067425 -0.003135594315838023 -0.008861500903706840 -0.003899868007585599 -0.01387072171816130 -0.009721502997128139 -0.01477362978649868 
0.005288040646569677 -0.0008768788257723107 -0.0008875320374537668 -0.0003726847773061678 -0.0004296162351187952 -0.0004727859222137791 -0.0003753846302740527 -0.007503993970035389 
0.004745262188244673 -0.0008551443563521899 -0.002069898144244444 -0.0007222117175978300 -0.001617974422748767 -0.0008477716407894925 -0.001248854188633566 -0.006364066734203342 
0.003424506191330377 -0.0007336653954824080 -0.007115585717085811 -0.0003326463268060775 -0.001292210816916860 -0.0002963677713707799 -0.0008179446628097680 -0.003722064647318308 
0.05109838084392819 -0.005939343607792158 -0.01342223527039018 -0.002026335007126787 -0.005195360161046454 -0.003306799470339920 -0.003775405984445469 -0.05477733524556988 
0.01302036143878078 -0.0009285747862049850 -0.002706007505416107 -0.001489334540803968 -0.001174993368401784 -0.002260003330453763 -0.001536797457917159 -0.01427987011921411 
0.003289797987988576 -0.0007005606241258953 -0.001269487697676560 -0.0005359935616175996 -0.001261031540593882 -0.0004493836889837993 -0.0007493376419379965 -0.004358133062593822 
0.005619759601934983 -0.0004351689140316648 -0.0006061197780594012 -0.0003995689917943239 -0.0004129296351859786 -0.0005010534648450870 -0.0003861217039182147 -0.007509427772768767 
0.001294602670298262 -0.08202961826958848 -0.01809950262888516 -0.0005576631390868734 -0.001049658124372600 0.07477798622802259 -0.0005969701303820790 -0.005396184020079576 
-0.004685259855660610 -0.04042431963732922 -0.02259515245681529 -0.0005998630684536820 -0.002355117821167981 0.08957371173529184 -0.0005665076942548463 -0.003888656992235222 
-0.01172116988632994 -0.1187533325025082 -0.04039536424879953 -0.0006008858673514694 -0.003014628462207113 0.1647317884181438 -0.0005537789641632983 -0.005801318690647277 
0.02077342321753622 -0.04363179707984105 0.1159374872454473 -0.001026563981981892 -0.002108730488307109 -0.04120898904379849 -0.001462468309667931 -0.02415766042259944 
0.05263661586979540 0.006671842715081948 -0.03377221071774839 -0.002134808669062455 -0.004777368593441246 -0.001864889318667883 -0.002930798199614490 -0.08184766328332502 
0.04099028351251972 0.003522022351053123 -0.002985947385774691 -0.0006015423291054830 -0.001426510089649719 -0.0006483604417038517 -0.001443252926836783 -0.05210744900464442 
0.03294890270001325 0.006188351843967329 -0.008743793727868610 -0.0006607078742826668 -0.002112073140915116 -0.0007243625681533511 -0.001877392131263488 -0.04265481552281340 
0.01932649512131351 -0.002870202556282620 -0.004737200509322628 -0.002281544388540154 -0.004367161962019770 -0.002691909420113630 -0.003104337018591064 -0.02926494771002786 
0.008008218828231582 -0.002234009801505974 -0.001384312100660736 -0.0005780053331245515 -0.001277584722510516 -0.0004330267606888140 -0.0008585670586327915 -0.008617783910210133 
0.008626752752206276 -0.1766896006191202 0.1647192293223692 -0.006068923387335223 -0.001614677231652814 -0.0009336751705397356 -0.001561649385976101 -0.008809042456159748 
0.001702292851896332 -0.3753433145838934 0.3459183924949518 -0.006541047149401066 -0.001724762891831246 -0.0007763523990151678 -0.001397594333103598 -0.009112402682834090 
0.006776076568816026 -0.0005579654940695695 -0.0009747031325930719 -0.0006778704697071565 -0.0007572629297223070 -0.001271428656744570 -0.0008927194543232229 -0.008162023920403712 
0.01355632430502866 -0.0007355305009629702 -0.001428376274097674 -0.0005746308973401879 -0.0008074633731421174 -0.0006405271683485135 -0.0006989023071720987 -0.009534206389326802 
0.008814897232009837 -0.0005154579791406867 -0.001657814372248632 -0.0004560771662505238 -0.0008221191340213397 -0.0008230684691839731 -0.0005543150763708306 -0.009018906597482060 
-0.06102491227362341 -0.01191318196308352 -0.009333653255910403 0.1067647815852808 -0.01514705955358185 -0.01406748923357509 -0.01705255445653919 -0.1089964159074731 
-0.06102491227362341 -0.01191318196308352 -0.009333653255910403 0.1067647815852808 -0.01514705955358185 -0.01406748923357509 -0.01705255445653919 -0.1089964159074731 
0.01144613752042049 -0.001259617955534142 -0.001016842179119862 -0.0004641041860191849 -0.0006524836500684420 -0.0007211995145767519 -0.0007989656264939325 -0.01086511244559950 
0.01999357545002240 -0.001242462309532182 -0.001129222069480369 -0.0005156525334181852 -0.001326973298836109 -0.001122592295334770 -0.001084155015661246 -0.01414603305517272 
-0.1196528368140093 0.06856322632934268 0.4764997793004497 -0.01708786098728401 -0.03051734121512977 -0.3457646159629157 -0.02025116746708195 -0.1259832060496703 
-0.01100638136418050 -0.01117353922554920 0.1343706389850435 -0.0006548457133691326 -0.002404634377674155 -0.09647111841930311 -0.001325095163582988 -0.05937727367046647 
0.003227384828152779 -0.0005677170003955390 -0.0005290348920020532 -0.0004111554807854450 -0.0009230070419748754 -0.001148659994695061 -0.0005347571041506526 -0.006311047914025893 
0.002468327215195887 -0.0008113314200586356 -0.001549180363185384 -0.0007315745161636567 -0.001710364073802376 -0.0006176683342269645 -0.001101251708516443 -0.005920624910877691 
0.007864795992306585 0.1520343171372899 -0.09530982196287792 -0.001964801589820033 -0.003246718149447283 -0.02127036773194326 -0.003379596484395305 -0.07242028825018030 
-0.005236803001304453 0.1341029518055133 -0.08547494525401984 -0.0003889494004184785 -0.002596287815099601 -0.01590957351240189 -0.001099440747217634 -0.06382565970755438 
0.004477537473352028 -0.0004959352475683386 -0.0008996939849735566 -0.0008250950544931029 -0.001175702712360150 -0.001001727857737376 -0.001195087431757150 -0.005719691243751955 
0.005948529868827174 -0.0004160276434215754 -0.001136825357979337 -0.0004003774450074635 -0.0006240748656935339 -0.0006583245496425803 -0.0003915718796494492 -0.004738113218761015 
0.008783422697136996 -0.0006532854154634799 -0.003732545352342094 -0.0005269703017732368 -0.0006934596558093306 -0.0005669947253186395 -0.0004467366176269399 -0.007802668928130847 
0.003728623477719172 -0.0004444133953037528 -0.0008586903016727693 -0.0004170486013908126 -0.0004486479019149913 -0.0001287411736434959 -0.0003112953176863594 -0.003271278865354515 
0.01715350476964027 -0.009343110098964847 -0.007889579251622812 -0.0003803436710855659 -0.001364998658629630 0.02274065243101070 -0.0006961111922538607 -0.04515445605622942 
0.01255573641725212 -0.001082618485157248 -0.002308599577765461 -0.001545506542589784 -0.002585684259404628 -0.002273686918435451 -0.001662241910521370 -0.01262361024141946 
0.005883279463484937 -0.07093445199172291 0.2256355881200951 -0.003257611919303672 -0.005903461323897133 -0.06121657214529011 -0.003191014396181072 -0.03432533344853998 
-0.03591129010182920 -0.04195779830296210 0.07506530890903107 0.2355849130446545 -0.009608006378330758 -0.06329325501093654 -0.01320595184128615 -0.2275809125725769 
-0.02048857446833339 -0.07154832908293068 0.09926005448386832 0.2619683308145723 -0.004234129952635593 -0.04297158721426699 -0.003671265059808794 -0.1251556561480408 
-0.02241245820351718 -0.09685180002538442 0.1638623967007488 0.1554737801829836 -0.005259272688214637 -0.03552494548680275 -0.004080296730595515 -0.07404208037745405 
-0.01558717021215964 -0.05841844347151025 0.1305043842155236 -0.001506244265837602 -0.001670209572820885 -0.03681770962813649 -0.001797350279614361 -0.01906140780575234 
-0.007508698430177444 -0.04614222654609107 0.09505815161383441 -0.0007781404198638705 -0.001452803224175828 -0.02472710269134139 -0.0009658777822667726 -0.01575250576370214 
-0.007028405305049999 -0.03934041484997392 0.08297654532686166 -0.0009107558651297461 -0.001421161533463951 -0.02556586548928291 -0.0009472345481538989 -0.01244116316133390 
-0.01192444897213027 -0.01748849369204837 0.05698077643246673 -0.001010511639698324 -0.001717723678414791 -0.03605259616518821 -0.001037241358721072 -0.02001257017265292 
-0.009836592437232050 0.2740700604634376 -0.03738742578498368 -0.009042643285202209 -0.004454773724841052 -0.008620637947067009 -0.006600791446045383 -0.04234453825447686 
-0.03099848611639344 0.09996430805936177 -0.01697860217497457 -0.01172574553296764 -0.2156700932553474 -0.01943552159129274 -0.01650396002312143 0.1285473944639859 
-0.02001228274850280 0.1337978005073844 -0.03541666800787927 0.1577067984806927 -0.004154887324468239 -0.008393864265774490 -0.006778036291643069 -0.1905229869700346 
-0.01105659274389624 -0.02519100872692228 -0.008742934563535708 0.3864376917610111 -0.003460547295033490 -0.009198102442757778 -0.003230361788427028 -0.2467092113036621 
-0.05249532178822738 -0.03817167661059374 -0.01468770293892785 0.1557894162051286 -0.2150865871352299 -0.01865714344005369 -0.01634657868713399 -0.008781204523842963 
0.02506248262617337 0.05849380866529315 -0.02450503466582185 -0.0005449824649668390 -0.0009248756795429977 -0.002782917183008805 -0.001245222434149149 -0.01394990871150668 
0.01688126702061603 0.08578791105656447 -0.02647173228066303 -0.0004902324503319837 -0.0009706791823095473 -0.002881735288997573 -0.001370535377214369 -0.01877032193468848 
0.001981608706920778 0.09006953639614367 -0.04401237820287019 -0.0006982824551791062 -0.003258571337083638 -0.004065946661975317 -0.002759635650159763 -0.01267088008344095 
-0.06221528065503679 0.3368759294474368 -0.1445662376904507 -0.01001403073495479 -0.01255268708726995 -0.01793467962159275 -0.02394120963401964 -0.01131349398935190 
-0.09467547985538155 -0.02414069092917559 -0.01809238285223442 -0.08855383421201400 0.6432428402263450 -0.04127611532987695 -0.01398763902935357 -0.2438087349061902 
0.0004596757564233796 -0.0002375979139097751 -0.0007683633432186576 -0.001035125335697380 -0.001824017459582468 -0.001216504615170988 -0.001284117848405562 -0.001885420164811008 
0.1773139913849721 0.005148805893980946 -0.0008362868249360165 -0.0003211675977499728 -0.0007000521626144092 -0.001187448309519293 -0.0004059364053514415 -0.2368003042756278 
0.006180663964440810 -0.002182556215567373 -0.0009956324797721560 -0.0004185239440144199 -0.0008018762764248478 -0.0002195193808863738 -0.0003011771770415896 -0.005524464047151241 
0.008023614328884836 -0.0003689264136715798 -0.001600313337929540 -0.001101606444148906 -0.001316253459765144 -0.001736832294632442 -0.001633566938791816 -0.005477941997608911 
0.006649575170544684 -0.0006890407277504199 -0.001166047092563669 -0.0006535572338470729 -0.0008310345248894432 -0.0009686435685878691 -0.0007624424335769822 -0.006532460543611199 
0.006464203496825998 -0.0004878219503679305 -0.002283786831121793 -0.0006848830806872907 -0.0009078694861444214 -0.001147086841160233 -0.0007469337100936608 -0.004971325636515719 
0.07624375873611226 -0.008490731325535539 -0.006460240822527140 -0.003112880601928794 -0.003820446398830577 -0.002673846540873960 -0.002918384724351049 -0.05863325678663071 
0.004574837512355590 -0.0003709301339823684 -0.0005611972206021477 -0.0002536549565490586 -0.0003277748538569917 -0.0002921263092676435 -0.0003296279650921791 -0.006612866498635158 
