solver_type L2R_LR_DUAL
nr_class 8
label 8 5 2 6 7 1 4 0
nr_feature 2458
bias 0.000000000000000
w
0.005521092167767653 -0.001420828489151678 -0.003875249362042949 -0.009887955363050479 -0.008542264464336277 -0.008157598547750878 -0.004969205650834219 -0.01032500350343395 
0.1976886647309382 0.2856464757057859 -0.2613188380961147 -0.03371771017840586 -0.04745938778930271 -0.06168148998223136 -0.03694475023969196 -0.1374671073303351 
0.3152124877872010 0.4410104727079949 -0.3924190024303988 -0.09402437660892024 0.06768540019334585 -0.3572866782489666 -0.1297868062239733 -0.2990225657045376 
-0.4722385035899356 0.2794652657672309 -0.2318758323074500 0.1625911205538433 0.1491582611815658 -0.5592001775959456 -0.1667577904239899 0.1800252279309182 
-0.09010907711712170 0.5189605319588614 -0.05698710149886354 -0.01635268952926332 -0.008127148434756528 -0.01640094935541580 -0.02715699322575122 -0.5296097435225320 
-0.05982457887612534 -0.3065575640473876 0.08449522103219162 -0.01287774561428195 -0.01668086815173946 0.1588598830170482 -0.02866789658823173 0.09979987840176295 
-0.02815608696907406 -0.01697046686659796 0.06041818838086291 -0.03141374727128325 -0.1595012412423040 -0.03113726872277981 -0.05013142618763122 0.09926563483154305 
0.007480547911794476 -0.0007627351674022941 -0.001258111586680785 -0.0004853935852655707 -0.0008350553400717231 -0.0004546859937137306 -0.0005885334880873604 -0.008092799318144866 
0.007689299625493662 -0.0007870716570234735 -0.001499158219273871 -0.0003123950561363731 -0.0005710597995902615 -0.0003871316537047589 -0.0004400344907214802 -0.009834546774368551 
0.04294276566061995 -0.01002683622355673 -0.01365959803057595 -0.04335136414303694 -0.01007066623116060 -0.03034680507270996 -0.01667636243278888 -0.01238907374636048 
0.07326419579505071 -0.09266480985309836 0.1434267696507670 -0.04242735523246222 -0.01857928787747641 -0.08125474994403291 -0.02127922210598107 -0.04455039491915273 
0.03646586871149138 -0.01164500798677350 -0.01110721578889464 -0.02666810905058996 -0.006690019683844166 -0.02057278254140543 -0.009991443177324436 -0.01042279025522701 
0.03562906194616385 -0.01208861444806702 -0.01270175535273202 -0.02691717386946590 -0.007910739346265470 -0.01947332972020193 -0.01125381289103060 -0.01139398025550760 
0.04583969397218730 -0.01022381990672445 -0.02222218876457677 -0.03121831923561253 -0.009349285861136302 -0.01765442143208834 -0.01035479649655948 -0.01102979699832643 
0.5325515333579230 0.3110245493296144 -0.3082817175588218 -0.05468976578464302 -0.08215511111224731 -0.1082659367155864 -0.07863867054150435 -0.4945461640115216 
0.2631845663122795 0.009433276730102691 -0.1489386766308504 -0.1232170876654236 -0.1077091697724747 -0.1401094817489823 -0.1391905959484016 -0.1065275753221659 
-0.01096559931678840 0.5603933431057890 -0.3016932172760209 -0.01486269176124781 -0.01460460822165460 -0.1536773131789117 -0.01025753107628013 -0.08501910684093546 
-0.007367766938505370 0.1032216800626306 -0.1020080790146199 -0.0003615813572704069 -0.002375729813413293 -0.02562195700366403 -0.001755900372393090 -0.004521567699976758 
-0.03412135561556292 0.1471557936700444 -0.1986562296320458 -0.001853349005835811 -0.01351655124574981 -0.04130974097203620 -0.003920244529113017 0.1136871574745854 
-0.001740522518865789 0.1303710577835689 -0.08297063145533282 -0.0004109209304681494 -0.002910373439339354 -0.01837175292759636 -0.0009182120822852903 -0.02928599619168780 
-0.007950282336765410 0.1722703313574842 -0.08478967593284713 -0.0006383471677867684 -0.003667599309397913 -0.04309598962400135 -0.001604937801521038 -0.06524115195936618 
-0.002305119808666521 0.1080014104213496 -0.05443648688174628 -0.0001065408392447037 -0.001769895949915585 -0.005147845673218591 -0.0004732141437225262 -0.03719900361813756 
0.002458020463670368 -0.0007243000679054530 -0.001048551116103798 -0.0006440453695067446 -0.0008988699044392629 -0.0009372237511266194 -0.0006506893581920918 -0.003813398806988692 
0.02968035718377711 0.04702039160628116 -0.01282454176514865 -0.001421201718599765 -0.001785950513638311 -0.003034856671590775 -0.001677569212254319 -0.01984825467141202 
0.3112690105897862 0.2701093621188134 -0.3145907317342414 -0.02336667908483603 -0.05630772530849292 -0.1232868250614927 -0.03453026901000988 -0.1599713983587573 
-0.09054476960016059 0.7061550335492888 -0.7025075098758672 -0.01035078242413743 -0.03088233170751036 -0.1015171202822105 -0.02438573318972613 -0.1574837407103180 
-0.01052546337302221 -0.1742400053022304 -0.03896373881876756 -0.006547374752930724 -0.003457073305351372 -0.05448645059607772 -0.007654706962370448 0.2601856921249515 
0.4158925801368523 -0.2581450609693013 0.1294084813057121 -0.01555066836814529 -0.01669870260844399 0.09475823036944905 -0.02111728926745209 -0.4020125817793380 
0.2628248785804822 0.002358945237223489 -0.003065266494222893 -0.002118435231933192 -0.002161486645958501 -0.01338567350952973 -0.002552923918931191 -0.2150850407817052 
-0.002825949618137522 -0.3804516924724269 -0.01474811468864154 -0.001771267667540491 -0.005732743545883647 -0.04127031186977247 -0.005582049855922044 0.4176136461224299 
-0.1511286815103980 0.007114339170938393 -0.001000419584631185 -0.0005976333241755625 -0.0006739415212066361 -0.002948486609652902 -0.001135106938839932 0.2094702709362617 
-0.1697719957055004 0.005745514058170901 -0.0009030158359521735 -0.0006164352007727370 -0.0004501452132009236 -0.005137396769310323 -0.001056116987688678 0.1999613399741197 
0.04250629167196700 -0.003985417005351963 -0.001277832671469428 -0.0006711775024858586 -0.0007712875521250451 -0.001077451775025072 -0.001205198244199176 -0.05418473467899214 
0.01581649727736751 -0.05569696421787430 -0.006853018812249655 -0.001184746190671519 -0.002949175202925103 0.02497551410571664 -0.002561324719619192 -0.01727634196773710 
0.004882195997456533 -0.0006740351094402197 -0.0005263551157511598 -0.0002616267574412420 -0.0003232993407392214 -0.0006612993346622568 -0.0002712816196101364 -0.001574499187637374 
-0.6165640125190830 -0.2295697221770714 -0.3597682957877421 -0.1276253802906233 -0.2372975115495188 0.2958732788846396 -0.1665350368455097 0.8148695261075696 
0.01979620874524174 -0.1588751122554255 0.1225019957579544 -0.0008136399158600906 -0.0009661548339041125 -0.002342744739560435 -0.001007883507783335 -0.02467410653119692 
0.01687484145582067 -0.09942179766552389 0.09150135268540262 -0.0008564429575468875 -0.001164553408531972 -0.003005265738826586 -0.001087918850217897 -0.02792000936653206 
0.01291283421264558 -0.1199990235562943 0.08763144634230630 -0.0007120317712099478 -0.001370974105009681 -0.002964088677689279 -0.001372963793534089 -0.02841773437948578 
-0.003123588957436052 -0.1167273684213063 0.1274670770990921 -0.001015496842916528 -0.002436337518780434 -0.009339322379473887 -0.001844553655708545 -0.02494904754814994 
-0.08084944124346054 -0.1681118709574597 0.2307445237520027 -0.001517208024364653 -0.003939673590467830 -0.03661511450555374 -0.002570625548518799 -0.06898263765387310 
0.01209105608995009 -0.0006823543803583690 -0.0002639215719388026 -0.0002619287271615805 -0.0003716966753763499 -0.0001302038292350511 -0.0001768970219834639 -0.01214229176349554 
0.01209105608995009 -0.0006823543803583690 -0.0002639215719388026 -0.0002619287271615805 -0.0003716966753763499 -0.0001302038292350511 -0.0001768970219834639 -0.01214229176349554 
-0.1013333735076232 0.3707439567414808 -0.3016047834078512 -0.02013111536063908 -0.02186042426702612 0.1398032141620902 -0.05451807740587424 -0.1164065208798948 
0.01282046487108509 0.05811203325684878 -0.004848902617784930 -0.0006722644261186639 -0.0007318316241465642 -0.01866464809810704 -0.001161849850924941 -0.06944653353794966 
0.005126101768175594 0.03512998642658948 -0.009521375696667313 -0.0008416029264056790 -0.0007174433460533705 -0.01544887046889621 -0.001153056702513951 -0.02497053700531655 
0.004768317241836659 0.04506810931138661 -0.02356157193255559 -0.001276414513422555 -0.001519957225379922 -0.02526528563848043 -0.002043155841049503 -0.02276034547577457 
-0.03260213768785275 0.3228020080418531 -0.08393382235736316 -0.001541290671243777 -0.001312381636289020 -0.05293683425959343 -0.005582713131086645 -0.05497196776140489 
-0.003269338382638772 0.04771740771457458 -0.008691714981231108 -0.0001654928868123341 -0.0004020869012378654 -0.02171534370966123 -0.0005225186279844533 -0.02417207318838652 
-0.003604350605805911 0.04146645446138374 -0.008551693879990753 -0.0001647901762943943 -0.0004000711001387012 -0.02094617037671848 -0.0005196277961072472 -0.01980831986755507 
0.06249622170250455 -0.07908433465849465 -0.2600465119507697 -0.01077340393008771 -0.007126753746009632 0.2723879401938148 -0.007241255377538714 -0.1085985228942301 
0.006642478814451031 -0.0008595218907191402 -0.0009150045515443649 -0.0003760046120497324 -0.0005171294464599861 -0.0004042986300618200 -0.0005667864164046531 -0.007205066002463920 
0.005299495629611451 -0.0008131700706612149 -0.001110644245172039 -0.0003842479518168923 -0.0008490380839093261 -0.0004480566744352519 -0.0008031606845124343 -0.007968829991345058 
0.02674239561287617 -0.008228299316501977 -0.01906984071701796 -0.001842786427586234 -0.004367239775639787 0.01712613635748103 -0.002435025199320151 -0.03466561133812993 
-0.002886297066113789 0.06043477359840544 -0.09670858633128503 -0.001451201537452009 -0.002672132532218037 -0.004813527643713592 -0.001611003120526775 -0.03816577857344589 
-0.5044387793621623 0.1860834318590143 -0.7916068945327158 -0.1094292294868815 -0.1856101024803989 1.086278276893031 -0.1616750100514770 -0.7796099806514609 
-0.0003195283088018329 0.01681605334393837 -0.02779430122626554 -0.0002692010475824216 -0.0006174578929792350 -0.001389710148438748 -0.0001259218621161613 -0.01967091487659839 
-0.0002052217759424573 0.01496863791220038 -0.01797218916291059 -0.0001341597571644397 -0.0005735027080469751 -0.001280291218501808 -8.642840713106427e-05 -0.01981994083811689 
-0.0006444223809430314 0.008138236974485541 -0.01576750166165052 -5.010973396396243e-05 -0.0005042016798717675 -0.0001918078935653702 -6.448993939433447e-05 -0.01336350246214024 
-0.3870346882223831 0.9431528382207691 -0.1758554706309058 -0.04405773038896380 -0.07122433497061050 -0.2993722112705329 -0.1164823656821321 -0.1378130285874011 
-0.003254487632499266 0.05136120895220171 -0.03648023831627263 -0.0002390157913317833 -0.002193844327949970 -0.003725399961753537 -0.0006561615287239654 -0.004157454920775375 
-0.002024721020688754 0.04232358551661515 -0.02311791591445435 -0.0001207141757968016 -0.002013242874870995 -0.003341589754762526 -0.0004533523564088193 -0.004131936242836911 
-0.002072183608443292 0.03871222482163533 -0.02264101203060940 -0.0001208636708804004 -0.002015183990918271 -0.003266416180179179 -0.0004534715570705469 -0.004172148308258209 
-0.001291452712117352 0.01973693238255698 -0.01230266256839115 -0.0001108797597325821 -0.001150907088737284 -0.002243465226383642 -0.0003120105053888015 -0.005066376968577027 
-0.002156624605457540 0.03583690074867153 -0.01417519819541049 -0.0001260645269718084 -0.001412278481236722 -0.002557849783862407 -0.0003454645729732969 -0.009133558150200413 
-0.2763029952177754 0.4957512795184482 -0.3190594347217288 -0.02712277255041005 -0.05044759760091551 -0.2514942874743820 -0.04193246850334624 0.001037090805114804 
0.3638500467375379 -0.01534284664569179 -0.07830640565091318 -0.01626634137200119 -0.02433433953399633 0.07917389248233646 -0.02484649125219211 -0.3610069100299722 
0.2623966622448145 0.5419150395262484 0.2039592583811478 -0.02824175749736582 -0.04450258572520031 -0.8709237094402120 -0.03657766465328093 -0.2154867293037087 
0.01252599021899420 -0.002861438581331180 -0.002297326365302109 -0.001530770105458645 -0.002142138164252435 -0.001247314146202571 -0.001613532472920690 -0.01847014387157271 
0.1238106684308814 -0.01078019578343421 -0.01160131647469785 -0.004654697831676866 -0.007910275278975264 -0.006226182546607532 -0.005462859438028766 -0.1024944926199392 
0.02193222384979384 -0.005680028945840630 -0.01309364357516736 -0.001092148672956079 -0.002341611906320414 -0.0009598494998767322 -0.002623464558947202 -0.02090292718989354 
0.1314859756669409 -0.004135062056439862 -0.01149050127886339 -0.003006164858029715 -0.004859867627795212 -0.003625716660822396 -0.004302001508369804 -0.1877673513601529 
0.007729659699941295 -0.0009581227444171636 -0.003777265354035222 -0.0002970427744882626 -0.0005736931537168069 -0.0003373593193047137 -0.0005470679799422425 -0.005432185982331769 
0.1673401561320314 -0.1077925640094687 0.3145844426653133 -0.03791428855732262 0.1985922801134379 -0.2294068175642560 -0.04724246237227023 -0.4920853850646281 
-0.1857877813939464 0.6197924542066552 -0.2048309741247944 -0.01061534973809722 -0.02925076153557046 -0.02064603334511036 -0.02236957418380399 -0.1218789673689935 
0.01060180962118661 0.2461073835471468 -0.01619843199370481 -0.01712235531023633 -0.004779335539676070 -0.01197351752210418 -0.02330205788039123 -0.1064569640547470 
0.01536950146061502 0.03665098325504639 -0.006436262573456321 -0.0008575090669630595 -0.001356207517673335 -0.0005196133969209520 -0.003686577274728838 -0.04699903624778783 
0.02978136009529051 0.02764756393287331 -0.01366864221209081 -0.0009692145708910072 -0.001783773033115662 -0.0007218485465791425 -0.003747493167732718 -0.04697705151022116 
0.01664350521539228 -0.002599888128201613 -0.002690384314691403 -0.0002324675606508438 -0.0001864176293131461 -0.0001598522729579579 -0.0002125050911825828 -0.01144299884408009 
0.1397670956400790 -0.005797993338888992 0.1004017525806464 -0.009034957357887055 -0.01991312325340612 -0.04542730926007826 -0.01792213297386160 -0.2228202750472477 
0.07795486463580108 -0.02499886273006658 -0.01388542681974991 -0.004352904531487979 -0.007719369198176087 -0.005953768387759405 -0.005718533787727055 -0.08212740216270002 
0.003439987050457661 -0.0004905305537031552 -0.001657479474225725 -0.001028026314739148 -0.001706798160177116 -0.001079755895122190 -0.001508941031067860 -0.005509604994005012 
0.004650021294018889 -0.0004680175181602267 -0.002160770983758126 -0.0006085631310545248 -0.001356660136048482 -0.0005211596028295610 -0.0007298048546772482 -0.005474554171334689 
-0.02677968119336100 0.01625849835925350 -0.005653093024623183 -0.009834788830512274 -0.002758523247728676 -0.0007809135379280317 -0.02365796051259434 -0.001812274222834036 
-0.02978242417405304 0.1840903723211587 -0.1622342268318612 -0.01243126943514357 -0.005070704254514720 -0.05426690029956226 -0.02637151472692313 -0.006650510548433620 
-0.003002742980692043 0.1678318739619053 -0.1565811338072380 -0.002596480604631297 -0.002312181006786044 -0.05348598676163423 -0.002713554214328785 -0.004838236325599583 
-0.001459004733398682 -0.06705912396472348 0.06927071161279738 -0.0008693004437209731 -0.002094190268853926 -0.01895339030942542 -0.001180234687544382 -0.007461705428760645 
0.006316757444156407 -0.2220437395591993 0.1494499685546942 -0.0009220205604932650 -0.001729406980273162 -0.003144869432384272 -0.001261229207560470 -0.01090200775902741 
-0.005202961180326035 -0.4671962125495918 0.3469100474366267 -0.0002732358410025190 -0.002144782634974508 -0.006687832315301513 -0.0009761647289596021 -0.009905582585516153 
-0.4900833949435279 -1.122716779175516 -0.3451676047446712 0.1182863084075194 0.007198093879575060 -0.1984985999467899 -0.1593731006746442 0.4168313492645303 
-0.02220500987349617 -0.007378762967608836 -0.01332649253364249 0.3588188021363797 -0.008964831555847652 -0.005262828959345589 -0.01034077717961077 -0.3888894589308539 
-0.01887639583839844 0.03612385356519526 -0.004514144621125519 -0.001935393721713655 -0.002815629050670395 -0.002636248554223627 -0.01972567985161350 -0.008001709192471274 
-0.1591564240041620 0.1727478266607744 -0.1555083006043201 -0.01612807617069588 -0.02663463660136803 -0.06031340975051940 -0.03083429167103625 0.1913458151035628 
0.006730681248603735 0.02711159061165911 -0.02463841151475135 -0.001562793710580611 -0.003632301428948248 -0.001766465332862723 -0.01615529827719898 -0.01132513039599665 
0.06057073982233029 -0.1689809817653072 -0.02131258026384857 -0.005287812800827000 -0.007407934875819933 -0.007700538739809642 -0.01420052323545317 0.08481587951288126 
0.006921080578031588 0.03734977197240633 -0.008436403983434723 -0.001581576739222694 -0.004472790678869537 -0.004055206545206448 -0.004264089807499003 -0.01312287658339669 
-0.01934443932497415 0.08495267801785383 -0.04732167422759225 -0.002465192510330009 -0.007676222788602122 -0.005018137772571271 -0.006679988978421183 -0.007973572930606047 
0.005608519791498877 -0.0006848996519993469 -0.0009022978363025435 -0.0006249819628325944 -0.001077234378006810 -0.0009452239480150513 -0.0008907516675176440 -0.007626772931778228 
-0.07091876506376800 0.2364515062826786 -0.05723023621475729 -0.03636905988698008 -0.07097935105501225 -0.4140434505382855 -0.05301961600659498 0.2663219806047870 
0.1274401435164469 -0.09158584451524159 -0.03453501615051807 -0.003593804511440426 -0.005811469505212005 0.1035939401747050 -0.004728073586135901 -0.1165106740729454 
0.07968296104670237 0.1601495472216911 -0.2166359474113648 -0.003411094237427082 -0.003643578684792499 -0.007663368528926924 -0.006377862730067471 -0.1427963968266146 
0.06268890208619216 0.1453755835015208 -0.08504878936557173 -0.0006546590451220665 -0.008280569194950268 -0.005333966947594591 -0.003055690225985164 -0.1055037300172537 
-0.01559648504627233 0.1944569425942185 -0.09116578837906449 -0.004446872279724187 -0.009497900456411270 -0.006352048156917144 -0.01009365493566732 -0.1092486193658565 
0.02911342085089924 0.01447194231095846 -0.006146838598430266 -0.003537587639053051 -0.001929820049674552 -0.0007759047444523179 -0.004626419615061665 -0.02921635956087831 
0.05204651339307521 0.01289614656009122 -0.002433633930644868 -0.001420606453853119 -0.002620614868445857 -0.001225419580813618 -0.002427109065040559 -0.1153785809412210 
0.01273916096902789 -0.002236591656417409 -0.006980183321885635 -0.002578213035535810 -0.003906419977644955 -0.002636951339406087 -0.003453696316848922 -0.01964246777020422 
-0.04434630011980337 0.02657395009909050 -0.07587604604671525 -0.001937162980396620 0.1501750040910933 -0.003646913946690484 -0.005565346977613603 -0.08889845596585319 
-0.008142152596469393 0.03141069966621313 -0.09188070240446550 -0.002984573697309001 0.1841495269034109 -0.006288178739437978 -0.006037733032681261 -0.1737190450689027 
-0.01229606998476982 0.1225366789930211 -0.1461897444085432 -0.0002364529600706994 -0.001013291388941823 -0.002025351882077911 -0.0006949321522170025 -0.008108462826290300 
-0.1077317266315609 -0.2870023837047662 -0.3909195343671372 -0.02462954891743494 -0.01733957624965925 0.4216316369043988 0.3329372478878986 -0.04075536092275049 
-0.1455314325318551 -0.08903565993025302 -0.05931176951395241 -0.003609560943808406 1.119468737372824 -0.03199512038749756 -0.01586223223460351 -0.8301811021605704 
0.0009075038885493162 0.07959782863986667 -0.08934677225108675 -0.001273674567960380 -0.002599573580867041 -0.004824353702414080 -0.001606674024083090 -0.09482550911277332 
-0.003831639826388238 0.03045334732266276 -0.05764362166793509 -0.0006171213914439483 -0.001434012785679737 -0.006196012407414086 -0.001034499106097030 -0.005995802738828718 
-0.006459531586378525 0.2081569166051675 -0.1641010867225557 -0.0005184591279595213 -0.003761519776412065 -0.01404221430478436 -0.001475930659298333 -0.1338296812118698 
-0.0007766771945978040 0.1117203195363899 -0.1224337680146845 -0.0002259720256451778 -0.001278595628379681 -0.0007881533918691209 -0.0002979232827584018 -0.07760248311104720 
0.1602082052429705 -0.002825086635206559 -0.0001165623002088757 -0.0004560084886602824 -0.0002898432278523816 -0.005895710094496914 -0.0002572342567126250 -0.1698162945083856 
0.04781340259667050 -0.002991944690166446 -0.0003639692101869399 -0.0005059906256966051 -0.0003656682259290289 -0.001234078651947875 -0.0003866713564762831 -0.04645438310002610 
-0.003799926515001415 0.07908766362661451 -0.03414924532334620 -0.01894423301912760 -0.006906664926043295 -0.02251366123027074 -0.01100415237204440 -0.01177886760474396 
-0.006452795673286908 0.09067269300821568 -0.04900316715263460 -0.01453753438454025 -0.004891218979016732 -0.02341589989931669 -0.008393333845356227 -0.01850494055162205 
-0.007799093634523238 0.1990321078371302 -0.1379150875821815 -0.006497888036030981 -0.003892963996260972 -0.06741353019442323 -0.001821284758191799 -0.01641595038360358 
0.07353393657350908 -0.002834658628351890 -0.0003010739485053960 -0.0002364313428593930 -0.0001751185212196738 -0.0007638251817049704 -0.0001023442026765696 -0.03993404441668491 
0.06734476037393274 -0.002602979199850234 -0.0004248026453890401 -0.0001894401534269917 -0.0001416216033721994 -0.0004191106405142861 -8.691803152142020e-05 -0.04247158864911266 
0.03564368886926558 -0.002189824746422533 -0.001469970658138269 -0.0006697952057789886 -0.0003700270344735894 -0.0007440884122602626 -0.0004747413431565703 -0.02997228046103350 
0.04005951574565945 -0.002375409078357877 -0.001913058266133937 -0.0006721716181593935 -0.0004367453622670619 -0.0005887767304995465 -0.0004646935971370097 -0.02828469853261307 
0.03562284204133574 -0.001900428144515477 -0.001698525034119324 -0.0004526138202581248 -0.0009330894735384411 -0.0005891376670619291 -0.0004676484575913690 -0.02959266368090950 
0.02786259200175773 -0.001808806463620379 -0.003186279033146893 -0.0005117607329475572 -0.001119276296648108 -0.0007600690333166207 -0.0005266616450203210 -0.02363830326966340 
0.01423752108981824 -0.0007773281799747351 -0.002228988115542282 -0.001292483388354442 -0.001384059588788070 -0.001030917420790384 -0.0009667115288311766 -0.01233065812409782 
0.009464726621467930 -0.0005168737947441927 -0.001488290085384423 -0.0008590681184496166 -0.0009215978279999390 -0.0006909215775900289 -0.0006524442658593214 -0.008221524678264274 
0.2497344263407040 0.2161762005038817 -0.1651870479626364 -0.01342427491572455 -0.07575898885128181 0.06005178302578262 -0.01824905011363683 -0.1285927380089179 
0.003168051471248972 -0.001257424334150897 -0.0008594642644122024 -0.0009978804548139608 -0.001829322614026969 -0.001553031516651493 -0.001389645734217946 -0.007123943107695378 
-0.2386100597388878 -0.2261051914564685 -0.3485581991363791 -0.04124807186025004 -0.06254153348151932 0.2537365543290821 -0.05039936126230999 0.2532472940636160 
0.01726639352781652 -0.001011257360158332 -0.002433197048571037 -0.001388895435852493 -0.001873219154244111 -0.002018456564738526 -0.002142531390810561 -0.01756037627509254 
0.01465380161569732 -0.001147839044141399 -0.0009870148024215147 -0.0008435998833698282 -0.001088092374747106 -0.001052679674389549 -0.001277010425595743 -0.01818534211621315 
0.009069435996959859 -0.001059411822482748 -0.001724527787855973 -0.0009128017555165424 -0.001643578022709253 -0.001115147950103017 -0.001310875871595467 -0.01045493176776582 
0.1413619848819387 -0.05377905180611029 -0.2402785796035305 -0.05645886592441340 0.05847354258569521 0.1182979358747603 -0.06745266172614123 -0.2153035262006829 
0.02853940669588849 0.1649251550522024 -0.07888307921935407 -0.0009168405870277831 -0.004909542471647777 -0.04980050590910763 -0.001818580067022708 -0.05757788176802606 
-0.001744800032708374 0.2519385758287231 -0.1454297963390719 -0.001969418115231345 -0.008973370491060818 -0.08525442854192511 -0.003043519881291687 -0.04431295848780806 
-0.04829382332804887 0.2985403590331213 -0.1467514833596565 -0.004841238686787549 -0.01196316011244602 -0.08953047197196579 -0.006776831734752138 -0.03923951860865931 
-0.04818484599774889 0.2100818657546137 -0.09734875708463159 -0.01024873739761538 -0.009528776031760490 -0.04642262068259264 -0.01562827721747942 -0.06476411502824414 
-0.04359544021268660 0.1526276739823581 -0.07659206002635092 -0.01037686727602699 -0.009661754972195750 -0.03605151874513615 -0.01641043175716310 -0.05525146698702841 
-0.09554403627097123 0.1350182300700470 -0.03351948557885164 -0.01116663646407734 -0.01367844476227840 -0.02117050341121012 -0.04192973152163435 -0.06141596251548348 
-0.08292879878790338 0.1406858789206056 -0.04076208060205580 -0.03422166524739057 -0.02877643835303512 -0.02931526310855574 -0.07705782252383958 -0.08164742912269525 
0.02917493432366913 -0.002761622951589612 -0.007671330049849627 -0.01461842043381784 -0.01357471728869164 -0.009199854726860579 -0.006488951825539944 -0.02742866451224382 
-0.2188724364222872 0.9926355858587818 -0.2813448577849025 -0.01871844127191021 -0.03217387250949678 -0.1404991188084206 -0.04490417337489009 -0.1798869483584552 
0.1954087290414523 0.06872528663759037 -0.02612308650044140 -0.007078564688424088 -0.003013967556127353 -0.01394354555440497 -0.008563474127725590 -0.08549512442212558 
-0.01049544755111698 0.09572584270498280 -0.01719735172966735 -0.001592238979714695 -0.002066083556238604 -0.01622621243211920 -0.004810080030608101 -0.01999960865439189 
0.05277059052751662 0.04043040810116285 -0.008855873812865650 -0.001064178559087784 -0.002016777414726189 -0.02286127235959764 -0.003556138227988937 -0.05390546862225262 
0.05626063444131050 0.01540817997627341 -0.002171654201075942 -0.001812588512072855 -0.002041590867184567 -0.005746754631719542 -0.006958465549665991 -0.06873015019198890 
0.7047963614465671 -0.3459589735846383 0.2485124810787036 -0.08723665581724645 -0.1858176015190154 0.02400392287242736 -0.1233309680494216 -0.7796803644822369 
0.09820883164343448 0.06517517327904257 -0.03929198236353799 -0.005667612151173644 -0.009014546545548594 -0.04949902044687730 -0.007397768132912906 -0.1091069996516855 
-0.003175387791900278 0.3333240738750859 -0.2761300624495701 -0.001497589923103353 -0.003036283539837695 -0.01817002955537925 -0.002501351990662196 -0.01600519557043979 
-0.008046241980716606 0.1720965877595457 -0.1644816616190356 -0.0002197837423405592 -0.001424948456006513 -0.008753561632219080 -0.0008536280263961284 -0.01699421354280789 
0.01406562181373651 -0.001459516246544914 -0.0008123249169469907 -0.0006258128304144065 -0.0007105351180434404 -0.0009090642451767424 -0.0007454027217102394 -0.01054835167151495 
0.007446616258886952 -0.001735695627735704 -0.0009751824766093398 -0.0005329166480775729 -0.0009460683750310737 -0.0004968419778270111 -0.0007519386819290492 -0.007370157944696257 
0.01181903046675533 -0.001025158534224683 -0.001031010201479300 -0.0004266009983833462 -0.0006546341576041707 -0.0007234638061880900 -0.0005314465413646770 -0.009669421122290973 
0.01069692465412141 -0.001894841169081925 -0.002290076187944426 -0.001894024233263874 -0.001306547702812949 -0.0008001261634380271 -0.001175599873144836 -0.01097100080870582 
0.3585083789473376 0.05854733044909336 -0.02609288729053658 -0.007625988521571575 -0.01272913951133098 -0.01156943566708361 -0.01074249659233164 -0.4400446405059857 
0.01264211603857864 0.07885210225220530 -0.02843861057243213 -0.003445138408102880 -0.001940498513731079 -0.009698769571100505 -0.002575493501433624 -0.05079368036546456 
-0.02562937476167016 0.05283647828415162 0.2900713290633485 -0.01068482836642326 -0.02180676670083048 -0.02214473431003287 -0.03210944594892391 -0.3222938519013999 
0.006290957880968307 -0.0004225320846482572 -0.0005432858845010053 -0.0004181389543778375 -0.0004393730783009422 -0.0002676829367401675 -0.0003118702383545157 -0.004193651100357380 
0.06621002170388485 0.03525566587206317 -0.02527722039900882 -0.002123842475047822 -0.002243955939971966 -0.03088731939914427 -0.002703604789614805 -0.04632224069792710 
0.05186238499366352 0.009719777520899944 -0.002146686710781446 -0.0009708012527506841 -0.001190828282476976 -0.002314768859491887 -0.001850702873201369 -0.03223451252327763 
0.1958362110838422 0.02963954750170325 -0.01243710036514154 -0.005809493479998994 -0.008013845127712237 -0.009152678459536158 -0.009383861525065757 -0.2445923853363709 
0.2882556292713134 0.02129882495684368 -0.01398216008906694 -0.004450556452038939 -0.008204706100540313 -0.007408171709830564 -0.008368568626486635 -0.3351021495346874 
0.07065208845031612 0.005957043407148147 -0.003164240555269098 -0.001140254371114475 -0.002069372115655148 -0.002409018802082406 -0.001878093262561685 -0.05056363432675168 
0.08427200509772205 -0.002299751596108406 -0.0005490148804021452 -0.0001850776023158787 -0.0001616577364686823 -0.002516019151216619 -0.0001439869924478318 -0.08058561502465875 
0.04046005445802226 -0.002392612306079573 -0.0007621324836088849 -0.0002361661746836496 -0.0004185769809239638 -0.001889828504229391 -0.0002673688585943621 -0.03342470126322074 
0.002080144723252744 -0.0003351586094558109 -0.0009448252484928031 -0.0003969862571285379 -0.001188386913933609 -0.0002669656874139304 -0.0008331756498684103 -0.003397001552457930 
0.002080144723252744 -0.0003351586094558109 -0.0009448252484928031 -0.0003969862571285379 -0.001188386913933609 -0.0002669656874139304 -0.0008331756498684103 -0.003397001552457930 
0.004557905309079020 -0.0007775761056931387 -0.0006053737496997827 -0.0004837380826765307 -0.0004196876388320719 -0.0002219624616893164 -0.0004144073382799302 -0.004415095331056073 
0.05066526443771369 -0.004132918417471950 -0.001447671447986065 -0.0007074162813418407 -0.0008838242100977279 -0.0009812874228516677 -0.0006596869156852200 -0.05129401034862660 
-0.1798343098698656 -0.03820418144818215 -0.006818534388146833 -0.002775686845402223 -0.004040165987282951 -0.004719215906863481 -0.002894025281963814 0.1885491937443561 
0.005065629830300813 -0.0007173704067544530 -0.0009754024092878225 -0.0009090112288950616 -0.001294618184288683 -0.002069089269613617 -0.0007208689529690309 -0.005833418111506001 
0.006728816341629892 -0.008716841968779445 0.04081030781091808 -0.003801334598019347 -0.003712511123023369 -0.08995637630830706 -0.003353670332504419 -0.03941209990365857 
0.01034459861709312 -0.001050040824529342 -0.002152958109410706 -0.0003578481201266339 -0.0004717652525963568 -0.0001624282295644067 -0.0005192078879151631 -0.01071318112701091 
0.2619282341308646 0.2046375136564463 -0.04064237402894708 -0.006164818067870964 -0.02444270800701862 -0.2345437176240567 -0.01049675692513934 -0.2002304514342867 
0.005013765521483625 0.004321463301658732 -0.02412230722429127 -0.0002490783377390149 -0.001426280308900877 -0.001221462202429155 -0.0005832250827801425 -0.01252682786077463 
0.005165133695587087 0.008264704263091555 -0.02795037134776425 -0.0006637725848326244 -0.002151005474101007 -0.001336128322513481 -0.001603122666375501 -0.01396808357791700 
0.002916090986862943 0.02453621948838243 -0.04650531306275377 -0.0007024396888670455 -0.002662090971520622 -0.005473661594987066 -0.001650416222364827 -0.006055561571838508 
0.01494747171315477 -0.01716978601170504 -0.002735556675915973 -0.001394871174835509 -0.01291352874572807 -0.001471072444096103 -0.001176358275222866 -0.05230137252842099 
-0.004754779527748892 -0.02725507002350934 -0.009280452789776308 -0.005634815613320103 -0.05394628383738240 -0.009043200610763587 -0.003656145911008046 0.07990801647463149 
-0.01050923744751623 -0.007864223978780796 -0.01294232454176769 -0.03400722375367082 -0.005982163371050253 -0.003011855100356969 -0.003233667320964626 0.1397744941854762 
0.2979798328426506 -0.7370735167497220 0.06128986455278155 -0.05144826763941456 0.09937272377832711 -0.05192181224268666 -0.07794186805329616 -0.2910461099979571 
0.008846851248054679 -0.003220174345141341 -0.004017517634896094 -0.001660526357013253 -0.005354650358690051 -0.001161853632948648 -0.003035743731852401 -0.01656134396316147 
0.002500945763107328 -0.0002507085040961332 -0.0009542416644629894 -0.0004083321042088169 -0.0008938778700388789 -0.0002772864460872377 -0.0004938918717253711 -0.003622016269188567 
0.01632811300146486 -0.001770317406795770 -0.0007772791393210307 -0.0009526548457905512 -0.0007251120977568481 -0.0004915893228147636 -0.0008332348196880135 -0.01569413364332341 
0.05621030466353996 -0.009339964828483250 -0.01171160119740239 -0.001588914228927768 -0.002682183918364107 0.02818642230649324 -0.002551526167946489 -0.05857845572451294 
0.01380548749624340 -0.002247109673492357 -0.0006799038663232469 -0.0004259579483787564 -0.0005134144595072142 -0.0004353059815284247 -0.0004811097484792443 -0.01243301882729075 
0.01701820925689568 -0.004229377334512160 -0.0006295016155008534 -0.0003420967018898967 -0.0004894348166612028 -0.0002753097893676115 -0.0002470932458281801 -0.01121747681113988 
-0.004690819216346104 0.01957252582968744 -0.01351720936520129 -0.03482594985007594 -0.003399312105356475 -0.001023759715547322 -0.001827435166472119 0.08673962316993902 
0.2803713166081947 0.1584780511056408 -0.03617207563007078 -0.009594923502610968 -0.006802401437373793 -0.05040437107151667 -0.01238890512280107 -0.3056009591340403 
0.004504764151029976 -0.0002335267860703404 -0.0008617548479292883 -0.001208002835400100 -0.001070214372799452 -0.0005501188696826619 -0.0004724224982748381 -0.002896625380933223 
0.02290608827374257 -0.001211763512752347 -0.0002800451507481318 -0.0001721272888182190 -0.0001484370619678008 -0.0003590957451152936 -0.0001283975265700818 -0.02302204937515368 
0.03566706324462219 -0.001270536565146056 -0.0002796159642276968 -5.661296376454669e-05 -0.0001375409800995501 -0.0001826456410738586 -7.741255122241213e-05 -0.03019949247953121 
0.05637298724144616 -0.07693363220769860 0.04330241003187726 -0.007660950872689890 0.02662517464459251 -0.01104958996525219 -0.006866749089821374 -0.1300755166146941 
0.04192599575216903 -0.1582922024227228 0.1472868599163776 -0.006233746847048806 0.1006229777030733 -0.008490359964069504 -0.005108494492652220 -0.1865257736424019 
-0.01064982441909528 -0.2507008292497848 0.2667431681659203 -0.1743835091491265 -0.03763270002909126 -0.04824343586066167 -0.03501303754195240 0.1172914607081028 
-0.08701958596175866 0.04322533381468784 0.4748840860518603 -0.01884339166562491 -0.03985288039067905 -0.2896414609755311 -0.01781626696013339 -0.2625000952737182 
-0.1315164083089689 -0.04979137345946001 -0.1243769166501607 -0.1720265506216751 0.1178154135946581 -0.01884511347738771 -0.03728808949199818 0.04364966297771029 
0.01103393051532232 -0.0007485864794592729 -0.001402017512232880 -0.001023769006597836 -0.001351128193824478 -0.001324467628664714 -0.001616169794667113 -0.01021684529386068 
0.009767761613623702 -0.0009677875317739782 -0.001118485095862261 -0.0008650584103442330 -0.001205326967569522 -0.001111172035599013 -0.001345809631507433 -0.009912612748210880 
0.01060034492232322 -0.0009504932847367897 -0.001264258010609806 -0.0004653957731779153 -0.0007413645769184283 -0.0005617565918883575 -0.0007116259045691453 -0.009908160164263016 
0.009878748938171467 -0.0007993628111920494 -0.001305783207431778 -0.0004132763337959266 -0.0007874670931016576 -0.0005360406502910423 -0.0006725113058549043 -0.008922457544768326 
-0.01285838327587433 0.1416678605319909 -0.1262715323589580 -0.005749880696804488 -0.003287287722176301 -0.006695148173100219 -0.008540971985242129 -0.01360730667889988 
-0.09330844329963574 0.1674275853442616 -0.02364791039974312 -0.01383515910611827 -0.006075500972295817 -0.004804456999840973 -0.03601219581706334 -0.04970468477984133 
-0.003110807378903928 0.2009441601294827 -0.4062300880188300 -0.01576353768533781 -0.01354719244536802 -0.01620015448255088 -0.02604280780329628 -0.03036770400791554 
0.01196250536506220 -0.002589530968523386 -0.001256221847875405 -0.001342507437505295 -0.002018280919050218 -0.002466075263950075 -0.001934453688624618 -0.01721407142776804 
0.01764268137283042 -0.002317771617786386 -0.002168253555690692 -0.001248815379084345 -0.003026333424555229 -0.002523383436075769 -0.002184357313350214 -0.01638961913080635 
0.08225238855502316 -0.005302251111471678 -0.01287039117995571 -0.007951723779946476 -0.003700508736506012 -0.01034020729887987 -0.005227048167061207 -0.02188040613384584 
0.02578659512424513 -0.1487483500311020 -0.1562456000731729 -0.02334982839609036 -0.04130967665453623 0.06147574023580423 -0.03325905001702069 -0.1447782822351320 
0.01374903123992751 -0.008531864265475721 -0.001069045121894535 -0.0006119993438093142 -0.001199820416716192 -0.0005717804482660169 -0.0009351361742912191 -0.01283327308542081 
0.03035525239562548 -0.2817555921099453 0.03943071363313087 -0.006598829173954660 -0.01338634081359306 -0.02877265019203264 0.2911596506244957 -0.1219893678141361 
0.005074727110622303 -0.003183096265022617 -0.004375490066918942 -0.0004298665423708357 -0.001580459080972152 -0.0005295985256527467 -0.0006096015965921941 -0.003893578682658595 
0.004244005498014587 -0.0002775005604091669 -0.006038314780413530 -0.0001655808245837144 -0.0005039828606747870 -0.0001389866563196627 -0.0003853755305505680 -0.006906167490914423 
0.003983770463148017 0.003108181956627874 -0.0004499622450609788 -0.0001467219640530101 -0.0001197670093095831 -0.0002825199717341449 -0.0009765625677444646 -0.008131643186187686 
0.03309248634357379 0.05825915510828929 -0.003403265213992560 -0.001305125557549121 -0.0009681927312070547 -0.01138082209113803 -0.01214029142431268 -0.04545682066534759 
0.006155362678838058 -0.005176239640066929 -0.03133819400524820 -0.007881611411745166 -0.04713775665275689 -0.01058958581367916 -0.008661063120680927 -0.1953414872654047 
-0.006290111510282908 -0.007854686443445898 -0.03327568085020471 -0.07553124602708300 -0.01824188387905121 -0.009466771372837544 -0.01638868299818530 -0.09566756312748609 
0.01418929170440152 0.1405186208614278 -0.08833429065240020 -0.004977302066224627 -0.004425442556996082 0.0002077929567638165 -0.004973417117240310 -0.05644934276573829 
0.01709523348270511 -0.001251795619360360 -0.001222715746549762 -0.0007526716713236647 -0.0004920864186792639 -0.0003592919921876239 -0.0004168934775616080 -0.008761018641246007 
-0.2659912615886582 -0.1171481418823451 -0.09274140732810199 0.007211847045163113 -0.1588557425562267 -0.1035611420501391 -0.1068612856748223 0.2024157608699099 
-0.03322051131769632 -0.01761702431841707 -0.01576802343663909 0.2452860143046949 -0.01077021586848023 -0.01299931426996632 -0.01334143675736388 -0.3420157440331256 
0.04996753366658625 0.4396981695369012 -0.3689694652947650 -0.008351088415939182 0.1213173870873565 -0.04344076834050838 -0.007080151338684563 -0.2161607069838800 
-0.01783973455213254 0.06765065661407590 -0.05953912113167929 -0.1752652754061061 -0.07905783105237411 -0.05200910694481114 -0.09055916205327041 0.1195737050690032 
0.02516102959455275 -0.005713142393154062 -0.004938014800604350 -0.002677602838931700 -0.005486585901163651 -0.002659529465407182 -0.003767681827155355 -0.03854030731310630 
0.02015663567065458 -0.003375245033250861 -0.008146524187780163 -0.002074246064895887 -0.005694893749161619 -0.003031988648583414 -0.003441080081365958 -0.03683513499161132 
0.01383285401455348 -0.003014290985949699 -0.007397624667004304 -0.002076168722656170 -0.005526238416982500 -0.002920588494499009 -0.003652013669557375 -0.01847427655544769 
0.01445989895940544 -0.003472173656591934 -0.01242877502426346 -0.002640289740424740 -0.008754554052563660 -0.002862054244503758 -0.004312914063938508 -0.01830709605678689 
0.01951293866669389 0.3983038087334428 -0.3492406034376380 -0.01552802860348747 -0.01560460294407143 -0.04518680481466854 -0.01424018508836055 -0.1022864080857592 
-0.03840829475870232 0.1661236039080692 -0.1020210575726331 -0.03170120895936318 -0.01125876064862731 -0.01131568730281927 -0.02675127001448423 -0.01962037619715766 
0.01515097104727162 -0.06528608011829290 -0.006762727125909933 -0.03218728652940996 -0.01191426499624452 -0.01952421254641566 -0.02522755403779522 -0.05604980569407959 
-0.008921024015047544 0.2716143466657602 -0.3155286919526866 -0.004094869038688960 -0.007064618805657075 -0.01338657154352565 -0.006437637373937550 -0.03383509963740603 
-0.001075946111709594 -0.2274523884698788 0.2218674367360610 -0.001841993211225944 -0.003564014478582173 -0.006425443835423631 -0.001129344972754081 -0.04339762229701866 
-0.1073161133317448 -0.05095193698735365 -0.01849121950534951 -0.1220566213912521 -0.02852402498040969 -0.03096196472182837 -0.03317132110097121 0.07209378518786065 
-0.07432172389823428 -0.04176660373742691 -0.01024705579752237 0.2445476454273444 -0.01725296979555310 -0.01733762930734276 -0.02310555524210549 -0.2626239839313516 
-0.003198304463987678 0.06074992597694236 -0.05775969684280416 -0.0006600742491894959 -0.003630389803604545 -0.01466890951452923 -0.001107127765557686 -0.01019927379650342 
0.07563758897346357 -0.01044241130294994 -0.02034992368904087 -0.006643307604198978 0.05276589998155631 -0.01415565912088798 -0.003865181840136820 0.003494792767766173 
0.1012981049090197 -0.004929380646853804 -0.01258336984423203 -0.003962101788281491 0.2645034086502017 -0.02426106484288311 -0.001219306054979968 -0.2939561799958189 
-0.02464863185312218 -0.02664955954633496 -0.01758328194470888 0.04188614441546045 -0.02031964337526141 -0.02016341962421807 -0.02783972584221553 0.01462541105830563 
0.02224299663503802 -0.02333551756898308 -0.03520677882659327 -0.09503417701023954 -0.02044414519621522 -0.04627427653138711 -0.02481715138791421 0.02904643416699714 
0.06237392841225915 -0.01564148877690054 -0.03012455242243554 0.1966474298502779 -0.02805709375247401 -0.02686813399658018 -0.01716047888277975 -0.2908895883324497 
-0.1778698745480418 -0.04943914187338665 -0.05409014033082903 -0.01204465267976796 0.1707404279923631 -0.06141202554718037 -0.04173082975421178 -0.02566529085108174 
0.02868257947544977 -0.001172079176440942 -0.0004925933986711742 -0.0003565832141470519 -0.0002660892109090994 -0.0005676638475003239 -0.0001781560879611956 -0.02890105799268272 
0.03855297222972956 -0.002797699858724884 -0.003382325686143324 -0.001979140077733790 -0.003772727317657916 -0.001539568701246320 -0.001815128885512127 -0.03869828293304210 
0.02685625207347507 -0.001894313989219256 -0.003877595090264007 -0.001970440755638316 -0.003549297032439698 -0.002447816950367781 -0.001617494704681522 -0.03573125675797385 
0.02306908200858514 -0.0007257428537624107 -0.001066386300821847 -0.0005848965456966237 -0.0006273006217889214 -0.001181279056562371 -0.0003648178187558004 -0.02707730922324679 
-0.03529926449956276 -0.02463903543170394 -0.02889903150010215 0.09785194768055004 -0.03850011274873623 -0.04513106121720977 -0.03466146572817097 -0.1928658905151270 
0.03261197345048199 -0.005832533417562402 -0.01264767102695848 -0.05118117106187270 -0.01644226420379573 -0.01859864261763751 -0.01463018776817289 -0.009384832288463138 
-0.06309567786614295 -0.01970538090691892 -0.01981044052858150 0.1572426080458341 -0.03289972559652425 -0.01933458313877741 -0.03167950125876134 -0.2924534168382803 
-0.06791123795004475 -0.01880650201414154 -0.01625136047314368 0.1490331187424228 -0.02205784854494052 -0.02653241859957226 -0.02003127795999810 -0.1834810582266638 
0.001208895937633374 -0.0002037024377006529 -0.0006990742199460802 -0.0006107033881922472 -0.0006441463935115570 -0.0009131149845400497 -0.0006051721248584057 -0.002747408436300528 
0.001208895937633374 -0.0002037024377006529 -0.0006990742199460802 -0.0006107033881922472 -0.0006441463935115570 -0.0009131149845400497 -0.0006051721248584057 -0.002747408436300528 
0.001212377309769105 -0.0002038930148907110 -0.0007123739242141678 -0.0006061246100690753 -0.0006459926924850102 -0.0009102843396245270 -0.0005950823799726068 -0.002783015411310995 
0.001212377309769105 -0.0002038930148907110 -0.0007123739242141678 -0.0006061246100690753 -0.0006459926924850102 -0.0009102843396245270 -0.0005950823799726068 -0.002783015411310995 
0.01903107912663093 -0.0008371501966643168 -0.001431442639050934 -0.001401815614354206 -0.001359978562583837 -0.001913429737402547 -0.001429310388237908 -0.01301393069536137 
0.01043809428885247 -0.001312711597016635 -0.001491715990448844 -0.001099650565437729 -0.001514162331447793 -0.001447397082413396 -0.001191743904710353 -0.01341761792057400 
0.001186535830506459 -0.0002042470021357356 -0.0007123280629453892 -0.0006181815001960630 -0.0006460341258302236 -0.0009152194566899644 -0.0006030283563932675 -0.002782842665793356 
0.0003806135004751193 -0.0001594567094066518 -0.001199396912357282 -0.004431586919790208 -0.0006932977704678638 -0.001981844802564195 -0.001551873086228625 -0.001648008127745354 
0.0003806135004751193 -0.0001594567094066518 -0.001199396912357282 -0.004431586919790208 -0.0006932977704678638 -0.001981844802564195 -0.001551873086228625 -0.001648008127745354 
0.005773883097823691 -0.0005283264789015128 -0.0009030292627966554 -0.0004290396182131168 -0.0006855505008023922 -0.0004287450310267547 -0.0005110613307952820 -0.005848685588092560 
0.01014970333241896 -0.0005890118379726890 -0.0009630410283007840 -0.0003833973132750782 -0.0004093518264064801 -0.0003533022118333468 -0.0002768508917975113 -0.008212756144431940 
0.001117635639087729 -0.0001861300183562044 -0.0008100435474678175 -0.001733355386019511 -0.001484203042466123 -0.001464502250190144 -0.0008709812459632461 -0.001935036065170001 
0.03453571566837661 -0.009845699460627080 -0.0005079120387333776 -0.0003958101500095052 -0.0003914974829868518 -0.001315323662135138 -0.0006553204507063746 -0.03659151009410008 
0.01509567854109095 -0.004247523121923732 -0.0001929279164396551 -0.0001158837058494583 -0.0001036123526306846 -0.0002877057774477608 -7.766144190486016e-05 -0.007199254242667593 
0.008440183387935903 -0.005428645152738863 -0.0001944458324944875 -0.0001288449209783674 -0.0001365560387674138 -0.0002808899214663374 -7.720054332784259e-05 -0.005459438052282779 
0.01715909384560375 -0.001076841225650556 -0.001173133867320729 -0.0006534416018509904 -0.001116454165081574 -0.001697762227632996 -0.0008560084411366540 -0.01686667640517985 
0.02167482521055910 -0.04209175437863563 -0.007316009080855676 -0.002912097071694345 -0.003089478384461838 0.07498038158269658 -0.002751573773901170 -0.02929562555270434 
0.02011000997477507 -0.001025375917556547 -0.001195563800131868 -0.0006654788696752024 -0.0009450653407583539 -0.002047767510814981 -0.0007133579715156769 -0.02089655942099098 
0.01617543040842964 -0.001063124190937185 -0.001686281734250774 -0.0006021718008606319 -0.001014833865942764 -0.002697535655895338 -0.0005742272626014513 -0.01365862798677687 
0.002514098684102594 -0.0005733754553857774 -0.0009404455689926357 -0.001074504584771397 -0.0006785201526786880 -0.001383384440363930 -0.0009947569490996480 -0.005815868551112571 
0.002282879550857979 -0.0006526108959213721 -0.0006601234935701332 -0.0008656273919897799 -0.0008254761182254679 -0.001347928022334604 -0.0008344873000306869 -0.005849628731802913 
0.002097221737252308 -0.0006522669628363808 -0.001281171192041013 -0.001294080064381055 -0.0009398505957208894 -0.001262894029028787 -0.001000699876129846 -0.004927650863187799 
-0.06081180937524799 -0.01179414775468891 -0.009212038711248774 0.1064042880116086 -0.01513040430287157 -0.01294701047740539 -0.01709386224399142 -0.1099013191010079 
-0.06081180937524799 -0.01179414775468891 -0.009212038711248774 0.1064042880116086 -0.01513040430287157 -0.01294701047740539 -0.01709386224399142 -0.1099013191010079 
0.1239488560328174 -0.0001545255295856378 -0.002105016991565697 -0.001121832092767159 -0.001688511405880323 -0.0008583206678050598 -0.002448206264067677 -0.1903485823628450 
0.1426505280836325 -0.005648955134192504 -0.05315063243743149 -0.001850449032252558 -0.003756260267708354 0.1784152614118097 -0.003297407091499054 -0.1763249211020651 
0.01672598967152670 -0.002022542851382230 -0.01111206713096190 -0.002716425272310641 -0.005348209350555896 -0.002879911027008615 -0.004449511092781010 -0.03115330441255034 
0.002393619662205658 -0.0002935425061365643 -0.001491057184357134 -0.0006199138725554685 -0.001489619306007188 -0.0005499965950546525 -0.0007672027303975969 -0.004239180589375588 
0.006828190596164309 -0.001287678283012979 -0.001893861405872122 -0.001678444957567510 -0.002667658798043480 -0.002039117407013543 -0.003816435140490909 -0.01805273947325344 
0.03328085014063911 -0.1050624041354047 -0.008705771993875044 -0.002340436126917422 -0.003684263617088153 0.05287852172568409 -0.003447811016099920 -0.02918225846975913 
0.04714824089472029 -0.007553774162323520 -0.01025501194549604 -0.001857979993278487 0.1953309960932017 -0.005502272128111787 -0.002074620995097641 -0.1530316809603071 
-0.004503926671362950 -0.5157760608888210 -0.08073560160028550 -0.002032461588279657 -0.008014451793143935 0.6423857246550038 -0.003144601572944441 -0.002995431169629602 
-0.004503926671362950 -0.5157760608888210 -0.08073560160028550 -0.002032461588279657 -0.008014451793143935 0.6423857246550038 -0.003144601572944441 -0.002995431169629602 
-0.07062823984247889 -0.02155690962915209 -0.03568687438205133 0.2152076111309538 0.3284808028365988 -0.02178395546297903 -0.01367489725156467 -0.5008937472984317 
0.004603024381593561 -0.0002361774375902595 -0.0007604541007767907 -0.0001848213370308386 -0.0003356321164799333 -0.0001833802332595174 -0.0002834603416900273 -0.005611286209627454 
0.004603024381593561 -0.0002361774375902595 -0.0007604541007767907 -0.0001848213370308386 -0.0003356321164799333 -0.0001833802332595174 -0.0002834603416900273 -0.005611286209627454 
-0.01571061453776817 -0.1299420677153873 0.2804253500360580 -0.003967443394861062 -0.005163999723678401 -0.05281605983920726 -0.003294004506788610 -0.02837107570098813 
-0.01841496328174183 -0.2548463301719606 0.4307703515778810 -0.002833843876346822 -0.003240241327381107 -0.02142054423756564 -0.002340730574592644 -0.03037034898489481 
-0.03787612369506369 -0.3832023273701561 0.7124595427902644 -0.002977404110552070 -0.006228535958115134 -0.07188262748285791 -0.002668657955097305 -0.05318941050398507 
0.001167918655778724 -0.0003676122646008007 -0.002199743004677659 -0.002308546140688900 -0.004036549225193789 -0.002993363965259854 -0.002996484325379047 -0.004051530839557882 
0.01897040068151912 -0.2227805612853083 0.1972310397840070 -0.005320371764639871 -0.008722404842331853 0.08338907326887031 -0.007556047561530055 -0.03938291841719426 
0.001912664224571456 -0.0003287030388643863 -0.001140829568505561 -0.0008514855449559624 -0.0004557180758598271 -0.002344806235821991 -0.0005230888969321320 -0.006868849825842082 
-0.2547436443315018 -0.1224736333624171 -0.07513233668839119 0.2588069425790042 -0.05523161093725815 -0.07658143802527110 -0.07198195744787707 -0.0009575578871503579 
-0.03325434818978763 -0.04042020964109173 -0.04211302164755064 -0.3743522977145896 -0.03057162797807823 -0.03761521749845806 -0.03711584193005740 0.1552928678737706 
-0.04022261697759542 0.06200252712451254 -0.1693356750328716 -0.01215825799027036 -0.01287349537207034 0.1881471357402688 -0.008685369405629296 -0.01121336956305890 
-0.04022261697759542 0.06200252712451254 -0.1693356750328716 -0.01215825799027036 -0.01287349537207034 0.1881471357402688 -0.008685369405629296 -0.01121336956305890 
-0.02830464634175520 -0.007934410580078637 -0.01533446207788058 -0.01181489743215187 0.4752723533269480 -0.02820067228421525 -0.01369843506011391 -0.6124272357645827 
-0.04650046894141650 -0.006365803361539631 -0.01030573756778209 -0.01110123217625273 -0.2016041967344897 -0.03600744196474669 -0.01255750178001073 0.1774866687094070 
0.003387528095514392 -0.0004439403165716993 -0.0007173141559969397 -0.002221559829563785 -0.0005916788611121062 -0.002119872612748280 -0.0006812499107823704 -0.006048384263694123 
0.003282414817516426 -0.0006056869525283115 -0.0007895027947932256 -0.002519206827471656 -0.001615464201376546 -0.001683003471598119 -0.0009893640915165942 -0.004864708799148954 
0.001867857325520945 -0.0005017537758713292 -0.001091194724852077 -0.002812402373335141 -0.001541656402154732 -0.002389096284789924 -0.0009153813192859855 -0.004713050122477283 
0.003910301095187991 -0.01019701263649919 -0.003106866143618279 0.1670967363939217 -0.002977963585757192 -0.004064705312984754 -0.004965334919503218 -0.2073820571388541 
0.01220374627209326 -0.01370308244793360 -0.001344235600098197 -0.009843637703438528 -0.0007097866027650449 -0.0005192744007978134 -0.0004798481319521062 0.08125097987023215 
0.01091451243144658 -0.007006682591237936 -0.002093383206977919 -0.01487574180580961 -0.001100280459429656 -0.0004979068616945223 -0.0008901606610741871 0.04972745682845309 
0.06654206418723220 -0.03752377009608542 -0.04229794030326160 0.01314030176795581 -0.04596264891212350 -0.09467051806848896 -0.04411243317134596 -0.1904424286191277 
0.1722530711342148 -0.04239730831971805 -0.08700960561640726 0.06107123766461477 -0.05705972431644237 -0.1191295664402931 -0.05477361187641856 -0.3221406289810561 
0.04217919217160537 -0.02378208786102742 -0.01638909484909593 0.2452201118466758 -0.01039404884142042 -0.01776057952773038 -0.01450789870832233 -0.2582221167983617 
0.003498894315251311 -0.0005208178893361711 -0.001693814375360904 -0.001588855702962343 -0.002086325554304238 -0.0008625886940669357 -0.001526298258392075 -0.005236999363089917 
0.003933842001410787 -0.0007272846265259870 -0.002504829733314634 -0.002720497070918248 -0.003557064258660742 -0.001992642289059917 -0.002985819092405155 -0.006994601515682325 
-0.1060626197977328 -0.02943033535011617 -0.02240510097253513 0.3712052460446547 -0.01445419512676505 -0.02847436530879827 -0.01998063553977732 -0.3146318069192254 
-0.1040252416876142 -0.03352712945077053 -0.02090507636720555 0.4418455668223423 -0.01407326565681688 -0.02190105082846078 -0.02136362312842455 -0.3831716163178711 
0.01091848527555828 -0.001555516297724265 -0.001298205622035513 -0.001595486720887756 -0.001329943593407236 -0.001398772404694015 -0.001797163026283734 -0.01221486280489340 
0.009632520896313754 -0.001199061583629696 -0.002080098563923158 -0.001700865714681871 -0.001203345161507414 -0.001529344728591481 -0.002000373495423211 -0.01213945468889700 
0.01562551626578727 -0.001398014028826991 -0.002471797333270008 -0.0007464716936380066 -0.0007396506505557455 -0.0002988178542802324 -0.001247287966342207 -0.01141404799489967 
0.007731747327490469 -0.001334068254319117 -0.0005271176590056434 -0.0002261554942392005 -0.0001562940885701354 -8.862526338593096e-05 -0.0001728543515713748 -0.009182306612704274 
0.007731747327490469 -0.001334068254319117 -0.0005271176590056434 -0.0002261554942392005 -0.0001562940885701354 -8.862526338593096e-05 -0.0001728543515713748 -0.009182306612704274 
-0.06314908802510635 -0.01972394722173461 -0.01985173230971794 0.1573779180199003 -0.03267321886702844 -0.01958375927619152 -0.03169988168993683 -0.2920192295786668 
0.004576428931334947 -0.0005064303204382237 -0.001158305247911874 -0.0003969501407929528 -0.0004175379289955634 -0.0002182480428072187 -0.001613971825708398 -0.003419467766811466 
0.006229544159341580 -0.0005817247224396704 -0.0008866759011745069 -0.0003382290674066020 -0.0003865615610431537 -0.0002656234451008766 -0.0008212946508894411 -0.005360753951103916 
0.005590435465145403 -0.0005484515912507600 -0.001405595872209630 -0.0004544569562375992 -0.0005406600110051101 -0.0003202445667450743 -0.001095160591840339 -0.004508334481930299 
-6.105820039382448e-05 -0.01044509832952794 -0.01826557370966311 -0.005062705260411677 0.2046253929604132 -0.004438350101894525 -0.007281382516018781 -0.3008599463081622 
0.009556909455506694 -0.01079118917467238 -0.02259027801590400 -0.004275807080690418 0.3118466621979583 -0.004507684144345805 -0.005873990028325593 -0.3525703549688223 
-0.02060064511325240 -0.01161821730904848 -0.02651681697508212 0.3512701256693123 -0.02399257374064121 -0.004226527409330218 -0.01317145172057596 -0.3323299610208365 
0.008815502858209920 -0.0009855088907650069 -0.002144695468553049 -0.001252224634537737 -0.003259977851178114 -0.001220343127575995 -0.001701885957288243 -0.007418359457566671 
0.007599527416567572 -0.001017594320938238 -0.002942670360869216 -0.001182643102396659 -0.003521439954757837 -0.001178460914638279 -0.001455259197220749 -0.006418940633358712 
0.01206830414534575 -0.0008725416679636463 -0.001904799478052887 -0.001777475129659866 -0.001489230038585894 -0.001247064109896040 -0.001368821426876232 -0.01292272908739137 
0.009178086567130515 -0.001247140228389949 -0.001818171093005318 -0.001937651600272766 -0.001326055587172953 -0.001131309753099402 -0.001323606619218838 -0.01286868119290832 
0.02630229789211217 -0.001383180486891765 -0.003819255963110030 -0.001489540067752154 -0.002098810647100314 -0.001544615980937807 -0.001280429488022201 -0.02087515888742781 
-0.04769091947817108 -0.01232783796713094 -0.006870426400575911 0.3068467794501121 -0.004974672923963442 -0.01326830042209093 -0.008401859807227150 -0.2238798352070182 
-0.03568544514912961 -0.01173108218328379 -0.01089561545604528 0.2941866242523770 -0.006351819925394341 -0.01504266935292880 -0.008394589117418385 -0.1220858110718395 
0.03411784523285912 -0.006326125402357559 -0.01093149634985222 -0.01216871167531396 -0.007118982391193381 -0.01172545890792186 -0.01021368339042282 -0.01865818243446386 
0.009320830158500418 -0.0005173753980289575 -0.001484705093901042 -0.0008592563496323509 -0.0009182142430176345 -0.0006892709012626898 -0.0006489326238671119 -0.008142883695822768 
-0.1399857313786921 -0.1228319624477822 -0.02765670213797283 -0.009574702173960570 -0.01070110743904052 -0.008290954805059482 0.6460574578528292 -0.05524916726299955 
-0.03849638995409008 0.1343140992201905 -0.005925125231127936 -0.007809933240645818 -0.01097764393618656 -0.07439000333078559 0.3971343240081617 -0.06101925164415305 
-0.1165772863023054 0.2223935881074954 -0.04153375955781633 -0.005261169602445248 -0.01304180315198248 -0.1132749355953255 0.2392027424274983 -0.03850122179235497 
-0.02061637514808258 -0.7093144614372093 0.4820749108531253 -0.01390107087941346 -0.009027280579502358 -0.03397851201505707 -0.01308504043549761 -0.01507251677059453 
-0.02061637514808258 -0.7093144614372093 0.4820749108531253 -0.01390107087941346 -0.009027280579502358 -0.03397851201505707 -0.01308504043549761 -0.01507251677059453 
0.0001220880773217480 0.09893222474756086 -0.1123584333788116 -0.003889956488697398 -0.004259866276709996 -0.008379168226286267 -0.004055444406198335 -0.02827150589041015 
-0.03091787744454835 0.3566987793853939 -0.4646597746135102 -0.004375934305007735 -0.006607790170964621 -0.01415801345330366 -0.004637681699060370 -0.005427975641405507 
-0.03134307725205292 -0.1651205237446989 -0.1647933695752110 -0.01814307784870370 -0.006380549835099235 0.3311888919579583 -0.005159835932395534 -0.03946626615207591 
-0.04117439366575967 -0.2002222390875053 -0.2071730169553580 -0.03700743237115085 -0.01061274772322353 0.2775663088960190 -0.008087369203442110 -0.02418087857131129 
-0.01541368934330468 -0.03859141117203968 -0.06963600256551240 -0.002840343587974245 -0.001579023090326482 0.1963392229024228 -0.001305279445582787 -0.02921451364158450 
-0.1173364399267063 -0.05778642361478325 -0.04683366768285373 0.5974315610866521 -0.03127158032918331 -0.03872477840215567 -0.03864751010601552 -0.5244002964246427 
-0.03808410656352083 -0.01866234594808940 -0.01642183735593406 0.1636321821841971 -0.01221008697980227 -0.01378119268431363 -0.01424400240449652 -0.2209754745509343 
-0.09222261353658537 -0.09982747436972950 -0.1355173450961434 0.2098889890346762 -0.03418162055439082 0.1159297979146409 -0.03394913506734483 -0.3528087302909426 
0.1381055614055396 0.01873851872199564 -0.02160156145052071 -0.004576990644558101 0.05233864319814720 -0.01420963570306415 -0.003713135725607964 -0.3030130938538238 
0.03457892602125688 -0.002688871646818939 -0.003074748021460081 -0.002414692638020969 -0.004944933310743186 -0.003882604201942179 -0.003061147595720915 -0.03458538520890524 
0.02931870264802085 -0.002440209871160296 -0.003550089829638062 -0.002386791760807240 -0.005076136038656325 -0.004049385492248621 -0.003022421171342537 -0.02581626603463219 
0.02635161736827292 -0.001150279386372100 -0.0005052245842152164 -0.0002176055827603630 -0.0002984150744206587 -0.001190081207748433 -0.0002113464030875245 -0.02565165569225526 
0.02650481850362041 -0.1042427095925037 -0.03631908031314367 -0.006400781831316544 -0.2335727088151305 -0.01057608874915402 -0.008513237028669763 0.1575436844235343 
0.006765063630160674 -0.3880008072269093 0.004039800569336379 -0.03042702268797696 -0.02325200518122866 -0.01008384133980208 -0.01729487157542059 0.2178034034011655 
-0.007421235091224448 0.003043290876084376 0.2060032055327559 -0.0006424091024145281 -0.01140917575769269 -0.01116689492469090 -0.002486827983694200 -0.1348809545892194 
-0.04089300456673047 -0.005549402193348207 0.3263126717795946 -0.004369966683350350 -0.01514443913133706 -0.2039521852492787 -0.01334691500326391 0.03328921466063187 
0.08771966402296888 -0.002815784910529080 -0.003755177884678605 -0.006138380692396589 -0.003264590621061062 -0.004010442567445482 -0.004083852517836281 -0.08208583235450048 
0.06667761172712831 -0.006732691378793277 -0.004067018445103777 -0.002421396729878087 -0.003615377116733675 -0.003704174553035105 -0.003214784696159847 -0.06157043755409758 
0.001583497402079149 -0.0002175364421377828 -0.001214040271807242 -0.001392480119806275 -0.0005198694132586902 -0.0002837396372317614 -0.0006127119802360961 -0.002547755465979612 
0.003114286759948833 -0.0002920046155367198 -0.0007821779032192307 -0.0002592303166740139 -0.0001770563334561815 -0.0001162851362497203 -0.0001807536308245589 -0.002683290424036616 
0.1181009670273476 -0.1656442526508918 -0.08938556275756347 -0.009862010850730744 -0.01979687535650878 0.1488875665209389 -0.01323029600975036 -0.1486790752806632 
0.008521612265763681 -0.0002628281424138529 -0.001413696804250667 -0.0003740270264542963 -0.0003975758145477084 -0.0007500643357505299 -0.0003585096972668805 -0.008708094116277248 
0.01314960999500639 -0.0009782342754140270 -0.002219129995398564 -0.0007185636920666983 -0.001202599026125911 -0.0009363627897608090 -0.0009125438096938121 -0.01436432783290631 
0.003335570883153541 -0.0002214627537797703 -0.002838351137855177 -0.0005484494351495054 -0.001233888305055417 -0.0008506790943763546 -0.0006248634269129627 -0.003455280688253690 
0.07242901040234888 -0.01042120403119267 -0.02776269745127888 -0.008709828349161862 -0.01535946083200861 -0.01006877071738176 -0.01037709463956552 -0.08985062958214696 
0.004157127230359340 -0.0004302532868723857 -0.0006760029860959167 -0.0008253920521299172 -0.001261697618811974 -0.001297435292303091 -0.001194155102503427 -0.005090164548376125 
0.002314636865195917 -0.0006067592582081618 -0.001011901746272468 -0.001013286894609459 -0.001718172355801981 -0.001085408141526973 -0.001377457225195051 -0.004543093666186804 
0.03864874669593953 -0.008227131683492143 -0.01010933655131785 -0.004136728571349846 -0.006987040203446038 -0.004544609968241513 -0.004993547103155965 -0.04802799598765104 
0.009362833834804563 -0.001058334324166744 -0.006777748832350628 -0.002019800931635426 -0.003664568754094098 -0.002529461627472166 -0.002850890436196931 -0.01116352643243868 
0.003111878083264617 -0.0004393683324815784 -0.001464703100324153 -0.0005331342831010865 -0.0009722887516508812 -0.0007675540524039916 -0.0005007409011476881 -0.004046530421018780 
0.1042475865962299 0.03778388453158987 -0.06504499787301149 -0.01006962866028633 -0.01758507255365340 -0.006445293631893062 -0.01384460802230877 -0.1162889788807672 
0.002711523050983745 -0.0004734610435762903 -0.0009493892812912059 -0.0002752237392177478 -0.0007935530659589597 -0.0003063392210918819 -0.0005094775554832922 -0.004221580323403912 
0.04813884863333071 -0.006311947448006639 -0.02472500680152028 -0.003336926614008378 -0.003381345121610424 0.02479032358156125 -0.002653773147132024 -0.06821258500077060 
0.0008363222691694198 -0.0001348133633798003 -0.001289806381719139 -0.001861614085784601 -0.0009132831724105898 -0.0003212406902367407 -0.0008378351434598758 -0.002214421213554572 
0.02133732146075974 -0.0006496979952314931 -0.0007098573011290358 -0.0005768744079076983 -0.0005117953713836363 -0.002402760835971267 -0.0005469766617386836 -0.01921175279817818 
0.2489246747739356 -0.009384405476520224 -0.004090793992065578 -0.001399508251637230 -0.002094757684018799 -0.002961412688521080 -0.001948527020446384 -0.2584984685689568 
0.07405838549515587 -0.3123012722176511 -0.02522141234022079 -0.02613093309277442 -0.04450818934020091 0.2602962254749986 -0.03132872709224807 -0.002716357557531466 
0.02682831947974833 0.1143020202793692 -0.1051689352086649 -0.008091619885927450 -0.01449978752334185 0.03579175338671024 -0.01608511894802949 -0.07073751726836666 
0.04026759239523583 -0.008154253835148924 -0.02919331885596584 -0.007181486622755825 -0.01227269950449244 -0.003178295293778994 -0.009579599552017494 -0.05885243677599561 
0.004079586565209903 -0.0009488253716450635 -0.002609899614431350 -0.0004545081998242203 -0.001462568843950368 -0.0006745054021235161 -0.001121455244590836 -0.007973083618673504 
0.07360810328818967 -0.3667633697892194 0.2952468461641752 -0.009185281394307044 -0.02286209429895288 -0.004289735157150496 -0.01324213035715146 -0.1149475087006263 
0.006427281555678118 -0.0006829219446555432 -0.001649482969734002 -0.0005120623701938675 -0.0006910960242671555 -0.0004327201297313963 -0.0005458149782461802 -0.006081383798004719 
0.008031224098915437 0.05191573112246401 -0.01039321352449332 -0.002919737539633950 -0.003467022076510984 -0.003126258947448500 -0.007383708092829210 -0.03466042741449740 
0.001783753329540609 -0.0002650257420962836 -0.0007899414007829439 -0.0003062524961351127 -0.0005633233828382651 -0.0003446289466184311 -0.0003904415985235901 -0.002911205296803337 
0.003695964552686123 -0.0002293509834659870 -0.001215672404336392 -0.0002283874084766055 -0.0002727472399956847 -0.0002458527291507756 -0.0002350231004334975 -0.005703269771366296 
0.1160495441144904 -0.01119875430807668 -0.004893828430651736 -0.003646995916803447 -0.004857698820853947 -0.004554597580774339 -0.004159242859629846 -0.1388426855214134 
0.002468957800397124 -0.0004865723232600699 -0.001073702908678602 -0.0005753844946731007 -0.0009386951834700905 -0.0004835937914891272 -0.0006572859399354697 -0.003307432743517436 
0.06025215256874252 -0.0006439853535799036 -0.0001939284892196285 -4.909837885176371e-05 -3.823205016173013e-05 -0.002292444189203293 -3.555143840381041e-05 -0.07148970239494676 
0.008892094820601323 -0.002117745317284804 -0.003964344755124939 -0.0009746397578695888 -0.001609513774225760 -0.0007164361691786093 -0.001248205686974856 -0.01007261512336206 
0.07299124559731583 -0.009098097084566792 -0.01713014499009414 -0.005219603102053843 -0.01116080628428173 -0.007251995262542738 -0.009159010062204346 -0.09338868634068316 
0.004675972897036911 -0.0004176604260602431 -0.001371654238945346 -0.0006533502107092697 -0.001378637673191393 -0.0006675538629325230 -0.0008666284113418574 -0.005604169264786742 
0.004167828564202288 -0.0005739341999131530 -0.001067858016990119 -0.0006073219651613851 -0.001234048820005170 -0.0005309744539865914 -0.0007117341943147451 -0.005295752187838043 
0.004133294409576114 -0.0005467969520358610 -0.001741301070820282 -0.0008017614944362287 -0.001751180390472310 -0.0007020722295749842 -0.0008821604110981486 -0.005190351903669318 
0.006200986623308908 -0.0004432320642967463 -0.001244448162261145 -0.0006148007902880928 -0.0006384395527473490 -0.001095006740266101 -0.0007382168750914578 -0.006439803211442840 
0.1257323295398679 -0.01501414429482820 -0.02598946504106906 -0.01129378892046897 -0.01765618033376120 -0.01879541346264032 -0.01401692163549626 -0.1318462159122747 
0.006535538857757479 -0.0006091916300268192 -0.002177941801817438 -0.0006575508091295270 -0.001277402742009136 -0.0009783960941866987 -0.0007825906077071190 -0.005536084984072870 
0.02973664563136780 -0.004135764666900204 -0.004312989303379536 -0.001314988490099085 -0.002768969685683132 -0.001857409993310087 -0.001734921207508853 -0.03395507422058148 
0.008828571788190782 -0.0009373799955964471 -0.003837111301002624 -0.001577951251487360 -0.002913822455099260 -0.002642216796737326 -0.002122853524580855 -0.009252206011683384 
0.008678664653201003 -0.0006453611745056611 -0.001278514035090365 -0.0004975575530995277 -0.0007651077170469033 -0.0008127799614184210 -0.0005905673387022960 -0.008438586897726700 
0.002443832127528345 -0.0005139182298272056 -0.0009793734820568597 -0.0004993584883281383 -0.0009796479165229389 -0.0006454356999854806 -0.0007785874121074179 -0.004821549573234276 
0.007429083984458200 -0.0008335230313510546 -0.002991299707217207 -0.0005755326143033194 -0.001423019513402867 -0.0006567364891985894 -0.001063885561836679 -0.009462583575107899 
0.03974000992444059 0.02808792747296890 -0.002683776561539109 -0.001496083584799594 -0.001442715732165277 -0.006977465873935384 -0.003767358849004579 -0.04533352225938615 
0.006425010078991130 -0.0008837623138936378 -0.001737250580914655 -0.0009589460445023608 -0.001635470275348154 -0.001265612688004834 -0.001026877644549370 -0.009591990403733926 
0.08328037129227443 0.1039662663856029 -0.1188528522833965 -0.007889571293262754 -0.01186803921164041 0.09026194290664130 -0.01088723718351998 -0.1235327418041333 
0.001433188092651835 -0.0001658090408257211 -0.001153645771568683 -0.0007160431175429844 -0.0003363804379074810 -0.0002519373667785445 -0.0003977495047386593 -0.002023258808679096 
0.004578398103580060 -0.0007607780969193768 -0.002069964552776343 -0.0006145955510331634 -0.0007347359869964312 -0.0008394657864369951 -0.0008879298300939805 -0.007894813958069031 
0.01378912348153166 -0.4792428911838583 0.1277243641844872 -0.006558373778743219 -0.01082044354369368 -0.009907435767231408 0.3432019180053291 -0.05123340115520372 
0.002774248553806619 -0.0003019403221290413 -0.0008531105103629498 -0.0002889508861153626 -0.0004970971861497661 -0.0002921585937524215 -0.0002374439654264024 -0.003703788047615652 
0.001802222486592179 -0.0001984553168135546 -0.0008665007850595762 -0.0003745910166487547 -0.0008628477395805471 -0.0003700429402984348 -0.0004519546240486968 -0.002491470497256144 
0.02385997726621962 -0.0009878516059474306 -0.01561124561064469 -0.003663652298282962 -0.007705730148479716 -0.004390091380993788 -0.005388041277215823 -0.03340357680393638 
0.04465846731488279 -0.004385167410662081 -0.007377782739162326 -0.02630025173798498 -0.003594063106235704 -0.02083861568730764 -0.005950838813066952 -0.006448050035071311 
0.03505682749391675 -0.005193256434124237 -0.007539017437042503 -0.01861519499028111 -0.003585362564624024 -0.01245589650463693 -0.005625188237628531 -0.007389661990647310 
0.05905154519465221 -0.004072663099680568 -0.009911084601196357 -0.02301798096726979 -0.002358336842505486 -0.01664715743393312 -0.002770188348290154 -0.007366254138420927 
-0.01156853376566361 0.1163336234468793 -0.06589946944039696 -0.002673120612357837 -0.002029621054509313 -0.009183913097260231 -0.01256243200005924 -0.005416131811684726 
0.01538564226911135 0.02895166881941254 -0.003892076121901217 -0.001696593093646968 -0.0009173084294153605 -0.001020081270831688 -0.007132535999767205 -0.005800658424024856 
0.004321446181702817 -0.0003608066939627276 -0.001083352267855243 -0.0004204393264401580 -0.0007511705710935765 -0.0005005665612327942 -0.0005918784684557387 -0.005324814718808808 
0.003174662149565900 -0.0004696610586773264 -0.0008890104638969766 -0.0005112843286250168 -0.0007939309754578421 -0.0007313085498210206 -0.0006265227414360799 -0.004870545700585240 
0.1099113856470040 -0.006940826952210975 -0.003161585847244552 -0.001547937274253794 -0.002599842256552305 -0.002847048423517714 -0.002013519055618827 -0.08724305526734016 
0.08322547959763366 -0.1596840008355022 0.2019478233722006 -0.01012553259693767 -0.01808822039610600 -0.02112905069127727 -0.01324253319132763 -0.1063027339200438 
0.04976160048898993 -0.002543260975463297 -0.005633746808531389 -0.001960189795300673 -0.003216280825544714 -0.003246652652844826 -0.002120225800971454 -0.05467892361381622 
0.08014344134400928 -0.1047326005408092 -0.02541052687432312 -0.008574981753244669 -0.01616668321511580 0.08371686909793620 -0.01232290151403499 -0.09389456005630661 
0.01341514149682259 -0.0006928240761334135 -0.001973555373609505 -0.0006246929343196496 -0.0006233134137159712 -0.001042502515890892 -0.0006313192152824315 -0.01025560169729727 
0.008136068339985989 -0.0007175552572539544 -0.001667382961068772 -0.0005546116672975066 -0.0008031369433059797 -0.001032669070286002 -0.0006453637788140526 -0.008311030180285720 
0.007188851454220751 -0.0003555040927686200 -0.001691974404876095 -0.0002953351315710468 -0.0003296377659537804 -0.0003520073734961644 -0.0003087550470766494 -0.008165928352838083 
0.04177862759110147 0.2450179171564672 -0.1365585977620911 -0.002538184606232047 -0.006309545956566856 -0.07684611295219272 -0.01164135130609235 -0.09509935916318715 
0.002304320977471159 -0.0002736734981755979 -0.0007652046670841461 -0.0003098677921431545 -0.0005444293476996815 -0.0003427599078855533 -0.0003918025199450982 -0.004238304367347050 
-0.01293227094004378 0.05988579147820400 -0.009147777083508887 -0.001924335942996757 -0.003103604524297598 -0.007423496606062232 -0.007601120408624870 -0.02664641487828131 
0.04025003195575804 -5.531894434014916e-06 -0.006277621317120497 -0.002520913727666076 -0.004679523347630330 -0.003240338216271858 -0.004512571560752432 -0.04768712313335530 
0.004398162128702272 -0.0007544793029545036 -0.001539338515008932 -0.0006346536976229918 -0.001375504398656906 -0.0009175547388581480 -0.001070407020189285 -0.006464033382584618 
0.003184526714433251 -0.0005732628463669722 -0.004660083568146565 -0.0002990078984911441 -0.001132465015406051 -0.0003067372263677866 -0.0007485867367642122 -0.003687077828489287 
0.008981153676798700 -0.001785850523333889 -0.003850123065661742 -0.001073938880705063 -0.002112265994268751 -0.0009548163941153949 -0.001385714733647287 -0.01157636935204393 
0.04762208996257162 -0.02271154808525021 -0.04153913486066693 -0.005082990880655535 -0.01159185837327374 0.02842640525638919 -0.009185597404878095 -0.07456417769292283 
0.002301726353099925 -0.0002062429301458930 -0.001550228005758508 -0.0004400755134897848 -0.001005754621167084 -0.0006982548229396972 -0.0005234630742228486 -0.004495367177998250 
0.004526088696112093 -0.0003768720279842126 -0.001718541810212759 -0.0004581251680199400 -0.0003447376038178381 -0.0002339214218871109 -0.0005369148062708391 -0.007342276571500174 
0.004720058905453515 -0.0002273635235511568 -0.001272973712563308 -0.0003040857633670985 -0.0003177039614117253 -0.0004124141703749603 -0.0002840000034039129 -0.004908859484256452 
0.001205705435482373 -0.0002903016819204698 -0.0006574233392464110 -0.001179042316793436 -0.0009843177523419296 -0.001213763019417805 -0.0009364803746743595 -0.003119074194917608 
0.03267607442565797 -0.0009407849277693089 -0.0003211102558640058 -0.0001344670677631913 -0.0002291207792569539 -0.0007065882832311230 -0.0001693761071441953 -0.04927433365832529 
0.03341757795657000 -0.001586562913225321 -0.0004777400028256596 -0.0002927414630171647 -0.0005508965709214454 -0.0006235124701355363 -0.0003820839232136338 -0.03901596700891395 
0.2571817287646716 -0.03813791720515189 -0.01170628615058593 -0.004030539064912932 -0.006350563121754483 -0.005234664694299502 -0.004831141149952071 -0.2900781233422419 
0.006838700067738194 -0.001118487613534305 -0.001288916859720176 -0.0006021401680546876 -0.001036690292730968 -0.0004486700315631456 -0.0006735163436910630 -0.007749180266148958 
0.01708175407963852 -0.005709006991330410 -0.02407158889167284 -0.001962990205237583 -0.003526753235895041 0.02402393088442123 -0.002515194981634329 -0.03103489124676576 
0.003845237562984845 -0.0007277722401889474 -0.001005649189742686 -0.0004052806822376315 -0.0007227442755886968 -0.0005228707189656053 -0.0004911722653225608 -0.006708791602898794 
0.002180522367307656 -0.0004719080466331672 -0.001311219893036353 -0.0008396137521368309 -0.0004412950227606135 -0.0002922737428460774 -0.0006105971580033325 -0.003799443669374374 
0.005178529223556183 -0.001131084238472330 -0.0006585435570077257 -0.001006246872326618 -0.0006460532723719767 -0.0003494103132015736 -0.0006936665074493319 -0.005230774639080822 
0.2126341386778350 -0.1307775861424831 0.1160300481845812 -0.003634878891583430 -0.03561065449372475 -0.01075843405807466 -0.005633468839182105 0.07653310381200691 
0.07334538252336677 -0.006920890138439145 -0.008962542468004176 -0.003847505285656357 -0.005106141287404780 -0.005260861182388359 -0.004973217836513418 -0.08114768934341925 
0.006715560782778941 -0.0005120048277527502 -0.001472713592211130 -0.0003472874934128956 -0.0005422662432152758 -0.0004686736171323259 -0.0004250613689831507 -0.006635908764490618 
0.007602879444794704 -0.0004605381408157203 -0.003054938890343350 -0.0007216725914741623 -0.001076048046614921 -0.0006979836537714312 -0.001012408537185905 -0.006813409552032047 
0.007506955939982337 -0.0004679754564865149 -0.004593562225745767 -0.0007645926210572768 -0.001133603329234239 -0.0005914441031290843 -0.0007979021485403426 -0.005301415661754265 
0.009617602042199257 -0.0003778663999485686 -0.0005413702718928054 -0.0003947172755672312 -0.0002855077889930734 -0.0006275971719373764 -0.0004646665346491355 -0.01211275536916680 
0.02738786908811603 -0.04029059573009087 -0.07087804272676970 -0.003590544526008019 -0.006380021455829666 0.1535458808282356 -0.005216153045303981 -0.1023571672755488 
0.1784101366864266 -0.01042629374355222 -0.01097949505244331 -0.003899655081615720 -0.01009118110531270 -0.007434652820495970 -0.01022306343192665 -0.1775568722224440 
0.2033249193084319 -0.01572277382786692 -0.01056310824371658 -0.003928828265515596 -0.008775216231106353 -0.008321851242439067 -0.007733832453209398 -0.2084520605277048 
0.1530041146720917 -0.01021263979665194 -0.004634092345219084 -0.001968225039711773 -0.004095566020917295 -0.004346939243481726 -0.003625341578635413 -0.1567498927391438 
0.1266667731588868 -0.001578994104724289 -0.004777513457360733 -0.001502056904859112 -0.003540626231770403 -0.003481340120152000 -0.003318231694274617 -0.1506432682378544 
0.01002782970402970 -0.001086455430845013 -0.001871259232810387 -0.0007978414026811907 -0.0007877453667471223 -0.001239043707237337 -0.0007818012014463286 -0.01284729584598848 
0.003526527059551319 -0.0006814258992274763 -0.001663422755215422 -0.0005955272496279802 -0.0009641432540674282 -0.0007086714103710016 -0.0007727601414824103 -0.006124143856507395 
0.03104190056522722 0.08632121182356788 -0.09108681566279041 -0.004225672526058454 -0.009446592243865529 -0.01383730208394250 -0.005865147885799407 -0.05861497614161878 
0.06914019272361797 0.2687593337536626 -0.01131133721651906 -0.0006644630802606224 -0.001881175461230367 -0.2980562235337565 -0.001009096689684433 -0.04954726122645051 
-0.01854766792341618 0.05850443434540616 -0.007563964368742045 -0.002102038481970463 -0.001922902478960379 -0.003252796511427349 -0.005972585949185089 -0.003103461302214977 
0.05062259135946281 -0.003608183061197536 -0.005595719045134459 -0.003092099670350343 -0.004978368239896599 -0.005426640562004662 -0.003948112618973921 -0.05269938315730980 
0.002285756848011820 -0.0002571631764465831 -0.001626946686023219 -0.0005778732402281210 -0.001001177468695886 -0.0006207714753533796 -0.0007031838702966640 -0.003725757442983552 
0.02413209734830080 -0.002415897740014966 -0.004185864882950088 -0.001242784455261211 -0.001988331773804736 -0.001545369732091009 -0.001297983820634161 -0.02399103455174666 
-0.07237467186971416 -0.3386156644257377 -0.1362624060132853 -0.005682701393918407 -0.008232919176037246 -0.008190838942606396 0.6320516434293315 -0.04718361433278036 
-0.03881766272421037 -0.2320986006371760 0.2450648639542066 -0.005039247467863109 -0.008981026481321387 -0.02146969954859026 -0.01831426017221228 -0.03927245163383926 
0.005779741046440794 -0.0006772316676497410 -0.002048467838028921 -0.0005019402700969474 -0.0009618379703367190 -0.0007661276385707884 -0.0008714982906797949 -0.006459782846578416 
-0.002310500607435913 0.03636535155828014 0.05848156348569857 -0.0005051869358069759 -0.001290627855033344 -0.02410984439780970 -0.005802519904677434 -0.02306281751400831 
-0.005440750558229509 0.01696605160293398 0.04800801390522265 -0.0005309609845043809 -0.003605219492696148 -0.01853232634075365 -0.002992541985345607 -0.02728656379780172 
-0.005302231652259262 -0.1386725072872762 0.2775307389601689 -0.0004570910866240383 -0.002738807382214070 -0.05117275400006988 -0.002449473554216475 -0.02857282496146143 
0.004756795161279346 -0.0003428992735836601 -0.001097835050127377 -0.0003000013930072104 -0.0003528240658570975 -0.0003450825639320981 -0.0004655925564519204 -0.007063762029939625 
0.02648048765733217 -0.003471728297093411 -0.003936148809777715 -0.002149654588731954 -0.002621380501633616 -0.002391626040087356 -0.002806436347445227 -0.02998430737387046 
0.003221678276832518 0.2772553879636342 -0.004093326628859042 -0.0005494032581609041 -0.0007117447372213064 -0.2724725061185931 -0.0009342392737117974 -0.007788140445778010 
0.007881376133970890 -0.0007399922833892210 -0.0007945890072160597 -0.0003601722582645534 -0.0005589690065934138 -0.0005175603676957020 -0.0004430457312631079 -0.007627627344845176 
0.01444145754583790 -0.001171555786303648 -0.004923356273714992 -0.0009391525738682157 -0.001829489740883265 -0.001608099481095448 -0.001015786177736241 -0.01728517550769253 
0.007553800333472448 -0.0005585368678977460 -0.001478213288686299 -0.0004088235990581489 -0.0007721615043276301 -0.0008454579845519890 -0.0004358957363243792 -0.008846252798702084 
0.01219736657542556 -0.001105147660969512 -0.001083013166624586 -0.0004365155004887509 -0.001008344215036399 -0.0006313151958086679 -0.0006415026734773706 -0.01237018005019630 
0.01380014791050972 -0.0007094165557052126 -0.001749630631978449 -0.0008487242235388577 -0.0009373992832924240 -0.001098156516325036 -0.0007888325149801818 -0.01602491937867075 
0.005796350535065295 -0.0007598556694976609 -0.001063922032007618 -0.0004488238495833037 -0.001317615880747868 -0.0002987718333058967 -0.0004194819950288986 -0.006822625338898311 
0.1004277737495114 -0.08738196945720629 -0.04084595821147693 -0.08833662605249457 0.4259687064769143 0.07313714534333923 -0.01424134079809234 -0.2276548724098549 
0.03697801458336563 -0.004663590001412905 -0.01107839846365801 -0.004662302543489720 -0.008328361677827290 -0.007013441129986051 -0.005935326783983036 -0.05292132596427785 
-0.01101095756222999 -0.02877986351522540 0.1378696660856947 -0.003629728863761934 -0.002225834100688259 -0.09810212008805826 -0.002776647345685773 -0.02701531053927197 
-0.02359710908092970 -0.06631457000452315 0.2398796421018625 -0.006777661216358647 -0.005868506746104684 -0.1830769000250512 -0.006695369102677580 -0.03684371755914161 
-0.3730248141619383 -0.001114975842986017 -0.001196740036174620 -0.0002017886593050054 -0.0002543483991381864 -0.0002254702748379488 -0.0006654048917584824 0.3800417761356225 
0.006866184735553078 -0.001051954796226412 -0.001522347954720508 -0.0003791256145488608 -0.0008632649494260454 -0.0004741289861630972 -0.001057459585595726 -0.01234706259097412 
0.003339751234246245 -0.0003648555308300844 -0.0005835667525488910 -0.001117639834665461 -0.001154666225970693 -0.0003937286020334994 -0.0004101125891820936 -0.002239812149450098 
0.009980420022848973 -0.002293179242364983 -0.003921082830020046 -0.001328623231411168 -0.002573667599023661 -0.001312365784895220 -0.001709424301239245 -0.01274769456239937 
-0.02525206458194158 -0.06059740891219895 -0.06973987641686182 -0.001206269475076201 0.2085128370950831 0.1660829616153647 -0.002874932464877911 -0.1423211286152349 
0.01126002443311240 -0.0007662538111176789 -0.002104457076516663 -0.0007468530104686884 -0.001400127022072766 -0.001151649890148002 -0.0009293732047847933 -0.009935959063319530 
0.006816935563680180 -0.0006920111501074974 -0.001082086838679070 -0.0005344262373686006 -0.0006242473352576240 -0.0006349962717032586 -0.0004615208791854004 -0.007479584264351940 
0.007321764871335864 -0.0009747465970943059 -0.001221385457133461 -0.0004745439666250105 -0.0007155081548502447 -0.0006135938561673473 -0.0004612580885928600 -0.007227905917954783 
0.005516894837276971 -0.001036043988777304 -0.001083987016166140 -0.0008079437157480618 -0.001002703672172989 -0.001128692904502557 -0.0007208666772044458 -0.006981472276719965 
0.005118732136610489 -0.0008756943089001366 -0.001638496734353483 -0.0008915188730189826 -0.001043116322352070 -0.001416563863022847 -0.0006803646949757864 -0.005763996174644000 
0.01215970695872111 -0.002221692662391678 -0.001180502244759350 -0.001074092417273611 -0.0009180608708455160 -0.001346014117212373 -0.001043007350098996 -0.01142872550129847 
0.03385044779428028 -0.003855701249131302 -0.004500804630785645 -0.002050085579039631 -0.003104791918643222 -0.005630085593075304 -0.002586373681253597 -0.03584858205600325 
0.006834414617106571 -0.001087026393481839 -0.003927899938261243 -0.001346097850949631 -0.001926564344192939 -0.006397894515032599 -0.001302518226670091 -0.009612260367388490 
-0.04498880530468151 0.1502022911036596 -0.03381020362641402 -0.003071318583799084 -0.008534561903748190 -0.05311230054245989 -0.008294216502337618 -0.1038877963566073 
0.1213093199518874 -0.0003827444188549416 -0.001035816345934754 -0.0007834329387434012 -0.001190848684314787 -0.001545747664323793 -0.001392748364476359 -0.1235465354182680 
0.04128348343079254 -0.006778600118774502 -0.008149172501378288 -0.003230392749160783 -0.006008655866047440 -0.003266345732762594 -0.003936304032309862 -0.04332990493406798 
0.03655912265099581 -0.006815725125804824 -0.006019289976275350 -0.002955208731821784 -0.006405723546543242 -0.002791632495342011 -0.003078889659874822 -0.04689269300651180 
0.002742107447429930 -0.0001839192094248054 -0.001091980279872736 -0.0003786501081197373 -0.0005346135203949499 -0.0005294463467064212 -0.0004982980180143136 -0.003221601820564720 
0.001210139678307791 -0.0001482033230252678 -0.0007488151391659590 -0.0003111114071907605 -0.0007526650632042645 -0.0002728098817574594 -0.0003840880325422734 -0.002167902847277125 
0.001210139678307791 -0.0001482033230252678 -0.0007488151391659590 -0.0003111114071907605 -0.0007526650632042645 -0.0002728098817574594 -0.0003840880325422734 -0.002167902847277125 
0.004772794468350312 -0.0002604543852305424 -0.0007406980301578590 -0.0004334152699048260 -0.0004624617607881308 -0.0003399958432003550 -0.0003142672629718554 -0.004109133445833547 
0.08271022261797350 -0.004241366747957620 -0.08192262974738020 -0.001466095082673348 -0.008932441750057096 0.009425986730687338 -0.001935582764524210 -0.1088343164542547 
0.004014968949554285 -0.004812980788322732 -0.06138769028120848 -0.0006539550101610178 -0.001615356726478473 0.02112419147452485 -0.001099626896214233 -0.005819374289621065 
0.004922894869134773 -0.0007059642963586858 -0.0009755911779874910 -0.0005170373133072179 -0.0007372805930242034 -0.0005033840907321313 -0.001026178365124005 -0.007538712309889121 
0.01346150337860624 0.05907255592255140 -0.01592085159097529 -0.002080240429290864 -0.002408503541411805 -0.02978000588542125 -0.002836039855296000 -0.02773697847292353 
0.009461794870108576 -0.001458765007726142 -0.002180742775274944 -0.001271876815540839 -0.001737870172110958 -0.001134533908680346 -0.002148322254292845 -0.01435356643950476 
0.002794380202484580 -0.0005981148098198968 -0.001308822057820572 -0.001469172485744685 -0.001006901142947075 -0.0008084690129498162 -0.001407480078913031 -0.006683922425716033 
0.1342346974348265 0.1184061554470079 -0.1757560337665248 -0.006110772833027483 -0.003665274189718179 -0.04319940575912546 -0.005057884990822982 -0.05673107714636129 
0.1139568954221521 -0.4233901636935308 0.4231109101139019 -0.009406768596542832 -0.003691629194861419 -0.03882433362350819 -0.007594324421900249 -0.04113211037387061 
-0.03746350063316475 0.09946139845984407 0.3912161433255179 -0.009111455386692426 -0.006778411115818971 -0.3605665036672723 -0.005371466540390419 -0.1302730800546398 
0.01457315670060052 -0.002191024649118465 -0.001290930698611873 -0.0006574127622152456 -0.0006198717863544601 -0.001139067627889666 -0.0004890150004366284 -0.006151357824892290 
0.01597664256454665 -0.001610480461187537 -0.001410815621431096 -0.0006649545767662470 -0.0006308615127986585 -0.001135042018424505 -0.0004888025910295283 -0.006782802740643565 
0.0004539311905964766 -0.0002270033667593095 -0.001224321298280313 -0.001300776999436711 -0.0009984212671537052 -0.0003130002246692053 -0.0009060744046391696 -0.001054856033369456 
0.006749332266571168 0.02147594394943171 -0.003192004292818379 -0.009057590078816138 -0.003968175301824963 -0.01157025482341906 -0.009880374118683354 -0.01551075499110482 
0.005208096623858012 -0.0008681562374640504 -0.0008602335300533331 -0.0003689202585710263 -0.0004251471449130401 -0.0005345221432730202 -0.0003750884710922081 -0.007342818572516029 
0.004732972598670953 -0.0008544704008626508 -0.002043441649959602 -0.0007201103622613112 -0.001615450251003279 -0.0009457577838591304 -0.001244364974407575 -0.006372668803315770 
0.003441485563401760 -0.0007294409011614517 -0.006574402885924012 -0.0003349043692467856 -0.001285997357873175 -0.0002765527678850676 -0.0008335039414314800 -0.003715734085903453 
0.05142860952532889 -0.006024651668736329 -0.01366386217394544 -0.002013049903981244 -0.005150747989747791 -0.003439477655776198 -0.003745755085247222 -0.05367117675799355 
0.01297312588680081 -0.0009112741490692976 -0.002646129073009213 -0.001483308541239937 -0.001162351651087978 -0.002167228866395960 -0.001548056723681839 -0.01441614463412482 
0.003289759840901142 -0.0007029796707783651 -0.001274093145361411 -0.0005347759715550752 -0.001258294767661120 -0.0004436803045350648 -0.0007337742480840828 -0.004344656032181523 
0.005569811164836222 -0.0004291439343483441 -0.0006174395950854697 -0.0004012653638242552 -0.0004119112111332680 -0.0004862760990507571 -0.0003857651247761442 -0.007648661705320520 
0.002276135747658202 -0.09047662425354688 -0.02220084900164914 -0.0005686298047799588 -0.001087269915441952 0.1011624792010747 -0.0006055329697566989 -0.006840485931797880 
-0.001818648010584708 -0.04661596935790417 -0.02448054538593347 -0.0006137314726876028 -0.002409728474044130 0.1185976358231440 -0.0005854283320767558 -0.004685335738893876 
-0.007993795361481170 -0.1336016805845318 -0.04635036865820074 -0.0006316403341615806 -0.003106618113517255 0.2200899449077386 -0.0005892608788494495 -0.007923409104756036 
0.02061720410956042 -0.04093981474207858 0.1141665756448540 -0.001031203044007249 -0.002095130610259778 -0.05033051796748738 -0.001474983332229278 -0.02351976804312055 
0.05270841213486082 0.006755443700259603 -0.02756708940707610 -0.002135614532721196 -0.004699350622319183 -0.002352315406316132 -0.003008035773402379 -0.08220811854347660 
0.04099732630777322 0.003447967578316523 -0.002775669105484476 -0.0005963121062158396 -0.001429290440672349 -0.0007260533272196997 -0.001429093147778657 -0.05148933349972395 
0.03264245578142126 0.006240647408423797 -0.007871382699201183 -0.0006608806394895705 -0.002115024050214304 -0.0007938062805622665 -0.001904971380180419 -0.04159695159583183 
0.01929761024415354 -0.002842101952360663 -0.004719556668758588 -0.002278767949477863 -0.004358351892664710 -0.002725348232097642 -0.003056150104048600 -0.02936593083607355 
0.007961247585635363 -0.002304257985064195 -0.001297567782946065 -0.0005785264301844097 -0.001266583706359799 -0.0004835951216361613 -0.0008561923124084125 -0.008638059236819038 
0.008591007177527204 -0.1770137613558138 0.1859846475500748 -0.006042265540926592 -0.001611380101934647 -0.001349249318310319 -0.001569810774563329 -0.008680385487258324 
0.001721849449326127 -0.3755487557509569 0.3620280187903886 -0.006530022725890958 -0.001691125074531574 -0.001048750987866689 -0.001426187678846551 -0.009108001751114364 
0.006779592761392726 -0.0005437651122885756 -0.001113548652881440 -0.0006769071172237689 -0.0007607000047905308 -0.001078474439005793 -0.0009060289482000632 -0.008299875092871320 
0.01355317886306959 -0.0007337871135986510 -0.001482887422011752 -0.0005724526622394100 -0.0008116727647218184 -0.0006626457527349810 -0.0006918357604513536 -0.009521648398251755 
0.008779617249812615 -0.0005165574097889886 -0.001664277161186291 -0.0004532541273755837 -0.0008237016949478652 -0.0008961746629452940 -0.0005505254245850345 -0.009034638306353406 
-0.06061434449211130 -0.01177918085430315 -0.009269200392994722 0.1064803761244322 -0.01512223504564839 -0.01298957523748077 -0.01716520880246834 -0.1096312949333866 
-0.06061434449211130 -0.01177918085430315 -0.009269200392994722 0.1064803761244322 -0.01512223504564839 -0.01298957523748077 -0.01716520880246834 -0.1096312949333866 
0.01150750737286484 -0.001268415918574967 -0.0009927646514789265 -0.0004651361215997652 -0.0006473462934325289 -0.0007313203352004794 -0.0008090103182038920 -0.01077499492244713 
0.02015299619169817 -0.001300838233541369 -0.001086649469307553 -0.0005048873521858482 -0.001332961969627738 -0.001163583743185737 -0.001082041294398700 -0.01378125104876542 
-0.1178309371617359 0.05818135740799094 0.5040351547972034 -0.01702958053482290 -0.03016491990514650 -0.3368755407171158 -0.02041384794068432 -0.1246533717473817 
-0.01146489695229893 -0.01100590601122717 0.1436025647974169 -0.0006455577204563647 -0.002351982268051863 -0.1055379822119643 -0.001282025400539778 -0.05657361375239212 
0.003171768381405698 -0.0005431504343708783 -0.0005087937702671372 -0.0004085779352677216 -0.0009144730862203047 -0.001103669590516298 -0.0005350244860660002 -0.006285954028731024 
0.002428920166208396 -0.0007905757131800391 -0.001382671173734414 -0.0007288027295753809 -0.001708571722971935 -0.0005678911919474415 -0.001073557546610909 -0.005883981789502358 
0.009749721377418640 0.1396398112615284 -0.09506636042035212 -0.001983674525423067 -0.003285906548451599 -0.01661263604227127 -0.003500941733998600 -0.07820134105575870 
-0.003718842289021054 0.1268927108741293 -0.07962955605064947 -0.0003931562971926152 -0.002643952822562267 -0.01349780928343549 -0.001175534492366288 -0.06793801635134523 
0.004475948903158602 -0.0004907226308271775 -0.0009259282011384866 -0.0008237115048128878 -0.001178348333376611 -0.001023292467620630 -0.001190926871220801 -0.005756978168767028 
0.005967603816710658 -0.0004159026985796443 -0.001214349095758925 -0.0004014876941273248 -0.0006219804537881986 -0.0005694670059190626 -0.0003992232730275801 -0.004822348288689500 
0.008760147798924521 -0.0006483705761353556 -0.003530702524330459 -0.0005260674520380141 -0.0006905786039686710 -0.0006450142321173042 -0.0004371956900632508 -0.007835436882648428 
0.003723684945615755 -0.0004409645931291450 -0.0009146977187100027 -0.0004181080561511061 -0.0004445988508604765 -0.0001455692577733466 -0.0003122981721222681 -0.003341709510439015 
0.01717253036549448 -0.009229270653637862 -0.004977206024047773 -0.0003728100678269848 -0.001327566932585038 0.01243193771429493 -0.0006932684498316337 -0.04021843066184486 
0.01244246266591719 -0.001092410856654307 -0.002492712455652252 -0.001552530960283302 -0.002583491672169358 -0.002416149162775818 -0.001650811322978695 -0.01271409368054363 
0.01213240351699379 -0.08095148656648440 0.2230547265092645 -0.003244700730127080 -0.005954903200305651 -0.04016145718557476 -0.003273532039266104 -0.03591268506879281 
-0.03684405059569679 -0.04128723964402067 0.07662616798005335 0.2373219444632380 -0.009503351947032682 -0.07217831908192437 -0.01311180218727061 -0.2255990712576660 
-0.02147020472384493 -0.07059113202672336 0.1077616474771095 0.2634464291069903 -0.004229413164293389 -0.05181880322961244 -0.003644057969109737 -0.1234349967104047 
-0.02343977513071580 -0.09534005369940690 0.1774553299811364 0.1544209527015004 -0.005199418258345689 -0.04542972350940471 -0.003989339393502528 -0.07195498556212054 
-0.01649669544727461 -0.05702341224806324 0.1416692170656060 -0.001466496160508283 -0.001644028667735074 -0.04861402836269544 -0.001703481843914475 -0.01816132394942516 
-0.007986813260110734 -0.04543851062887368 0.1010598808302232 -0.0007622519350280856 -0.001406478792120271 -0.02959314147847512 -0.0009447731915942636 -0.01496340832713004 
-0.007455029459596405 -0.03899828487670750 0.08710911068565808 -0.0008783879399173519 -0.001379910024131263 -0.03103479479560202 -0.0009233702749699123 -0.01201440324004692 
-0.01229033302301397 -0.01769055258961899 0.05798538600952274 -0.0009975966339916423 -0.001700123873823585 -0.03820065676875029 -0.001035167937387596 -0.01925847609700739 
-0.01027190610093612 0.2763681259709010 -0.03829240650844836 -0.008827501509459535 -0.004462914777105305 -0.01253256454923970 -0.006396463503603530 -0.04095503718864504 
-0.03195496536720077 0.1008955783611869 -0.01742244579724630 -0.01151741613168554 -0.2152357055510600 -0.02149296681335749 -0.01652094648568268 0.1301006759504182 
-0.01999015350636487 0.1364845375155072 -0.03644887829076154 0.1580486638056832 -0.004163268277574936 -0.008242559835656471 -0.006572040664478761 -0.1903856292058136 
-0.01135156430029244 -0.02467944428732631 -0.007792369617457712 0.3871773190519281 -0.003428657257266619 -0.01127996398923297 -0.003187069637141391 -0.2449991446046152 
-0.05293312355000332 -0.03691811912688296 -0.01523963135009008 0.1561271439547868 -0.2146521743022511 -0.01673888064483052 -0.01635269377228305 -0.008384824141321550 
0.02457777985757596 0.06052475706509715 -0.02038993047401244 -0.0005386110119523768 -0.0009041373253796583 -0.003931226334443421 -0.001221916345089427 -0.01350716366700552 
0.01662194696922602 0.08820656598025046 -0.02186123155688548 -0.0004881112246600242 -0.0009556791144267405 -0.004200371831384163 -0.001358501733456189 -0.01834535313041239 
0.001551814919971436 0.09239172924563377 -0.03642113384561363 -0.0006857950868933717 -0.003220275048140098 -0.005681676407763468 -0.002739483602071714 -0.01236138223174024 
-0.06360671076802436 0.3449210542530200 -0.1239004602547701 -0.009700045385125390 -0.01224337786274821 -0.02755968928259534 -0.02312816837773636 -0.009780961046685835 
-0.09475406922175605 -0.02406401633888206 -0.01821488563921662 -0.08919589440637507 0.6438237953779691 -0.05067941760344370 -0.01402934464991920 -0.2407366827181875 
0.0004574133935449148 -0.0002319993106164423 -0.0007825831563751435 -0.001026047129345272 -0.001830661163521959 -0.001205969429022539 -0.001308503761905983 -0.001911554830798492 
0.1751106318608767 0.004429937933285326 -0.0008186649503103072 -0.0003239668626350431 -0.0007091282973033644 -0.001236262680495903 -0.0003989193746551092 -0.2333686165358010 
0.006188565805861301 -0.002306564934509094 -0.0009595134662056859 -0.0004179549600778920 -0.0008010208015706217 -0.0002320087892715667 -0.0003012566454130446 -0.005495627559641194 
0.008144035609991220 -0.0003786965072318265 -0.001567892609071465 -0.001095363209551302 -0.001318912338376570 -0.001740796483324078 -0.001597399585463971 -0.005547061104868569 
0.006708668694584062 -0.0006982460542008243 -0.001146558638764494 -0.0006514087816434701 -0.0008233342691956603 -0.001010363655483863 -0.0007594817580298899 -0.006511223811367809 
0.006545231819661735 -0.0004969896837070647 -0.002171401876454163 -0.0006809164289269772 -0.0009057847469426004 -0.001183560906344239 -0.0007345746420600815 -0.004918789874751395 
0.07600278758170986 -0.008587796684925328 -0.006473144450891862 -0.003098445352465501 -0.003795170084030328 -0.002940891168738972 -0.002897525538812601 -0.05773665093551512 
0.004486309038201053 -0.0003590504668004935 -0.0005997063480152980 -0.0002531883661219471 -0.0003261038512566806 -0.0002555213328766317 -0.0003295500291595408 -0.006707643618541585 
0.002899397222090794 -0.0005613738105386065 -0.0009009899573613722 -0.0003482247919103931 -0.0006036422757822923 -0.0004312995671601078 -0.0006215410691574327 -0.006032975964427926 
