solver_type L2R_LR_DUAL
nr_class 8
label 8 5 2 6 7 1 4 0
nr_feature 2458
bias 0.000000000000000
w
-0.6755138539519691 -0.2204399288136035 -0.03244614374923931 0.4044873521768090 -0.2950921748099150 -0.07987273104206957 -0.5261023175904852 -0.05036050304082800 
-0.3697354344844943 0.2530174594371134 -0.5607206358217377 -0.1668615342262100 0.1526484411103095 0.6435883648582109 -0.2861124285862869 -0.2001959300926660 
0.03302693272667176 -0.3936365933641802 0.1322065696232594 -0.6556812798565412 -0.4255050945243751 -0.3138408850038112 -0.4335367336184662 -0.1235949731912068 
-0.7037690014895954 -0.1157312743044679 -0.2349248932291799 -0.6439793078296758 -1.147160316801082 -0.4691390244480081 -0.8933726202033577 0.2780262629068016 
-1.374783632060773 -0.1608306642585162 0.06227175361541759 -1.004442308203385 -0.7537839371636891 -1.180919680850502 -1.057275740022572 0.2759374323644888 
0.3137007395665539 -0.1043567980775938 -0.1199457781122914 -0.02837933995320706 -0.3320793372006309 -0.1770298074834109 -0.04461909440355662 -0.1841413656761331 
-0.4872752137560458 0.6498586821767116 -0.6397475805774538 -0.08104448402218760 -0.5680096785341846 -0.3470589258561327 -0.3798510681437441 0.2012227915368952 
-0.3481189681247828 0.2171038469278151 -0.2213108511721072 -0.2682218892896590 0.1459939369564213 -0.5716361987659817 -0.4688815020916703 0.3080057246983431 
0.1265833586700613 0.1616362114043729 -0.03243552512701985 -0.7254987760970929 -0.2101289063251179 -0.5619454087357552 0.05408711419914498 0.06752681766062528 
-0.1679902892045636 0.09001239216495874 0.4617330170325782 -0.2449658873085887 -0.09276726363986333 0.1559205524632682 -0.2849116134433049 -0.1824225181642166 
-0.1574161165480821 -0.1195493539338084 -0.2071699145705592 -0.02254942575107563 -0.5326616783430331 0.2377647967023516 -0.5522253680513948 -0.3310359032484715 
0.2409910779683619 -0.1003446721178132 -0.2206336176586592 -0.05651033635289041 -0.04751969670468020 0.2649146557158837 -0.04365899764410892 -0.05451061892423909 
-0.1083068651973708 0.02692811812795890 0.09328223019092076 0.1178255432556106 -0.2400261687245933 -0.2525007537230519 0.1499435845989691 0.05411580589400665 
0.3558374833199981 -0.1139756834847551 0.2516033430592568 -0.002364712728729545 -0.004399716147082824 -0.09541585921700943 -0.001905230354850334 -0.3028006517872522 
0.005622811254330659 -0.001435482832443019 -0.004260362978333555 -0.009875649644194793 -0.008529243831981944 -0.007020246351210825 -0.004960160816791911 -0.01041076059560916 
0.1979908054072325 0.2928111591331700 -0.2288661107134539 -0.03374220579519826 -0.04728338618759222 -0.07528917558624384 -0.03688279457007562 -0.1362516303970144 
0.3120343281178764 0.4469769224957680 -0.4157284533863618 -0.09435851504748742 0.06634719614348332 -0.3246344657596407 -0.1299345491300412 -0.3010318673969603 
-0.4760196518739058 0.2659061159546096 -0.2698135671239896 0.1670251804151015 0.1487664203422486 -0.4895156392299883 -0.1650040312402910 0.1471179479671787 
-0.08791257324807807 0.5156194639270238 -0.05952793383685580 -0.01655789021985062 -0.008265206747075048 -0.01428243113292335 -0.02776426331494139 -0.5392032394572253 
-0.06197372658590775 -0.2893878872584880 0.06772937561133133 -0.01294803710061116 -0.01675687556889940 0.1726641975479457 -0.02972464389657259 0.09449566210088750 
-0.02997640293457110 -0.005269014742221388 0.06985770964489665 -0.03138001131589464 -0.1593881002528514 0.02624593717959386 -0.05050351028670103 0.09513966969068219 
0.007489852600156693 -0.0007679125914974374 -0.001230141453067238 -0.0004868419851576977 -0.0008371374909136907 -0.0004799468738155656 -0.0005845239091650008 -0.007989201071128330 
0.007690892268050725 -0.0008063923011646698 -0.001354757594995874 -0.0003165767284946694 -0.0005720076983692860 -0.0004449289163445958 -0.0004340572610040363 -0.009684781738647865 
0.04315700265940458 -0.01032229422486202 -0.01471178182832621 -0.04374315295844007 -0.01020797795426860 -0.03039659233960127 -0.01680180230938922 -0.01244859413873939 
0.07614287165052591 -0.09648411098221023 0.1440696716837895 -0.04271231380784313 -0.01886954905372313 -0.07872781086403423 -0.02149084371238897 -0.04449725780600265 
0.03666053268305766 -0.01187659927362714 -0.01248690464339014 -0.02705787113689809 -0.006772082619895054 -0.01986679054384367 -0.01028910870431843 -0.01052834815180362 
0.03571992842562340 -0.01224703666360548 -0.01395892195309371 -0.02723111838726238 -0.007976556301100460 -0.01924587888900199 -0.01125465609648467 -0.01157424636014149 
0.04644339631615777 -0.01048763997944784 -0.02467996355208581 -0.03162093034015878 -0.009457286538288718 -0.01702649717563416 -0.01006376934532425 -0.01117230185375046 
0.5316161582530172 0.3158058478160791 -0.3264282055031018 -0.05498398485290971 -0.08258046345890340 -0.1244614247922400 -0.07922923086199518 -0.4902875102226059 
0.2639631321268783 0.02304215720637183 -0.1749909585874198 -0.1233276582500399 -0.1100569220328370 -0.1272373449666221 -0.1385292580761792 -0.1089336845218669 
-0.01392372637118462 0.5747225744578494 -0.3058927031343031 -0.01479062167531608 -0.01450544904133785 -0.1573014042380102 -0.01004892449959801 -0.08021741003017081 
-0.01081685408442953 0.1126338538623686 -0.09606161519023370 -0.0003453191992204742 -0.002308594368522798 -0.03119571513921660 -0.001636564185448974 -0.003757249820823945 
-0.03285807701723553 0.1397980686705607 -0.2193620156928657 -0.001906265498560952 -0.01360232344158151 -0.03144555182322081 -0.004063875262012360 0.1085834431252996 
-0.002525728006853043 0.1384834901598950 -0.08333827112644805 -0.0004019307407325409 -0.002896575505212700 -0.01961654654197576 -0.0008735011357402780 -0.02619698030251885 
-0.01162522074979489 0.1811745373463267 -0.08563623122888040 -0.0006186906600825270 -0.003602176447406958 -0.04632055798271761 -0.001555049452660222 -0.05960204743509250 
-0.003421747765071768 0.1141623182990655 -0.05233087154032584 -0.0001035008750315962 -0.001727722291100759 -0.006545778027780823 -0.0004600514273718639 -0.03399725794617246 
0.002467553619653985 -0.0007219325914218035 -0.001032459839762906 -0.0006411218595505553 -0.0009054253305066814 -0.0009137092443955915 -0.0006521872906368038 -0.003789133185195978 
0.03018290438399113 0.04452033161914892 -0.01300707315821177 -0.001423297013189614 -0.001795034840386300 -0.002694392180198989 -0.001683118425418210 -0.02055273458950080 
0.3079346555414143 0.2826524154852712 -0.3198247373841738 -0.02338762028016864 -0.05632498765913870 -0.1108696275276418 -0.03423925980030724 -0.1477929338230587 
-0.09652832688370555 0.7211076036991750 -0.7456679367105634 -0.01018926216432623 -0.03103573855856334 -0.1130217809601634 -0.02461503541372143 -0.1497549818554920 
-0.01141328532291721 -0.1654609441730298 -0.04507523185034803 -0.006481678561380860 -0.003482070928042440 -0.05343290456449991 -0.007554371253701829 0.2582044942842277 
0.4192736498885911 -0.2730721051507339 0.1455118348127653 -0.01517630128367073 -0.01658357996378736 0.03339483755689655 -0.02105218696045372 -0.4031248890914219 
0.2654274471832143 0.003610319638990189 -0.002854155601917504 -0.002104176721617368 -0.002148664901402744 -0.01227077305863563 -0.002512669062151649 -0.2166877154304819 
-0.004381765888654608 -0.3587927844273819 -0.01474843553447594 -0.001691700192238258 -0.005627234506623580 -0.05507660097690916 -0.005185580023881953 0.4292295210078170 
-0.1494282879566391 0.008727984810537232 -0.001027434064496201 -0.0005870468065826958 -0.0006683966079262269 -0.002917763864238288 -0.001081843694407747 0.2048927737041342 
-0.1687825836462658 0.007900892002555246 -0.0009191270171493122 -0.0005994184962235613 -0.0004440154173455548 -0.004928625831506177 -0.001030368143443684 0.2025454783282373 
0.04271176502179129 -0.003964190517207356 -0.001158835185841318 -0.0006709426834913250 -0.0007760792058682137 -0.001176429808949593 -0.001206945721424025 -0.05362273294314669 
0.01579890629124058 -0.04888248725636895 -0.008987659864690410 -0.001176262941792996 -0.002962112047463234 0.02675978038973917 -0.002587315217842396 -0.01732708477463561 
0.004946325845651482 -0.0006753117091274187 -0.0005040322500771232 -0.0002640053848777336 -0.0003266363348303559 -0.0006498631414470893 -0.0002750838059742509 -0.001593190130915844 
-0.6166231917840869 -0.2538502357856215 -0.3745859125824140 -0.1281175975565944 -0.2388693210201812 0.3113395017302285 -0.1671027305638920 0.8282457994615838 
0.02006583658654060 -0.1576017907340378 0.1303124764247029 -0.0008153811140714467 -0.0009624655655192272 -0.002642633398850388 -0.001042602884980376 -0.02504417631391507 
0.01684694568484032 -0.09918521741096269 0.09883965789465642 -0.0008612095781871097 -0.001181832360547334 -0.003298734139871486 -0.001107860433210870 -0.02782435214244057 
0.01303021010227219 -0.1203188234098243 0.09267731001786400 -0.0007170996310528255 -0.001389303131632772 -0.003143424663942086 -0.001375254659887744 -0.02882388535536153 
-0.002794815329996954 -0.1174425398084502 0.1312798135520095 -0.001030246587814138 -0.002455644418609096 -0.008522251992286137 -0.001840989687285018 -0.02499137843558519 
-0.07846049430964588 -0.1672012473946394 0.2486354421341930 -0.001542559979170778 -0.003973671795883074 -0.03490350292292505 -0.002624949562742750 -0.07030615794201311 
0.01205892413589399 -0.0006764681566014724 -0.0002526365064922055 -0.0002706287193457948 -0.0003726676038302537 -0.0001347686673597378 -0.0001814790058432667 -0.01185832958081024 
0.01205892413589399 -0.0006764681566014724 -0.0002526365064922055 -0.0002706287193457948 -0.0003726676038302537 -0.0001347686673597378 -0.0001814790058432667 -0.01185832958081024 
-0.1348025288243844 0.3966347338274918 -0.2929023490009683 -0.01987813505536161 -0.02149518348641817 0.1176725085511505 -0.05398124948093928 -0.1101473782750954 
0.01215250790999422 0.06131470608255961 -0.005929425018412097 -0.0006706618180019928 -0.0007321670260939430 -0.01548698862791929 -0.001166374358421021 -0.06724191512530141 
0.001522213160987200 0.03807160756768764 -0.01032441764135429 -0.0008276590648115103 -0.0007045013111385170 -0.01531945111592137 -0.001131949859058220 -0.02430367554193448 
0.001653346462195726 0.04861934959949461 -0.02290385900040652 -0.001248773011420609 -0.001484704944422725 -0.03202545809561375 -0.001983685894975168 -0.02312791000121447 
-0.02827050362299288 0.3013198642357535 -0.04292331302310039 -0.001271822221063627 -0.001075966359695606 -0.09013100162180938 -0.004205328007962157 -0.04103302405300245 
-0.004703561053639897 0.04977339092730967 -0.009136273397397130 -0.0001597646873467353 -0.0003869255954023698 -0.02115707086794787 -0.0004896380895121071 -0.02255314852009122 
-0.005176566924257971 0.04376246286957713 -0.008928039225630494 -0.0001592565514731271 -0.0003894965532414135 -0.01971831688952282 -0.0005015688771335020 -0.01885872267934078 
0.06762043929122907 -0.08440626236993737 -0.1363068892168862 -0.009069314459131334 -0.006513764459493728 0.1509309911912488 -0.006581368442520123 -0.09589969431233485 
0.006622949612284598 -0.0008663628432152787 -0.0008943220084771085 -0.0003721634517963864 -0.0005170892292295491 -0.0003890922727535685 -0.0005744176166373642 -0.007171697404996897 
0.005272047751365139 -0.0008121593077396010 -0.001111400595922133 -0.0003870197087921090 -0.0008446263274931846 -0.0004585508308601303 -0.0008127262001301025 -0.007937179093856460 
0.02706301161757048 -0.009749939333071772 -0.01015626380722577 -0.001785922784778872 -0.004034724385005572 0.004471196606014919 -0.002354978349942792 -0.03169212944462317 
-0.002737115418030521 0.06170300142064947 -0.1124048349769968 -0.001488385277252843 -0.002732941557123017 -0.002534261521382972 -0.001653271377663121 -0.04242085599684377 
-0.4959234115050576 0.1725700326930943 -0.7736888987850501 -0.1024303929125337 -0.1788510944867841 1.056856656609494 -0.1518454331499269 -0.7350339125740393 
-0.0003022749970215960 0.01757094961145021 -0.03639142979296836 -0.0002816526737852633 -0.0006427902641248848 -0.0005964910716400908 -0.0001357098955560108 -0.02163721073108755 
-0.0001925508331181323 0.01550926441776574 -0.02264059347107203 -0.0001408399001429565 -0.0005894172077944702 -0.0005654181927942603 -9.333576702432021e-05 -0.02226015669970804 
-0.0006303328713173622 0.008767325133370408 -0.01831355064618256 -5.259016889118325e-05 -0.0005080604456493445 -0.0001293635331341237 -6.949667731733020e-05 -0.01474632719802062 
-0.3666092892825418 0.8970588228365324 -0.1057129436448185 -0.04456846560300472 -0.07103777430763536 -0.3962990873416961 -0.1185897956822998 -0.1613640732598357 
-0.004841731045189228 0.05927592976302703 -0.03575212385243543 -0.0002321439070638941 -0.002116645161961413 -0.004722954945693645 -0.0006196627671703547 -0.003471967002657914 
-0.002995038728078231 0.04762691021085562 -0.02280330309044431 -0.0001158695106184227 -0.001934385101894624 -0.004437476227587634 -0.0004274957260882864 -0.003521509195127935 
-0.003041324620893298 0.04281477561179550 -0.02152529963074740 -0.0001148420106217096 -0.001924569319452142 -0.004302041102760655 -0.0004347053057485247 -0.003523577179019902 
-0.001899604899924593 0.02186831518459150 -0.01125013733560096 -0.0001081993864863194 -0.001103894362730867 -0.003029074815439675 -0.0002965132910617139 -0.004190855457440402 
-0.003250418046926475 0.04094653136336095 -0.01278632131462471 -0.0001212376888081309 -0.001371614459515124 -0.003921879412763784 -0.0003282570954981963 -0.007779816692290916 
-0.2778415938128278 0.4976073157554583 -0.3504846070124812 -0.02731254106721153 -0.05110127469559923 -0.1591697016630971 -0.04241598198042557 -0.001890808832826379 
0.3644427332429375 -0.02309688948949075 -0.07304334269618654 -0.01620526228797408 -0.02420979534474201 0.05170271643316779 -0.02528676001604435 -0.3644538036362141 
0.2606503469797677 0.5447971752423211 0.2350658265651524 -0.02800648857748385 -0.04420015238257373 -0.9878211352425531 -0.03578900912341173 -0.2224668577265569 
0.01255150478669350 -0.002860182684572961 -0.002259684083895759 -0.001545638576823766 -0.002137532341312030 -0.001226431972510426 -0.001621494139681948 -0.01817271649763906 
0.1241284786548448 -0.01078762434652585 -0.01179461720698093 -0.004678087187437260 -0.007931260155149760 -0.005467978857045266 -0.005488773081979427 -0.1026518841151761 
0.02199241099825538 -0.005531734412706934 -0.01240733597033955 -0.001093642944636780 -0.002356168724204891 -0.0009816663741853008 -0.002618782772050585 -0.02069410405583361 
0.1314376791688749 -0.004225724472265449 -0.01145829891163388 -0.003016164307116031 -0.004860874305482926 -0.003536947702302444 -0.004320167068362818 -0.1892314310914522 
0.007779350807477580 -0.0009609402053386223 -0.003667556142986544 -0.0002976829930333831 -0.0005719154295600504 -0.0003200532235038595 -0.0005447420067537952 -0.005330840810611762 
0.1689152980135357 -0.1063429920127909 0.2860109768245725 -0.03824563552162778 0.1995396211943349 -0.1951242272215191 -0.04789303101050219 -0.4998417931894489 
-0.1816281979516415 0.6106006220599519 -0.2040002913893759 -0.01077656210096584 -0.02987076996785469 -0.01785515193848842 -0.02275810924546334 -0.1265181018001078 
0.01760508288609048 0.2296116078461442 -0.008401268301615812 -0.01460274714113257 -0.004111084710675833 -0.04162915260454754 -0.01846724902937693 -0.1052192128567732 
0.01537730306686174 0.03698747806444216 -0.006771037928619321 -0.0008701821994754830 -0.001361751457994224 -0.0003904829821547450 -0.003898875222731201 -0.04748574351052763 
0.02957056580753082 0.02868763621356813 -0.01565861411188665 -0.0009764967399551718 -0.001796580695078422 -0.0004832831682961675 -0.003942174741699321 -0.04794976515101661 
0.01672821266152414 -0.002614926731315394 -0.002506702519670721 -0.0002325051744688353 -0.0001842360006539933 -0.0001709169644486653 -0.0002173257857693648 -0.01142095052778028 
0.1395158068577985 -0.008787115664406403 0.08959513939632678 -0.009119150500121133 -0.02023440111334227 -0.03283140311069191 -0.01793088430787137 -0.2253291847884340 
0.07708641983855280 -0.02632338905997317 -0.01347494066282226 -0.004368862581899197 -0.007752479539222589 -0.005386869145023082 -0.005761122634654205 -0.08271612615050664 
0.003451114711831094 -0.0004912505169427530 -0.001516478415906174 -0.001040020499738874 -0.001706080702950415 -0.001153209114955145 -0.001503428593730679 -0.005428170542725465 
0.004659372399222757 -0.0004615490890753160 -0.002007108514753454 -0.0006085491899098431 -0.001362543449677510 -0.0005872364861314711 -0.0007260236828151210 -0.005431267487187485 
-0.02666783316508230 0.01535723201799985 -0.006434662675554978 -0.01012207514835994 -0.002829493780939576 -0.0005821257659970841 -0.02422375077831352 -0.002020332283658059 
-0.02956369584126830 0.1815787342665748 -0.1770460526518983 -0.01279110763195972 -0.005220587506984892 -0.04108365117997892 -0.02703899806337775 -0.007598795956514564 
-0.002895862676185999 0.1662215022485750 -0.1706113899763433 -0.002669032483599779 -0.002391093726045316 -0.04050152541398184 -0.002815247285064229 -0.005578463672856502 
-0.001224608260924178 -0.06996126183890514 0.06315303879375124 -0.0008857964027644971 -0.002155370705587392 -0.01247270990251574 -0.001189690840811340 -0.007946157277298287 
0.006244490927833747 -0.2239976509932480 0.1519546514837084 -0.0009279985231083068 -0.001751522957748601 -0.002702253151137849 -0.001274477015081113 -0.01152514019799130 
-0.004934660301952960 -0.4713531211883846 0.3476704727792633 -0.0002801592876604333 -0.002187792414594205 -0.005137926681824832 -0.001006640211329905 -0.01102716869188596 
-0.4888534286724769 -1.129282473291436 -0.3390125988825699 0.1206351293539467 0.006462116434535979 -0.1991738996909990 -0.1594490142956928 0.4110800381740088 
-0.02220322566819944 -0.007384144995542430 -0.01253881554894614 0.3594731614447269 -0.008992978246616355 -0.005412721670433978 -0.01008368908190879 -0.3874987255132447 
-0.01857156667772242 0.03499734527512191 -0.004088632517242730 -0.001988931011225395 -0.002876015206394563 -0.002253397727077085 -0.01913636490813984 -0.009032201382230437 
-0.1575923678662200 0.1653365274893500 -0.1435071354260448 -0.01628430672272708 -0.02674295658500071 -0.05573270968937136 -0.03149442344417091 0.1865938287141041 
0.006922233414765049 0.02575593766571910 -0.02702271964365703 -0.001594543941639180 -0.003709240474938401 -0.001525606648119552 -0.01526685256999708 -0.01168541963414630 
0.05928502142182730 -0.1652937349236410 -0.02004713064297592 -0.005236680402004297 -0.007379306149110624 -0.009175942678977672 -0.01429221486336803 0.08395841159432854 
0.007685880986052410 0.03687102404591843 -0.008739383724925763 -0.001628485314006712 -0.004569801721292574 -0.002637093515978426 -0.004475802707890031 -0.01380846083622813 
-0.01852165324301780 0.08217066614838581 -0.05241880926594184 -0.002533072737740351 -0.007843690130257446 -0.003025689393294171 -0.006928086404366441 -0.009226996186723369 
0.005605908130541154 -0.0006933614347743630 -0.0008504992334916419 -0.0006230135203802505 -0.001076731577093024 -0.001086678514711787 -0.0009055099820971378 -0.007455966848652079 
-0.07035272894536572 0.2454337699750914 -0.07166562348883493 -0.03639324681322686 -0.07115415343441843 -0.3563472188104022 -0.05297504663200928 0.2598879890246645 
0.1285087578924858 -0.08062615958956415 -0.02571913069934115 -0.003587818247684271 -0.005843670268926030 0.1156220687830723 -0.004696860468755155 -0.1181292297999862 
0.08012990213326765 0.1598495695878740 -0.2433439708813555 -0.003467257911967413 -0.003701973660163788 -0.005847614212892014 -0.006476835526325927 -0.1495002296429398 
0.06366127068167354 0.1392494810471361 -0.09329453885869760 -0.0006689607233553679 -0.008446510912585718 -0.003641233063680388 -0.003048732218383520 -0.1031728296824438 
-0.01501000744543337 0.1881943230224873 -0.1012159052383983 -0.004574645423325655 -0.009702398087282800 -0.004204698806888986 -0.01044630225626070 -0.1187614529047749 
0.02947336236323197 0.01462065878601436 -0.007687805820886588 -0.003621668472192729 -0.001969459592510160 -0.0005671461318793034 -0.004736393039743461 -0.02914344604392754 
0.05246411810826789 0.01290379607284235 -0.002756532071215569 -0.001436774189496742 -0.002631377036916170 -0.001008685620704791 -0.002560324925967874 -0.1193622213078826 
0.01279210908674986 -0.002237842836439713 -0.006944995654281495 -0.002587078283872295 -0.003925195712453431 -0.002536119742002236 -0.003481309223697622 -0.01967609283609112 
-0.04343326367865235 0.02293753626027870 -0.07724213756003104 -0.001962013256825654 0.1503818717212803 -0.003804790658412694 -0.005669213437213043 -0.08895054154894715 
-0.007660739989387143 0.02882705080518608 -0.09557634607512303 -0.003010237279481670 0.1848901071013264 -0.006265722339067623 -0.006089642939647671 -0.1734916491444078 
-0.01171273421764256 0.1178954308334718 -0.1514539702262512 -0.0002442038332014447 -0.001047820069319637 -0.001750749169533911 -0.0007115340518883968 -0.009361591487255377 
-0.1052467481759477 -0.2934354825798463 -0.3945943710225744 -0.02474894178426085 -0.01749891601713296 0.4399436460066901 0.3329059931037460 -0.04285181792389094 
-0.1434019199498270 -0.09120653395183101 -0.05556817823418936 -0.003621501720579476 1.117620987329697 -0.03427855015287976 -0.01577073821699396 -0.8291631368470062 
0.0009438782167332792 0.07908344033446177 -0.09458616897188452 -0.001287616309227296 -0.002655592155173515 -0.003098625703144258 -0.001619572660307152 -0.1021756930241181 
-0.003585164197219537 0.02911760298222995 -0.05654993449376593 -0.0006291993951382627 -0.001466991937156321 -0.003794091754947130 -0.001052337073423762 -0.006572889278810900 
-0.009247639537429147 0.2190141217700803 -0.1808414643822194 -0.0005167779985305248 -0.003721130547860791 -0.01910416002737852 -0.001428117645664967 -0.1311007598779100 
-0.0007477401093823954 0.1126825333477578 -0.1351783659809446 -0.0002332054961039944 -0.001310184156014432 -0.0005006199194536599 -0.0003102560697987748 -0.08313712230484799 
0.1597575667219631 -0.002703368832266947 -0.0001097682735957906 -0.0004612162090018297 -0.0002929131584619434 -0.004787800684093718 -0.0002584955998583165 -0.1711258605154115 
0.04741017952505365 -0.002851833703903926 -0.0003466692319303193 -0.0005126253548645022 -0.0003638671148919800 -0.001222902397278820 -0.0003811662872004368 -0.04627136481014274 
-0.002331464012143346 0.06727926970547823 -0.01251068667042083 -0.01543908477730422 -0.005210357562191576 -0.04467574257311008 -0.008255829254284386 -0.007337387475240697 
-0.004263674129445336 0.07887159750424175 -0.02099271000208337 -0.01200244798762784 -0.003766894847088342 -0.04479446140022814 -0.006329025018160601 -0.01148690117279320 
-0.006572036966368188 0.2015721491784220 -0.09765677117462578 -0.005632446883265804 -0.003158761871968071 -0.1136413246750114 -0.001551379740246813 -0.01256562228713888 
0.07404211478230825 -0.002735846355500378 -0.0002726311550829061 -0.0002402919040475662 -0.0001760417586469335 -0.0009160266299944747 -0.0001060758868461013 -0.03991057459499725 
0.06785847511311270 -0.002494455535219077 -0.0003946864488881619 -0.0001925923842159357 -0.0001422988706021368 -0.0004087385569539869 -8.938100786074219e-05 -0.04233473677630222 
0.03592500451817855 -0.002118751858104680 -0.001478867403741312 -0.0006736664996809971 -0.0003720700803926482 -0.0007438498914510689 -0.0004928235687056757 -0.02954261209048117 
0.04042880527466873 -0.002325142510464209 -0.001745697885726820 -0.0006783074998304491 -0.0004377840023815357 -0.0006677857946518315 -0.0004781911394592777 -0.02835781381738111 
0.03576145162288114 -0.001829300786067961 -0.001573612136347637 -0.0004507598173294705 -0.0009532919786004931 -0.0006662270075178567 -0.0004628130057993470 -0.02981876458631764 
0.02785882862380325 -0.001741732310660466 -0.002837706318673183 -0.0005110480636651009 -0.001142224913478198 -0.0009085727691431973 -0.0005188177243917740 -0.02372527655368946 
0.01421950017134331 -0.0007760138241332288 -0.002017555445955516 -0.001285548038881337 -0.001381486589175608 -0.001087935005356003 -0.0009663337648523371 -0.01221659082490777 
0.009452623688068457 -0.0005165931560224021 -0.001339696085721328 -0.0008500172992032737 -0.0009219830337166392 -0.0007293942111865541 -0.0006511969925330847 -0.008130313521263987 
0.2518447649212428 0.2014935539706382 -0.1618106056952624 -0.01356069369599494 -0.07587723881174682 -0.003747191620475209 -0.01838915903684746 -0.1247758975356212 
0.003176167352160048 -0.001228838905787579 -0.0009203323792236410 -0.001006734402491791 -0.001836326033266188 -0.001387135959125751 -0.001378272443721615 -0.007125242515411587 
-0.2491160330794614 -0.2023594473203319 -0.3683876218343258 -0.04047118993886842 -0.06186669966925258 0.2545129775036628 -0.04975815858765016 0.2387703091966633 
0.01708462638453838 -0.001008649008353385 -0.002509698575931958 -0.001387741773194341 -0.001881238075691242 -0.001877075398638416 -0.002152703417042263 -0.01745817893832917 
0.01452999094412063 -0.001118270449102523 -0.001036570276789744 -0.0008380930818416531 -0.001093041484690737 -0.001000168871975737 -0.001296282877229193 -0.01820686125397419 
0.008957642933588753 -0.001050605981753189 -0.001755461949643500 -0.0009153999239195553 -0.001642453381803276 -0.001095334180027097 -0.001310847644317583 -0.01030868112706864 
0.1424166544569414 -0.03357237324518204 -0.2799845104070265 -0.05657383912801665 0.05954556417020118 0.1954542788676589 -0.06688719309915930 -0.2257379009987727 
0.02896838743963219 0.1642562574184244 -0.08229478773339880 -0.0009313773781021173 -0.004909137356963613 -0.04418209546494441 -0.001800668426751798 -0.06047971390133650 
-2.620922985900208e-05 0.2434770817423166 -0.1446593253475583 -0.001995532515743417 -0.009055293838560506 -0.06548899603180665 -0.003009228051573272 -0.04526710860260053 
-0.04573748977828908 0.2906191706503062 -0.1559137639778747 -0.004856735508304210 -0.01206278450413882 -0.07297823055926594 -0.006789452408865882 -0.04077249949466046 
-0.04696684113709511 0.2061034500960775 -0.09725308168125507 -0.01020534477886786 -0.009634876338654667 -0.03914525227830439 -0.01572068943563713 -0.06752639896167027 
-0.04217730773895212 0.1488575110887661 -0.07559021903404434 -0.01055659061789178 -0.009731636823283048 -0.03112093934238590 -0.01645658703933106 -0.05641089398324651 
-0.09367991660167382 0.1321137462800840 -0.03285273284634250 -0.01126578899697710 -0.01381908745405589 -0.02164950902506446 -0.04174152378398355 -0.06330181525493778 
-0.07847353705495305 0.1388617902061112 -0.03664143786110481 -0.03442282124123437 -0.02898030298860436 -0.02784381238344769 -0.07701197780667697 -0.08213096517880468 
0.02952681628801271 -0.002777571443130890 -0.007641061757387433 -0.01460005640758901 -0.01363734790033820 -0.008461504341061948 -0.006575056455295503 -0.02759991927305623 
-0.2313645719339841 1.024884824814327 -0.2860275416488255 -0.01838695473040118 -0.03188839954865892 -0.1572341598206328 -0.04319430741881207 -0.1721835567516438 
0.1948561589642878 0.07918409751771203 -0.02589359630951500 -0.006838604492154913 -0.002954112082229403 -0.01990168607093273 -0.008265503207191760 -0.08849820470127116 
-0.01580467965854242 0.1058321215855674 -0.01707329308755490 -0.001522395771473108 -0.002003215291574098 -0.02021181128500531 -0.004538485440420115 -0.01689445257714396 
0.05226216517993539 0.04325093681521482 -0.009128753347651598 -0.001028858491337046 -0.001959517192736699 -0.02738331090098716 -0.003371890983540572 -0.05223718349745329 
0.05661012963144996 0.01579155408857479 -0.001971944620445365 -0.001745556371162433 -0.001973379514886835 -0.007421428155755860 -0.006671311033505567 -0.06739134616896639 
0.6968613340003329 -0.3439595483022317 0.2676995066189991 -0.08683351061431582 -0.1858695005077853 -0.07247090969789911 -0.1229329785148211 -0.7845934786964002 
0.09807401547961618 0.06452751631839995 -0.04565129378244950 -0.005733775847296199 -0.009121890789327366 -0.03649084463412823 -0.007564152116890147 -0.1097215911010232 
-0.002902744268573689 0.3300922685671954 -0.3082529105445875 -0.001518823157689058 -0.003075024905079792 -0.01320776840387038 -0.002520972081837750 -0.01771266034501024 
-0.007662455386545536 0.1718424219288595 -0.1839553203038464 -0.0002264157593248685 -0.001452352261398377 -0.005148229124577177 -0.0008786398261434398 -0.01867225887956804 
0.01404639186084945 -0.001400084407611465 -0.0007673832307971513 -0.0006326145468574530 -0.0007146261050238985 -0.0008090899564848535 -0.0007445233428442022 -0.01052804610000832 
0.007458496002653115 -0.001693618178749949 -0.0009555537735958018 -0.0005448624763072683 -0.0009511143445337289 -0.0004692123820990878 -0.0007387302171302775 -0.007374758561392002 
0.01179276244022862 -0.001000747594573643 -0.001016517435250362 -0.0004265246641767725 -0.0006598869924243258 -0.0006352661020451821 -0.0005386141448435646 -0.009695352331755710 
0.01071720788041896 -0.001882987348018186 -0.002221551195658283 -0.001906374698886650 -0.001320083410013036 -0.0007866457897131844 -0.001187731147433407 -0.01091997611486530 
0.3580872421916380 0.05658321721532544 -0.02575940868701952 -0.007678217094971204 -0.01278070478513920 -0.01096184785687153 -0.01094310280849965 -0.4388243747156745 
0.01129829639569214 0.08527076879079602 -0.02953193383524902 -0.003461795482362307 -0.001927018645406566 -0.01225665294638281 -0.002549542921471673 -0.04823773182322005 
-0.02707912775429565 0.07098214284216081 0.2759611556300173 -0.01070533678681990 -0.02200606756903429 -0.02449596337302925 -0.03173310087436633 -0.3270276289102174 
0.006292580650427853 -0.0004245848874217140 -0.0004789650380404997 -0.0004208387629623829 -0.0004413339555203422 -0.0002975878239932096 -0.0003077347758004889 -0.004216512055312437 
0.06566375122725891 0.03350035580627671 -0.02649922559647919 -0.002214618473046087 -0.002323412871191581 -0.02350063408840660 -0.002840020597055145 -0.04604811327952411 
0.05240958674661159 0.009449645178818494 -0.001899562913489032 -0.0009869171178955088 -0.001198351096816799 -0.001741183069590213 -0.001913664838443634 -0.03235207644775905 
0.1960019244585372 0.02914211813531987 -0.01272477212256183 -0.005861169449098107 -0.008093505718035788 -0.007475523712652067 -0.009474334878610276 -0.2441112636431648 
0.2885918956217796 0.02134621376455742 -0.01411829594955474 -0.004481056984111250 -0.008273034280536908 -0.006388232078286876 -0.008610584596506635 -0.3365238947995870 
0.07122183713571420 0.006024569255425501 -0.003224354368274568 -0.001153160151888195 -0.002084096986553235 -0.001963217542692025 -0.001921353567168226 -0.05105862306234812 
0.08382764494229424 -0.002290999699150248 -0.0005393203027228591 -0.0001880195316573996 -0.0001597180304672271 -0.001779516151348703 -0.0001477095605755990 -0.08313421540962540 
0.04030761944913280 -0.002321134298777633 -0.0007711296339598258 -0.0002359235946916329 -0.0004176466442297786 -0.001605583978033634 -0.0002640883752197917 -0.03414814515964183 
0.002091031749810215 -0.0003418152409150560 -0.0008236483354258682 -0.0004014756734250670 -0.001198042938483500 -0.0003302086650357377 -0.0008264308739487635 -0.003357727850380654 
0.002091031749810215 -0.0003418152409150560 -0.0008236483354258682 -0.0004014756734250670 -0.001198042938483500 -0.0003302086650357377 -0.0008264308739487635 -0.003357727850380654 
0.004578563552927161 -0.0008026153154214068 -0.0005487049591366372 -0.0004840532094206974 -0.0004262576484748140 -0.0002382729382204831 -0.0004150152886881883 -0.004343387824893437 
0.05062010714599875 -0.004088867866122762 -0.001417375734842280 -0.0007076666331708416 -0.0008849747563923328 -0.0009433035802301356 -0.0006839049572216916 -0.05150538374724933 
-0.1804795020454413 -0.03761214799146120 -0.006857292054958115 -0.002786039119931838 -0.004057094601820479 -0.004266743633551696 -0.002931431237733063 0.1916253090818794 
0.005068166786921015 -0.0007035949282827270 -0.0009272920180377012 -0.0009019689650937074 -0.001288261500914101 -0.002182035121772653 -0.0007313679612183631 -0.005886364562520697 
0.006979019455003646 -0.008769465371976620 0.03805398820264862 -0.003907153404622128 -0.003795352053163577 -0.08156461074826010 -0.003357186966167442 -0.04016928297838034 
0.01035680847040911 -0.001060156332804687 -0.001748284326590309 -0.0003609307031099767 -0.0004746106194488382 -0.0002103069736017693 -0.0005219159377058645 -0.01000344679373756 
0.2616298437455815 0.2169178072639857 -0.03378305005658045 -0.006162958993721869 -0.02449939572351899 -0.2602037376483421 -0.01046098355560672 -0.1992792882705133 
0.005132289710459905 0.004330540896661182 -0.02974342240979260 -0.0002513073492702801 -0.001461284319358522 -0.0008480795471015521 -0.0006015128546640895 -0.01254328385855064 
0.005201039720610422 0.008303623238772198 -0.03550167315755522 -0.0006680353313176634 -0.002156615519225795 -0.0009451963182911218 -0.001612899227274656 -0.01429437783757283 
0.002895285639942586 0.02481708376668086 -0.05455704832417833 -0.0007068262142836269 -0.002707493064021463 -0.003319695263884453 -0.001658727952825191 -0.006337947486775630 
0.01533046651756176 -0.01719952215562341 -0.002655697891980754 -0.001405483812682187 -0.01302875883781112 -0.001710252516091893 -0.001211779572338997 -0.05082394507963535 
-0.004478622079540192 -0.02626928483717423 -0.009283074887745893 -0.005642961914210487 -0.05425514232447473 -0.009447451433613816 -0.003748082024911922 0.08272615558253728 
-0.009700550500390396 -0.008155278769311367 -0.01203082409571288 -0.03444736815487947 -0.005981831209075997 -0.003203902727638382 -0.003211102136653831 0.1380298836132742 
0.2961164855534401 -0.7412586583422905 0.01979262003911060 -0.05159602526017625 0.09835826521103556 -0.01900651762031180 -0.07831454314198155 -0.2933282389528352 
0.008887188496125305 -0.003262837790020914 -0.004333657761081855 -0.001659664464306245 -0.005359497642037346 -0.001245543260972091 -0.003094139858205223 -0.01657386529229315 
0.002530668018095082 -0.0002526195683983148 -0.0009056865647283712 -0.0004080304531803529 -0.0008967839187476770 -0.0002926573906794288 -0.0004928910251033363 -0.003550217612173513 
0.01643232508837370 -0.001789245355660416 -0.0007454647012159917 -0.0009599077779000959 -0.0007272665820805045 -0.0005540190654057034 -0.0008394761425776080 -0.01571554817983726 
0.05652873653062098 -0.009965613645213542 -0.006394045722710710 -0.001559139096696831 -0.002603787201865275 0.01323384703711872 -0.002466875764867423 -0.05618789045620319 
0.01380102508013541 -0.002229255999738090 -0.0006332357689171925 -0.0004261086484013389 -0.0005187538558153230 -0.0004734682203379543 -0.0004809126521421496 -0.01262508561020596 
0.01693644194131563 -0.004122122030691049 -0.0006143953906756574 -0.0003421714140858768 -0.0004931270034395012 -0.0002819347923378446 -0.0002512062170044032 -0.01124329949122803 
-0.004851328542649307 0.02020742621120625 -0.01751654969611676 -0.03498162636024316 -0.003409244936289673 -0.0006685054165570262 -0.001919486446848758 0.08538993059537811 
0.2833407490255068 0.1569742532535352 -0.03890247851334711 -0.009234752239737700 -0.006649634755594334 -0.07069051018951349 -0.01163615528230353 -0.3095999004856293 
0.004551259766360540 -0.0002328405201999667 -0.0008194592344658146 -0.001211684876851251 -0.001083941667669997 -0.0005450831776503017 -0.0004777651850477514 -0.002894409240991699 
0.02275011756093175 -0.001199076783435066 -0.0002323306577045035 -0.0001741578072677360 -0.0001519184357984025 -0.0004056059117374856 -0.0001339331637351721 -0.02207613543699124 
0.03527529812304988 -0.001251825759806809 -0.0002302288230561921 -5.687509138352147e-05 -0.0001435218067853014 -0.0002409437496456815 -7.982970562014753e-05 -0.02911542248696001 
0.05639131195213084 -0.07594885955013937 0.04878156932067959 -0.007726882896164000 0.02741264966641441 -0.01043514746213814 -0.006886539603692977 -0.1270000871002732 
0.04182549339484728 -0.1556634219743057 0.1566499067204864 -0.006302076253735168 0.1032995896860368 -0.008358824834890298 -0.005054801061203267 -0.1876351857242171 
-0.01266929132589305 -0.2548457510024092 0.2726381212601572 -0.1726169340145507 -0.03760088549218491 -0.04521057840590678 -0.03550234289041718 0.1136412536430131 
-0.08309430837644935 0.03850152811881676 0.4646796573497898 -0.01928572894970537 -0.04028644334026921 -0.2683674344286745 -0.01815174646337042 -0.2701972958843214 
-0.1322616254219880 -0.04996924436953379 -0.1202615116798513 -0.1701559302841350 0.1215235687630059 -0.01884264117000553 -0.03764684732829614 0.04388378235808339 
0.01107059489310970 -0.0007518786733268184 -0.001363188143756080 -0.001032669076456270 -0.001343842934780373 -0.001291669888677499 -0.001607862140669712 -0.01018465098822143 
0.009753088577392510 -0.0009721455270417861 -0.001129415685540634 -0.0008699569906176802 -0.001196975096988241 -0.001072314324578410 -0.001331422085726306 -0.009940156796349490 
0.01060428808514734 -0.0009482325627869130 -0.001253893040008529 -0.0004663629290602958 -0.0007437054976637323 -0.0005560148736531199 -0.0007105969110339904 -0.009882212998743130 
0.009881429027233645 -0.0007941586737120064 -0.001299046438516158 -0.0004150669310542326 -0.0007853985935640407 -0.0005270475676978555 -0.0006782877016616981 -0.008983963383375933 
-0.01228597444704016 0.1391504729590720 -0.1356429735336163 -0.005937609692896503 -0.003391199660040813 -0.004146634332207811 -0.008778181704573880 -0.01512957118946410 
-0.09193858405607802 0.1657781806496884 -0.02417992841634755 -0.01420999481175127 -0.006186311154154200 -0.003618587694009825 -0.03669300286844441 -0.05406676675462359 
-0.001937840571370345 0.1939788304972264 -0.4160491578305461 -0.01617103196534108 -0.01381288745929161 -0.01179128828506454 -0.02677948615016160 -0.03170632663408917 
0.01199502375789376 -0.002603797480688984 -0.001273241688011046 -0.001351500945128311 -0.002022165019257000 -0.002429198141024593 -0.001925488781789898 -0.01705918693413647 
0.01764476029009744 -0.002327347212668081 -0.002157991830708997 -0.001249440182771496 -0.003031596905527413 -0.002594106038751927 -0.002166932281141873 -0.01622010220746128 
0.08325179464030774 -0.005514458845520136 -0.01207774959612954 -0.007962898731250695 -0.003721430117778383 -0.01130128733935906 -0.005113255496001199 -0.02147237101838272 
0.02443477109309668 -0.1314992501455113 -0.1337393043812484 -0.02324349733435981 -0.04095760102638074 0.02654206448766643 -0.03307539148648822 -0.1500596872427729 
0.01358726756038273 -0.008083916678961203 -0.001191403106767996 -0.0006157512936902286 -0.001208439985821287 -0.0004921190829612011 -0.0009578815739125381 -0.01311583405041679 
0.02797061927282529 -0.2753678420663692 0.02799336341946916 -0.006644047662851325 -0.01351109958293364 -0.02871393323083299 0.2780539975722088 -0.1211041742746093 
0.005095442848965777 -0.003101053879160225 -0.004512323908421535 -0.0004296198328285893 -0.001598715076198124 -0.0004990798926833065 -0.0006124914328494060 -0.003954352121415804 
0.004288441948393958 -0.0002868413888862902 -0.005133181173229933 -0.0001667239664362562 -0.0005023074364526228 -0.0001602129649269059 -0.0003836652275193922 -0.006634516423012988 
0.003972071554567685 0.003003741348932208 -0.0004064195396590651 -0.0001496979512373388 -0.0001198045846702008 -0.0002782308513220966 -0.001071519237225256 -0.008169234265404215 
0.03230923847643799 0.06187199298833270 -0.003199542354817618 -0.001335574160218924 -0.0009666763032080694 -0.008986650008111621 -0.01217422648539591 -0.04589346011979152 
0.006476288451776950 -0.005251861747106210 -0.02787379511333112 -0.007872710139642698 -0.04668424061823451 -0.01131866925260491 -0.008650270883510548 -0.1922845296364517 
-0.006234025629430336 -0.007830013813822270 -0.03075210287137264 -0.07096584727857645 -0.01833319756131909 -0.009880430063363907 -0.01661699803067004 -0.09299263295477625 
0.01478593297408992 0.1357440893770507 -0.09594856931892828 -0.005026605811532117 -0.004473600068731907 0.005744562334455567 -0.004961220768119010 -0.05701825572586237 
0.01697768352421682 -0.001232382769051676 -0.001041496363923804 -0.0007546753691634654 -0.0004983164950825983 -0.0004224736380400366 -0.0004123498491695828 -0.008707055001834593 
-0.2651720709111421 -0.1164964247379566 -0.09507157508034457 0.005381940338977185 -0.1580413684925553 -0.09537431357889506 -0.1069806782190785 0.1975946548891354 
-0.03334168499871562 -0.01739194228322163 -0.01607825585980372 0.2441364660499994 -0.01077773993515608 -0.01193428352101046 -0.01362792253998398 -0.3436983705680773 
0.05005018845702285 0.4357588921233993 -0.3510581301911038 -0.008502042893194530 0.1222521062610048 -0.03890527559815170 -0.007261126893286947 -0.2197785060434712 
-0.01787828457423943 0.06163167214278306 -0.05762546302321020 -0.1783479842852644 -0.07938150509092443 -0.04902201425778972 -0.09207080245508822 0.1203229793675390 
0.02507133043256656 -0.005558092901772845 -0.005190734589465815 -0.002679418165114364 -0.005491718936304743 -0.002684845463197011 -0.003765066949933928 -0.03858738356169202 
0.02007322384929284 -0.003323763278096577 -0.008739970776579740 -0.002086213256271286 -0.005686402450048829 -0.002591225232388607 -0.003450259353265553 -0.03739949697677764 
0.01375705890335977 -0.002947869893537049 -0.007956322482635116 -0.002092907869447153 -0.005553598256322519 -0.002798506149989300 -0.003628786837180291 -0.01845607461652182 
0.01437293197461123 -0.003379652319903537 -0.01295259538172619 -0.002640845604279895 -0.008777573362793036 -0.002865622297060612 -0.004289226815422477 -0.01826351464628093 
0.01841291436852722 0.3936049467051659 -0.3638253600087488 -0.01590930844076291 -0.01595914906540186 -0.03439132420389825 -0.01467138026471637 -0.1035204600932896 
-0.03809313165824844 0.1589133372798240 -0.1020826737037242 -0.03238684084972651 -0.01151640096082752 -0.008907208682061662 -0.02719915178668036 -0.02194053832867457 
0.01381670286571539 -0.07565245686414718 -0.01752464994807846 -0.03285967601885886 -0.01216579871055744 -0.01719452861963338 -0.02579225445140314 -0.05826083645229304 
-0.008319595243730316 0.2662079098264302 -0.3209564371228519 -0.004236032925921657 -0.007209489138020991 -0.01153833233915134 -0.006837567957958611 -0.03516799173545782 
-0.001005332003099085 -0.2288589337119672 0.2203866159176785 -0.001895166853161929 -0.003653789763839054 -0.006216618007764620 -0.001203539195933467 -0.04480817115392692 
-0.1081048966089310 -0.05103729914506534 -0.01879680818302938 -0.1213812341120313 -0.02851094188451338 -0.03225489825822255 -0.03345635226540143 0.07565972597644496 
-0.07519240586752726 -0.04180249233989952 -0.009821440708907893 0.2451441313751764 -0.01723420676842965 -0.01946905797831663 -0.02319849829306860 -0.2591882821988887 
-0.003005190564310669 0.05875472948733292 -0.05841416428039381 -0.0006802668026563148 -0.003712212557384384 -0.01187052861787512 -0.001142616136939610 -0.01150065671673710 
0.07591614301425909 -0.01047014442866344 -0.01813154664356350 -0.006741668691033782 0.05177127117333026 -0.01595009522523274 -0.003871526905472658 0.004193114014744918 
0.1016562131701350 -0.004818248732815675 -0.01257715405784045 -0.004008043633257246 0.2632939072905432 -0.02488556262584305 -0.001236535265485902 -0.2913641669718124 
-0.02533199603955180 -0.02646242728336166 -0.01722154736391148 0.04238735708992395 -0.02025954930241065 -0.02045971743433267 -0.02818736356913633 0.01553855504883131 
0.02224732922176403 -0.02349888129208190 -0.03590162925746290 -0.09768976331398957 -0.02027471796631712 -0.04480052226245091 -0.02495069382103764 0.03253755228429271 
0.06243192019955578 -0.01561507464929499 -0.03056302527396058 0.1973817824448770 -0.02809422545316029 -0.02493854536773882 -0.01731423223750940 -0.2913497690007931 
-0.1794192012006797 -0.04908597235504092 -0.05309742854933290 -0.01321224478338548 0.1682463908041602 -0.06263466301864128 -0.04207049577849108 -0.02020088198383825 
0.02898703826308690 -0.001151472565238076 -0.0005125544821017777 -0.0003608924215390073 -0.0002665455283325471 -0.0005432190457765797 -0.0001844246448654016 -0.02935702332804072 
0.03868277370158646 -0.002751485938587657 -0.003254793318422272 -0.001984100705075394 -0.003755873869579676 -0.001568409985116165 -0.001802206082068551 -0.03886320639238927 
0.02704459071110156 -0.001879478101143224 -0.003824972381410104 -0.001970001515861368 -0.003529929662888682 -0.002479289669943283 -0.001603976986183659 -0.03607274232076574 
0.02312706776587266 -0.0007027672396004296 -0.001129940655426899 -0.0005774922500023840 -0.0006266067471167847 -0.001118148165817480 -0.0003716396549158994 -0.02717890322584418 
-0.03482992245810689 -0.02468391163492659 -0.03098560060894362 0.09693220436892543 -0.03841942136854212 -0.04111604862187528 -0.03488941009970374 -0.1922059637669224 
0.03303943502165446 -0.005813198584833201 -0.01324008278016416 -0.05120414513044976 -0.01634448359464365 -0.01603515759820298 -0.01508215826490880 -0.009565461409460168 
-0.06304654252427788 -0.01933993926255651 -0.02009747098306962 0.1575943833396467 -0.03251385903816947 -0.01896978517472425 -0.03158604592125836 -0.2929440665376049 
-0.06786935747976136 -0.01887071305009339 -0.01774551782877946 0.1481363494993752 -0.02207493777389847 -0.02508089102367228 -0.01980725183479495 -0.1826405023574623 
0.001215923060322008 -0.0002070374518981038 -0.0007283150413063500 -0.0006170318046911792 -0.0006442473293413233 -0.0008664264621529853 -0.0005973879817601133 -0.002751595226560573 
0.001215923060322008 -0.0002070374518981038 -0.0007283150413063500 -0.0006170318046911792 -0.0006442473293413233 -0.0008664264621529853 -0.0005973879817601133 -0.002751595226560573 
0.001219583795578207 -0.0002081679705179642 -0.0007286136117870699 -0.0006175910329452239 -0.0006432704517880161 -0.0008611461005412152 -0.0006112448178836171 -0.002737086874428842 
0.001219583795578207 -0.0002081679705179642 -0.0007286136117870699 -0.0006175910329452239 -0.0006432704517880161 -0.0008611461005412152 -0.0006112448178836171 -0.002737086874428842 
0.01915237326087840 -0.0008358886136489507 -0.001443813286951458 -0.001411253348681773 -0.001367102803913795 -0.001849635503796545 -0.001450313251441176 -0.01295002574002015 
0.01042424909765449 -0.001311036200679492 -0.001488818078051054 -0.001095271757950480 -0.001519271200527494 -0.001396256297310701 -0.001193371442380986 -0.01333929773620679 
0.001192647986895796 -0.0002073683190913340 -0.0007317336137636445 -0.0006090593548096782 -0.0006424373227449495 -0.0008580947429442554 -0.0006037442349585970 -0.002761888967727735 
0.0003737297122010082 -0.0001592266530680848 -0.001204302576928388 -0.004452185064002905 -0.0006994731009970813 -0.002123183495900914 -0.001623016690893000 -0.001609583288195241 
0.0003737297122010082 -0.0001592266530680848 -0.001204302576928388 -0.004452185064002905 -0.0006994731009970813 -0.002123183495900914 -0.001623016690893000 -0.001609583288195241 
0.005772386942251200 -0.0005236896901148820 -0.0008701943033733900 -0.0004276627311682890 -0.0006902842132499309 -0.0004341968596422466 -0.0005085066516318607 -0.005809605392952222 
0.01016146424960687 -0.0005864933611255663 -0.0009076593790093274 -0.0003829939765414474 -0.0004136829665902119 -0.0003563186581474610 -0.0002762011579264735 -0.008081186179326136 
0.001128927625022060 -0.0001861215554799965 -0.0008891955050143813 -0.001729265328315372 -0.001490696994611269 -0.001262999282991254 -0.0008871644903881913 -0.001923092121958758 
0.03469796355545744 -0.01034533860055852 -0.0004683583799581484 -0.0004028883227969850 -0.0003942328790550129 -0.001247979348980157 -0.0006615657464444401 -0.03667628302211208 
0.01527658155946785 -0.004423771587432188 -0.0001886646868907550 -0.0001160206646449113 -0.0001035094212363384 -0.0002484844176657873 -7.918164815444575e-05 -0.007283971056383865 
0.008575552316392983 -0.005763646152280389 -0.0001904258245901673 -0.0001310189473635359 -0.0001358475716813264 -0.0002118402813227145 -7.899880415827966e-05 -0.005579379184919357 
0.01715065922189649 -0.001058247055965187 -0.001180200687739542 -0.0006584411731145508 -0.001115479185967151 -0.001274955761044167 -0.0008794127880695079 -0.01704257757781306 
0.02214208671044561 -0.04818937982584893 -0.004775868437009580 -0.002919863281974003 -0.003051008647830817 0.05042254689697639 -0.002732701514331408 -0.02889695915680016 
0.02001873620630087 -0.0009991030125923123 -0.001240768729744163 -0.0006710218119399932 -0.0009455490097823795 -0.001525021881982635 -0.0007164548942292496 -0.02123782495310440 
0.01617008522868787 -0.001015098266339110 -0.001732036096457188 -0.0006028136883214496 -0.001016514231350422 -0.001923788141426295 -0.0005736656771897904 -0.01394353508683134 
0.002521970291293910 -0.0005716059608248190 -0.0009355503527803276 -0.001075225119671652 -0.0006808436633595934 -0.001215223269109287 -0.001003918048096204 -0.005718753461318685 
0.002289893818775621 -0.0006551202310885391 -0.0006721691446235731 -0.0008877473437565050 -0.0008331559456433698 -0.001214290574488898 -0.0008359755152225026 -0.005839209431542682 
0.002097002302310196 -0.0006447680652221677 -0.001273469581951326 -0.001307090514370473 -0.0009471665753076811 -0.001204378554566997 -0.0009995826941935951 -0.004830920745340250 
-0.06128748729064568 -0.01190741039319049 -0.009306056277583780 0.1068311593348554 -0.01523532731917044 -0.01381396578885673 -0.01667534152045465 -0.1090258777000126 
-0.06128748729064568 -0.01190741039319049 -0.009306056277583780 0.1068311593348554 -0.01523532731917044 -0.01381396578885673 -0.01667534152045465 -0.1090258777000126 
0.1250833919484265 -0.0007513173246633723 -0.001939884199747071 -0.001124570185716330 -0.001686506065397007 -0.0009152980746582842 -0.002459272512384295 -0.1887822983753916 
0.1429712481925332 -0.007811482535421891 -0.07298590184474894 -0.001862405378310760 -0.003758243674810887 0.2237799301592732 -0.003381420600903421 -0.1770083150729164 
0.01690425865082967 -0.002081017960279356 -0.01088289969619441 -0.002728650590111808 -0.005367584968525296 -0.002955014620468553 -0.004476005852728170 -0.03068581404009790 
0.002429716806636295 -0.0003003913418427101 -0.001491182099337295 -0.0006183944463098328 -0.001490899624007276 -0.0005747396633317761 -0.0007566720860607504 -0.004179390371350657 
0.006846655954467621 -0.001343658961051805 -0.001839370867493243 -0.001688486793869536 -0.002657290599987932 -0.002223873457147229 -0.003877355700634939 -0.01785722944736407 
0.03299969661624001 -0.08931178483530693 -0.01113793503876693 -0.002353880752003301 -0.003678510574584978 0.05827719403291746 -0.003436512792280074 -0.02923349364191583 
0.04734464050733739 -0.007523461081713257 -0.01003400480916323 -0.001865138651041118 0.1973599590745927 -0.005755598709236323 -0.002059537505745915 -0.1519876401212809 
-0.006836265722575121 -0.4834607257903436 -0.08251057614025664 -0.001931911949606022 -0.007771887644065225 0.5938501388548916 -0.002908433847319714 -0.002457563833434531 
-0.006836265722575121 -0.4834607257903436 -0.08251057614025664 -0.001931911949606022 -0.007771887644065225 0.5938501388548916 -0.002908433847319714 -0.002457563833434531 
-0.07015839254335605 -0.02151279025582919 -0.03481939850173096 0.2163887477777432 0.3309822219089025 -0.02237769240015265 -0.01368174355071455 -0.5017238494877174 
0.004603438287535241 -0.0002378179915103373 -0.0006379363691684071 -0.0001854174662981704 -0.0003358268585559224 -0.0002195248871585539 -0.0002884001870037989 -0.005342087905393152 
0.004603438287535241 -0.0002378179915103373 -0.0006379363691684071 -0.0001854174662981704 -0.0003358268585559224 -0.0002195248871585539 -0.0002884001870037989 -0.005342087905393152 
-0.01455326295001476 -0.1371404250569366 0.2870540897563561 -0.003982321054475321 -0.005261364586679564 -0.04151130508112180 -0.003296920592285113 -0.02899842232752483 
-0.01756804966385724 -0.2619200659784958 0.4321400447586559 -0.002830997631851878 -0.003285059783059500 -0.01690998671825456 -0.002354745812736094 -0.03143577354574602 
-0.03584224607163541 -0.3974045623994263 0.7205686072691935 -0.003030452817888996 -0.006332128043651196 -0.05588605288801316 -0.002743042921739902 -0.05498152745464858 
0.001174792716413785 -0.0003684788331035128 -0.002177612096800609 -0.002297365341063195 -0.004031375965901096 -0.003167972211608968 -0.002972926715949848 -0.003983150638766958 
0.01872715844406564 -0.2262818564628440 0.1714579377975951 -0.005315659854913621 -0.008791103986875425 0.1338005873429585 -0.007559753150052830 -0.04083103767879896 
0.001919938396545351 -0.0003315879507273130 -0.001190965441920587 -0.0008484391941981993 -0.0004532934713065777 -0.002388006752693444 -0.0005314526487452957 -0.006718075146693997 
-0.2555420777480519 -0.1202996536535633 -0.07745716696194380 0.2561966626698360 -0.05530688245464215 -0.06987586566779973 -0.07254697067162996 -0.002824211067586159 
-0.03329711282827731 -0.04007357676067552 -0.04252524264744316 -0.3749153317727381 -0.03060873985621310 -0.03479875992700365 -0.03729486208740056 0.1572512625735419 
-0.05934764305475182 0.09566056723525831 -0.1568715328686926 -0.01152287728604468 -0.01228204003065391 0.1046984118793005 -0.008021704112574630 -0.008447730301136502 
-0.05934764305475182 0.09566056723525831 -0.1568715328686926 -0.01152287728604468 -0.01228204003065391 0.1046984118793005 -0.008021704112574630 -0.008447730301136502 
-0.02806268932999493 -0.008022475416214786 -0.01519339076714246 -0.01185238791427957 0.4761708917464446 -0.02844156557408123 -0.01356658360611842 -0.6099386352125710 
-0.04660389327287838 -0.006426697798271974 -0.009533788725991990 -0.01110325624314349 -0.2013012384760494 -0.04200120225666388 -0.01253845194690979 0.1796525982742865 
0.003418234944029575 -0.0004412270103523496 -0.0007541834145169767 -0.002218600186529996 -0.0005927204800116838 -0.002010410038252585 -0.0006995512078917414 -0.005992060173828459 
0.003328992542995878 -0.0006041167900542405 -0.0008340874391903865 -0.002509051623951146 -0.001608759684340310 -0.001538850276273309 -0.0009948557530825087 -0.004862648891622802 
0.001871732859173133 -0.0004920142335614340 -0.001166251874929523 -0.002805615153030907 -0.001531337135584859 -0.002276846254233569 -0.0009357038755336137 -0.004673745770364227 
0.003818634238093274 -0.01007136985092244 -0.003226624707566789 0.1655162837184021 -0.002989113038683307 -0.003641968433071256 -0.005161703326681007 -0.2064305931865861 
0.01218131490753224 -0.01320802434668934 -0.001410444249094248 -0.009824683044279145 -0.0007140047067542755 -0.0003990605024150137 -0.0004756489478406694 0.07984733623696891 
0.01084910516308851 -0.006761439912932680 -0.002188128274692860 -0.01527431047077240 -0.001103121448529858 -0.0004054310528928474 -0.0008900111501717395 0.04934086745674869 
0.06855839505685504 -0.03795510886018554 -0.04653055776441595 0.01186416230753165 -0.04614554520590074 -0.08228749408637158 -0.04448932352684189 -0.1915125438588100 
0.1750089097708402 -0.04250262700188271 -0.09233626014093174 0.05990258787830257 -0.05722433498584927 -0.1026026189522129 -0.05476133698201003 -0.3238456244253208 
0.04278228095097017 -0.02374413721244778 -0.01694780406011172 0.2426304932772625 -0.01041831399274049 -0.01520369427339453 -0.01438626199279201 -0.2590003849621634 
0.003475693260962907 -0.0005224048156301233 -0.001510973478276570 -0.001577284283733801 -0.002090216918974111 -0.0009864660186102393 -0.001504532305499288 -0.005166562852165236 
0.003910454844031066 -0.0007304807405496608 -0.002324359763889165 -0.002703384087212872 -0.003560111768329818 -0.002154396188317288 -0.002944143255949913 -0.006904363658510833 
-0.1059385627483133 -0.02958307015289165 -0.02390224320498190 0.3693657445223442 -0.01450363895988857 -0.02589428977948934 -0.02005095935334641 -0.3148365647321391 
-0.1042071919469643 -0.03332047956665332 -0.02146036627432848 0.4389534676818070 -0.01407726643050900 -0.01937550262529367 -0.02108206974664605 -0.3854510386198532 
0.01085369599558621 -0.001530747091448507 -0.001310927995661163 -0.001597366206179441 -0.001338253493423761 -0.001427796069634623 -0.001836199567655733 -0.01214638677966014 
0.009556517572356513 -0.001190257922585034 -0.001950700949912859 -0.001702535752367707 -0.001209948086378121 -0.001584527443222989 -0.002001200562065417 -0.01203728572714717 
0.01546802847646920 -0.001345748178833398 -0.002391916967095994 -0.0007536406244035439 -0.0007507841852170355 -0.0003098604839262550 -0.001218003033539231 -0.01147405060584890 
0.007655389512008779 -0.001308223061115937 -0.0005903015978690511 -0.0002276975495909717 -0.0001583637754967245 -8.450662328602505e-05 -0.0001773910151577896 -0.009110783458539905 
0.007655389512008779 -0.001308223061115937 -0.0005903015978690511 -0.0002276975495909717 -0.0001583637754967245 -8.450662328602505e-05 -0.0001773910151577896 -0.009110783458539905 
-0.06334835020799381 -0.01941393536794898 -0.02010674671328179 0.1570625787483605 -0.03245379398408645 -0.01893382251384295 -0.03154304699485447 -0.2925086655097649 
0.004553337483904699 -0.0005125564287623288 -0.0009632936279108386 -0.0003995838785660454 -0.0004119851917800855 -0.0002509197175496769 -0.001587655175829557 -0.003247850428573425 
0.006209269321568452 -0.0005872862639524628 -0.0008004278651862998 -0.0003392744454162836 -0.0003913921511021776 -0.0002758719447419559 -0.0008222061341216670 -0.005276279709650269 
0.005563447813808145 -0.0005511957029082568 -0.001220493660796357 -0.0004513625163155130 -0.0005420630943069455 -0.0003457036827102433 -0.001056269569323470 -0.004473173395292559 
0.0003056427937934117 -0.01043277967413996 -0.01649434433879270 -0.005071776759090777 0.2042223592974157 -0.004915608070599887 -0.007313296945592745 -0.2987367406369212 
0.009949499567969191 -0.01070478567450650 -0.02168874233602534 -0.004302819476905557 0.3120051060719637 -0.004544472706452815 -0.005933094898255268 -0.3514310771854330 
-0.02038058618057098 -0.01142659129794162 -0.02485173257156743 0.3526920339686611 -0.02398785867067938 -0.004506636970351925 -0.01316886931524351 -0.3288757871209634 
0.008811069965790928 -0.0009829655788368508 -0.002033152461282659 -0.001265548433696989 -0.003267440716185479 -0.001229974297550480 -0.001701579023542473 -0.007404469327210469 
0.007600448297669631 -0.001010457398027468 -0.002890029115152533 -0.001191030187957293 -0.003516413340074927 -0.001191387424204171 -0.001447711418876354 -0.006428056389112633 
0.01201881860304472 -0.0008678374608502588 -0.002014871865960606 -0.001790138458287727 -0.001506690582198905 -0.001119707993958792 -0.001407139014316014 -0.01295862701670529 
0.009148830800687437 -0.001241409037681630 -0.001855250440834988 -0.001950782905723779 -0.001334412784888723 -0.001027267876758815 -0.001370628878325442 -0.01284404473198018 
0.02623396245555591 -0.001385727193413493 -0.003647473687095617 -0.001492067491923801 -0.002109320187784441 -0.001573180599994907 -0.001267105645765441 -0.02089638470619288 
-0.04807720862080871 -0.01203268716321661 -0.007282871126977730 0.3056112027853997 -0.004994314775938257 -0.01211488944801782 -0.008681813309155942 -0.2257888541418783 
-0.03590421466937324 -0.01146606942803251 -0.01140989502368444 0.2951841571903470 -0.006356551657128493 -0.01371531898118839 -0.008152166376709735 -0.1223303920708585 
0.03422347601422371 -0.006371125056736531 -0.01075928363334614 -0.01214728343318828 -0.007170565517926339 -0.01099909036993004 -0.01022527084375695 -0.01854297918691226 
0.009314043765709306 -0.0005237194822426843 -0.001346876953799590 -0.0008603518030199373 -0.0009277060908428193 -0.0007359436231841781 -0.0006370828975189715 -0.008070611104577357 
-0.1378968667377939 -0.1331301608026553 -0.02572595030972584 -0.009767182673464816 -0.01081743596857468 -0.007632012862626552 0.6490784729386492 -0.05722350554634258 
-0.03613411630562703 0.1281270772240587 0.02205183367187814 -0.007939628907960117 -0.01108973362046885 -0.08017239160102997 0.3995170943373470 -0.06218502177439808 
-0.1146847195303847 0.2165449098484178 -0.04406513781791249 -0.005367905972247019 -0.01310735737821925 -0.1086061333299379 0.2401911909674732 -0.03933782686965200 
-0.01987803309565226 -0.7169282014645286 0.4691262203011390 -0.01428052041328529 -0.009278388568739412 -0.02570788538962142 -0.01350892607253523 -0.01664727030940364 
-0.01987803309565226 -0.7169282014645286 0.4691262203011390 -0.01428052041328529 -0.009278388568739412 -0.02570788538962142 -0.01350892607253523 -0.01664727030940364 
0.0003928435409398256 0.09566037278173792 -0.1063741431088867 -0.003938392066970882 -0.004257841832158255 -0.007394583156411095 -0.004132513234791058 -0.02789428481498919 
-0.02965535552727790 0.3501973140490095 -0.4609508766105255 -0.004515358033135084 -0.006722917556763000 -0.01127848806640907 -0.004772850951846385 -0.005999844291170354 
-0.04300823474792355 -0.1496929126866501 -0.1622443473006119 -0.01729327633486487 -0.006120313367958969 0.2984129569611726 -0.004917372976233721 -0.03170307572806379 
-0.05729068896927537 -0.1804210458496073 -0.2055844329848081 -0.03530170555081255 -0.01014361772426473 0.2403492774125113 -0.007533797211133713 -0.01884979666936002 
-0.02114525866432482 -0.03437088637928794 -0.06567147233467725 -0.002658971589592413 -0.001503226135867208 0.1747106668539621 -0.001238238339860502 -0.02368628200303417 
-0.1166148672121010 -0.05784954997056829 -0.04786824826714742 0.5960165938151025 -0.03121262627290388 -0.03469290092626671 -0.03872455649923334 -0.5274128357332527 
-0.03824610996118587 -0.01841902858606156 -0.01672052136279285 0.1637256908620043 -0.01218318898672401 -0.01265103979532254 -0.01425464573902184 -0.2218286407471833 
-0.1020302842464284 -0.09111948049982350 -0.1331501083001629 0.2105385134476215 -0.03366153923623214 0.09196197386705782 -0.03374243757985359 -0.3526035177798749 
0.1388232002575545 0.01832948669225085 -0.02314791748350051 -0.004604449714706185 0.04971885687889464 -0.01037367678729300 -0.003817834811436657 -0.3084244213370571 
0.03489996291828119 -0.002711232061718722 -0.003238724829678916 -0.002413997160154833 -0.004930783285704501 -0.003876853258708540 -0.003098102447597810 -0.03465739944012053 
0.02956105455004325 -0.002452644409578514 -0.003704322704280946 -0.002389232127855177 -0.005060958593085781 -0.004026383214296454 -0.003058112924854163 -0.02569100040241030 
0.02680055806579709 -0.001182841034270308 -0.0004876147860443249 -0.0002165756986843999 -0.0003036822013982172 -0.001362597641943635 -0.0002123215840398121 -0.02564038962635462 
0.02704929978479051 -0.1079368332003414 -0.04171075691458874 -0.006369309272912240 -0.2308526240333431 -0.009964924797136580 -0.008498548526358802 0.1566355319919043 
0.006970215814216418 -0.3954182686302606 0.004193354892411849 -0.02919932281357820 -0.02347934446000013 -0.008767568051549114 -0.01757255701965409 0.2141323544057804 
-0.006921932770815160 -0.005982698931491975 0.1952483591083759 -0.0006518490282559155 -0.01172921722668355 -0.008837963922978257 -0.002570239343673671 -0.1432749224729271 
-0.03791444486493609 -0.006619847907461288 0.3405906847698255 -0.004383249567173073 -0.01528280471241998 -0.1314945288732103 -0.01341778305551451 0.02851576681144183 
0.08804841247026196 -0.002815744145276941 -0.004218416421869985 -0.006322046227621501 -0.003266218148626258 -0.003319357521096979 -0.004248236057989832 -0.08277425311942235 
0.06636658255368600 -0.006511597279454407 -0.003987794578532700 -0.002425785543126881 -0.003620216784739758 -0.003254984424849913 -0.003239995891717522 -0.06062179792840462 
0.001571187819302816 -0.0002248891850315418 -0.001158235708128165 -0.001400959225588435 -0.0005250300838602816 -0.0003051537674507032 -0.0006195983044984685 -0.002493404315028673 
0.003101254969220339 -0.0002948359591567843 -0.0007251455648557209 -0.0002554650815620834 -0.0001707993742588978 -0.0001230681607082165 -0.0001813928403793754 -0.002681272672692078 
0.1178684070223868 -0.1679318388828456 -0.08286687296406156 -0.009892533999491224 -0.01987580870918942 0.1319941388536532 -0.01316820173439685 -0.1488046978828477 
0.008684309218875970 -0.0002703337360173827 -0.001377600624254842 -0.0003723001422202585 -0.0004027550796317995 -0.0006687330077278441 -0.0003704739262487173 -0.008596983119381568 
0.01318354234991209 -0.0009701140466074321 -0.002266742497252344 -0.0007256288553922005 -0.001211942159459095 -0.0008653797629798477 -0.0009235606667074284 -0.01436521626970462 
0.003361292726725364 -0.0002171551908825985 -0.002762998855886890 -0.0005426009548475099 -0.001242136810208776 -0.0008028412178290043 -0.0006236396743035529 -0.003481446868010463 
0.07257983611753005 -0.01051947487451522 -0.02732765347465650 -0.008724053734367323 -0.01542702738612410 -0.009953508735809528 -0.01045240272630489 -0.08976475903901167 
0.004140492242349947 -0.0004300676388913582 -0.0007023866257344401 -0.0008257628423825292 -0.001267653064972149 -0.001334509234328487 -0.001207198315872942 -0.005027573364706231 
0.002313634622885754 -0.0006054671480471639 -0.0009972238076247530 -0.001004976072923632 -0.001729918715813984 -0.001075005613495477 -0.001399076084699644 -0.004502738739085415 
0.03856947635457796 -0.008100389737961919 -0.01022110507812810 -0.004138204816059219 -0.007010898870145428 -0.004595270427282368 -0.005028647041857666 -0.04814907960045369 
0.009416805807178640 -0.001055023310586708 -0.007016979394889734 -0.002018730459833459 -0.003674978507063837 -0.002345869811349777 -0.002825655988564280 -0.01106193961872121 
0.003102582794931088 -0.0004380063861051728 -0.001425777919170403 -0.0005291720112695989 -0.0009720517061612997 -0.0006834361075176809 -0.0004901689427711129 -0.004100176909979743 
0.1022286972702275 0.04372702492099491 -0.06559282777504963 -0.01009150134076885 -0.01754888378277735 -0.01565992081652897 -0.01386063648687914 -0.1152829546655061 
0.002747124026229397 -0.0004768942934829905 -0.0009439294240105944 -0.0002772207356387243 -0.0008007044825812661 -0.0003111442408743823 -0.0005103885586031446 -0.004215579919463339 
0.04835996113874392 -0.006420397180936543 -0.03254030530545420 -0.003331368291727035 -0.003411700077729251 0.04489323618435031 -0.002656551520509358 -0.06868704358070352 
0.0008309989450960712 -0.0001358616603365440 -0.001327087344374030 -0.001838948781383550 -0.0009156046578762842 -0.0003383855334381630 -0.0008638002716505270 -0.002134177863016959 
0.02128576894236350 -0.0006196999729352161 -0.0006959232808592232 -0.0005780646570944385 -0.0005135149574986996 -0.001858092128597979 -0.0005456538117623273 -0.01933635128280695 
0.2483220862166771 -0.009266572799569354 -0.004260234264132248 -0.001410731539811297 -0.002112780509721150 -0.002591975513126788 -0.001958740396057615 -0.2587570634034372 
0.07400550875899874 -0.3003699594823102 -0.02618943732806461 -0.02619609029130604 -0.04464483926182624 0.2254643394609175 -0.03142024290536398 6.388240384624488e-05 
0.02406062213940557 0.1323438740769961 -0.1209806374836725 -0.008084442691898850 -0.01453868378444125 0.1048293939593876 -0.01618248622616714 -0.06434219084804169 
0.04016707176593048 -0.008106740044708535 -0.03840658225936586 -0.007198488732797370 -0.01228135979568096 0.006777775961932113 -0.009610790497344686 -0.06001755275314694 
0.004083782153307936 -0.0009763532426972471 -0.002498395956067555 -0.0004602349185014297 -0.001462976471144402 -0.0007321826183403990 -0.001115521156335262 -0.008088921866374263 
0.07406418820123560 -0.3673652610860410 0.2812224993728972 -0.009236365491899266 -0.02314631742657749 0.008244062541446877 -0.01328927476978654 -0.1183725578932529 
0.006414184082823744 -0.0006735371664217030 -0.001566136354701838 -0.0005123008395740127 -0.0006974762823681640 -0.0004393631022624231 -0.0005614373678393324 -0.005973714426661180 
0.008305670857056498 0.05165629527761889 -0.009757976749603919 -0.002938720620727680 -0.003472341103928101 -0.002807116186067599 -0.007322057936263141 -0.03498180909780754 
0.001811111986001899 -0.0002725799897445474 -0.0008249405677456202 -0.0003078546373868936 -0.0005632073646504084 -0.0003256517001713810 -0.0003862653194566863 -0.002845256855571970 
0.003746241583955184 -0.0002378763824735018 -0.001133390136217858 -0.0002287345800449762 -0.0002737401294881202 -0.0002571960770503576 -0.0002330801589727005 -0.005574789129708208 
0.1154603147688764 -0.01112428434992057 -0.004763199372611397 -0.003662064034899626 -0.004851472043382108 -0.004426216998710744 -0.004194670790099130 -0.1393818127076686 
0.002477950899427543 -0.0004835060949610929 -0.001042058946408031 -0.0005778170618056846 -0.0009331271524452075 -0.0004833473053026382 -0.0006662976539377490 -0.003293317203280764 
0.05980297491647640 -0.0005974912250861255 -0.0002342743126890522 -4.962825901391093e-05 -3.866221598574030e-05 -0.001789893969792797 -3.637989904163034e-05 -0.07171151571740425 
0.008871327220250113 -0.002077523230184520 -0.004160442171682876 -0.0009690876857989669 -0.001609964788601949 -0.0007140229733890336 -0.001244269538739659 -0.009884251266270528 
0.07324073910259916 -0.009204891672114883 -0.01737583797256904 -0.005223222148424317 -0.01120883784631987 -0.007459425585406783 -0.009130386434004517 -0.09291258209086206 
0.004690549392764830 -0.0004183511116840811 -0.001306053761411427 -0.0006531185358657810 -0.001393604013547139 -0.0006655441463585048 -0.0008780675561076220 -0.005587393035711664 
0.004170526740933778 -0.0005708349676327683 -0.001015761533311378 -0.0006055543511891587 -0.001232788528116689 -0.0005473459330938528 -0.0007178860333264289 -0.005304675210585796 
0.004133654928997627 -0.0005429921008827882 -0.001647179847571158 -0.0007993181125550671 -0.001754618479873244 -0.0007263509004830186 -0.0008711672788479541 -0.005185905537799160 
0.006229300181206219 -0.0004549526143913710 -0.001207548726250688 -0.0006195424999646462 -0.0006400952824614312 -0.0009460255824443764 -0.0007445935907932848 -0.006384304698077976 
0.1255104662639097 -0.01513752551210193 -0.02754935801653421 -0.01134368095603422 -0.01773668206454973 -0.01700800070369075 -0.01412555791366157 -0.1319713642916446 
0.006562681745491827 -0.0006043541692147666 -0.002098918448028905 -0.0006535273999694115 -0.001286856237980963 -0.0009489780046293136 -0.0007748562128456473 -0.005531173862067554 
0.02999944264875368 -0.004179898670295215 -0.004162912219457238 -0.001320599859657665 -0.002750514672951752 -0.001849964083515968 -0.001744847111021087 -0.03389640848111491 
0.008867664767960302 -0.0009323577310256086 -0.003840241053967311 -0.001576414324115939 -0.002893917035394239 -0.002497146127548377 -0.002119281320394031 -0.009111126741404487 
0.008746600553684298 -0.0006430094746744976 -0.001250414526677334 -0.0004973012513241213 -0.0007661369044258271 -0.0007327728730579922 -0.0005889513192401858 -0.008378784512321928 
0.002471394934021506 -0.0005202769261474351 -0.0009093084927102419 -0.0004955657577218069 -0.0009807248447909786 -0.0006643564867694469 -0.0007697126605405226 -0.004732784147224916 
0.007495319046968934 -0.0008455072829897617 -0.002866581355490155 -0.0005764470224879345 -0.001426237968325173 -0.0006783133121142172 -0.001045822212974691 -0.009360304933922668 
0.03970370564421218 0.02892869071486833 -0.002669469859238707 -0.001522947734462410 -0.001457453063546888 -0.005264625607811841 -0.003875348536241702 -0.04563730047633685 
0.006469472716806696 -0.0008828921468877922 -0.001756742970061159 -0.0009624757608033643 -0.001631485042889218 -0.001219907410523812 -0.001004790875396872 -0.009491668688855842 
0.08404823844446561 0.1018765368416518 -0.1336532905463887 -0.007910988074777636 -0.01183949960146288 0.1662214851479169 -0.01084796095072346 -0.1219644378963278 
0.001425907118179026 -0.0001683917722567903 -0.001158423423995517 -0.0007178690583341080 -0.0003399279682161231 -0.0002638540455700419 -0.0003955089231990115 -0.001977249880171299 
0.004593733546232911 -0.0007597500762585981 -0.002121846301410395 -0.0006162433064554426 -0.0007399999527170818 -0.0007801136284087181 -0.0008767872767659696 -0.007937229981279785 
0.01419810285059183 -0.4832015729381351 0.1212939376879512 -0.006664567711413620 -0.01095813441561201 -0.008004507725863709 0.3503275464772123 -0.05149918266655514 
0.002798238442479717 -0.0003033673260937081 -0.0008458817704727169 -0.0002910061321395542 -0.0005069639365103910 -0.0002937483967509762 -0.0002428196090792136 -0.003614507523167971 
0.001804630671256890 -0.0002013401107075170 -0.0008130274219152197 -0.0003728282900116867 -0.0008617297483846957 -0.0003742873575601416 -0.0004526214731801350 -0.002501636940444333 
0.02389290612243947 -0.001282640862049672 -0.01541317902744794 -0.003691592252991635 -0.007711210379536612 -0.004104991444645824 -0.005397473954272530 -0.03355677118629316 
0.04499750323695327 -0.004505563907567057 -0.008181355251920160 -0.02653142161594804 -0.003627178087768161 -0.01921361028702189 -0.006101452890618008 -0.006471678034585445 
0.03517329118482480 -0.005244726044198756 -0.008371026349501452 -0.01890132707176434 -0.003598031937821820 -0.01178700960473073 -0.005754521239850660 -0.007569504622232920 
0.05948607741201608 -0.004085425217496706 -0.01120503369136721 -0.02310998959106941 -0.002397974515142404 -0.01424497571549037 -0.002782876088740945 -0.007555791950742075 
-0.01091976316113836 0.1120992242245348 -0.07126691910095540 -0.002732483670806750 -0.002073791082708486 -0.005577655034093390 -0.01317310602079764 -0.006275324844153545 
0.01556243788536315 0.02850885125713287 -0.003850552862066048 -0.001725529186310328 -0.0009244252389768439 -0.0008734206753328802 -0.007452925761187845 -0.005956716519799475 
0.004298041696275040 -0.0003614278154303764 -0.001023753329328467 -0.0004304035297896113 -0.0007573322416622580 -0.0004764861614601692 -0.0005865799313380763 -0.005280955597558465 
0.003164961117263403 -0.0004680741923062113 -0.0009126180520396005 -0.0005179761424736449 -0.0008022006940643868 -0.0006716564575253611 -0.0006299475708450583 -0.004810370717360183 
0.1100804910041814 -0.006670155614784241 -0.003143521569446617 -0.001560790216680366 -0.002621706395969247 -0.002675989238541602 -0.002020918841799993 -0.08933556905890974 
0.08348520828242219 -0.1617849774306379 0.1972299949103618 -0.01017073666099052 -0.01818014827847996 -0.01627531863690173 -0.01327425923633743 -0.1059961757705530 
0.04973287342320983 -0.002529783094286440 -0.005723286941340867 -0.001950883377787149 -0.003220391475262604 -0.003051144625756800 -0.002127155644608341 -0.05388581486564869 
0.08044802658549290 -0.09478442844402168 -0.02834966393400973 -0.008609459862755275 -0.01620755865934651 0.09856617795220711 -0.01236097349499039 -0.09395517768854535 
0.01344510931033395 -0.0006974045294278151 -0.001920239824175773 -0.0006310735652781649 -0.0006272183569079297 -0.0008904751352680763 -0.0006387094116650188 -0.01033120776249756 
0.008172588407265844 -0.0007222075396696680 -0.001730187197913496 -0.0005584206166699299 -0.0008053706527228943 -0.0008902538514800106 -0.0006618239938154672 -0.008499423766429665 
0.007321610715507380 -0.0003692177913151394 -0.001627195683194313 -0.0002944858389170923 -0.0003292295618882021 -0.0003620707288453625 -0.0003098584995799563 -0.008159569364618893 
0.04254185714921079 0.2259455863495936 -0.1051884132741343 -0.002290719151302109 -0.005361355787063354 -0.09578696156045913 -0.008965171683819636 -0.09619618501225186 
0.002328199009696944 -0.0002821842678820614 -0.0007791512309427073 -0.0003079966282522036 -0.0005515591765689966 -0.0003537427178856330 -0.0003976356198202716 -0.004173959269719806 
-0.01263256052440094 0.05957215220518083 -0.008638509648785812 -0.001966991178060918 -0.003169329679191505 -0.006557261443239500 -0.007802528905595246 -0.02949900180467378 
0.04031585968158695 0.0004497750975619929 -0.005967240265025330 -0.002532775659252746 -0.004713939564920740 -0.003271874943105516 -0.004501935132061200 -0.04837222375394405 
0.004421682995260969 -0.0007586352776836379 -0.001494569683376476 -0.0006421284038666455 -0.001381460395471407 -0.0008341746611201109 -0.001072113828585221 -0.006506928086360123 
0.003180066550146102 -0.0005804339343847521 -0.004838334529582264 -0.0002997128062738445 -0.001139974120201752 -0.0003288996831899687 -0.0007369863616840460 -0.003718311525994652 
0.009030095673083863 -0.001810214278994649 -0.003885100953039667 -0.001085807354632100 -0.002127777916551322 -0.0008517783960493400 -0.001406727041477733 -0.01156596831572744 
0.04809880367394046 -0.02527026469803222 -0.02762518429912242 -0.005067207944416661 -0.01157588764964597 0.01855133216840104 -0.009284097642269078 -0.07370898405803451 
0.002314499278637736 -0.0002064355261056295 -0.001525853255922869 -0.0004376570690665101 -0.001016927441543659 -0.0007018683582114688 -0.0005288861158779703 -0.004454443082754184 
0.004594494694850111 -0.0003945987933737014 -0.001603723295630904 -0.0004618593723768147 -0.0003468490348153240 -0.0002629792974337064 -0.0005405283038301547 -0.007146180754479201 
0.004807646486838840 -0.0002364885838600131 -0.001298205562105255 -0.0003027128659278394 -0.0003176839446831087 -0.0003799814097525983 -0.0002856299308418885 -0.004806437664731173 
0.001206092472815586 -0.0002901487389894966 -0.0006333294145705636 -0.001172612687807119 -0.0009760967348652839 -0.001249205578194283 -0.0009337027780874867 -0.003057219887387826 
0.03248992619741673 -0.0009190329979130733 -0.0003148068195560378 -0.0001338963156625842 -0.0002300655882263119 -0.0006779151957601416 -0.0001740642379653554 -0.04847080311686473 
0.03356585286180091 -0.001561989333206495 -0.0004691481050220505 -0.0002989066160541225 -0.0005487991705227766 -0.0006038944235219712 -0.0003879776483285273 -0.03857340976300006 
0.2575618615526003 -0.03707732153054841 -0.01161278630635729 -0.004055644532548489 -0.006351353878189660 -0.005021723165622037 -0.004886534699658838 -0.2811239477976507 
0.006852088735190083 -0.001120457672081203 -0.001234238970116347 -0.0006062920652708814 -0.001034138789546190 -0.0004475663889673644 -0.0006694800132147341 -0.007716264828450468 
0.01704705497989280 -0.005682603107681320 -0.03104335629545838 -0.001971913234418090 -0.003564342738287378 0.03763516877969131 -0.002519636299612865 -0.03306445002575881 
0.003870745771164517 -0.0007374332687146856 -0.0009989597013414268 -0.0004057404609566430 -0.0007252305545198414 -0.0005098912106362789 -0.0004886182349116177 -0.006672784665920295 
0.002185856693055746 -0.0004850623154515843 -0.001357394762898907 -0.0008417761177901475 -0.0004412849199884660 -0.0002938499995182230 -0.0006125566220181725 -0.003732430041012582 
0.005197583689700546 -0.001184239449792882 -0.0006324542725953059 -0.001014494449761993 -0.0006457506692481754 -0.0003465500838390086 -0.0007062877536868457 -0.005234419276539477 
0.2226022801565248 -0.1369939610440291 0.1376114459381757 -0.003633662371746815 -0.03542955292893880 -0.02323229346906312 -0.005640466363187841 0.07860916132164698 
0.07360260905812643 -0.006919848351462434 -0.008868409063782577 -0.003871166618905933 -0.005141094096630938 -0.005068324427331231 -0.004986152257221781 -0.08066661335353440 
0.006752398709708977 -0.0005133752249015381 -0.001475216742565163 -0.0003487656421263184 -0.0005484495334344843 -0.0004221301914390288 -0.0004247378116250886 -0.006596918674261114 
0.007617582735181212 -0.0004578024740263340 -0.002710058714222055 -0.0007227673627385752 -0.001091029852893385 -0.0007097208440281021 -0.001015450849198462 -0.006729886727886004 
0.007457454472337783 -0.0004548165221605633 -0.004140443945690230 -0.0007563599436375178 -0.001129826408499823 -0.0006278527381281762 -0.0007917505799756768 -0.005190203343572064 
0.009653544478060471 -0.0003816915378139874 -0.0005634084905366128 -0.0003952048310663089 -0.0002855594073245163 -0.0006156648389772443 -0.0004648862862282725 -0.01208111336157499 
0.02768990120896521 -0.04308166483989772 -0.05824781258586215 -0.003532744319535350 -0.006287826808167849 0.1172358144672397 -0.005211764167792024 -0.08886349260297734 
0.1789723816117494 -0.01068516502170863 -0.01062510570794896 -0.003919143706858628 -0.01010646065295417 -0.006974611429410875 -0.01025103997213058 -0.1792208835912134 
0.2030307258517982 -0.01569001265021871 -0.01084914966862758 -0.003955604163896509 -0.008793119867835866 -0.007234245189236084 -0.007816766811918965 -0.2123855374313928 
0.1534014119432715 -0.01006948960186756 -0.004703073139272880 -0.001962811737278022 -0.004111847883468743 -0.003885306808732959 -0.003654268204041627 -0.1570564818017856 
0.1263462764332936 -0.001568050250940342 -0.004682258593607304 -0.001500324779830251 -0.003541004142489270 -0.002928522872854786 -0.003322005165175670 -0.1529987005808045 
0.01011629512189407 -0.001109920051044164 -0.001826312518303450 -0.0007932471635501283 -0.0007968716600933990 -0.001208494479455869 -0.0007831958290971725 -0.01269334192700008 
0.003562349222626202 -0.0006922296902582294 -0.001649139825870650 -0.0005957279239083226 -0.0009585826541784426 -0.0006917436712641224 -0.0007854428502350585 -0.006018573142486134 
0.03164071371318711 0.08367550668041464 -0.09760141136377376 -0.004260747609069249 -0.009598314180641675 -0.01216602715737185 -0.005874159320468910 -0.05871523872057225 
0.06901801487385142 0.2640182702733315 -0.01949019707732868 -0.0006704909234063162 -0.001940263138340012 -0.2290493817919396 -0.001016432208518661 -0.05423998483116532 
-0.01752032577912809 0.05631685156894067 -0.008562034312890830 -0.002174662405702758 -0.001953431831317024 -0.002150745193071909 -0.006044262968095761 -0.003574152220428924 
0.05045925399100213 -0.003622754729992679 -0.005717766830699374 -0.003111670736473462 -0.004993672981970317 -0.004808333285083142 -0.004026815504500754 -0.05327912101727458 
0.002326872890868364 -0.0002644040223992755 -0.001621302030292944 -0.0005808276141814081 -0.0009992253702720058 -0.0006069704099362655 -0.0006906074124861672 -0.003680525395287664 
0.02423860195600114 -0.002394354791085257 -0.004241491266328906 -0.001249435167660014 -0.002005835080908853 -0.001453551719168874 -0.001306274188560832 -0.02412033668874965 
-0.06713060149810710 -0.3620739661331914 -0.09102804905539917 -0.005147707008648797 -0.007077393427736388 -0.01830861192904787 0.6320787924640031 -0.03510135349481560 
-0.03764146634044110 -0.2373058126273341 0.2325347151039025 -0.005155618093587180 -0.009180793169934650 -0.01383357888678360 -0.01872319305625023 -0.04303533320315206 
0.005841833007311016 -0.0006862756825493808 -0.002041420870228290 -0.0005063976068887267 -0.0009680901241240554 -0.0006958600862932262 -0.0008682762029725380 -0.006507800858476507 
-0.002225362627462911 0.03701677245321781 0.04900727692452130 -0.0005167535315330797 -0.001325899834886642 -0.01757667211710803 -0.005703765125827517 -0.02373709309306818 
-0.005231812225572449 0.01524661477164965 0.02780249403747967 -0.0005426112617282120 -0.003752657359138610 -0.01529529068814636 -0.002971900077226081 -0.02911863138105763 
-0.004887725145963423 -0.1443074150856063 0.2813297699200621 -0.0004748541140649903 -0.002758886041294009 -0.04230855080689270 -0.002482953872807087 -0.03111994888662069 
0.004812339364046517 -0.0003525719973687749 -0.001018975712450262 -0.0002987794656721730 -0.0003539753559565151 -0.0003944509469395784 -0.0004660212400485279 -0.006900390623606150 
0.02655920292056143 -0.003517667379274412 -0.003764423525328715 -0.002152934843939238 -0.002632252450405115 -0.002471480510788819 -0.002826691120352514 -0.02989131477473614 
0.003050040564429603 0.2918876510151489 -0.005473457012121368 -0.0005473221521413719 -0.0007176321192806671 -0.2833501501007549 -0.0009409068715728747 -0.007453626350580108 
0.007874388265832576 -0.0007330863660913037 -0.0007991619856702831 -0.0003661206412157941 -0.0005614255019180706 -0.0004736249921831602 -0.0004553179410522687 -0.007539626081412950 
0.01449240825407540 -0.001164477108291046 -0.005051988172808046 -0.0009503547804213499 -0.001841425315581513 -0.001436937677717530 -0.001011121253433743 -0.01733129559782067 
0.007577427704485704 -0.0005507882990492159 -0.001495223723116781 -0.0004075686575437942 -0.0007782731811637891 -0.0007467496081287156 -0.0004303084081073840 -0.008803294246775350 
0.01216110300977999 -0.001098552456547656 -0.001043766010144861 -0.0004363859651556952 -0.001028341105514532 -0.0007022935429231072 -0.0006348222895100663 -0.01238487262614348 
0.01381756574921228 -0.0007161102807107624 -0.001650385177987437 -0.0008538931968135825 -0.0009421803490237472 -0.001167401270162557 -0.0007880116739673200 -0.01591295522902352 
0.005920346901512843 -0.0007490350819675377 -0.001190976240253269 -0.0004558509512281000 -0.001314187749718681 -0.0002460617965161215 -0.0004259617440416001 -0.006866279487759369 
0.1025911294143321 -0.09617314871276054 -0.02468153816323225 -0.08760777054106941 0.4261016320997499 0.03437254902911650 -0.01411606104485003 -0.2265255500188830 
0.03706215347793615 -0.004617991681585672 -0.01160057792969603 -0.004667721105772783 -0.008366365805745334 -0.006434518001981923 -0.005961760020266126 -0.05310780254738284 
-0.01071123437925820 -0.02883371698689368 0.1309798638706954 -0.003720323753300274 -0.002269789963118720 -0.08629317048020738 -0.002806175201334382 -0.02845945345064415 
-0.02264747329848647 -0.06757660748382460 0.2228856339525034 -0.006937599123841729 -0.006005241408065302 -0.1528826799602037 -0.006720508503097376 -0.03877546193881021 
-0.3734250813953740 -0.001126718940299056 -0.001103038184972362 -0.0002024148254018643 -0.0002547662118821427 -0.0002523305874692888 -0.0006781889882361081 0.3832455444738698 
0.006984832935794764 -0.001152249035378938 -0.001579455056567260 -0.0003802067924432768 -0.0008693660694530230 -0.0004611006034029680 -0.001036816128764021 -0.01205996181726131 
0.003386557017031960 -0.0003671226878599652 -0.0005433352070136550 -0.001117257719802145 -0.001162280237211031 -0.0004045328108264479 -0.0004383215951797165 -0.002226714232084854 
0.01001793955669397 -0.002292069830465527 -0.003946713063265800 -0.001335649065827833 -0.002574312368362069 -0.001201383924548743 -0.001714085981097179 -0.01277057801213434 
-0.02482898706589004 -0.06240781550524057 -0.08506439602694893 -0.001200861191335004 0.2064696674783735 0.2059845892793442 -0.002911654164938059 -0.1440808589243407 
0.01135790477723571 -0.0007728843492676836 -0.002228013523735087 -0.0007482175799861990 -0.001403006499590623 -0.001046509676640568 -0.0009283140972169132 -0.01010959140605831 
0.006894385774842107 -0.0007213640018075439 -0.001004719921598229 -0.0005371691543217293 -0.0006192217941153036 -0.0006856918725333505 -0.0004769911138338469 -0.007412645371167002 
0.007302730798855274 -0.0009718091513237529 -0.001148144802904977 -0.0004785748778618659 -0.0007103714246598787 -0.0006420142108895419 -0.0004669484368095924 -0.007267251384322148 
0.005549480412733556 -0.001024553376696029 -0.001059268727906371 -0.0008117837091794680 -0.001000780283103207 -0.001156832991399061 -0.0007287427883075061 -0.006909556648841679 
0.005056466001649114 -0.0008755357090124415 -0.001549325926384679 -0.0008945854584612660 -0.001040806816281601 -0.001487782957567982 -0.0007045543707241639 -0.005661262543791366 
0.01214337185110052 -0.002220825320755006 -0.001189964944776239 -0.001084290280424647 -0.0009242841189644497 -0.001138203669733728 -0.001054870066337005 -0.01151161513461637 
0.03392664427691402 -0.003909107018769372 -0.004546435196039905 -0.002066045295517380 -0.003107364253274350 -0.005039431305805133 -0.002627178912620093 -0.03567731982824898 
0.006833232257921608 -0.001089142978327722 -0.003991496693396358 -0.001350867346376843 -0.001944604917885166 -0.005444057918437040 -0.001300297212961327 -0.009680728286596626 
-0.04374997482718843 0.1451904579742172 -0.03913205526542864 -0.003171857315745571 -0.008742422087052434 -0.03881735335175666 -0.008573877502037109 -0.1179582472947856 
0.1207952139700978 -0.0003678564638773404 -0.001096487000583778 -0.0007903008400237388 -0.001202732731934758 -0.001294311648485563 -0.001428470475783658 -0.1270430974935044 
0.04133890826535870 -0.006779744119374279 -0.008326536238825722 -0.003228301753056672 -0.006025150477388998 -0.003025708881030681 -0.003958347698439908 -0.04345242744601508 
0.03641234797688173 -0.006763696293880943 -0.006204389396144652 -0.002971234261529648 -0.006445952518023797 -0.002534874041819374 -0.003093503447120422 -0.04698038253002739 
0.002758031082788129 -0.0001868943280472199 -0.001075889245889590 -0.0003774494788498314 -0.0005351024314079154 -0.0005780268831587609 -0.0004949595854714829 -0.003200232580084591 
0.001227078859401963 -0.0001503057272620819 -0.0007520744034885710 -0.0003075589580609701 -0.0007499587150971921 -0.0002873108252661511 -0.0003852134914849032 -0.002133460797609991 
0.001227078859401963 -0.0001503057272620819 -0.0007520744034885710 -0.0003075589580609701 -0.0007499587150971921 -0.0002873108252661511 -0.0003852134914849032 -0.002133460797609991 
0.004766876483274854 -0.0002594206681108265 -0.0006778593602341879 -0.0004355307396780626 -0.0004595035554589692 -0.0003585407941694482 -0.0003151367723192522 -0.004086277303643793 
0.08251043445498910 -0.004420495230433373 -0.09146279136095442 -0.001473879600478666 -0.009011349377905901 0.01515521079919087 -0.001957577478571263 -0.1075429745199108 
0.004071244805820514 -0.005015023777270344 -0.07740549995877376 -0.0006621334355641079 -0.001650837353701991 0.03508450067912734 -0.001104793828613499 -0.006023010624816407 
0.004956314872112852 -0.0007283010068048256 -0.0008451958769406871 -0.0005174234141059905 -0.0007430511791282196 -0.0005694304395048113 -0.001052154612211026 -0.007378140987714520 
0.01322187373835875 0.05759221869819927 -0.01769922788265746 -0.002092331827911713 -0.002443030984010170 -0.01997382172859502 -0.002875608055989103 -0.02852292360767025 
0.009483430206542383 -0.001504705388430559 -0.001994022504243520 -0.001270532122757322 -0.001746062366120517 -0.001282461051783887 -0.002124566001850814 -0.01407070633115627 
0.002854677126416118 -0.0006214146201097043 -0.001304688673265274 -0.001468665676685734 -0.001005659209697343 -0.0007430530193050500 -0.001426636753772374 -0.006612895009251571 
0.1350067731458020 0.1207503010319929 -0.1893739311019151 -0.006202367857219897 -0.003748885350068469 -0.04077876831749630 -0.005138751389188530 -0.05854344873856247 
0.1135018535276206 -0.4143281739949710 0.4159949011487833 -0.009653378593202660 -0.003747120128284864 -0.04537972184636301 -0.007884128511236620 -0.04174889339438624 
-0.03918403300928841 0.1159389133290503 0.3648454736804166 -0.009282109938748473 -0.006887614665205095 -0.3345189831249337 -0.005408454317953654 -0.1338376851665447 
0.01446038308299656 -0.002061664668685874 -0.001376486585460000 -0.0006568596731311588 -0.0006221045342341588 -0.0009515131453187394 -0.0004911333461234031 -0.006151467178278485 
0.01584802672903654 -0.001529211510520113 -0.001499086672870740 -0.0006643710553148717 -0.0006335870419247015 -0.0009153053256645653 -0.0004906937231992228 -0.006708941776144187 
0.0004525730649793646 -0.0002311572597186996 -0.001209895704090891 -0.001300892678469921 -0.0009956356478815131 -0.0003137818496493030 -0.0009341293565051012 -0.001044485618082706 
0.005843591967293918 0.02681458960067430 -0.003135594315838022 -0.008861500903706843 -0.003899868007585602 -0.01387072171816133 -0.009721502997128133 -0.01477362978649866 
0.005288040646569673 -0.0008768788257723084 -0.0008875320374537676 -0.0003726847773061682 -0.0004296162351187944 -0.0004727859222137792 -0.0003753846302740525 -0.007503993970035395 
0.004745262188244679 -0.0008551443563521886 -0.002069898144244447 -0.0007222117175978301 -0.001617974422748766 -0.0008477716407894928 -0.001248854188633568 -0.006364066734203343 
0.003424506191330375 -0.0007336653954824069 -0.007115585717085810 -0.0003326463268060782 -0.001292210816916860 -0.0002963677713707810 -0.0008179446628097677 -0.003722064647318309 
0.05109838084392811 -0.005939343607792155 -0.01342223527039015 -0.002026335007126788 -0.005195360161046457 -0.003306799470339919 -0.003775405984445465 -0.05477733524556985 
0.01302036143878077 -0.0009285747862049843 -0.002706007505416108 -0.001489334540803969 -0.001174993368401784 -0.002260003330453759 -0.001536797457917158 -0.01427987011921409 
0.003289797987988577 -0.0007005606241258936 -0.001269487697676559 -0.0005359935616176007 -0.001261031540593885 -0.0004493836889837994 -0.0007493376419379963 -0.004358133062593818 
0.005619759601934968 -0.0004351689140316639 -0.0006061197780594019 -0.0003995689917943237 -0.0004129296351859779 -0.0005010534648450870 -0.0003861217039182145 -0.007509427772768774 
0.001294602670298261 -0.08202961826958852 -0.01809950262888518 -0.0005576631390868741 -0.001049658124372598 0.07477798622802260 -0.0005969701303820791 -0.005396184020079593 
-0.004685259855660593 -0.04042431963732924 -0.02259515245681529 -0.0005998630684536832 -0.002355117821167980 0.08957371173529195 -0.0005665076942548458 -0.003888656992235228 
-0.01172116988632991 -0.1187533325025082 -0.04039536424879954 -0.0006008858673514710 -0.003014628462207109 0.1647317884181440 -0.0005537789641632972 -0.005801318690647298 
0.02077342321753623 -0.04363179707984111 0.1159374872454472 -0.001026563981981894 -0.002108730488307114 -0.04120898904379848 -0.001462468309667929 -0.02415766042259946 
0.05263661586979541 0.006671842715081987 -0.03377221071774840 -0.002134808669062453 -0.004777368593441250 -0.001864889318667883 -0.002930798199614490 -0.08184766328332511 
0.04099028351251975 0.003522022351053106 -0.002985947385774688 -0.0006015423291054838 -0.001426510089649720 -0.0006483604417038519 -0.001443252926836784 -0.05210744900464438 
0.03294890270001324 0.006188351843967319 -0.008743793727868609 -0.0006607078742826675 -0.002112073140915119 -0.0007243625681533511 -0.001877392131263489 -0.04265481552281338 
0.01932649512131352 -0.002870202556282614 -0.004737200509322621 -0.002281544388540156 -0.004367161962019767 -0.002691909420113633 -0.003104337018591066 -0.02926494771002783 
0.008008218828231575 -0.002234009801505969 -0.001384312100660736 -0.0005780053331245525 -0.001277584722510515 -0.0004330267606888129 -0.0008585670586327914 -0.008617783910210137 
0.008626752752206248 -0.1766896006191203 0.1647192293223691 -0.006068923387335227 -0.001614677231652812 -0.0009336751705397360 -0.001561649385976101 -0.008809042456159741 
0.001702292851896304 -0.3753433145838933 0.3459183924949518 -0.006541047149401067 -0.001724762891831246 -0.0007763523990151677 -0.001397594333103598 -0.009112402682834078 
0.006776076568816029 -0.0005579654940695695 -0.0009747031325930717 -0.0006778704697071566 -0.0007572629297223075 -0.001271428656744569 -0.0008927194543232226 -0.008162023920403725 
0.01355632430502866 -0.0007355305009629724 -0.001428376274097674 -0.0005746308973401874 -0.0008074633731421178 -0.0006405271683485136 -0.0006989023071720987 -0.009534206389326798 
0.008814897232009839 -0.0005154579791406862 -0.001657814372248633 -0.0004560771662505245 -0.0008221191340213390 -0.0008230684691839731 -0.0005543150763708307 -0.009018906597482067 
-0.06102491227362345 -0.01191318196308351 -0.009333653255910406 0.1067647815852808 -0.01514705955358183 -0.01406748923357511 -0.01705255445653920 -0.1089964159074731 
-0.06102491227362345 -0.01191318196308351 -0.009333653255910406 0.1067647815852808 -0.01514705955358183 -0.01406748923357511 -0.01705255445653920 -0.1089964159074731 
0.01144613752042051 -0.001259617955534139 -0.001016842179119861 -0.0004641041860191856 -0.0006524836500684419 -0.0007211995145767533 -0.0007989656264939320 -0.01086511244559949 
0.01999357545002242 -0.001242462309532180 -0.001129222069480370 -0.0005156525334181854 -0.001326973298836109 -0.001122592295334770 -0.001084155015661247 -0.01414603305517271 
-0.1196528368140094 0.06856322632934286 0.4764997793004494 -0.01708786098728402 -0.03051734121512972 -0.3457646159629153 -0.02025116746708193 -0.1259832060496703 
-0.01100638136418049 -0.01117353922554919 0.1343706389850435 -0.0006548457133691325 -0.002404634377674153 -0.09647111841930311 -0.001325095163582988 -0.05937727367046654 
0.003227384828152766 -0.0005677170003955362 -0.0005290348920020524 -0.0004111554807854451 -0.0009230070419748741 -0.001148659994695062 -0.0005347571041506530 -0.006311047914025888 
0.002468327215195877 -0.0008113314200586326 -0.001549180363185382 -0.0007315745161636568 -0.001710364073802375 -0.0006176683342269655 -0.001101251708516443 -0.005920624910877687 
0.007864795992306625 0.1520343171372899 -0.09530982196287788 -0.001964801589820033 -0.003246718149447278 -0.02127036773194325 -0.003379596484395298 -0.07242028825018028 
-0.005236803001304447 0.1341029518055134 -0.08547494525401997 -0.0003889494004184788 -0.002596287815099598 -0.01590957351240188 -0.001099440747217632 -0.06382565970755441 
0.004477537473352028 -0.0004959352475683378 -0.0008996939849735559 -0.0008250950544931027 -0.001175702712360150 -0.001001727857737377 -0.001195087431757152 -0.005719691243751950 
0.005948529868827181 -0.0004160276434215742 -0.001136825357979336 -0.0004003774450074634 -0.0006240748656935334 -0.0006583245496425819 -0.0003915718796494492 -0.004738113218761014 
0.008783422697136988 -0.0006532854154634813 -0.003732545352342090 -0.0005269703017732377 -0.0006934596558093295 -0.0005669947253186401 -0.0004467366176269395 -0.007802668928130847 
0.003728623477719164 -0.0004444133953037514 -0.0008586903016727684 -0.0004170486013908132 -0.0004486479019149910 -0.0001287411736434955 -0.0003112953176863586 -0.003271278865354514 
0.01715350476964025 -0.009343110098964850 -0.007889579251622812 -0.0003803436710855658 -0.001364998658629629 0.02274065243101065 -0.0006961111922538606 -0.04515445605622941 
0.01255573641725213 -0.001082618485157248 -0.002308599577765463 -0.001545506542589784 -0.002585684259404629 -0.002273686918435451 -0.001662241910521370 -0.01262361024141944 
0.005883279463484986 -0.07093445199172280 0.2256355881200949 -0.003257611919303672 -0.005903461323897138 -0.06121657214529012 -0.003191014396181070 -0.03432533344853998 
-0.03591129010182917 -0.04195779830296209 0.07506530890903107 0.2355849130446545 -0.009608006378330747 -0.06329325501093651 -0.01320595184128616 -0.2275809125725769 
-0.02048857446833338 -0.07154832908293071 0.09926005448386833 0.2619683308145722 -0.004234129952635588 -0.04297158721426698 -0.003671265059808791 -0.1251556561480408 
-0.02241245820351719 -0.09685180002538438 0.1638623967007488 0.1554737801829836 -0.005259272688214631 -0.03552494548680274 -0.004080296730595514 -0.07404208037745409 
-0.01558717021215967 -0.05841844347151026 0.1305043842155236 -0.001506244265837606 -0.001670209572820881 -0.03681770962813644 -0.001797350279614359 -0.01906140780575236 
-0.007508698430177444 -0.04614222654609104 0.09505815161383442 -0.0007781404198638716 -0.001452803224175824 -0.02472710269134138 -0.0009658777822667711 -0.01575250576370216 
-0.007028405305049995 -0.03934041484997392 0.08297654532686168 -0.0009107558651297480 -0.001421161533463948 -0.02556586548928292 -0.0009472345481538989 -0.01244116316133390 
-0.01192444897213026 -0.01748849369204837 0.05698077643246671 -0.001010511639698326 -0.001717723678414788 -0.03605259616518822 -0.001037241358721071 -0.02001257017265292 
-0.009836592437232053 0.2740700604634377 -0.03738742578498368 -0.009042643285202214 -0.004454773724841047 -0.008620637947067020 -0.006600791446045378 -0.04234453825447677 
-0.03099848611639338 0.09996430805936192 -0.01697860217497457 -0.01172574553296765 -0.2156700932553473 -0.01943552159129276 -0.01650396002312142 0.1285473944639857 
-0.02001228274850282 0.1337978005073843 -0.03541666800787926 0.1577067984806926 -0.004154887324468233 -0.008393864265774507 -0.006778036291643072 -0.1905229869700346 
-0.01105659274389623 -0.02519100872692227 -0.008742934563535712 0.3864376917610111 -0.003460547295033485 -0.009198102442757787 -0.003230361788427028 -0.2467092113036622 
-0.05249532178822727 -0.03817167661059369 -0.01468770293892785 0.1557894162051286 -0.2150865871352298 -0.01865714344005372 -0.01634657868713400 -0.008781204523843164 
0.02506248262617336 0.05849380866529311 -0.02450503466582184 -0.0005449824649668397 -0.0009248756795429971 -0.002782917183008803 -0.001245222434149148 -0.01394990871150666 
