solver_type L2R_LR_DUAL
nr_class 8
label 8 5 2 6 7 1 4 0
nr_feature 2458
bias 0.000000000000000
w
-0.6752035266681110 -0.2192082276640969 -0.03781510983246392 0.4095867389057070 -0.2991208917378623 -0.07468115111233697 -0.5275501393222504 -0.05228195507994012 
-0.3724470045161099 0.2579806624223835 -0.5599615633161406 -0.1666225082199638 0.1475756007158689 0.6259693749265133 -0.2861148774433587 -0.1985443428760108 
0.02597702607305753 -0.3932043637662191 0.1440096975522760 -0.6554894131230941 -0.4218819505251140 -0.3134710017919519 -0.4272334736655764 -0.1238279195114111 
-0.7044086220859891 -0.1115874794165670 -0.2304417442645930 -0.6423799283908339 -1.152148767189379 -0.4780407391729653 -0.9000601824588546 0.2798487651146121 
-1.374096210286758 -0.1662214472430120 0.06184902199020116 -1.009521858962125 -0.7594411616233473 -1.180110366901109 -1.060521020566501 0.2787918943804578 
0.3166213780745099 -0.1040593904544153 -0.1194678530754479 -0.02789483576028074 -0.3351171762847907 -0.1695154750886284 -0.03954808260209982 -0.1866519159254432 
-0.4831629419555910 0.6527525559571821 -0.6417140485244254 -0.08147474852430109 -0.5658360475682018 -0.3453626799847671 -0.3806185969175351 0.1957872755969420 
-0.3464336816332138 0.2180263318929995 -0.2341570239751356 -0.2703142820002014 0.1459580262260391 -0.5768449917068987 -0.4666519932219900 0.3169610916463139 
0.1331623974400597 0.1624678567423983 -0.05405944862967638 -0.7260329981842791 -0.2107306664062656 -0.5735007766466915 0.05174207315138783 0.07187890829526750 
-0.1696271382079795 0.08630906062161386 0.4607286583965636 -0.2449198148229660 -0.09492000264372324 0.1539176592295711 -0.2833618531558948 -0.1742191496440208 
-0.1570122077921112 -0.1154163924967966 -0.2095083598390835 -0.01856496221201395 -0.5340721801803353 0.2388788740032724 -0.5532407637892864 -0.3333630286320633 
0.2422383148587780 -0.1043178978671515 -0.2157109754937402 -0.05661933849653742 -0.04746709857979044 0.2625941056262628 -0.04412670314491698 -0.05533016507107702 
-0.1107494770895003 0.03273057058593805 0.08533797530636435 0.1172635526894011 -0.2402616562019822 -0.2503753759698504 0.1507658547704142 0.04974461554340730 
0.3560024474663597 -0.1141621806616696 0.2522568979274335 -0.002362299696266679 -0.004395546691107238 -0.09603655132757638 -0.001908206708678222 -0.3027915062499185 
0.005664586982120981 -0.001430483782987532 -0.004269437382603422 -0.009918703592442940 -0.008564863897918048 -0.007105174364732239 -0.004987050957341303 -0.01044233474739699 
0.1933508085910687 0.2945818532749532 -0.2282434939024040 -0.03376395042822190 -0.04734499327937203 -0.07512857089021555 -0.03677644627594110 -0.1365999698689721 
0.3190726664225062 0.4444211174563563 -0.4145207863203534 -0.09429995827245916 0.06595414159054444 -0.3322546497972204 -0.1305228339193510 -0.3038762076956105 
-0.4765518861043710 0.2650933070698721 -0.2701045218207446 0.1657502249374011 0.1483338420893352 -0.4878965725331649 -0.1645627321490913 0.1446250529176880 
-0.08774813413642639 0.5166824947809020 -0.05943569168799392 -0.01656081573027371 -0.008222847797068203 -0.01415148065859049 -0.02792969529542132 -0.5389727703914712 
-0.06397016277966265 -0.2826560651065562 0.06967770785036972 -0.01290997431293232 -0.01672712975502067 0.1712070774352431 -0.02900660639970843 0.09502554240255186 
-0.03123462837739324 0.0002861210090836924 0.07269765618490072 -0.03134645054338695 -0.1591209341995659 0.03553501929368051 -0.05022238124922075 0.09311530057084018 
0.007475504210809138 -0.0007666730539983080 -0.001226900154480069 -0.0004878396669870274 -0.0008383805059890598 -0.0004733735149850924 -0.0005843936087593719 -0.008037585379895580 
0.007701785490942180 -0.0008064752754202641 -0.001363334402085732 -0.0003131614295671284 -0.0005723733334287049 -0.0004397234805594060 -0.0004415237975658057 -0.009712861157860306 
0.04331663276227099 -0.01039408366595824 -0.01469389837577902 -0.04349364239226951 -0.01013671749196259 -0.03054963056034496 -0.01684096895102824 -0.01242314872464681 
0.07684433768616820 -0.09558915409512997 0.1436588796614849 -0.04272052932178402 -0.01882733770927901 -0.07863058887263040 -0.02161921304703704 -0.04443514572264462 
0.03669614078047188 -0.01187123981193188 -0.01233995558861225 -0.02687960521608613 -0.006745569281672206 -0.02002991561553306 -0.01016170754545520 -0.01060959885326833 
0.03601987352898382 -0.01229181549406803 -0.01375877098266662 -0.02710310604254616 -0.007976131077456743 -0.01919095743956953 -0.01140326434021791 -0.01158878677516086 
0.04679661333085027 -0.01055036964489279 -0.02424089800157857 -0.03139309547756056 -0.009469334361546245 -0.01702623835780066 -0.01040420885545917 -0.01123114485229534 
0.5321475740494442 0.3143422849395475 -0.3244373811106084 -0.05497620625329946 -0.08261403756023336 -0.1248223956115463 -0.07942873792550560 -0.4901085347092198 
0.2635936727482661 0.02265575492272991 -0.1727661603936685 -0.1233461358529775 -0.1082976842814834 -0.1299938137384475 -0.1390732918301641 -0.1111262010260561 
-0.01405157838996473 0.5751354117883999 -0.3027676055278011 -0.01483961993585851 -0.01439217383112771 -0.1559178635594077 -0.01009913579306452 -0.08039424547273374 
-0.01076644953916768 0.1127205131683714 -0.09823702699561017 -0.0003456712072463641 -0.002316622365738682 -0.03018351865777452 -0.001675099715926722 -0.003728771518255557 
-0.03273090713987825 0.1385142439764055 -0.2203197777651678 -0.001895042329729528 -0.01359161382652723 -0.03141350753742159 -0.004019483821187742 0.1077291109664747 
-0.002538893108640670 0.1374536330382691 -0.08136776002449950 -0.0003985287993021231 -0.002842876992265256 -0.01942291458644210 -0.0008822460776302114 -0.02614592031422914 
-0.01166391014867497 0.1797572800351703 -0.08687426078711890 -0.0006167187319299234 -0.003573192443547191 -0.04572702091343791 -0.001545829300671532 -0.06014475154556952 
-0.003426288217835742 0.1150631241176102 -0.05233872619445088 -0.0001022861387884018 -0.001725029553193091 -0.006360292976845628 -0.0004473424748801213 -0.03390504352574019 
0.002471414422279795 -0.0007177556961186732 -0.001036499519993864 -0.0006443500428428245 -0.0009003101832088143 -0.0009159810845664674 -0.0006571528869661050 -0.003813743590365074 
0.03000894690359451 0.04448688129443439 -0.01299910292027088 -0.001426570039442224 -0.001800305955032989 -0.002698968513947930 -0.001692418718702510 -0.02058129368016925 
0.3081360029219586 0.2831036563779480 -0.3183620512977005 -0.02338805335818780 -0.05626133984748587 -0.1123957090363929 -0.03456162960946106 -0.1562569254679823 
-0.09627974673754648 0.7213443196160663 -0.7449681187198094 -0.01020230419003304 -0.03093432931170552 -0.1121009059374024 -0.02439943517402207 -0.1502436525646909 
-0.01147077066566708 -0.1683356518492958 -0.04570255985917945 -0.006486913497631183 -0.003484335691690071 -0.05353159083304934 -0.007412476107016235 0.2565148855616705 
0.4207277246971731 -0.2707600593139088 0.1445741247618732 -0.01514527283277516 -0.01665476212536369 0.03604269062320576 -0.02079839734815257 -0.4054186625407333 
0.2691976670137651 0.003678091400691716 -0.002857916196313198 -0.002101048889587474 -0.002165140236605102 -0.01242212275556679 -0.002510837033249942 -0.2178950783263621 
-0.004428945667568554 -0.3594144925149954 -0.01470110737857018 -0.001695328677624137 -0.005561708134277781 -0.05530637038972727 -0.005298283780918589 0.4282787431952151 
-0.1489696448194945 0.008427971165257177 -0.001039441367858370 -0.0005886420502524581 -0.0006705457353425518 -0.002985824740016370 -0.001102262511085877 0.2098756900149469 
-0.1732653603824304 0.007590755109410746 -0.0009282104537855877 -0.0006023355655775433 -0.0004443059661163751 -0.004894363850676176 -0.001034617104534167 0.2011730971852360 
0.04226802820098490 -0.003927346410364413 -0.001166581856047665 -0.0006728132935295156 -0.0007739218650579466 -0.001178737170868637 -0.001204331811997570 -0.05381047548915421 
0.01553003412185465 -0.04885475943380437 -0.008608841693698395 -0.001185655010577528 -0.002979050356946190 0.02719922894994003 -0.002559130731603862 -0.01727105573391098 
0.005001664654802558 -0.0006640059124873871 -0.0005022689337722476 -0.0002644110653569793 -0.0003278052264821984 -0.0006457721868559397 -0.0002730272244707496 -0.001590713287459567 
-0.6202993293342557 -0.2538028189270647 -0.3817177837095218 -0.1279321151804699 -0.2379944356413659 0.3170953194493731 -0.1672920051985457 0.8201759673622105 
0.02014653396017298 -0.1575293156224717 0.1269880018258097 -0.0008201747710028740 -0.0009734372386327857 -0.002613014208253280 -0.001018407052254633 -0.02492461883629625 
0.01701062114539275 -0.09938527654198914 0.09925532207963018 -0.0008631328871081288 -0.001161571213802745 -0.003257371460407378 -0.001103172412362080 -0.02758329648018521 
0.01299475592169839 -0.1209937533283146 0.09183971232907828 -0.0007164601409175266 -0.001372183948866548 -0.003093553531289549 -0.001388797184550174 -0.02840694642985923 
-0.002681028935558266 -0.1182094535488933 0.1288619079125805 -0.001025635033481690 -0.002473605996240492 -0.008541132320153981 -0.001862004542587746 -0.02537570556135311 
-0.07841893782593300 -0.1685473590994701 0.2498393773159551 -0.001537502711897007 -0.003979057036226406 -0.03424560882897490 -0.002634333877673208 -0.06985122596589066 
0.01208525882711784 -0.0006776193826537113 -0.0002507090301227212 -0.0002638206219381926 -0.0003720689264036603 -0.0001317206922145619 -0.0001772547810469181 -0.01182204069819343 
0.01208525882711784 -0.0006776193826537113 -0.0002507090301227212 -0.0002638206219381926 -0.0003720689264036603 -0.0001317206922145619 -0.0001772547810469181 -0.01182204069819343 
-0.1344339423150476 0.3964229917117794 -0.2927548123071356 -0.01982722166828190 -0.02149456940155722 0.1189713058439739 -0.05308042639855196 -0.1109283544451525 
0.01225173860425506 0.06093937953514941 -0.006176482335361736 -0.0006705409948675440 -0.0007288299961357937 -0.01577678428743721 -0.001167495286600249 -0.06767758700516440 
0.001701223759742484 0.03776470955688894 -0.01032827848550143 -0.0008377542393084438 -0.0007066922646435416 -0.01518158650027095 -0.001150869965434324 -0.02430192454567708 
0.001828242917561114 0.04866355513132309 -0.02298468365305431 -0.001254746068857928 -0.001485250683928736 -0.03213691757198614 -0.001991369868323186 -0.02317075350369630 
-0.02789671249220069 0.3010197261504691 -0.04459425086884078 -0.001273769304792645 -0.001080306750396688 -0.09104666172489503 -0.004202631517172929 -0.04116182398050912 
-0.004651472128805375 0.05047219994393907 -0.008984948668871536 -0.0001589985049339489 -0.0003925152248105855 -0.02108273124841057 -0.0004954136624890193 -0.02244003944727923 
-0.005151123674580872 0.04312107610160713 -0.009291196206359900 -0.0001589293977371770 -0.0003897022579898944 -0.01994092868463944 -0.0004952667473804424 -0.01882102525092735 
0.06785154536378057 -0.08479426358309829 -0.1354118872114174 -0.009082512842688887 -0.006557327455630137 0.1535879878373390 -0.006628348459395170 -0.09646421479898670 
0.006651466284388294 -0.0008664863683259176 -0.0008974196846213198 -0.0003762544435835270 -0.0005201452107915400 -0.0003968722731801963 -0.0005770337112870386 -0.007181167929532929 
0.005208823143009522 -0.0008126542505948085 -0.001118479610863960 -0.0003856617153447477 -0.0008484708688982430 -0.0004617782881437919 -0.0008153644776432083 -0.007943360417131940 
0.02708826297973916 -0.009787677315411922 -0.009952859324021651 -0.001782660217594655 -0.004016492426199761 0.004964071453995270 -0.002334593444197270 -0.03174342798112703 
-0.002746711618432282 0.06213728783248309 -0.1114874863342045 -0.001490262663155677 -0.002726646027015137 -0.002512883939098134 -0.001609838733332778 -0.04263019997651533 
-0.4969966962634811 0.1780424864977851 -0.7651596284279474 -0.1023824734887363 -0.1789824256556918 1.045320670010353 -0.1514715966878670 -0.7319391135978903 
-0.0002996367602798385 0.01757223649444695 -0.03697263529873326 -0.0002831453467980576 -0.0006412934966074908 -0.0006038068930641458 -0.0001353593232154404 -0.02188843705476371 
-0.0001914729246562695 0.01562776736744419 -0.02275211970278759 -0.0001406420582561584 -0.0005910741966018098 -0.0005588943347967936 -9.275398441391873e-05 -0.02219733833145322 
-0.0006726858881511125 0.008807434340939623 -0.01801805165638075 -5.246547033227490e-05 -0.0005107854582871748 -0.0001285097131159771 -7.006161236775326e-05 -0.01465567244175019 
-0.3666248144672348 0.8964297876830924 -0.1093172051058745 -0.04426750645120083 -0.07087727121581729 -0.3991636912637575 -0.1181856591339010 -0.1614082331012591 
-0.004849086682097919 0.05801304178747103 -0.03613153623363515 -0.0002304395995068048 -0.002115939522435800 -0.004869483567994671 -0.0006284120572591621 -0.003491333920467785 
-0.003052433716889967 0.04769391212023834 -0.02282955404201281 -0.0001161823785872295 -0.001938839182186731 -0.004291855249219365 -0.0004358384011768898 -0.003543941846714696 
-0.003026295381875077 0.04302856485313497 -0.02083744630365254 -0.0001162188770462958 -0.001946226905906972 -0.004286196372653511 -0.0004269619015576792 -0.003516588086935813 
-0.001879096244699684 0.02201099545281716 -0.01185713093219772 -0.0001070059126484925 -0.001111522721013263 -0.003033567863908553 -0.0002995694134595563 -0.004226481570342639 
-0.003254943442052002 0.04004426028072854 -0.01300842793023335 -0.0001211441971505784 -0.001364982088470959 -0.003877805455125102 -0.0003211921256500715 -0.007725380628208147 
-0.2776315490594610 0.4977481099454609 -0.3491455005182326 -0.02734022832546394 -0.05088193296157220 -0.1646452926103237 -0.04238322921655736 -0.001176827328546082 
0.3657418783847790 -0.02368654588885688 -0.07299545166317604 -0.01617738425682408 -0.02423362722579227 0.05096282378115657 -0.02512248766083544 -0.3638340170427463 
0.2620690832627823 0.5410919709857805 0.2382389346198533 -0.02802954961998563 -0.04414907350605821 -0.9815472297942571 -0.03574068968721440 -0.2231479483557799 
0.01254770946416943 -0.002851074018686055 -0.002268295498944277 -0.001534545083725798 -0.002140779150849073 -0.001226137761188571 -0.001621480535215086 -0.01827212570017618 
0.1242612549856715 -0.01075059121075767 -0.01177243007208903 -0.004672411546831626 -0.007942587151559793 -0.005441468046708016 -0.005485510829455203 -0.1025013407220004 
0.02202786384417502 -0.005545375905241227 -0.01240730994662300 -0.001094262041885177 -0.002347932577784568 -0.0009797506816701883 -0.002610447288861748 -0.02071480433590418 
0.1329641258384068 -0.004234745875999912 -0.01148512972762623 -0.003010988074801469 -0.004887851960895928 -0.003529030911598958 -0.004328764137356018 -0.1897240915383927 
0.007754533386595784 -0.0009723456910190793 -0.003681451283918237 -0.0002986979155612794 -0.0005810902345222117 -0.0003205593289486244 -0.0005488538219677686 -0.005380824583712873 
0.1697140166157627 -0.1055034979103755 0.2990645902925831 -0.03816984959218722 0.1972649219243449 -0.1941781754700250 -0.04768479113849920 -0.4994896497704400 
-0.1807808960311691 0.6116563573270790 -0.2008168625549292 -0.01080105523695903 -0.02987995731488004 -0.01785328911803862 -0.02276455877878247 -0.1263884687273280 
0.01779277907825441 0.2294216893791059 -0.008314331327453925 -0.01451726441297819 -0.004103878944489794 -0.04052324551055180 -0.01864365079552663 -0.1055148303232837 
0.01565257393801678 0.03629395154167231 -0.006791037077888223 -0.0008648802601946425 -0.001367017696302558 -0.0003916930413304113 -0.003745000666905132 -0.04725084921084453 
0.02972727296270261 0.02877546493272605 -0.01540728575489393 -0.0009779096509363950 -0.001789133644902237 -0.0004937524385138121 -0.003775117415058164 -0.04815259870231150 
0.01681673507679585 -0.002633499349183671 -0.002496081705177160 -0.0002329207279947950 -0.0001876581770097650 -0.0001644907714215881 -0.0002164379709772468 -0.01135516974742014 
0.1391048567299485 -0.008896554818089542 0.09385606225257079 -0.009120523583456528 -0.02012393772370645 -0.03384237151531634 -0.01811531502756025 -0.2268953593190562 
0.07679923248872027 -0.02640886709340074 -0.01336759836693861 -0.004364443591938585 -0.007759148140952377 -0.005412561002190508 -0.005728414378254037 -0.08302564540095558 
0.003434719306042246 -0.0004913315835603962 -0.001486474318384341 -0.001030855775322437 -0.001707770993143617 -0.001174946947776706 -0.001496560370595804 -0.005400811538584503 
0.004625077441806222 -0.0004666174180837210 -0.001961010158321686 -0.0006082269946702788 -0.001361220465417762 -0.0005772402594082650 -0.0007243360620495977 -0.005392420285712825 
-0.02656720416742900 0.01538687811880957 -0.006344429562702510 -0.01007300729212792 -0.002800328183727832 -0.0005817998923850499 -0.02485765706824075 -0.002021771731615540 
-0.02948791159998043 0.1824244026942750 -0.1749994747657324 -0.01273514172078130 -0.005184569219028322 -0.04037018876248456 -0.02766958398121959 -0.007609760075895526 
-0.002920707432551429 0.1670375245754654 -0.1686550452030299 -0.002662134428653374 -0.002384241035300494 -0.03978838887009951 -0.002811926912978845 -0.005587988344279990 
-0.001269192196664338 -0.06802327019907617 0.06145958226550111 -0.0008828359196447540 -0.002112963615525818 -0.01287925096240930 -0.001172539204958588 -0.007996156715289365 
0.006338042982640044 -0.2245236791014082 0.1504652159387236 -0.0009264247123161213 -0.001743958849755393 -0.002750974927693838 -0.001260132950532513 -0.01144753316520507 
-0.004928503412321829 -0.4712249622536627 0.3453522947672794 -0.0002801550801005474 -0.002192793165569503 -0.005261963660116793 -0.001019406893476894 -0.01100477370996192 
-0.4892001911465030 -1.128919841743836 -0.3379548661368941 0.1165602595803503 0.005899968454581643 -0.1985848161028311 -0.1595989795570036 0.4147786383583307 
-0.02231425986806559 -0.007330220385731589 -0.01242608941515298 0.3589924570507219 -0.008962869772416018 -0.005421145895525494 -0.01022071735890176 -0.3877117494911095 
-0.01858916547131511 0.03494180882297036 -0.004065868981021933 -0.001985835970772641 -0.002871965357330255 -0.002310135994245741 -0.01976453114772344 -0.009076127767243451 
-0.1571376636655223 0.1657924186896830 -0.1394599585026400 -0.01624761379352106 -0.02685040277405686 -0.05655777493608906 -0.03126669263799919 0.1870884549809266 
0.006330438089305800 0.02557549518601416 -0.02715975355559468 -0.001590770703197195 -0.003699316244736520 -0.001579008093704404 -0.01594790635061059 -0.01199516607488525 
0.05918592800188838 -0.1679655939931488 -0.02050175883073267 -0.005224417756004225 -0.007391357176897061 -0.009325171609768175 -0.01390994091978474 0.08155825951591854 
0.007374122080192582 0.03679219630553475 -0.008690927214462005 -0.001615402886030695 -0.004572450998104535 -0.002666489724577764 -0.004438604808194697 -0.01387677813093416 
-0.01869619704578836 0.08230020348353406 -0.05113830261447783 -0.002526137591205504 -0.007850550885103913 -0.003060549485372925 -0.006982565237035963 -0.009255835593290447 
0.005646362043515768 -0.0006923261363905623 -0.0008376596127783709 -0.0006268742498513475 -0.001081748819366434 -0.001094955398675685 -0.0009023921513957129 -0.007458648443721776 
-0.06938352363420425 0.2455049917306798 -0.06408651790357918 -0.03637387630821418 -0.07114113489025260 -0.3582754701153815 -0.05281606325390142 0.2584221660892230 
0.1291875004545919 -0.08008922153104511 -0.02508910667881597 -0.003586428744511663 -0.005811796777033960 0.1094333360680265 -0.004713079904488286 -0.1184114555026219 
0.08107384119233339 0.1603597048746485 -0.2411803026673865 -0.003456792554564337 -0.003677120103882090 -0.005786988810064453 -0.006583810068108171 -0.1493464634437340 
0.06287972605012360 0.1374212674983385 -0.09301928845420819 -0.0006715763109016594 -0.008701855926753715 -0.003780317369087565 -0.003103819354808237 -0.1027910522882204 
-0.01516254167415966 0.1862209366234731 -0.1010170799122735 -0.004540958810529800 -0.009952817472044066 -0.004337965681743033 -0.01045830894423328 -0.1185288126880158 
0.02936809557341615 0.01516055348498476 -0.007741432667731845 -0.003596593244428144 -0.001960778777151965 -0.0005622440436028441 -0.004743198265748331 -0.02917031615794444 
0.05213910272084810 0.01247991647549506 -0.002763956594237554 -0.001433263594777480 -0.002629477286957347 -0.001001950782637456 -0.002510627954622501 -0.1187883898079931 
0.01284899835349464 -0.002232689086699423 -0.006882107905118780 -0.002583816118614177 -0.003934325124926761 -0.002523327590308977 -0.003461583632484875 -0.01976099008723815 
-0.04346862307088906 0.02318654919048803 -0.07627546449254247 -0.001947055355566177 0.1493805101839227 -0.003837480425457324 -0.005619509167888930 -0.08865447111988085 
-0.007788123402650869 0.02921955010217345 -0.09648786886388470 -0.002997474865168155 0.1847934926201628 -0.006151142958511401 -0.006080124166341487 -0.1734101984743900 
-0.01162130691622535 0.1184479399024508 -0.1511511028494289 -0.0002438731048519535 -0.001035789329495095 -0.001713946035493399 -0.0007215142149586231 -0.009397002209940549 
-0.1047627197587089 -0.2933872030548307 -0.3917334547685738 -0.02481029248210285 -0.01753555019353010 0.4428728444095536 0.3334193341128200 -0.04260392640925356 
-0.1428940272282986 -0.09102418012282364 -0.05572553466520447 -0.003626894103848204 1.118542740231143 -0.03404393971668900 -0.01589933175534663 -0.8295403117290685 
0.0009035933873109259 0.07924945802214198 -0.09462695662328788 -0.001296260630432333 -0.002611960267324568 -0.003108491777641806 -0.001649481642274940 -0.1019799438265573 
-0.003612098013702222 0.02905175757588548 -0.05921052784512736 -0.0006348193413096904 -0.001454894236596472 -0.003737485613398848 -0.001074604419990493 -0.006628454427044529 
-0.009150163896197935 0.2194016618194143 -0.1764674627644094 -0.0005161054404846316 -0.003720681677758713 -0.01877654490531466 -0.001449612314404236 -0.1309447129969873 
-0.0007518278815024220 0.1132556609143570 -0.1341160848378992 -0.0002337545590539549 -0.001290974803501203 -0.0004999475340558713 -0.0003105043978373289 -0.08334194015501507 
0.1607490062530189 -0.002685373743271861 -0.0001093779901407846 -0.0004581882989673146 -0.0002949683492792677 -0.004926429611391420 -0.0002596647433156105 -0.1728714883285389 
0.04732268233724137 -0.002836525891000026 -0.0003461339058361436 -0.0005082772123401166 -0.0003674588455851354 -0.001228236895070400 -0.0003873395038614183 -0.04614101851907820 
-0.002307088377185194 0.06900688434079660 -0.01253282356475473 -0.01538275718393592 -0.005224298383948463 -0.04539706598024343 -0.008309993976381658 -0.007420936816517494 
-0.004231629951307546 0.07850908354582100 -0.02045174282010979 -0.01204644085309804 -0.003757123987676197 -0.04522427176577352 -0.006519008607306085 -0.01139269379121392 
-0.006537217283349483 0.2024888411730049 -0.09780070668008492 -0.005625704816110357 -0.003159116197127533 -0.1160531305446364 -0.001538001788143072 -0.01257533457361108 
0.07398086541006893 -0.002711833384579672 -0.0002811400107190372 -0.0002396449585549939 -0.0001754456495211678 -0.0009151639793776544 -0.0001056001343075658 -0.04032585611257104 
0.06773873834642727 -0.002468869511055476 -0.0003928680935877103 -0.0001915951422317645 -0.0001416360479907930 -0.0004265159700671610 -8.973096947249687e-05 -0.04213278211651102 
0.03584438371664801 -0.002107242115380439 -0.001527494689327012 -0.0006744450055456257 -0.0003689387970047441 -0.0007317468805418325 -0.0004830110683860611 -0.02968684007648624 
0.04017249338880573 -0.002313844239044415 -0.001757658707374040 -0.0006777051635744182 -0.0004397289145406559 -0.0006716183428091234 -0.0004703843616396688 -0.02830343209255260 
0.03561430235323126 -0.001841469262956175 -0.001598758470837075 -0.0004519689713586577 -0.0009398598077195789 -0.0006611079493517096 -0.0004593376603973424 -0.02969274560431430 
0.02775186733585756 -0.001743387793243073 -0.002958414217770670 -0.0005116885474795553 -0.001126848191653178 -0.0009290301103559741 -0.0005192536416268257 -0.02355372849613643 
0.01421252061838361 -0.0007795212549676952 -0.002015114872769111 -0.001288357534156296 -0.001377677427579737 -0.001090704879275256 -0.0009681453602154552 -0.01220097553688970 
0.009457228641084718 -0.0005179242479424247 -0.001360142724098191 -0.0008590452931930422 -0.0009159899082110938 -0.0007280431170174882 -0.0006424851367052482 -0.008122072344534052 
0.2547325799201333 0.2031540739813104 -0.1610119834217973 -0.01351724255219600 -0.07632437099404352 -0.002886141943735864 -0.01837648885139620 -0.1255899438305114 
0.003117041491731649 -0.001225978502806846 -0.0009183965057150078 -0.001000695748854646 -0.001828776088233914 -0.001404413383402781 -0.001379314009017365 -0.007133487399574973 
-0.2494823867727652 -0.2039376278385277 -0.3697184961217357 -0.04050665321198123 -0.06193420891713726 0.2532594003722429 -0.04957559813199042 0.2390788683802435 
0.01701635639859860 -0.001009842118541143 -0.002513352437178945 -0.001388756743394015 -0.001881238929069472 -0.001900933686519147 -0.002145465131259018 -0.01757824112704717 
0.01446970818750278 -0.001113677088903805 -0.001038231948040807 -0.0008433599002700878 -0.001100904833091937 -0.001019860060448940 -0.001274524260842899 -0.01827675035465256 
0.008859892220200456 -0.001045357817402391 -0.001725403715255502 -0.0009134834247995915 -0.001654555363342172 -0.001107603046548535 -0.001297391897349944 -0.01041950016338063 
0.1432344738116083 -0.03238960698285107 -0.2831213528265332 -0.05665028664238021 0.05893235349677078 0.2032459762342377 -0.06728106438667418 -0.2265067231097087 
0.02880281812606772 0.1626908851410884 -0.07949772695513241 -0.0009284059450440233 -0.004982915076454412 -0.04420467381238984 -0.001810358238832821 -0.06025930153019074 
5.495008184491161e-05 0.2429176988758195 -0.1423054027319397 -0.002000882173486417 -0.009114615325286207 -0.06740178232858955 -0.003077471131241140 -0.04482402163800758 
-0.04588493768536296 0.2890087100625337 -0.1529403742233288 -0.004858530023428733 -0.01217769174646281 -0.07412238752240438 -0.006839819363595717 -0.04057233667510815 
-0.04685032704364158 0.2060311428009730 -0.09417928875053931 -0.01026315885167407 -0.009663777234532104 -0.03900114196815061 -0.01574394011204147 -0.06707018705857840 
-0.04273791041705583 0.1483466442149397 -0.07504874683842434 -0.01048453511164705 -0.009736988885636086 -0.03109536330216003 -0.01692793102032187 -0.05676717304151897 
-0.09348106899113685 0.1314771995954782 -0.03258511778011900 -0.01127477894711745 -0.01381082860919759 -0.02229234109363070 -0.04217313542795074 -0.06362707368836225 
-0.07765834332680971 0.1385666370185525 -0.03681276449059217 -0.03441826283783967 -0.02896803900687110 -0.02785653368021542 -0.07793638795888777 -0.08211943113140219 
0.02954868372870033 -0.002752358969012486 -0.007687319293428364 -0.01467161523190753 -0.01358770791194116 -0.008374359618246589 -0.006497487766514105 -0.02745696993516728 
-0.2313093794432919 1.024799738945516 -0.2864579183597156 -0.01831613522316358 -0.03193114645718402 -0.1578403742752937 -0.04367603105001575 -0.1729059818892889 
0.1959162724450978 0.07972366333110740 -0.02655718117750372 -0.006832879469804048 -0.002937461659196095 -0.01965945304968652 -0.008176156141382441 -0.08884472159448825 
-0.01588227419003303 0.1046752899047121 -0.01765699169228348 -0.001523707514586977 -0.002003584024202706 -0.02035819971026335 -0.004653350772307070 -0.01714193065124683 
0.05122716171469129 0.04336092998939575 -0.009041502427948320 -0.001029295916726107 -0.001980199222453084 -0.02712490425241163 -0.003489942868133226 -0.05273454314374799 
0.05741937257498933 0.01533953486797471 -0.001985504723345722 -0.001750729649547610 -0.001994530479568821 -0.007441813703484999 -0.006681002668474640 -0.06771110787723439 
0.6970766181381327 -0.3449527290556416 0.2654815624680071 -0.08685250161399731 -0.1856864930753686 -0.08132523900702616 -0.1227744154843932 -0.7835073913590213 
0.09842801177310403 0.06446067476658733 -0.04638512434341748 -0.005751013927812633 -0.009147990443482516 -0.03564773194389964 -0.007551905491697857 -0.1095331028492303 
-0.002805976989939062 0.3312581721769590 -0.3060929749886928 -0.001513976609395013 -0.003083010700233320 -0.01299657429133386 -0.002538558637479479 -0.01774277163020983 
-0.007594092132256492 0.1726821454830171 -0.1813711485405214 -0.0002257221918125354 -0.001455880678775202 -0.005194143050274545 -0.0008828576799421670 -0.01883918955171452 
0.01390072955533357 -0.001396299870269767 -0.0007734666112559779 -0.0006272210898156104 -0.0007189430256904718 -0.0008054569606500968 -0.0007400754619132939 -0.01056419000154114 
0.007472609759063799 -0.001701191257167409 -0.0009618695205418738 -0.0005354758439578539 -0.0009502789778625605 -0.0004835590399050129 -0.0007428566830201140 -0.007366391238429092 
0.01151780674894556 -0.0009974652565424016 -0.001020227053884587 -0.0004273355502962834 -0.0006592105205195752 -0.0006342697491116494 -0.0005394244426567378 -0.009671260186592267 
0.01066726066038393 -0.001870593111810623 -0.002222523217399618 -0.001895349826338998 -0.001323174033995401 -0.0007835264382308926 -0.001187894263767702 -0.01095801401812854 
0.3593544375746025 0.05648767833670607 -0.02582626644929005 -0.007670543512503745 -0.01277293629264814 -0.01099003333436284 -0.01075923561793377 -0.4430702410477567 
0.01111497337596485 0.08551497905005483 -0.02924839680271811 -0.003460437030154877 -0.001924748499000879 -0.01220258031835956 -0.002571303243179121 -0.04806648904703887 
-0.02733118815627017 0.06855803464488237 0.2799758599630092 -0.01073635107787609 -0.02197571855437817 -0.02431783641828411 -0.03190964678666558 -0.3259591645788671 
0.006304756712418098 -0.0004231424963257508 -0.0004717005878818061 -0.0004188984278250701 -0.0004425964677358078 -0.0003125617354043538 -0.0003117578195221100 -0.004137259987772614 
0.06575636052610222 0.03324967588121321 -0.02617091370255477 -0.002202015008051548 -0.002281162523694527 -0.02353236442761241 -0.002820887361109843 -0.04581854669473121 
0.05221513336510804 0.009535296902436362 -0.001900090710480748 -0.0009875899480810268 -0.001198152435095342 -0.001722059800748308 -0.001891747404279464 -0.03216125575352447 
0.1969311077103169 0.02905440209512661 -0.01265825904396451 -0.005858016268567544 -0.008080830393801745 -0.007580506740246182 -0.009470482668856334 -0.2454998044932924 
0.2898413840341793 0.02160714018295425 -0.01411047574244393 -0.004470057131169434 -0.008242707155531416 -0.006446159557813642 -0.008406735159873006 -0.3374904446815322 
0.07063279110839828 0.005977129916364425 -0.003207475622484058 -0.001147063024332108 -0.002086170886784624 -0.001963915022865275 -0.001906414141103282 -0.05124648112497966 
0.08268441052796698 -0.002302438410237008 -0.0005180838037327966 -0.0001866089378453198 -0.0001623218127129158 -0.001807504704922503 -0.0001467142103867393 -0.08356444016647083 
0.03997265739494654 -0.002323340083655005 -0.0007801706222642381 -0.0002373853911801690 -0.0004172965490921904 -0.001624765995430870 -0.0002663169737570084 -0.03410727515020266 
0.002094523433679356 -0.0003420769427543581 -0.0008254129743073383 -0.0003954592230874350 -0.001170950677284990 -0.0003330550160321713 -0.0008423762750100711 -0.003339613638509445 
0.002094523433679356 -0.0003420769427543581 -0.0008254129743073383 -0.0003954592230874350 -0.001170950677284990 -0.0003330550160321713 -0.0008423762750100711 -0.003339613638509445 
0.004565692535498891 -0.0007957369001453469 -0.0005540344647955151 -0.0004853357028579192 -0.0004214349667485868 -0.0002410516841000824 -0.0004152346694110920 -0.004307698569154401 
0.05046967064350234 -0.004043090708421264 -0.001427354917623073 -0.0007077461523104784 -0.0008894387128011278 -0.0009264997477575656 -0.0006676398208742792 -0.05114735019346883 
-0.1807274365956094 -0.03763245246743878 -0.006808536026236072 -0.002788189062674720 -0.004058963750292534 -0.004273898133739676 -0.002912722544664557 0.1916195250841753 
0.005096557395689647 -0.0007013392362442694 -0.0009380082304623299 -0.0009060831077116318 -0.001296350767135481 -0.002172602227421380 -0.0007261164091649167 -0.005877928451342046 
0.006863243796463052 -0.008696888342727267 0.03778718119970957 -0.003884404017645025 -0.003810581904656742 -0.08031875935560269 -0.003412101932342676 -0.04017680361606901 
0.01037325616144133 -0.001066568511415064 -0.001732571389796067 -0.0003577172141123741 -0.0004794208726865335 -0.0002100806466420351 -0.0005239478738771233 -0.01005923721303807 
0.2617270314196676 0.2148356351699801 -0.03462725011328575 -0.006153185365843563 -0.02431048906480899 -0.2661278039624120 -0.01045985488305280 -0.1989909424188781 
0.005143476710421743 0.004134214653586558 -0.02891400234428059 -0.0002516985989839416 -0.001463172885370933 -0.0008770952816917580 -0.0005928885072803473 -0.01256830905214250 
0.005175410562856926 0.008633938567244020 -0.03494389190603352 -0.0006667336553690422 -0.002190130007326105 -0.0009456176265281332 -0.001622850653396830 -0.01429444474394522 
0.002942409738315871 0.02501258763743252 -0.05620967757566814 -0.0007079926234690873 -0.002698573115539299 -0.003434534170640236 -0.001674262800357755 -0.006276741227621544 
0.01511533073407265 -0.01688436334307806 -0.002676209246909455 -0.001413699171058695 -0.01305954306748861 -0.001692841731532578 -0.001193954459757146 -0.05070363738594694 
-0.004711913986249578 -0.02627034785864238 -0.009200504662493468 -0.005658588063975282 -0.05401394692321569 -0.009033250812842234 -0.003679015137895306 0.08200447776731580 
-0.009950374399556369 -0.008239442427201453 -0.01188057383870749 -0.03393390419686700 -0.005988107820944669 -0.003168825815075332 -0.003207616376146483 0.1382751013633089 
0.2970501143115900 -0.7413451053009598 0.01466972079434936 -0.05159875273497006 0.09910376582033455 -0.01900593236839458 -0.07810773545480452 -0.2949668311159504 
0.008864884067295410 -0.003267473221348307 -0.004423534729644597 -0.001664847842789207 -0.005386605866142243 -0.001279387725439938 -0.003086507102245145 -0.01657207327441511 
0.002517014608018975 -0.0002489311893534996 -0.0009551043704218490 -0.0004107881202795594 -0.0008943144362582589 -0.0002993624815390582 -0.0004964942934627695 -0.003562919837536730 
0.01665734260313822 -0.001782186950879866 -0.0007411829877791987 -0.0009572810857048156 -0.0007257859116431467 -0.0005569458357085970 -0.0008372892003507849 -0.01557482311826632 
0.05697605849775715 -0.009890836494683482 -0.006265607397845849 -0.001559205689457281 -0.002611931342722197 0.01234026799309177 -0.002499495326050924 -0.05608253648155599 
0.01395897313225213 -0.002216484838810329 -0.0006305167495533214 -0.0004262930884192450 -0.0005117594221141194 -0.0004705241510468599 -0.0004828013455844085 -0.01252360407732471 
0.01704110723177472 -0.004099325874020945 -0.0006135986526366248 -0.0003440782980664615 -0.0004902004601884059 -0.0002784597524451985 -0.0002518841396775620 -0.01125258253922364 
-0.004803785656461087 0.02025727577036439 -0.01839945162428559 -0.03509636354981840 -0.003408117156672226 -0.0006679252732452553 -0.001881246861775844 0.08518638051620547 
0.2846917385058351 0.1592173481738299 -0.03878660729431911 -0.009240126557039730 -0.006618953476838229 -0.06974092902499106 -0.01157331382478953 -0.3082230772724849 
0.004554492105799886 -0.0002314737737811593 -0.0008262572623371544 -0.001212563735167059 -0.001073750292959386 -0.0005435797804391446 -0.0004703045141827513 -0.002901390361700396 
0.02296233800705094 -0.001187302179205148 -0.0002312071316689339 -0.0001741387754380410 -0.0001482334864154462 -0.0004103587885859490 -0.0001317633422160987 -0.02211716081786201 
0.03549452649568058 -0.001239090192304300 -0.0002351531103113889 -5.721555463778177e-05 -0.0001361928149919440 -0.0002504511746912434 -7.742745511586470e-05 -0.02868767126596368 
0.05615480081302286 -0.07629148889003028 0.04778780425871017 -0.007717053375685170 0.02791036992320787 -0.01035129383992650 -0.006876678591115903 -0.1303719279954212 
0.04183322954264322 -0.1542368831871652 0.1562190172095303 -0.006291032010795283 0.1005579069267331 -0.008258040567925782 -0.005101785985609365 -0.1869929917340943 
-0.01249901849553801 -0.2544945462953909 0.2716998394410375 -0.1748037722060347 -0.03773313841299042 -0.04497384004094194 -0.03545362015768962 0.1159134925750759 
-0.08324657943569973 0.04158742822085127 0.4634414033289909 -0.01917415274528036 -0.04028892326749244 -0.2690464314723655 -0.01826245684800571 -0.2709672048531726 
-0.1322740221654948 -0.05009594091392123 -0.1194481515293133 -0.1723904298765619 0.1191866004431270 -0.01895152370573061 -0.03762000045472710 0.04387361985296109 
0.01108891912317992 -0.0007519332697868233 -0.001369027537294113 -0.001023343569874558 -0.001344418470252868 -0.001309548294177110 -0.001604046636650504 -0.01011803112024284 
0.009666520221200936 -0.0009675137510747891 -0.001126511622049319 -0.0008645182870145213 -0.001194304122286655 -0.001084981880581293 -0.001333574410250151 -0.009862050562432952 
0.01050872352814212 -0.0009437630929486901 -0.001256041570715460 -0.0004680624843101086 -0.0007474715076927554 -0.0005510201773792716 -0.0007172500192512768 -0.009863258646960348 
0.009885758205292020 -0.0007892927055141521 -0.001318584736523263 -0.0004154891503119496 -0.0007877276257677721 -0.0005248493310526337 -0.0006853339932502882 -0.008937614505363144 
-0.01242808080200592 0.1391348983010304 -0.1354696532163073 -0.005908430084940376 -0.003348698135973880 -0.004197889036889206 -0.008816281994012945 -0.01513389756775164 
-0.09216958349824333 0.1648619068080142 -0.02427939213930484 -0.01412699211495565 -0.006188658339407503 -0.003676384042674773 -0.03695114813518017 -0.05411312787820724 
-0.001933703928130303 0.1955439444009637 -0.4178286443889979 -0.01610073854447467 -0.01391683641862067 -0.01185992528766557 -0.02689817906040099 -0.03145316495950142 
0.01179021480575220 -0.002614705079553615 -0.001247703665397621 -0.001346884534253085 -0.002023482798261702 -0.002424509043359390 -0.001945893279374626 -0.01706823922804491 
0.01738697060369372 -0.002346854647892808 -0.002181983139678701 -0.001251502307556226 -0.003013432724967835 -0.002571328864075760 -0.002175971113982319 -0.01627072679822554 
0.08382257267743569 -0.005484566762053370 -0.01202417682301760 -0.007969022339050192 -0.003719311311525975 -0.01147635578484731 -0.005239372515884053 -0.02132430051760353 
0.02497391954656950 -0.1291032634589212 -0.1337401345602376 -0.02324753068572322 -0.04092934005317298 0.02647583418305470 -0.03292991634281436 -0.1487803975238464 
0.01333681629462736 -0.008121370821224461 -0.001197090943442358 -0.0006151965793436698 -0.001213937784290139 -0.0004979475113162203 -0.0009507005641058033 -0.01335397300467244 
0.02753293034927500 -0.2753701272573581 0.02713510417742609 -0.006636623324351003 -0.01353759851742092 -0.02816613587933766 0.2853700054961456 -0.1210085586288559 
0.004986514622233642 -0.003108348835615400 -0.004543962351803727 -0.0004322986397109101 -0.001596788355965593 -0.0004994281004771923 -0.0006079562409211860 -0.003921014893579249 
0.004305832506759776 -0.0002821444142622968 -0.004974899747747563 -0.0001662397982119717 -0.0005088499822767955 -0.0001589961974784504 -0.0003839513086672385 -0.006674419035893575 
0.003643800692234945 0.003087650826168956 -0.0004095844464347175 -0.0001495983949176966 -0.0001207713830032381 -0.0002854948505287756 -0.0009904188746428628 -0.008232070791719420 
0.03219905250014724 0.06103585423995517 -0.003172332790562997 -0.001329297598119258 -0.0009781011479796497 -0.009259314737445198 -0.01225433382498057 -0.04587742816825281 
0.006405980446394547 -0.005221934666576843 -0.02794731239396348 -0.007868595375965381 -0.04384894943974613 -0.01115253852175094 -0.008659040428816335 -0.1924394606804526 
-0.006380967125511246 -0.007829865277092092 -0.03066063173689109 -0.07515699734448253 -0.01823154946833671 -0.009899671290703332 -0.01632878065411024 -0.09253424098262186 
0.01501178686425065 0.1351258786042225 -0.09525958732858440 -0.005028879495333162 -0.004454879716828939 0.005811691317054866 -0.005047474340072102 -0.05685037559405624 
0.01726265680059376 -0.001209915425548749 -0.001042392237894101 -0.0007534045947540093 -0.0004924787438318092 -0.0004176855386063038 -0.0004165112665004081 -0.008600410731723997 
-0.2655617278477128 -0.1165788105484819 -0.09502917037730843 0.006146994111238340 -0.1578734770429970 -0.09587689870972200 -0.1066700014090705 0.1985790967787586 
-0.03344555900577317 -0.01732471091471193 -0.01611506432797153 0.2449188244990046 -0.01077177431614908 -0.01190052281347248 -0.01334382315880405 -0.3427886541707124 
0.05029662417561567 0.4343087128142728 -0.3507354100486784 -0.008435989434199294 0.1213637150400843 -0.03917943096572604 -0.007240970651695655 -0.2182339385081803 
-0.01811194558560784 0.06653918770504083 -0.05928050959420276 -0.1752168949416192 -0.07975250585064293 -0.04905227324356018 -0.09175722832710595 0.1175814848966930 
0.02509125093020122 -0.005542508124745582 -0.005158215179677919 -0.002685030281719462 -0.005481012811838553 -0.002687305808557874 -0.003764401031877344 -0.03857067870721347 
0.02017935525736040 -0.003312140413345882 -0.008662979516839536 -0.002081064879075327 -0.005721170326398004 -0.002566590980309252 -0.003424718352165481 -0.03727124131021536 
0.01384526550710533 -0.002946596064929783 -0.007905448370153561 -0.002083255660321224 -0.005546813647129836 -0.002796488589090544 -0.003641281535648779 -0.01843074125659930 
0.01436624264996766 -0.003388107344419004 -0.01275160401053306 -0.002649252882051106 -0.008790063223584676 -0.002872146267846896 -0.004277439122586835 -0.01817776479325223 
0.01849558390798313 0.3934178497831674 -0.3682753908154298 -0.01585331565238464 -0.01597349440821006 -0.03464365266703270 -0.01466617345552619 -0.1035924729093673 
-0.03818938809809509 0.1596960398301174 -0.1022220311991323 -0.03235936219383527 -0.01153266445074476 -0.008939190063083361 -0.02744977874106543 -0.02193611295459798 
0.01374107883426878 -0.07341538512464132 -0.01892078291215554 -0.03279777626497762 -0.01218342572459577 -0.01753517777030894 -0.02601726087192442 -0.05827668577660047 
-0.008316665224884626 0.2681049851403215 -0.3241646099323336 -0.004196398163101757 -0.007233840650987108 -0.01172423362567527 -0.006729016064998667 -0.03533549591111106 
-0.001030814612725243 -0.2287514881667120 0.2209100359395485 -0.001894227751739113 -0.003654768213020203 -0.006328791046814115 -0.001204912900724369 -0.04462763559902169 
-0.1081375103377222 -0.05098793859667886 -0.01885204996973640 -0.1219539163355345 -0.02844760232575512 -0.03221648608678118 -0.03324175829894548 0.07592664988167280 
-0.07527807569251857 -0.04174636020894149 -0.009847376916692931 0.2444552164794226 -0.01724373676083341 -0.01951579681486956 -0.02312602395322198 -0.2588243299187226 
-0.002996843338535690 0.05872407074414020 -0.05883200113901604 -0.0006763168027120124 -0.003713089595407141 -0.01163823879414296 -0.001141623743128612 -0.01132745300568428 
0.07580928258807308 -0.01043548280294978 -0.01772875785488607 -0.006710372020920672 0.05232315406285697 -0.01588646861099664 -0.003879148449712672 0.001725248989481217 
0.1015857691495313 -0.004809493371113858 -0.01250494848886166 -0.004020149528592366 0.2599454391242598 -0.02473471995716137 -0.001234463198336721 -0.2939909247667825 
-0.02512419458911135 -0.02645674124879502 -0.01711919041028782 0.04371397050033606 -0.02015606876919820 -0.02054495746761963 -0.02798181855903465 0.01676716862401963 
0.02207959231676880 -0.02353006441077267 -0.03552819288845926 -0.09498711014834123 -0.02033105397608642 -0.04459629815300215 -0.02470918522023147 0.03219706860642214 
0.06236103509131099 -0.01558048574320580 -0.03041934515257480 0.1965429483472859 -0.02802195712835965 -0.02474902066616365 -0.01727707253575014 -0.2918496984130907 
-0.1797892839916923 -0.04908651977566073 -0.05245868093903043 -0.009841188779085248 0.1660339356140817 -0.06243795427491491 -0.04170244647672166 -0.02225959412964790 
0.02876342417586306 -0.001169202426468624 -0.0005038581288307613 -0.0003614218962740155 -0.0002661214498936375 -0.0005526177385281415 -0.0001800948569084627 -0.02964261655703063 
0.03867940630833117 -0.002762764561933570 -0.003265951993949366 -0.001986408279098185 -0.003775983974256081 -0.001564451739351013 -0.001823543422203758 -0.03914043866728089 
0.02669811764543460 -0.001880155251877265 -0.003823697183492327 -0.001975635131430030 -0.003552832307924644 -0.002497911766667312 -0.001621922922648183 -0.03609751006472832 
0.02305588173034263 -0.0007051035234634576 -0.001138713166750907 -0.0005879845690424344 -0.0006230799508573077 -0.001131339453849908 -0.0003707209339813427 -0.02723045419860564 
-0.03456093769606966 -0.02462293925977553 -0.03064683458778030 0.09748125583778470 -0.03841199267270488 -0.04098155574046668 -0.03481901707040164 -0.1928740531753753 
0.03289487469990796 -0.005774568559212049 -0.01323464985783042 -0.05138950239492234 -0.01636375320432687 -0.01607088206404229 -0.01487399481694106 -0.009640306803815744 
-0.06338123868297030 -0.01949092654839167 -0.02016934656207110 0.1569984892767015 -0.03283781126543806 -0.01894629238091460 -0.03160415603714218 -0.2923794705779123 
-0.06745581239597756 -0.01884837070056347 -0.01741218472994987 0.1488707582327070 -0.02204823946837801 -0.02491067367642437 -0.01994502225346059 -0.1832337463715596 
0.001200956743103904 -0.0002069505929733617 -0.0007429868999777984 -0.0006116454227756516 -0.0006474012652471555 -0.0008657350677312194 -0.0006067582416209798 -0.002742543473705975 
0.001200956743103904 -0.0002069505929733617 -0.0007429868999777984 -0.0006116454227756516 -0.0006474012652471555 -0.0008657350677312194 -0.0006067582416209798 -0.002742543473705975 
0.001210830775570835 -0.0002061089298530697 -0.0007252702966788289 -0.0006130961866894686 -0.0006434818856169222 -0.0008603919938677514 -0.0006098346624490637 -0.002778810689290124 
0.001210830775570835 -0.0002061089298530697 -0.0007252702966788289 -0.0006130961866894686 -0.0006434818856169222 -0.0008603919938677514 -0.0006098346624490637 -0.002778810689290124 
0.01908319919723686 -0.0008397625434938687 -0.001438563106903443 -0.001402035396292596 -0.001377708067136751 -0.001863255713200348 -0.001420347861681647 -0.01307307104343509 
0.01039478494309332 -0.001300713536476820 -0.001486395667164467 -0.001095256611795462 -0.001522736612820624 -0.001390664402673217 -0.001198925733593466 -0.01333262261070439 
0.001189861712469188 -0.0002056167191647424 -0.0007191317506488776 -0.0006113408776899164 -0.0006474659333254501 -0.0008628170931548236 -0.0006136330222447312 -0.002730378372300924 
0.0003743704871245749 -0.0001594312876205204 -0.001197886533231087 -0.004434931625657198 -0.0007044438409636134 -0.002130233245593812 -0.001564947690988084 -0.001637823303033468 
0.0003743704871245749 -0.0001594312876205204 -0.001197886533231087 -0.004434931625657198 -0.0007044438409636134 -0.002130233245593812 -0.001564947690988084 -0.001637823303033468 
0.005771505542872705 -0.0005253735825685447 -0.0008844376617031225 -0.0004288874395135227 -0.0006846490764723075 -0.0004311115673663797 -0.0004979023803469167 -0.005902394294555278 
0.01012126095470396 -0.0005896063399506994 -0.0009014377570348315 -0.0003833039163065060 -0.0004148330208705081 -0.0003579116704979053 -0.0002757966280531094 -0.008124135286898988 
0.001130088028943019 -0.0001842103992523510 -0.0009023634112313581 -0.001723422435005870 -0.001493285642396979 -0.001264527530603266 -0.0008723509446274155 -0.001933351890272304 
0.03475430214021284 -0.01039810282872875 -0.0004573824588704279 -0.0003982910557302980 -0.0003964131734302556 -0.001253051474423610 -0.0006616739222352190 -0.03670941806754891 
0.01532028196063315 -0.004421544171499667 -0.0001880573452502262 -0.0001170370592198280 -0.0001044206508347982 -0.0002513526180358933 -7.869488230422942e-05 -0.007239576341886998 
0.008682995159438160 -0.005804300233763383 -0.0001893684991225317 -0.0001300403756128900 -0.0001381850646006709 -0.0002131353947440811 -7.881722185522778e-05 -0.005569287085716321 
0.01743385283935264 -0.001060045960630278 -0.001189274567175058 -0.0006543414616306643 -0.001110801244430269 -0.001294451666185408 -0.0008622242555728127 -0.01697699503130159 
0.02207208715657654 -0.04515926671954481 -0.004846951043390079 -0.002909398227576641 -0.003062665382871684 0.05263654411266668 -0.002730431875279023 -0.02894731791330861 
0.02046515364285164 -0.0009973182153850068 -0.001209806285519037 -0.0006679071058713057 -0.0009512497667697359 -0.001522258491222697 -0.0007106475088267939 -0.02127237044613280 
0.01621743746677056 -0.001019195229465599 -0.001726549357687404 -0.0006049651907013533 -0.001025221851397819 -0.001926398308468138 -0.0005758627737382400 -0.01393893979328876 
0.002510444615874493 -0.0005778397912641633 -0.0009234481059387745 -0.001066422800196577 -0.0006784917388194503 -0.001210404619375985 -0.001001464227903303 -0.005728953679144482 
0.002282765598452598 -0.0006531727202040074 -0.0006742015662354287 -0.0008645142806332182 -0.0008257614403244815 -0.001212563226232484 -0.0008428341456549267 -0.005822492019027617 
0.002093124951639009 -0.0006552927767412900 -0.001265404355089487 -0.001289603399859732 -0.0009367324200970110 -0.001197344121892869 -0.001005846256234345 -0.004821509393316293 
-0.06108898024558614 -0.01191555103052449 -0.009293166866609987 0.1068816271798793 -0.01512750966132950 -0.01400534698991511 -0.01704460410756013 -0.1087428795837285 
-0.06108898024558614 -0.01191555103052449 -0.009293166866609987 0.1068816271798793 -0.01512750966132950 -0.01400534698991511 -0.01704460410756013 -0.1087428795837285 
0.1254127072756553 -0.0008113922922575257 -0.001975292515716720 -0.001128026522231236 -0.001684029472994083 -0.0009082403321864628 -0.002474749904901491 -0.1883390182443882 
0.1420259282231833 -0.006973194184109680 -0.07135941597583201 -0.001862751388958232 -0.003765612016869234 0.2238264388937286 -0.003356595977867286 -0.1781329049219121 
0.01683233384363650 -0.002079505384410691 -0.01072237477144377 -0.002719307907265539 -0.005356751746875686 -0.002933585737819264 -0.004445318869306816 -0.03082219723575100 
0.002418302375461051 -0.0003027246216826460 -0.001453951741949559 -0.0006191899343121387 -0.001490228060200651 -0.0005699880084604214 -0.0007605426313482758 -0.004192528340455484 
0.006833142965865130 -0.001327361666141579 -0.001851901973943173 -0.001673545407680885 -0.002664447474786798 -0.002260695070991817 -0.003806639192519696 -0.01789071521471550 
0.03280904729505024 -0.09070256253913962 -0.01112798007190399 -0.002338586313374453 -0.003697993776013267 0.06043696766367247 -0.003420873069039747 -0.02931493268525425 
0.04680903992672075 -0.007524958206791051 -0.009713517028692970 -0.001864206363306322 0.1968940841601287 -0.005779115553315617 -0.002098256466911849 -0.1528215886934736 
-0.006769801528620879 -0.4833038903071809 -0.08237303494816174 -0.001944883277039296 -0.007732055285311698 0.5942806223515271 -0.002949833753469799 -0.002478489537526415 
-0.006769801528620879 -0.4833038903071809 -0.08237303494816174 -0.001944883277039296 -0.007732055285311698 0.5942806223515271 -0.002949833753469799 -0.002478489537526415 
-0.06995408705984558 -0.02148914677905968 -0.03438829438179240 0.2152921857652359 0.3293480766352748 -0.02231388148220639 -0.01378773170959427 -0.5037683798238444 
0.004667278306953067 -0.0002396239446596968 -0.0006546716878083023 -0.0001844269144680033 -0.0003377174853640180 -0.0002165509621700908 -0.0002822018939718109 -0.005472989254780683 
0.004667278306953067 -0.0002396239446596968 -0.0006546716878083023 -0.0001844269144680033 -0.0003377174853640180 -0.0002165509621700908 -0.0002822018939718109 -0.005472989254780683 
-0.01445956757032638 -0.1380880961776121 0.2880412267765917 -0.003998136694112009 -0.005220771780642059 -0.04232259127008788 -0.003341662153180252 -0.02899625709172134 
-0.01748689698615715 -0.2590795252895098 0.4302220582679505 -0.002846078651917713 -0.003266507302983264 -0.01669715828858615 -0.002347747969171755 -0.03144617842523462 
-0.03564483550648578 -0.3955157020488987 0.7196246963124542 -0.003033972350162569 -0.006310173396240093 -0.05644409932523939 -0.002750995374474599 -0.05501932753232035 
0.001176513575971116 -0.0003706159161934685 -0.002183759481611833 -0.002310415896267615 -0.004042858915965047 -0.003154442308080663 -0.002952117632482449 -0.004038297509530929 
0.01862677423056542 -0.2261006038778794 0.1726257747691227 -0.005331810743474615 -0.008818579126428671 0.1369792164111467 -0.007531976184023186 -0.04115747979410766 
0.001871070289552789 -0.0003319953499492562 -0.001183779619243760 -0.0008516606788413290 -0.0004530884750030812 -0.002400350305858778 -0.0005291345133739472 -0.006770121019908950 
-0.2554103603628333 -0.1204658492027255 -0.07751813341969999 0.2576746622517759 -0.05522176802322375 -0.06990320862023808 -0.07238625915317068 -0.005434105208892856 
-0.03332343962159249 -0.04015038827312605 -0.04270916161659368 -0.3740362737435617 -0.03068427614145901 -0.03496967952293270 -0.03748342006733616 0.1553512099246062 
-0.05983707438192350 0.09618360734033268 -0.1584103849463525 -0.01152255042234227 -0.01236641567870169 0.1069941871314355 -0.008137517980655960 -0.008398811378560758 
-0.05983707438192350 0.09618360734033268 -0.1584103849463525 -0.01152255042234227 -0.01236641567870169 0.1069941871314355 -0.008137517980655960 -0.008398811378560758 
-0.02808396501857239 -0.008034803701531004 -0.01531045778319205 -0.01181572628177647 0.4747151685367967 -0.02845068406856098 -0.01359539494832923 -0.6120545941360780 
-0.04663805357738091 -0.006406812481948108 -0.009731032389750956 -0.01109746925856259 -0.2023238893858894 -0.04152869000379327 -0.01259153765477459 0.1805401003317765 
0.003393715923305260 -0.0004363966284007505 -0.0007589250068556310 -0.002219930306347450 -0.0005923681506528598 -0.002023674341021423 -0.0006944136265373991 -0.005986643882126522 
0.003298952024440710 -0.0006019893607956952 -0.0008378483017847342 -0.002511906859831626 -0.001608234047995697 -0.001525325121028757 -0.001002180551339807 -0.004824231136647754 
0.001878679531080881 -0.0004928103488580238 -0.001174436017102912 -0.002812506042426829 -0.001535895116022401 -0.002282131316468017 -0.0009307427229235294 -0.004685659249704293 
0.003546885512429409 -0.01014818724897334 -0.003234990803109216 0.1670241875156844 -0.003012252276445356 -0.003649359468141624 -0.005041625490373181 -0.2065576620719092 
0.01211470326226546 -0.01315524813082175 -0.001390973914676871 -0.009845214360862600 -0.0007178752880079348 -0.0003905260023449225 -0.0004847487329881198 0.07965853301396808 
0.01105937372177526 -0.006761693186140691 -0.002165871297156744 -0.01491612235535403 -0.001105613294197878 -0.0004058808990800880 -0.0009001142286535721 0.04972007622416586 
0.06842665196870370 -0.03794928449687218 -0.04651072910389691 0.01208051256917010 -0.04617819867151356 -0.08246610222210415 -0.04435738943751610 -0.1917463416112347 
0.1756031356085785 -0.04246280134968741 -0.09186595601967554 0.06073725119293055 -0.05723851615164383 -0.1028927489846819 -0.05516597370183205 -0.3242864972910207 
0.04319209138450424 -0.02360099503574390 -0.01703256826358178 0.2436513264532661 -0.01040194062111925 -0.01527904673694113 -0.01470357265896287 -0.2595204842954967 
0.003481912845019457 -0.0005210174639416170 -0.001499997305324063 -0.001584497660443284 -0.002080010335111639 -0.0009848759922171466 -0.001514569644750145 -0.005158618145702128 
0.003914594402592788 -0.0007281619998791662 -0.002310117825827735 -0.002712571282981855 -0.003531324494052517 -0.002159776520114646 -0.002946240195125097 -0.006890204613106848 
-0.1061521793091903 -0.02953827027043480 -0.02354154794432704 0.3709674141249102 -0.01455794811957025 -0.02580501335977729 -0.02012878923147624 -0.3154609340177725 
-0.1041530456578304 -0.03308909611476846 -0.02143204317381153 0.4409616429158087 -0.01410060964798886 -0.01945470560452470 -0.02154286332448302 -0.3859719729868295 
0.01081415958870018 -0.001536705987395449 -0.001320069963882065 -0.001599623941319929 -0.001334853520614195 -0.001425462982507447 -0.001822874793798655 -0.01227790538893555 
0.009543803882104459 -0.001196092165349243 -0.001916095325278836 -0.001704774403499889 -0.001208067855540773 -0.001575445121243260 -0.002014536926353875 -0.01205597555309321 
0.01544423294415070 -0.001353335944284177 -0.002362179079897322 -0.0007506353258299223 -0.0007421265518566686 -0.0003067389349494609 -0.001243164994503132 -0.01159064834192241 
0.007678864433779584 -0.001299914653875248 -0.0005867718217397210 -0.0002283828965341927 -0.0001600811068110587 -8.246938307499062e-05 -0.0001759465569189610 -0.009169674803720792 
0.007678864433779584 -0.001299914653875248 -0.0005867718217397210 -0.0002283828965341927 -0.0001600811068110587 -8.246938307499062e-05 -0.0001759465569189610 -0.009169674803720792 
-0.06314276932430002 -0.01929794546915470 -0.02015443341349331 0.1570428663549805 -0.03274692907103333 -0.01890779992438080 -0.03155220707645971 -0.2922060956110818 
0.004508066168470819 -0.0005109677706945268 -0.0009486275595291527 -0.0003964342888274684 -0.0004168236885307608 -0.0002515842657735262 -0.001584010873700280 -0.003252169224558893 
0.006172295902495060 -0.0005822341205138490 -0.0008072729110542066 -0.0003385019066648930 -0.0003887720930366609 -0.0002762688749674606 -0.0008010806469355014 -0.005269175703261887 
0.005555326116922452 -0.0005481258721580658 -0.001209537153150378 -0.0004555561958782153 -0.0005434037615802000 -0.0003472254699080267 -0.001076826694209197 -0.004479994173866197 
5.342607474140499e-05 -0.01037370822377388 -0.01662631801405158 -0.005084743292251190 0.2030292529177924 -0.004873876000033474 -0.007313733067856690 -0.2970316701714142 
0.009895043903320730 -0.01068377810830545 -0.02175024697068564 -0.004289962215959483 0.3120143709780018 -0.004531414164267355 -0.005911821406133972 -0.3506354844929476 
-0.02027564986866950 -0.01138965533974814 -0.02468663365874509 0.3516415548103644 -0.02397819558278332 -0.004476503706735328 -0.01322530193734580 -0.3292852492004481 
0.008828503964045716 -0.0009825377336204596 -0.002050188200885876 -0.001254917188715560 -0.003257288235430017 -0.001228469506843365 -0.001698522491873993 -0.007446535525910885 
0.007618384021827291 -0.001010696493935139 -0.002936987263873263 -0.001185330600717012 -0.003512549171416614 -0.001178955195028030 -0.001445204031963367 -0.006470951681152698 
0.01199466742151496 -0.0008779544176638573 -0.002064953849454037 -0.001786791034591879 -0.001496393678848287 -0.001131843073938957 -0.001397072774257769 -0.01307297299982013 
0.009216743260577890 -0.001249749049821290 -0.001889875013142720 -0.001947667728799543 -0.001330131992464684 -0.001038050386475113 -0.001345953418702046 -0.01285266702615972 
0.02635729701547061 -0.001375142421049168 -0.003690464011028816 -0.001494495481398061 -0.002108417391707523 -0.001560932996788101 -0.001283136954556937 -0.02086779989685625 
-0.04792842480153066 -0.01209581685943455 -0.007256967392455340 0.3060377645392344 -0.004976303381946701 -0.01224306952874490 -0.008518702541460099 -0.2265627529271111 
-0.03587419184161429 -0.01147207387428882 -0.01131348132846711 0.2940692710661508 -0.006316662058042996 -0.01353700230874972 -0.008392313994886099 -0.1222723212969584 
0.03392353698648535 -0.006349995095261522 -0.01073406520607491 -0.01210658048575539 -0.007203537105252662 -0.01099093928737976 -0.01041674046445743 -0.01865981182679365 
0.009384014679129037 -0.0005161053093793192 -0.001342024940551435 -0.0008598279586234539 -0.0009207358017052315 -0.0007251230907639908 -0.0006525603796607205 -0.008081034440650975 
-0.1376243197685412 -0.1337682841364115 -0.02570385117080983 -0.009691404700478022 -0.01078679591452759 -0.007648055866592483 0.6433037799307654 -0.05720785514844386 
-0.03600688637415896 0.1275311188703384 0.01661651080219807 -0.007886666104083220 -0.01095548572359367 -0.08010879443089515 0.3954689139171509 -0.06202189005929182 
-0.1144801278270293 0.2167350286019723 -0.03216274291915416 -0.005328697386553653 -0.01311245109926983 -0.1085735874473142 0.2380549684588788 -0.03934131857531992 
-0.01989313270855998 -0.7150353517843264 0.4690503411979879 -0.01421651622254869 -0.009236533685698304 -0.02558875117720133 -0.01346185846224410 -0.01668303620473681 
-0.01989313270855998 -0.7150353517843264 0.4690503411979879 -0.01421651622254869 -0.009236533685698304 -0.02558875117720133 -0.01346185846224410 -0.01668303620473681 
0.0006328725001497313 0.09712702586718298 -0.1089532275654315 -0.003926844924122457 -0.004310074898754780 -0.007413349875885729 -0.004147814336239097 -0.02804106886491238 
-0.02944854181470855 0.3501738277859061 -0.4636827527233554 -0.004487410880546776 -0.006758408858524939 -0.01130046353805752 -0.004813604523398265 -0.006055676049654857 
-0.04327696571011606 -0.1496043665021575 -0.1632848361333066 -0.01740855152945011 -0.006107177515081277 0.2990446892870057 -0.004885523511767223 -0.03162560618038685 
-0.05764727393950096 -0.1807225621369942 -0.2071547301057281 -0.03552772274041190 -0.01016164017191958 0.2405183780203094 -0.007601266552299091 -0.01887637171427027 
-0.02118632030422780 -0.03449214724393830 -0.06664527881344567 -0.002713576671141619 -0.001509125090181104 0.1756973571837796 -0.001224551196404351 -0.02356856009534669 
-0.1165755184585364 -0.05758299348616834 -0.04807482927710155 0.5966754992836907 -0.03132262085252072 -0.03460811075951192 -0.03889932557534409 -0.5276427559087863 
-0.03826481294920631 -0.01822806668842019 -0.01687125206695473 0.1633410739921207 -0.01216322182274890 -0.01261488178106823 -0.01431538660854110 -0.2222794274620245 
-0.1021552811558029 -0.09162888950265548 -0.1345685587799181 0.2109805455720098 -0.03392981800890857 0.09264012188222018 -0.03358615871906907 -0.3517070690382231 
0.1392661038227401 0.01887927356501771 -0.02350023164490205 -0.004611591494189975 0.05092918068283407 -0.01070968090900023 -0.003748838204228794 -0.3067025023821555 
0.03519589434597227 -0.002714510474272196 -0.003198950544537218 -0.002413814957728146 -0.004941209030427006 -0.003899180130213731 -0.003080979458503184 -0.03433699488223271 
0.02967081653561771 -0.002444530359970073 -0.003650015364112452 -0.002386617887863612 -0.005064665433359798 -0.004030659295535618 -0.003033956956798352 -0.02571646610506731 
0.02674607409133719 -0.001179540208599017 -0.0004884124728355733 -0.0002201100688549851 -0.0003010626595645941 -0.001367998721568705 -0.0002155623532606852 -0.02540368821455424 
0.02730053919556743 -0.1117163941942447 -0.05149244612913050 -0.006388212960009575 -0.2333640435693515 -0.01006331327613085 -0.008540937357448061 0.1586504807439711 
0.007192890106131746 -0.3943724471248487 0.009597577484452925 -0.03200582039662049 -0.02337533389064131 -0.008804965005632237 -0.01740578002432844 0.2142483605704224 
-0.006828286014477594 -0.006517924435001571 0.1874886496091026 -0.0006562400535059760 -0.01165941806565684 -0.008882817642747533 -0.002541688865280516 -0.1429506439569619 
-0.03616817165609437 -0.006356960449704178 0.3308795803583530 -0.004385001716270613 -0.01525800573121515 -0.1372133535772376 -0.01333067812852233 0.03033199651653879 
0.08911311513028633 -0.002804012020730622 -0.004232159088585450 -0.006250064518468263 -0.003298888592920747 -0.003300043069604516 -0.004175797558200126 -0.08270629858786681 
0.06584056620085821 -0.006542511629307602 -0.004001909169752985 -0.002428638333351305 -0.003625543339129216 -0.003270859212166390 -0.003227844288582567 -0.06132409371162670 
0.001566746042502575 -0.0002238582536912123 -0.001179330669601389 -0.001393159800547723 -0.0005249865596562871 -0.0003021814943259759 -0.0006191655444426386 -0.002507743268290930 
0.003108422702341213 -0.0002903970010432258 -0.0007195792338805493 -0.0002588703518466325 -0.0001766749773876989 -0.0001231294331990453 -0.0001811015259388076 -0.002631287909048731 
0.1171994613139898 -0.1664034927901753 -0.08274047469672206 -0.009874317911738434 -0.01983397427718760 0.1346882307172724 -0.01321237110046019 -0.1491471174254756 
0.008426690156146263 -0.0002713474774240814 -0.001380190168048162 -0.0003746447506226679 -0.0004004180711429515 -0.0006696582608521300 -0.0003623328083617186 -0.008675499368572086 
0.01306888666660763 -0.0009725534262594017 -0.002304994407346340 -0.0007215693228055851 -0.001214950889799064 -0.0008606230324294023 -0.0009144087786115274 -0.01442518411375269 
0.003374014670566053 -0.0002176640501272969 -0.002764728017165126 -0.0005474405610139232 -0.001244793853618683 -0.0007706756899068749 -0.0006269078610873735 -0.003430390103394479 
0.07266466808514391 -0.01045890903548080 -0.02744326738021272 -0.008730003561207478 -0.01541178248920815 -0.009971919874105166 -0.01039751447311246 -0.09014080643025649 
0.004116491032842245 -0.0004334208239606582 -0.0006910623127829765 -0.0008228034553554849 -0.001273119708742410 -0.001334513589211610 -0.001209182209851047 -0.005035399237908664 
0.002317412970523434 -0.0006075664413444494 -0.0009890082053971988 -0.001006290682028651 -0.001734128743088427 -0.001087297509161661 -0.001400152081320818 -0.004498504549397630 
0.03869386059491993 -0.008076767512953406 -0.01020273900501434 -0.004142219640116508 -0.007005593279841034 -0.004565899777321508 -0.004976335470645401 -0.04821695437478794 
0.009471223094968584 -0.001044679667740558 -0.006997572280130893 -0.002026301767609243 -0.003663843329917609 -0.002329705263960395 -0.002816939131123013 -0.01115981874523706 
0.003075806184617206 -0.0004290092068681964 -0.001429839030717984 -0.0005352886591450458 -0.0009650363718616044 -0.0006926741528206285 -0.0004967525331516985 -0.004100165790103601 
0.1021555720958351 0.04409301552586684 -0.06660963111891588 -0.01007061879191238 -0.01749425742371864 -0.01556787835159942 -0.01389299023780375 -0.1155510233189354 
0.002743711813448790 -0.0004809549736713639 -0.0009413149192103389 -0.0002762303803646090 -0.0007937728144740877 -0.0003102136375780879 -0.0005121597323333731 -0.004206156056749273 
0.04867542333007831 -0.006204606510486702 -0.03343387161490871 -0.003346250042928849 -0.003402138815913855 0.04079091827586751 -0.002631438501347405 -0.06870152276311933 
0.0008213038683695599 -0.0001348471368972986 -0.001306502570142594 -0.001861192896997621 -0.0009193258244496848 -0.0003363249903130352 -0.0008320263816521244 -0.002161727114077385 
0.02111710238911451 -0.0006240039964570944 -0.0006890485752643025 -0.0005789588946997264 -0.0005086100734140910 -0.001856552193090740 -0.0005488566436606666 -0.01922882459492584 
0.2469889681909312 -0.009232892699038263 -0.004216959359830051 -0.001405112381965092 -0.002104063536096513 -0.002577625638221991 -0.001948525666899691 -0.2590600056239775 
0.07275925820727686 -0.2984430702250461 -0.02321926834564980 -0.02616533672351152 -0.04466503979174386 0.2292103399036302 -0.03129520858954765 0.001958037187645858 
0.02568695678139295 0.1374717416460871 -0.1219281383622689 -0.008079546514536616 -0.01454505968988406 0.1073859222305098 -0.01593224857131076 -0.06722768247611687 
0.04029737782606974 -0.008113272510436930 -0.03888086740334199 -0.007207198679374075 -0.01229146295048565 0.006925673741550661 -0.009557859678379391 -0.06016140383686352 
0.004072224222148119 -0.0009735536475843575 -0.002475361157574476 -0.0004533753088138001 -0.001457828037725812 -0.0007349626153225819 -0.001108491213414136 -0.008081080681347795 
0.07436171357766862 -0.3681307612711131 0.2815769504999303 -0.009226493721263756 -0.02308033876732950 0.008112986923110974 -0.01329171799470872 -0.1183069161784654 
0.006405875898886205 -0.0006754733801905904 -0.001555067745861332 -0.0005120011447239907 -0.0006910617768485993 -0.0004358919100358895 -0.0005515612971196226 -0.005967916788335259 
0.008481598273013690 0.05170829269505535 -0.009815125528771314 -0.002941380840104669 -0.003466803006505881 -0.002796040884763502 -0.007421121800595168 -0.03502813015214024 
0.001832135278997925 -0.0002719205372466805 -0.0008505482348978772 -0.0003076126018295980 -0.0005704402647339997 -0.0003202960094353871 -0.0003897132365118498 -0.002874852658930074 
0.003731734119959380 -0.0002394683725629088 -0.001166151803087307 -0.0002291524880233485 -0.0002755072796792265 -0.0002559778977252322 -0.0002372946128677034 -0.005611010605225143 
0.1162511671881712 -0.01105006934585423 -0.004767585032056701 -0.003662037704601118 -0.004876701279017709 -0.004502418395807261 -0.004180372292357331 -0.1391780504307080 
0.002502210973075581 -0.0004866708156704928 -0.001030050437147980 -0.0005777252719374262 -0.0009405257456967095 -0.0004796646520766464 -0.0006624234980749334 -0.003307563128719346 
0.05946097688795082 -0.0005987237451140335 -0.0002282172277414980 -4.944862594146896e-05 -3.908569041083749e-05 -0.001782228515253326 -3.556059984236276e-05 -0.07247426038733981 
0.008957378531527747 -0.002064655599050998 -0.004145216594393474 -0.0009756776032299730 -0.001613134369212550 -0.0007071028516363413 -0.001249796333697988 -0.009993000346489400 
0.07307903611210922 -0.009183968309172945 -0.01734757114645506 -0.005228426434039799 -0.01120246089839667 -0.007439324709318951 -0.009129470368088454 -0.09333641869459375 
0.004666717861666587 -0.0004180612978746971 -0.001325023293822348 -0.0006546667623057959 -0.001404400316746509 -0.0006642599194329293 -0.0008793576239382231 -0.005614643311462166 
0.004144449486019322 -0.0005675944098883104 -0.001002294246212176 -0.0006081657822434125 -0.001244082089248772 -0.0005433860723172532 -0.0007279578566834371 -0.005322987019528231 
0.004132198082921115 -0.0005415525317273794 -0.001672821657468415 -0.0008013529627876690 -0.001774329494755033 -0.0007214817708545130 -0.0008809824624141835 -0.005213845726612024 
0.006228950212922473 -0.0004558793658844930 -0.001230115619615545 -0.0006145418830890895 -0.0006407291043119496 -0.0009561773872149677 -0.0007453030069143010 -0.006490724135748027 
0.1253680784483114 -0.01516803125520543 -0.02765427672242322 -0.01132674614248148 -0.01769344388877779 -0.01695842453945519 -0.01407286858992858 -0.1324752380806681 
0.006529706423989947 -0.0006038723345970136 -0.002072113106683259 -0.0006550333568825680 -0.001283247562705688 -0.0009536989913723624 -0.0007757685355477470 -0.005546963116382991 
0.03005350723768170 -0.004186122551848883 -0.004238630988249311 -0.001312412471837864 -0.002781516229725305 -0.001840300250905615 -0.001742265763244842 -0.03361469617997795 
0.008801907354549300 -0.0009314629034447745 -0.003833069832438178 -0.001578356679938455 -0.002925710852833650 -0.002487132926171075 -0.002105654873667433 -0.009207564069531620 
0.008787529738132595 -0.0006367650627986891 -0.001244241014760412 -0.0004975507660333146 -0.0007717559965322899 -0.0007363557927927690 -0.0005934627792181415 -0.008400352571232180 
0.002476895046762574 -0.0005179141768027837 -0.0009157885126428947 -0.0004987201051735513 -0.0009779614955115250 -0.0006491275801735461 -0.0007669665115288904 -0.004734492527123891 
0.007470651651183226 -0.0008406325993516907 -0.002798548050241438 -0.0005750539812942151 -0.001417673607558060 -0.0006754280030761498 -0.001050059036527656 -0.009347381327020971 
0.03928963391394508 0.02887157120888491 -0.002702325781095197 -0.001521046761777364 -0.001449427078631066 -0.005333362304423010 -0.003895940565187756 -0.04549019594947948 
0.006428582971892898 -0.0008871378350576639 -0.001774640515022634 -0.0009580038307414700 -0.001637613254787656 -0.001193782796557182 -0.001016218132494386 -0.009515848237217045 
0.08358021252342518 0.09536407187680203 -0.1339484344266037 -0.007923349124558776 -0.01183275643465014 0.1582436424698956 -0.01088595348912650 -0.1223463843471621 
0.001429752385125093 -0.0001642670216657852 -0.001142848061144680 -0.0007219598901212419 -0.0003395150634868943 -0.0002575743571296892 -0.0003981698159106674 -0.001979517798662530 
0.004623396008209504 -0.0007528063473029858 -0.002082129888019558 -0.0006167259609778701 -0.0007369966700020077 -0.0007776068776815160 -0.0008790842510779937 -0.007934776037351677 
0.01426120747133246 -0.4829730485640987 0.1238471531174946 -0.006640841823858486 -0.01100324259519989 -0.008225985855741990 0.3447333772248146 -0.05155906210225494 
0.002798364592893188 -0.0003055694044417883 -0.0008443907562795227 -0.0002893256985349378 -0.0005004266861410832 -0.0002900646379094300 -0.0002383605999983019 -0.003610042566168163 
0.001799485223390263 -0.0001999345649170510 -0.0008236485918870177 -0.0003755492226084239 -0.0008525566976663881 -0.0003742113872847735 -0.0004557111444692619 -0.002485945142267669 
0.02402938109078417 -0.001245968990176307 -0.01549094011566822 -0.003676487969100408 -0.007748003499198635 -0.004084167504646341 -0.005396522802385568 -0.03333888628389577 
0.04496562125396368 -0.004526391025907019 -0.008151575420245681 -0.02649024101528029 -0.003647008441717285 -0.01913763795064177 -0.005987474006849806 -0.006498736024304792 
0.03518968591601595 -0.005277973753750311 -0.008422872413848917 -0.01875733741621587 -0.003612573365720393 -0.01183473189035214 -0.005681064229734825 -0.007553936934178622 
0.05969373198904395 -0.004107621305173872 -0.01120566982532205 -0.02311143454150652 -0.002401271590137740 -0.01411778152908192 -0.002785466042529799 -0.007569797065822641 
-0.01088916210250808 0.1115051484751640 -0.06966401831097743 -0.002736598794129376 -0.002087834262237276 -0.005786237548578263 -0.01298834545007356 -0.006250449700587595 
0.01565399907245026 0.02859690022188600 -0.003801909437346644 -0.001720555851760022 -0.0009267882145626706 -0.0008688890348795252 -0.007249965309124415 -0.005964470387218249 
0.004304697624746530 -0.0003633083983336298 -0.001025192015474876 -0.0004232523845294561 -0.0007510024459737797 -0.0004994724494353359 -0.0005923561340931214 -0.005322185901240578 
0.003173256268745104 -0.0004664553106688583 -0.0008958830588328433 -0.0005134995772824117 -0.0007923193144529258 -0.0006920092528176092 -0.0006377798282166606 -0.004859469731446311 
0.1100701809845525 -0.006655116550377370 -0.003093131162390268 -0.001553936058386206 -0.002588439900955744 -0.002680584646185321 -0.002026294941973744 -0.08964619960098867 
0.08344202417838870 -0.1617408334467584 0.1967110921896129 -0.01018218212402702 -0.01816480058899459 -0.01630720097177529 -0.01326482039998436 -0.1062062882803556 
0.04981832682127439 -0.002520717421573702 -0.005706357463900798 -0.001960915936956858 -0.003220095375247470 -0.003061332667034472 -0.002124137939802964 -0.05388210094951115 
0.08054249437415620 -0.09742037169483217 -0.02814446460044269 -0.008604856270406540 -0.01621360478529495 0.09215312654010675 -0.01234327018178747 -0.09397071096471009 
0.01344860355828713 -0.0006953182879491607 -0.001913276997486803 -0.0006273572741053513 -0.0006307904839346701 -0.0008903617155315091 -0.0006298818170851116 -0.01017638111384388 
0.008273739754322907 -0.0007118280188869274 -0.001755437866066463 -0.0005536234881952696 -0.0008088218638085995 -0.0008813426422728761 -0.0006515162473871429 -0.008331014140962557 
0.007312461574130230 -0.0003705523264128046 -0.001599264149058517 -0.0002954428743288128 -0.0003306658129154255 -0.0003536996514058086 -0.0003116611945470638 -0.008040085849113462 
0.04198516179262329 0.2263255246977232 -0.1041082637683668 -0.002297217057662436 -0.005359108511309906 -0.09756574719539380 -0.009108068277407252 -0.09676034552065034 
0.002326336729814007 -0.0002823399284920157 -0.0007737819831660716 -0.0003100224985664288 -0.0005508158142617348 -0.0003512570518029678 -0.0003938042201395249 -0.004220370515591113 
-0.01226311482476286 0.05956365597905876 -0.008627360210460283 -0.001966008851844380 -0.003157925549973621 -0.006603170107251808 -0.007861707045223517 -0.02951923977989190 
0.04019571125713205 0.0004541473888669154 -0.005861796935067695 -0.002537807642298844 -0.004712553771472038 -0.003253273053976074 -0.004636224131017915 -0.04816824906907569 
0.004359834456142540 -0.0007505666224792253 -0.001452169257881756 -0.0006367695504021692 -0.001374893590457335 -0.0008434344139127293 -0.001079436750651237 -0.006450510663939277 
0.003199678558575163 -0.0005714716577963325 -0.004757570801002027 -0.0002986224146416631 -0.001137007005112805 -0.0003316460277314980 -0.0007527049600574548 -0.003673107980510687 
0.009105889694976058 -0.001786134429345650 -0.003897478685679431 -0.001075564257387128 -0.002111628857379970 -0.0008489092357073653 -0.001391592893176775 -0.01155000767637640 
0.04798856971202933 -0.02599304631225640 -0.02839554440218762 -0.005065103734749931 -0.01154544643920793 0.01893162683794011 -0.009253102308887700 -0.07388996059021592 
0.002325596636890030 -0.0002069184183236317 -0.001516739467374870 -0.0004401312179250522 -0.001021325627809680 -0.0006905168351311773 -0.0005254920068188669 -0.004480928496680229 
0.004576768112954797 -0.0003947687844947555 -0.001576437468662872 -0.0004617250106134132 -0.0003460968669820835 -0.0002643219794453076 -0.0005400335910247501 -0.007241663436571190 
0.004866288575110674 -0.0002369581814977899 -0.001284532575423293 -0.0003048533511481682 -0.0003171348797561472 -0.0003672114812039359 -0.0002836960317969806 -0.004893638363284884 
0.001203927078555115 -0.0002899241808888392 -0.0006315428030894435 -0.001173131495461469 -0.0009842667899254655 -0.001249481203446815 -0.0009330471028995500 -0.003059944479954634 
0.03224702513970355 -0.0009390096294237934 -0.0003152555726976927 -0.0001350667488266713 -0.0002304670460819156 -0.0006940137901947720 -0.0001734386229439114 -0.04854270664644150 
0.03337250554274429 -0.001574942704401665 -0.0004699396879253646 -0.0002948605148337499 -0.0005539446266966470 -0.0006145449873148421 -0.0003871768879121669 -0.03852306926182084 
0.2550963144353995 -0.03717902618507149 -0.01161564168614699 -0.004044288852938858 -0.006358894173978079 -0.004996717553457742 -0.004870586177376829 -0.2876205005001216 
0.006820990561317593 -0.001116411331741613 -0.001271667512250734 -0.0006048811358799199 -0.001039273669200501 -0.0004445499624777737 -0.0006686129332347032 -0.007666689530487596 
0.01713501779782186 -0.005684385067763578 -0.02990867985677675 -0.001975782387608615 -0.003533022347388119 0.04049162980459125 -0.002519058692790318 -0.03318773744542145 
0.003892141425229706 -0.0007315111320666003 -0.0009821172659475017 -0.0004064626418255855 -0.0007188781520722822 -0.0005115510558554376 -0.0004828941871702862 -0.006664734948003497 
0.002188840049928365 -0.0004873552462482538 -0.001355475939951726 -0.0008485506997940505 -0.0004462494004413422 -0.0002907980131431103 -0.0005981144452034212 -0.003727892835665672 
0.005177875329838814 -0.001180872059463944 -0.0006447043485411108 -0.001013988418633812 -0.0006460426835558840 -0.0003471148325933329 -0.0007022194230319262 -0.005227696238882791 
0.2240915847165589 -0.1373596543193016 0.1379404868796464 -0.003633457122047105 -0.03548326799200088 -0.02451820863321435 -0.005598232583481697 0.07794782274741830 
0.07366177458236220 -0.006895504914439830 -0.008851009984242230 -0.003856413091680913 -0.005120337249759167 -0.005027052096183047 -0.004992181849489883 -0.08093587577588561 
0.006848283008068298 -0.0005121811514224628 -0.001433644273460276 -0.0003494323108146941 -0.0005450223861804377 -0.0004237904603897010 -0.0004259723251689637 -0.006630290169234717 
0.007658898089284176 -0.0004611520193025262 -0.002743779190709437 -0.0007241346728054047 -0.001068040402493104 -0.0007139566944934391 -0.001018027382143495 -0.006747806757067661 
0.007466043463593764 -0.0004572017276984982 -0.004163108060010061 -0.0007648598857064590 -0.001128998358056117 -0.0006301536710109263 -0.0008016537827266287 -0.005169937909170121 
0.009481006371117724 -0.0003820126730958868 -0.0005611310657813564 -0.0003957782000366661 -0.0002847787628910880 -0.0006028595379232848 -0.0004623851380984031 -0.01214053831529834 
0.02751170586269119 -0.04285208953930901 -0.05696669758245319 -0.003525678568366681 -0.006306948109805318 0.1178107913488074 -0.005184793348380002 -0.08895525437324855 
0.1853205217029715 -0.01077448901971253 -0.01064530879692303 -0.003906588925993556 -0.01013326224002010 -0.007003131121837322 -0.01025040779386292 -0.1808829125696351 
0.2046863634467384 -0.01566501262541736 -0.01087138848587542 -0.003936692977274611 -0.008804608795391713 -0.007319219532677966 -0.007739527388324592 -0.2122618386136133 
0.1531300054288230 -0.01008465571021431 -0.004686646769982073 -0.001970087471164900 -0.004110126675841246 -0.003821208176389550 -0.003645645681693459 -0.1573683658965561 
0.1283491479080614 -0.001567830150716730 -0.004605170417751412 -0.001500175055373524 -0.003544527865980338 -0.002922709440602547 -0.003322834673203223 -0.1516928297848582 
0.01012842401614395 -0.001111579935511002 -0.001843074778449139 -0.0007990873522144439 -0.0007889690689899553 -0.001201207765324353 -0.0007728874287499641 -0.01275519732225659 
0.003602496368534115 -0.0006952840961775260 -0.001649848702916712 -0.0005960928650510902 -0.0009599408981253777 -0.0006836032522184080 -0.0007710101803177473 -0.006014173069676189 
0.03156822125316660 0.08269879994360783 -0.09666171880178559 -0.004241676587633543 -0.009531471712903167 -0.01189484835694139 -0.005897177605721013 -0.05881412342261083 
0.06927235177037182 0.2600476749457368 -0.01959701359985380 -0.0006687894345114173 -0.001900091183814826 -0.2346328524979286 -0.001015299136072780 -0.05522624824093059 
-0.01758698680667784 0.05606562066611069 -0.008702060473748238 -0.002160803491210724 -0.001957806097430562 -0.002158766144454355 -0.006048824844841883 -0.003506847681342275 
0.05040457900843501 -0.003604391249147334 -0.005757310435556718 -0.003103820902199025 -0.004999130881944878 -0.004811489860210192 -0.003981403645169517 -0.05321390248177898 
0.002343032143831531 -0.0002614925608909016 -0.001625863303487610 -0.0005806223884362553 -0.001001401065765559 -0.0005947339452891652 -0.0006929428894426632 -0.003684518906407921 
0.02424075624738295 -0.002379067332146702 -0.004247698010134613 -0.001246798540110240 -0.002009415202075198 -0.001432390881678242 -0.001296512627966563 -0.02393457623245628 
-0.06720957605160980 -0.3620756480481266 -0.09023680080127473 -0.005130188095018846 -0.007066027324151743 -0.01846078419988622 0.6340691038082484 -0.03511725874976531 
-0.03800521296285793 -0.2374387798314501 0.2332631355787741 -0.005183043715449281 -0.009266203778552041 -0.01400244258753666 -0.01878563402127119 -0.04307567687679586 
0.005867643447573626 -0.0006880645814382933 -0.002057074235300851 -0.0005055011981671412 -0.0009639692999402075 -0.0006876799377980199 -0.0008728120654459417 -0.006492777867618847 
-0.002347242100162890 0.03687665749230377 0.04763097650631197 -0.0005134540408298070 -0.001316982231226851 -0.01784008584441605 -0.005859099550969112 -0.02401498681613056 
-0.005342028953214307 0.01544442846831328 0.03127288564798030 -0.0005407442310908694 -0.003684842847184397 -0.01507221568944723 -0.003053006064925474 -0.02924419081212651 
-0.005023090920421850 -0.1432544480659993 0.2821001422440748 -0.0004704387467050952 -0.002781462450843850 -0.04205253634386162 -0.002507689558764662 -0.03135017549370896 
0.004801800961494380 -0.0003558457173974250 -0.001006190623964568 -0.0002996020015362262 -0.0003567387836504371 -0.0004007600594289847 -0.0004707374897116933 -0.006930903939609628 
0.02647269326371486 -0.003506411713498710 -0.003766738612429860 -0.002151450354269902 -0.002624387786616357 -0.002441221461682904 -0.002798911120999641 -0.02985905167826677 
0.002985395210755929 0.2859812776667095 -0.005485661853553360 -0.0005474489126937038 -0.0007103504246211384 -0.2837938377542896 -0.0009316949537317241 -0.007560907224824817 
0.007911426565614606 -0.0007379951273267656 -0.0007956909519975441 -0.0003615059178949043 -0.0005653396248817435 -0.0004743286098212140 -0.0004475755137024160 -0.007664592855147274 
0.01461893995013209 -0.001166877869085902 -0.005045194570862533 -0.0009414413788802348 -0.001854464365780731 -0.001423637160117109 -0.001017712434785606 -0.01744506970377033 
0.007566567501367741 -0.0005531761245005553 -0.001470969510765663 -0.0004091683192385988 -0.0007831381146662283 -0.0007526522427973436 -0.0004349076959898961 -0.008902013451704592 
0.01207713438100659 -0.001100191825956000 -0.001038357640981300 -0.0004365061083100752 -0.001013926314111743 -0.0006906999048324089 -0.0006431526716209070 -0.01247729504454784 
0.01380874725979864 -0.0007204900004818272 -0.001628918537259307 -0.0008517609468205882 -0.0009422666227486505 -0.001182394643973954 -0.0007868790812282361 -0.01594841260211248 
0.005999468150999359 -0.0007488853899067056 -0.001202652778784777 -0.0004512189068446682 -0.001320599370774873 -0.0002350856695447799 -0.0004236515083397176 -0.006899639092791038 
0.1049758809360899 -0.09560695584392316 -0.02453474324985489 -0.08884228037372996 0.4263667554193196 0.03230188012618886 -0.01418299724672457 -0.2266558674905099 
0.03711282250031543 -0.004621582150554085 -0.01159043457580292 -0.004671684786764192 -0.008371409362364662 -0.006401929980647680 -0.005958724689354790 -0.05305604851922748 
-0.01061454802554888 -0.02957137770864624 0.1328247922165360 -0.003720975676499970 -0.002297843795462216 -0.08535274489145284 -0.002905806205035596 -0.02836697719971808 
-0.02262467464299665 -0.06793290192902142 0.2246542826354205 -0.006926342904328524 -0.006031574949659382 -0.1520150462287449 -0.006985394598546824 -0.03870126820564201 
-0.3744123696476600 -0.001118283838082332 -0.001108027019794985 -0.0002019493949756795 -0.0002552358561402356 -0.0002537515522927284 -0.0006705372137386678 0.3829834684900518 
0.007092974622647958 -0.001163384091001282 -0.001591812073018417 -0.0003808723871990407 -0.0008694480597161935 -0.0004647209586735936 -0.001052611316126819 -0.01208324943288103 
0.003393500031568279 -0.0003665233460395995 -0.0005482096721997148 -0.001121614876625017 -0.001155877644996560 -0.0003951429260302176 -0.0004124114397872488 -0.002199200402130261 
0.01002476907605410 -0.002278836213939007 -0.003957173910015054 -0.001331740562669896 -0.002589504864958632 -0.001187092457074010 -0.001702061973704233 -0.01272384609695142 
-0.02457540763802552 -0.06205959183038647 -0.08668253573314239 -0.001211800824770491 0.2075629300343887 0.2144947643967177 -0.002923120645965538 -0.1449133948354774 
0.01136175729853003 -0.0007722606020627071 -0.002218110846327648 -0.0007482454245405790 -0.001406123246189727 -0.001031643097687634 -0.0009299946406687798 -0.01015357971845779 
0.006867556152885915 -0.0007216120279572287 -0.001005186981087640 -0.0005346547288100987 -0.0006228210818612361 -0.0006808405947062772 -0.0004669441044823680 -0.007378311175961614 
0.007307535690326634 -0.0009702100512373137 -0.001154219647811927 -0.0004779778835335354 -0.0007241561863584837 -0.0006339467738536620 -0.0004637725293081195 -0.007219313222722834 
0.005539797020915262 -0.001024537793062020 -0.001053696329013321 -0.0008080835930547758 -0.001000669393227612 -0.001135829157933467 -0.0007182618524882794 -0.006932762225698773 
0.005040590404894954 -0.0008764712235659328 -0.001545774924102766 -0.0008911942308253213 -0.001045316138442450 -0.001457534225847923 -0.0006831388444631292 -0.005653734525260650 
0.01210773579354488 -0.002234610617670101 -0.001198159295323348 -0.001083629148676481 -0.0009238479924605498 -0.001150829431118961 -0.001053008869293477 -0.01151655818840708 
0.03411286223058991 -0.003888880513444455 -0.004499469633545298 -0.002056231382638071 -0.003112150685670399 -0.005033272144212750 -0.002587308001095924 -0.03571162689812964 
0.006834183757167607 -0.001096009983774445 -0.003941634067174871 -0.001350143857714671 -0.001952783482845435 -0.005448002104026285 -0.001304339529618844 -0.009684878486268290 
-0.04424877126608660 0.1441003854260442 -0.03932741279153729 -0.003170465767644832 -0.008768919216157130 -0.03794521342909255 -0.008564428491848340 -0.1144027203782735 
0.1224434628997590 -0.0003119078407268314 -0.001099747723649665 -0.0007859171979614801 -0.001205586109433162 -0.001270320384934610 -0.001409157552179662 -0.1263560923425337 
0.04146732787402663 -0.006738457757453250 -0.008319842343317231 -0.003237558261759300 -0.006001478615763887 -0.002997178607953291 -0.003954076811034439 -0.04343761580916720 
0.03631770865775435 -0.006773593225478751 -0.006221458841178387 -0.002968464938212637 -0.006422607408643895 -0.002538634848799505 -0.003086163245955358 -0.04687526087209845 
0.002766044825426993 -0.0001895831270068551 -0.001071712509882481 -0.0003802970351493765 -0.0005322294840973055 -0.0005771884583055968 -0.0004994168416203184 -0.003233575946401091 
0.001233723135801263 -0.0001519696213316893 -0.0007543873193663493 -0.0003110635357307056 -0.0007492758641056115 -0.0002865991066501866 -0.0003855862400459148 -0.002167524716299857 
0.001233723135801263 -0.0001519696213316893 -0.0007543873193663493 -0.0003110635357307056 -0.0007492758641056115 -0.0002865991066501866 -0.0003855862400459148 -0.002167524716299857 
0.004755291977298891 -0.0002615970070252708 -0.0006549721486709191 -0.0004293122409632536 -0.0004616875193686425 -0.0003626617622577676 -0.0003256602235102070 -0.004078903192355645 
0.08152828116201942 -0.004368268812581399 -0.08499648921225040 -0.001479367889718526 -0.008829196028433860 0.01659879594856089 -0.001956995098130303 -0.1084432234488648 
0.004047949604246358 -0.004991091277442112 -0.07880487414352433 -0.0006614589665603883 -0.001649853897165704 0.03487523401494901 -0.001114628183284102 -0.006039046569658807 
0.005010270759853702 -0.0007259255669497704 -0.0008652734572397490 -0.0005173068507314246 -0.0007354367707818083 -0.0005756839812691124 -0.001029138897711612 -0.007418369784529569 
0.01340828789382889 0.05787677200635388 -0.01798870411336396 -0.002091696895191486 -0.002430793331128191 -0.02009906984980090 -0.002836586819209027 -0.02869316319238458 
0.009493835406906551 -0.001499661439021175 -0.002023886021374034 -0.001267691312000439 -0.001726603858534882 -0.001285538265050480 -0.002134633395454096 -0.01417973686718655 
0.002810732786889332 -0.0006266764951627198 -0.001312136320924788 -0.001477317507846641 -0.001010561589544248 -0.0007400099242194087 -0.001418636133567455 -0.006621593587150058 
0.1345063662843499 0.1201002196468311 -0.1853283453225054 -0.006199004741744538 -0.003739025585365342 -0.04011878424547974 -0.005166933674808954 -0.05829537804932953 
0.1124774508158065 -0.4164072528176569 0.4150608648266430 -0.009551457515119807 -0.003752289669610219 -0.04510109472623501 -0.007755024789398537 -0.04184552587989104 
-0.03921819508694168 0.1136224202030650 0.3612859649874384 -0.009225075018102642 -0.006903998534711295 -0.3332419090714348 -0.005409048875647984 -0.1333267996933789 
0.01463720381348426 -0.002075512286766738 -0.001396972502838783 -0.0006578368199097385 -0.0006214143709518817 -0.0009600357281636801 -0.0004856100206654342 -0.006170902678177066 
0.01521286632875144 -0.001510300411488692 -0.001523177231281073 -0.0006653092663294870 -0.0006326769379201096 -0.0009103511943762329 -0.0004863763908996416 -0.006748591440608067 
0.0004562657296520377 -0.0002336045421464401 -0.001239439587562002 -0.001303470047018156 -0.0009996350031637150 -0.0003143085172004480 -0.0009059113739137454 -0.001045451742875443 
0.005851240833914521 0.02676191127251109 -0.003149766596640963 -0.008863156453818065 -0.003886216695375465 -0.01382641619921680 -0.009249033549646169 -0.01472468438638766 
0.005297736038896647 -0.0008708799530464767 -0.0008820283550425260 -0.0003722684857744155 -0.0004257212835914953 -0.0004674172955300492 -0.0003776513003790024 -0.007458910930532423 
0.004803570312391732 -0.0008601244960444396 -0.002057678025633471 -0.0007214184420775686 -0.001620219562744696 -0.0008409620797685186 -0.001242249777829412 -0.006397403931351870 
0.003436266102914329 -0.0007358726913249270 -0.007003215247034890 -0.0003338077286615134 -0.001291265170388392 -0.0002973407737871664 -0.0008379058107854676 -0.003749893430895999 
0.05130325905838933 -0.005963758185452564 -0.01303588403454891 -0.002023050852170817 -0.005183961886486523 -0.003285492660709787 -0.003756961428066319 -0.05475570165306797 
0.01305960922173991 -0.0009200572244301982 -0.002661450419536022 -0.001484600957982228 -0.001178243630935262 -0.002279283820537796 -0.001534727257356579 -0.01428803587755600 
0.003297665647477298 -0.0007006044542792217 -0.001275025757476380 -0.0005338659034204542 -0.001267966247103365 -0.0004490110514603987 -0.0007410979782070258 -0.004350557038526702 
0.005598004720765380 -0.0004347513220250382 -0.0006002007513041345 -0.0004006495067018576 -0.0004154960461871397 -0.0004940567327977635 -0.0003871321288716940 -0.007582851452598086 
0.001158087640269015 -0.08078784913911995 -0.01873840257790608 -0.0005589139559881800 -0.001035146303533000 0.07372862574798919 -0.0005990240422047313 -0.005427087281421981 
-0.004724526173737559 -0.04033383552635221 -0.02205477195625924 -0.0005993231490265313 -0.002290491217247160 0.08997881078336575 -0.0005727561783378879 -0.003919848413882986 
-0.01177865884451890 -0.1173936961030062 -0.04051030967881862 -0.0006033508926275369 -0.002935077403668268 0.1640894923677718 -0.0005522648334711683 -0.005848916091571594 
0.02039693291089190 -0.04353962356941117 0.1159919203301934 -0.001034036116693270 -0.002118297678740581 -0.04127571957794116 -0.001474704387723339 -0.02414684702522034 
0.05307298774276609 0.006753251249496191 -0.03452115384800772 -0.002132789673731472 -0.004741900901397390 -0.001866980604165009 -0.002966687051453146 -0.08235217913118448 
0.04051579371659213 0.003357206211092989 -0.002934482156795468 -0.0005994045420975602 -0.001441451064946211 -0.0006532375399956977 -0.001439190917511957 -0.05237822538419613 
0.03342726221510150 0.005917141412782979 -0.008345658095576180 -0.0006629611924548408 -0.002123998459751018 -0.0007188292036299576 -0.001898619669813318 -0.04216367316733405 
0.01933494065584459 -0.002869896686483016 -0.004687429648920454 -0.002284749763635531 -0.004369128001162220 -0.002698073219970360 -0.003072099505527190 -0.02933558831180191 
0.008043901317838859 -0.002242655440690659 -0.001388356335789601 -0.0005815121706688733 -0.001266428574867705 -0.0004258070120888685 -0.0008533768023111581 -0.008655713880435805 
0.008012404476120005 -0.1742767557090774 0.1693175671245859 -0.006057537108895338 -0.001629485317455354 -0.0009469559250936409 -0.001588866936318929 -0.008813712981871736 
0.001545645627888033 -0.3752934542447868 0.3438430954886790 -0.006545969379188059 -0.001726030850230124 -0.0007854718583800004 -0.001446419579967661 -0.009170357478781409 
0.006830811109579390 -0.0005544101859452575 -0.0009661271213598766 -0.0006767159888119187 -0.0007551620721257911 -0.001287581260936655 -0.0009115512359959754 -0.008226343511375326 
0.01369818066943996 -0.0007336409329025341 -0.001411660115676300 -0.0005737147807173969 -0.0008051934286218628 -0.0006393923372891079 -0.0007015655936897962 -0.009527785060120413 
0.008854532252553080 -0.0005131096053270314 -0.001639996073747474 -0.0004557470834956927 -0.0008150239185757115 -0.0008292325916955739 -0.0005524928282599498 -0.009017818600507550 
-0.06125402270129207 -0.01204577000047812 -0.009265010171240814 0.1070259934954028 -0.01510261428036275 -0.01385923159309912 -0.01707406013702850 -0.1081273971806244 
-0.06125402270129207 -0.01204577000047812 -0.009265010171240814 0.1070259934954028 -0.01510261428036275 -0.01385923159309912 -0.01707406013702850 -0.1081273971806244 
0.01137792466149408 -0.001258670882627149 -0.001025363043627862 -0.0004649469539822938 -0.0006508074894331234 -0.0007195083631887761 -0.0008057111308066099 -0.01093238893243791 
0.01973476113935858 -0.001239654373144063 -0.001107857523322738 -0.0005072773982546439 -0.001346352075351745 -0.001124497735761935 -0.001088943950715469 -0.01432505250923936 
-0.1192053111629716 0.06883950849096067 0.4712866592346634 -0.01704621143857120 -0.03052608589886879 -0.3436334719512117 -0.02045176593589770 -0.1255999603068094 
-0.01094179094135068 -0.01128848773306169 0.1369499929086979 -0.0006615343602244583 -0.002452760607658276 -0.09620211930749312 -0.001307093822390128 -0.05960864466232160 
0.003229577901905796 -0.0005630137762092844 -0.0005198913206416076 -0.0004105514153181183 -0.0009247673700245804 -0.001149466390049163 -0.0005385252600823986 -0.006287159978700103 
0.002453920961747100 -0.0008085757143777282 -0.001579430756931790 -0.0007324875436386743 -0.001721345482625597 -0.0006190100688836183 -0.001092025641497255 -0.005835293375939662 
0.008333814203723616 0.1521027484274107 -0.09394619549105562 -0.001958125243435134 -0.003209384921350852 -0.02073737403845318 -0.003423839768148984 -0.07226885107553849 
-0.005293393052165950 0.1343327776154707 -0.08586497884798105 -0.0003889681424773118 -0.002595114405385914 -0.01555434085032360 -0.001126031178511067 -0.06392467021306562 
0.004546623126549847 -0.0004922637905311360 -0.0008983246639532373 -0.0008280440334063889 -0.001178237682232843 -0.001005441869886982 -0.001176846717533316 -0.005727787386951859 
0.005938711295387443 -0.0004133340546330631 -0.001133581006832755 -0.0004013159212706175 -0.0006269038623278902 -0.0006526256777724341 -0.0003927734829544539 -0.004734440115498569 
0.008840791439209511 -0.0006553304520092553 -0.003855291406174458 -0.0005251923669278703 -0.0006877628929715306 -0.0005556935830833246 -0.0004397549577036057 -0.007831233315580290 
0.003732166240900533 -0.0004459705331836988 -0.0008552904722307722 -0.0004180129359618097 -0.0004406315059917681 -0.0001380186505830318 -0.0003138314379885691 -0.003309476728879890 
0.01716369053189767 -0.009376821137877255 -0.007704708628180536 -0.0003799005991705375 -0.001356117646694380 0.02325670074825782 -0.0006964402526724876 -0.04551415985208212 
0.01253426252199989 -0.001077683714144697 -0.002361467480280944 -0.001549806484694931 -0.002578213356145756 -0.002275454548406205 -0.001656741555855068 -0.01266860349113649 
0.005981017650950242 -0.07042268551145096 0.2208796950565324 -0.003244577433537102 -0.005900663887540672 -0.06123131401740797 -0.003225341803864023 -0.03441294037089825 
-0.03579154395734101 -0.04195358083950248 0.07507843020379457 0.2365509360401353 -0.009614328339880553 -0.06382164114872066 -0.01328715048236021 -0.2274951210067431 
-0.02052190665707740 -0.07204331337064837 0.1003188994764546 0.2623213093696821 -0.004258589164955734 -0.04356526010318357 -0.003724396824667929 -0.1253037324826460 
-0.02250660651927910 -0.09587394959990797 0.1639192749037503 0.1549966323135296 -0.005246557978688553 -0.03704800487031470 -0.004113411112025996 -0.07389409917200927 
-0.01554654216727045 -0.05827514056407809 0.1315025284364177 -0.001505497543031050 -0.001679236157896428 -0.03879808903699468 -0.001756676052789217 -0.01907666423429821 
-0.007568962932416140 -0.04614766612312277 0.09413226988821996 -0.0007789015517561800 -0.001447614467119741 -0.02414144842820438 -0.0009800416387927282 -0.01559475919510002 
-0.007134334014884494 -0.03942504541901622 0.08296117817390090 -0.0009004757014357000 -0.001404458475852899 -0.02626847631344213 -0.0009588739301204913 -0.01245741834895005 
-0.01179424900428400 -0.01728951416453855 0.05808043037604508 -0.001016629756845460 -0.001732949325955868 -0.03627536155072974 -0.001069858431007355 -0.01995722743332833 
-0.01031278129642407 0.2738301131608706 -0.03735481815097623 -0.008921458497044763 -0.004532908192460615 -0.008680836498092760 -0.006513133417153842 -0.04225917444254058 
-0.03149492371968983 0.09998769744019656 -0.01735755415153547 -0.01157836563369255 -0.2147122902577277 -0.01958807359879843 -0.01665128340271989 0.1289327581162226 
-0.02054945007799346 0.1337379208563779 -0.03492665826509905 0.1578743827805264 -0.004169650962815646 -0.008375975136580322 -0.006547803047280363 -0.1898058744973890 
-0.01102448799883929 -0.02501854007164761 -0.008675566718613541 0.3866163390686390 -0.003447435590461766 -0.009420941063966288 -0.003215644095645586 -0.2469031890084837 
-0.05295535089594596 -0.03797399549330696 -0.01461593812001200 0.1559799160726958 -0.2140622764226378 -0.01871329789368236 -0.01634613388205773 -0.007870542043019832 
0.02479634822761587 0.05898308308761041 -0.02374356903099361 -0.0005423710100555274 -0.0009257234258344001 -0.002744211078857889 -0.001245566414216844 -0.01403077379078271 
